tree
version=v4
num_class=1
num_tree_per_iteration=1
label_index=0
max_feature_idx=26
objective=binary sigmoid:1
feature_names=Column_0 Column_1 Column_2 Column_3 Column_4 Column_5 Column_6 Column_7 Column_8 Column_9 Column_10 Column_11 Column_12 Column_13 Column_14 Column_15 Column_16 Column_17 Column_18 Column_19 Column_20 Column_21 Column_22 Column_23 Column_24 Column_25 Column_26
feature_infos=[2127.219970703125:3037.5400390625] [2132.199951171875:3040.14990234375] [2111.889892578125:3032.760009765625] [2127.22998046875:3037.530029296875] [1.4061000347137451:23779.484375] [3535.53271484375:53059152] [32:54690] [0.0099999997764825821:87.930000305175781] [-0.033314067870378494:0.022304616868495941] [-0.036775074899196625:0.023961076512932777] [-0.057351190596818924:0.033225558698177338] [-0.060390103608369827:0.051851116120815277] [0.00064699380891397595:0.054237484931945801] [0.040131285786628723:8.0490102767944336] [0.25750303268432617:19.644302368164062] [2130.05810546875:3032.6298828125] [2133.756103515625:3026.923095703125] [2132.228515625:3027.810546875] [5.8664970397949219:94.886428833007812] [-29.683948516845703:24.80352783203125] [-26.136373519897461:23.395267486572266] [-10.285764694213867:7.7895913124084473] [-1:1] [-1:1] [-1:1] [-1:1] [0:6]
tree_sizes=3478 3502 3488 3487 3456 3495 3468 3465 3459 3463 3452 3432 3437 3432 3438 3485 3500 3478 3449 3414 3396 3429 3440 3445 3404 3464 3432 3402 3428 3412 3413 3438 3404 3436 3434 3447 3414 3404 3415 3430 3465 3433 3465 3427 3410 3438 3430 3452 3434 3389 3425 3393 3408 3448 3393 3397 3453 3417 3428 3449 3431 3423 3457 3398 3409 3407 3387 3425 3429 3417 3390 3435 3393 3433 3433 3438 3432 3447 3424 3398 3385 3409 3454 3448 3414 3450 3386 3461 3392 3421 3402 3423 3439 3422 3453 3411 3461 3439 3405 3434 3434 3414 3406 3428 3415 3454 3402 3423 3391 3461 3411 3397 3418 3428 3430 3417 3435 3422 3392 3411 3415 3461 3446 3440 3436 3424 3392 3426 3422 3435 3440 3436 3408 3410 3432 3434 3447 3432 3453 3421 3422 3379 3438 3456 3419 3393 3438 3383 3419 3393 3434 3443 3446 3458 3418 3379 3434 3395 3429 3449 3405 3448 3424 3411 3437 3427 3449 3424 3440 3488 3414 3437 3414 3437 3442 3407 3417 3453 3455 3415 3403 3433 3423 3425 3433 3403 3425 3453 3433 3451 3461 3445 3446 3405 3396 3413 3426 3434 3433 3429

Tree=0
num_leaves=31
num_cat=0
split_feature=8 18 18 23 22 7 21 22 14 1 17 6 9 9 2 9 7 19 5 23 7 4 8 10 10 9 0 15 22 23
split_gain=47.8916 33.0427 23.0633 20.233 15.7829 15.2238 11.3296 11.2304 10.9776 13.5 10.8292 10.1434 10.0475 10.0233 8.98528 8.96034 10.2814 8.66274 8.31184 10.5547 8.18006 9.58225 8.11488 8.09152 9.43644 10.3982 9.81102 7.955 7.86022 9.13845
threshold=-0.00096937554189935316 64.824592590332045 33.170051574707038 0.02835773024708033 0.18437977880239489 0.81499999761581432 -0.47240643203258509 0.62080430984497081 0.72880539298057567 2426.234985351563 2244.1386718750005 135.50000000000003 -0.00064556230790913094 0.0028184028342366223 2433.634887695313 0.0011108008911833169 11.894999980926515 5.7133288383483896 295657.35937500006 -0.88396760821342457 0.085000000894069686 27.516099929809574 6.6291031544096781e-05 0.0008474890491925181 0.0019233534694649281 0.0011781303328461947 2990.265014648438 2489.077026367188 -0.31937207281589503 0.29862368106842047
decision_type=2 2 2 2 2 2 2 2 2 2 2 2 2 2 2 2 2 2 2 2 2 2 2 2 2 2 2 2 2 2
left_child=7 2 5 6 8 14 -3 -1 9 -4 -7 27 -11 20 -2 17 23 -13 19 -12 -6 22 -22 -17 26 -26 -25 -10 -5 -30
right_child=1 3 4 28 13 10 -8 -9 11 12 18 15 -14 -15 -16 16 -18 -19 -20 -21 21 -23 -24 24 25 -27 -28 -29 29 -31
leaf_value=-0.0059829892568761534 0.12464188553650277 -0.20180875321112446 0.030337503249466907 -0.015980743277915911 -0.059625212409107502 -0.097206002121699067 -0.054153839043527635 0.023949976653223001 -0.034167258087674499 0.039641074596170001 0.072513693354520917 -0.018119211347488826 -0.060323783501471211 -0.070620465294450888 0.025027660090616854 -0.039566468544609351 0.099183931215069771 0.035842116296266234 -0.0024301105845935048 -0.053094523666128532 -0.023054658979112484 -0.028829934967792559 0.023113139135549743 0.0012047099222907143 -0.11116681578183975 -0.027166320649280432 -0.14084820952986993 0.093468880244952146 -0.0095098683675444318 -0.04843583534306814
leaf_weight=744.15032137930393 10.998526751995085 5.249296858906745 21.497120469808578 267.96410632133484 82.48895063996315 13.748158439993857 517.68065689504147 150.72980980575085 7.4989955127239254 10.748560234904287 7.4989955127239218 3630.7636607438326 155.7291401475668 57.24233241379261 51.243136003613472 429.69244287908077 6.2491629272699347 29.995982050895691 459.18849189579487 61.991696238517761 89.987946152687073 3663.5092744827271 65.99116051197052 176.97629410028458 15.497924059629439 299.95982050895691 4.9993303418159476 13.998124957084654 79.489352434873581 249.96651709079742
leaf_count=2977 44 21 86 1072 330 55 2071 603 30 43 30 14525 623 229 205 1719 25 120 1837 248 360 14656 264 708 62 1200 20 56 318 1000
internal_value=-0.0231471 -0.0250418 -0.0231006 -0.0412722 -0.024404 -0.00421148 -0.055636 -0.000941208 -0.0205511 -0.0442395 -0.00958639 -0.0195864 -0.0538696 -0.0290787 0.0426302 -0.019907 -0.0286532 -0.0176771 -0.00730787 -0.0395397 -0.0284693 -0.0277964 -0.00352213 -0.0295149 -0.0208321 -0.0312931 -0.00269784 0.0489446 -0.0286993 -0.039044
internal_weight=11382.7 10487.8 9367.5 1120.35 8762.83 604.669 522.93 894.88 4803.61 187.975 542.427 4615.63 166.478 3959.22 62.2417 4594.13 933.375 3660.76 528.679 69.4907 3901.98 3819.49 155.979 927.126 497.433 315.458 181.976 21.4971 597.42 329.456
internal_count=45537 41957 37475 4482 35056 2419 2092 3580 19217 752 2170 18465 666 15839 249 18379 3734 14645 2115 278 15610 15280 624 3709 1990 1262 728 86 2390 1318
is_linear=0
shrinkage=1


Tree=1
num_leaves=31
num_cat=0
split_feature=8 18 18 23 7 22 7 10 12 17 14 16 1 11 19 7 8 7 13 5 10 8 23 5 23 23 13 4 22 18
split_gain=38.7888 26.7848 19.0368 14.0958 13.6546 12.5993 10.0083 9.46364 11.8738 10.0206 9.18085 11.2659 8.52586 8.51679 12.8532 8.74524 9.29842 20.8178 10.7129 16.9129 11.2537 12.2556 10.5709 10.1307 11.5783 10.0471 11.7652 9.3913 9.81252 9.3762
threshold=-0.00096937554189935316 65.599029541015639 33.797391891479499 0.041439602151513107 0.81499999761581432 0.18437977880239489 2.9150000810623173 -0.0012664025998674331 0.0021273515885695819 2244.1386718750005 0.75279775261878978 2425.7009277343755 2261.595092773438 0.0033769943984225397 0.53091156482696544 6.4349999427795419 7.6423588325269534e-05 1.3049999475479128 0.67089086771011364 472754.39062500006 -0.0020701733883470293 -0.00026629700732883061 -0.92304024100303639 1396670.6250000002 -0.13701201975345609 0.91442844271659862 0.46631759405136114 550.82543945312511 0.47907376289367681 53.639839172363288
decision_type=2 2 2 2 2 2 2 2 2 2 2 2 2 2 2 2 2 2 2 2 2 2 2 2 2 2 2 2 2 2
left_child=6 2 4 12 -2 10 -1 8 -6 -10 11 -4 -3 14 15 16 18 22 19 20 21 -7 -18 29 -25 -22 -27 -21 -29 -19
right_child=1 3 5 -5 7 13 -8 -9 9 -11 -12 -13 -14 -15 -16 -17 17 23 -20 27 25 -23 -24 24 -26 26 -28 28 -30 -31
leaf_value=0.056715893648061046 0.055485192312010469 0.064921089080795885 0.055687904478719512 -0.0062237716342782691 -0.02604026495730807 0.056553077850697811 0.01693867609956682 0.06746509628816369 -0.069279450871052306 0.016653999490066875 0.0030373063394476948 -0.025541046283583609 -0.032098405821656399 -0.020958731960904801 0.0057501745520507283 -0.066858824923221122 -0.033209218996069323 -0.024168610062062952 -0.055635485734268457 0.012834802186412248 -0.018159774962964392 -0.017902393962069774 0.019188385033746147 -0.014248971038886263 0.059202848963293454 -0.078164516608621754 0.060189539580283724 -0.10402898538306747 -0.0068990085211656157 0.0045044848733952628
leaf_weight=68.496866285800934 77.695149391889572 9.2432217895984632 18.742408081889153 528.85507570207119 86.228541910648346 40.991480946540833 826.47486072778702 28.24366395175457 13.968087032437323 475.71381132304668 4627.8001617640257 191.85225754976273 451.39565315842628 326.66711853444576 971.26652933657169 24.738757565617561 41.991495966911316 435.90562598407269 55.234108492732048 343.92304024100304 872.28033934533596 47.989420890808105 463.40626662969589 45.987456247210503 40.237649604678154 50.487615346908569 6.9982860237359992 13.996231794357298 40.490636199712753 154.45542076230049
leaf_count=274 311 37 75 2116 345 164 3306 113 56 1903 18514 768 1807 1307 3886 99 168 1744 221 1376 3490 192 1854 184 161 202 28 56 162 618
internal_value=-1.76335e-07 -0.0017056 -7.43142e-05 -0.0173629 0.0160238 -0.00131946 0.019983 0.010949 0.00817735 0.0142028 0.00210807 -0.0183119 -0.0301516 -0.00548931 -0.00410498 -0.00767779 -0.00712623 -0.000520369 -0.0124292 -0.0107452 -0.0175769 0.0163976 0.0148349 -0.0119905 0.0200279 -0.0208284 -0.0613214 0.00672379 -0.0318491 -0.0166669
internal_weight=11381.8 10486.8 9497.29 989.494 681.849 8815.44 894.972 604.154 575.91 489.682 4838.39 210.595 460.639 3977.05 3650.38 2679.11 2654.38 1181.98 1472.39 1417.16 1018.75 88.9809 505.398 676.586 86.2251 929.766 57.4859 398.41 54.4869 590.361
internal_count=45537 41957 37997 3960 2728 35269 3580 2417 2304 1959 19357 843 1844 15912 14605 10719 10620 4729 5891 5670 4076 356 2022 2707 345 3720 230 1594 218 2362
is_linear=0
shrinkage=0.1


Tree=2
num_leaves=31
num_cat=0
split_feature=8 18 18 23 22 7 21 22 9 19 12 8 6 21 8 13 8 12 7 8 11 7 10 5 10 14 1 13 6 9
split_gain=31.4243 22.0551 15.5452 13.8177 10.4135 10.1175 9.48357 8.95219 7.90832 7.84161 10.589 9.39206 11.6988 10.4807 8.88984 7.75441 7.69503 8.50235 7.5383 7.50817 10.3561 10.2291 7.87364 8.52795 7.4959 7.47964 9.68327 8.74248 9.38579 7.98215
threshold=-0.00096937554189935316 64.824592590332045 33.170051574707038 0.041439602151513107 0.18437977880239489 0.81499999761581432 -0.47240643203258509 0.62080430984497081 0.0028184028342366223 0.92926859855651867 0.0014999528066255154 0.00030691165011376148 2394.5000000000005 -0.13649699091911313 0.00042926818423438823 0.20504396408796313 0.00037284506834112113 0.0021100264275446538 2.9150000810623173 0.0013034077710472049 0.0073832592461258182 3.7849999666213994 0.0062319552525877961 1598485.6250000002 0.0024578389711678032 0.72880539298057567 2426.234985351563 0.13091845065355304 202.50000000000003 -0.00064556230790913094
decision_type=2 2 2 2 2 2 2 2 2 2 2 2 2 2 2 2 2 2 2 2 2 2 2 2 2 2 2 2 2 2
left_child=7 2 5 6 19 -2 -3 15 -6 -5 -11 -12 13 -13 -14 -1 -15 -18 -17 20 25 -21 -22 -24 -16 26 -4 -27 -29 -28
right_child=1 3 4 9 8 -7 -8 -9 -10 10 11 12 14 16 24 18 17 -19 -20 21 22 -23 23 -25 -26 27 29 28 -30 -31
leaf_value=-0.061620468241828465 0.053802845697946161 -0.16108108831083495 0.045919646213620879 0.030898243623526028 -0.0042770143811636093 0.011184071461451868 -0.025201065251437484 0.04021639331627419 -0.041750727119469234 -0.14306928032952537 0.0073135062859184799 -0.17840425787981926 0.084925412686109036 -0.092598127411477285 -0.096726609673631378 0.05430338244503459 0.036072560298884067 -0.040057218814129762 0.012257601236191278 -0.082124806319861229 0.023731970323115217 -0.0087297981006109453 0.19738640844334793 0.030177154682113867 -0.0025399105333481706 0.036630649497971832 0.05791928771690813 0.048213360749568793 0.0020240650316133198 -0.031195427372396202
leaf_weight=13.496989101171492 62.078290715813637 5.1872579455375663 21.476390436291695 57.224527418613434 3900.8098738789558 542.3073957413435 524.12372942268848 150.66437785327435 57.140805959701538 5.7464510500431052 252.90965755283833 5.4979459494352332 10.996790722012518 20.241304084658623 8.9968518912792188 45.470734685659409 18.492432445287704 70.971206799149513 685.22945542633533 20.74628221988678 100.48291131854057 224.19734424352646 5.7482064962387067 6.4984235763549805 138.95534206926823 76.490229532122612 10.746001020073889 44.466329619288445 4137.0825654566288 155.4715321958065
leaf_count=54 249 21 86 229 15610 2170 2100 603 229 23 1012 22 44 81 36 182 74 284 2741 83 402 897 23 26 556 306 43 178 16550 623
internal_value=-3.96847e-07 -0.00153556 4.99876e-05 -0.0148021 -0.00102005 0.0155616 -0.0265327 0.0179871 -0.00481802 -0.00427877 -0.00805684 -0.00658483 -0.0194063 -0.0436708 -0.00181984 0.0134867 -0.0369185 -0.0243209 0.0148741 0.00210943 0.0030259 -0.0149462 0.0329583 0.10866 -0.00826733 0.00226691 -0.0172697 0.00312808 0.00251524 -0.0254341
internal_weight=11379.9 10485.1 9365.74 1119.34 8761.36 604.386 529.311 894.862 3957.95 590.033 532.808 527.062 274.152 115.203 158.949 744.197 109.705 89.4636 730.7 4803.41 4558.46 244.944 112.73 12.2466 147.952 4445.73 187.694 4258.04 4181.55 166.218
internal_count=45537 41957 37475 4482 35056 2419 2121 3580 15839 2361 2132 2109 1097 461 636 2977 439 358 2923 19217 18237 980 451 49 592 17786 752 17034 16728 666
is_linear=0
shrinkage=0.1


Tree=3
num_leaves=31
num_cat=0
split_feature=8 18 9 23 8 4 22 5 23 18 23 16 22 4 9 21 12 21 1 8 5 4 11 7 5 4 21 7 12 21
split_gain=25.4666 17.8891 12.6254 11.2218 8.99671 10.8056 9.10452 13.1915 9.12706 8.88958 8.61807 9.37699 8.12567 9.38577 7.95169 8.21194 8.10044 7.9407 7.92695 10.6291 9.81475 9.88901 9.404 16.7374 10.3879 8.90483 7.99976 9.18788 16.3536 14.2604
threshold=-0.00096937554189935316 64.824592590332045 -0.0010709987254813311 0.02835773024708033 -0.00047663485747762019 39.816850662231452 0.18437977880239489 5241245.0000000009 0.95172616839408886 28.040388107299808 -0.99674141407012928 2520.5312500000005 0.22282424569129947 71.174201965332045 -0.00096857710741460312 -0.009702319744974373 0.0020935134962201123 -0.47240643203258509 2452.5600585937505 -6.6993885411648066e-05 482444.34375000006 550.82543945312511 -0.0023062364198267456 1.325000047683716 1176846.5000000002 401.37673950195318 0.46865585446357733 0.34499999880790716 0.0020935134962201123 0.040612256154417999
decision_type=2 2 2 2 2 2 2 2 2 2 2 2 2 2 2 2 2 2 2 2 2 2 2 2 2 2 2 2 2 2
left_child=-1 2 10 17 5 -4 9 8 18 -6 11 -2 13 -10 15 16 -7 -3 26 20 -20 -22 23 -21 25 -24 27 28 29 -8
right_child=1 3 4 -5 6 14 7 -9 12 -11 -12 -13 -14 -15 -16 -17 -18 -19 19 22 21 -23 24 -25 -26 -27 -28 -29 -30 -31
leaf_value=0.016195811537018535 0.11321965680473274 -0.14866051385239384 0.10552195202686127 -0.0039756590253328073 0.08479816960123622 -0.12117351355951188 -0.069808878356392476 -0.11753330221015634 0.086950100537494135 0.00025536861443669441 0.0066928162287658273 0.0099151468216287439 -0.049918291818978992 -0.023363440269174016 0.009087070744077122 -0.10895339094934758 0.015861856729480966 -0.022833530123738052 -0.025999701426266137 0.048559184566246201 0.0074728285732089811 -0.051740559066530412 -0.0087795527914213117 -0.0056299177971482501 0.021556446088015917 -0.071337777898883195 -0.028626229204763522 0.01029833957539299 0.057300544899606412 0.012249673828048882
leaf_weight=894.49120162427425 15.996815994381903 5.0646683871746054 11.2434034794569 597.01350131630898 12.480799019336699 5.2472778260707882 56.933341100811958 10.719218596816061 10.242565616965292 3573.3121819645166 1715.3316476941109 19.494642466306686 86.894424065947533 31.22783288359642 770.75261422991753 11.245932400226591 24.243528559803963 516.27253179252148 509.42548669874668 90.19219034910202 195.69094179570675 32.953605279326439 1091.9987338930368 154.87426543235779 114.4153024405241 23.238155335187912 73.690502524375916 667.37113884091377 21.732917651534081 33.721698954701424
leaf_count=3580 64 21 45 2390 50 21 228 43 41 14298 6864 78 348 125 3084 45 97 2071 2039 361 783 132 4370 620 458 93 295 2671 87 135
internal_value=-5.27609e-07 -0.00138252 4.50362e-05 -0.0133364 -0.0017157 0.0081603 -0.00291216 -0.00678487 -0.00641326 0.00054963 0.007702 0.0564769 -0.0325371 0.00388235 0.00681132 -0.0362465 -0.00852075 -0.0240559 -0.00531962 -0.00847731 -0.0182741 -0.00106136 -0.00357417 0.0143134 -0.00713912 -0.0100831 0.0028675 0.00584379 -0.0206078 -0.0392849
internal_weight=11377.5 10483 9364.67 1118.35 7613.85 822.733 6791.12 3205.32 3194.6 3585.79 1750.82 35.4915 128.365 41.4704 811.489 40.7367 29.4908 521.337 3066.24 2212.79 738.07 228.645 1474.72 245.066 1229.65 1115.24 853.45 779.759 112.388 90.655
internal_count=45537 41957 37475 4482 30469 3292 27177 12829 12786 14348 7006 142 514 166 3247 163 118 2092 12272 8856 2954 915 5902 981 4921 4463 3416 3121 450 363
is_linear=0
shrinkage=0.1


Tree=4
num_leaves=31
num_cat=0
split_feature=8 9 18 18 23 22 8 14 13 21 22 8 7 23 21 10 19 6 22 11 4 22 24 20 23 20 7 22 19 8
split_gain=20.637 14.8991 12.5418 14.6791 12.3603 11.5255 9.17404 10.6841 12.0782 9.9106 8.57889 8.26602 9.65526 7.87908 9.62987 8.39746 9.98789 7.73124 7.60834 8.64753 7.50682 7.28087 7.13516 7.07945 8.36368 12.3785 9.88836 9.2224 8.00048 7.49093
threshold=-0.00096937554189935316 -0.00093219600967131544 70.431690216064467 76.654964447021499 -0.99851059913635243 -0.60702770948410023 -0.00051946839084848751 1.5629122257232668 0.46916209161281591 0.18606133759021762 -0.99959546327590931 3.1905432479106828e-05 6.2149999141693124 -0.99674141407012928 -0.18839719891548154 -0.0028081797063350673 -5.8303546905517569 7245.0000000000009 0.01527100056409836 -0.00050666453898884345 54.799749374389656 0.62080430984497081 -0.7865660786628722 -3.1651612520217891 0.1326885595917702 -0.3614030629396438 1.0850000381469729 -0.98285266757011402 -0.72392687201499928 0.00040513648127671337
decision_type=2 2 2 2 2 2 2 2 2 2 2 2 2 2 2 2 2 2 2 2 2 2 2 2 2 2 2 2 2 2
left_child=21 13 6 4 -4 11 7 8 9 -3 -9 -5 -13 14 18 16 22 -12 19 -2 -11 -1 -15 29 25 -25 -27 -26 -28 -18
right_child=1 2 3 5 -6 -7 -8 10 -10 20 17 12 -14 15 -16 -17 23 -19 -20 -21 -22 -23 -24 24 27 26 28 -29 -30 -31
leaf_value=0.010524849826828133 0.031729916769736459 0.010927469113335262 -0.1717221024467622 -0.05629982000437516 -0.029265306729130525 -0.017374078948751502 -0.0032508346674250143 -0.11010348769640055 0.18062086160588436 0.17955257317519208 0.0046258574203150238 0.096806205661421507 0.0050680038599354152 -0.074449989172959891 0.12344890868371805 0.0012777918901329588 0.072258087633019205 -0.11764029469276963 0.08990290756805755 -0.098812553722045227 0.051775151990196722 0.034652559124429119 6.7665408970530606e-06 -0.010602787161249981 0.16134356125530347 -0.098730075150791297 0.079557242103200948 0.027073728334486152 0.012636117853968586 -0.00025478642421825624
leaf_weight=743.81447422504425 14.723595067858694 113.45710828900337 6.2229448556900016 7.2383404821157447 286.4972892254591 74.325740188360214 7329.1015925854445 6.7487059980630866 5.2459771186113349 5.2453925013542166 508.33786752820015 27.454917013645172 19.708111420273781 18.712194234132767 12.237092584371565 1411.298311650753 46.733127355575562 5.2248949855566016 10.485120773315428 7.7430664300918606 37.239700213074684 150.3502604663372 41.227067559957504 183.18219090998173 5.2494737952947608 4.9952211380004874 36.495389521121979 200.41823744773865 34.99390821158886 20.493884608149529
leaf_count=2977 59 454 25 29 1149 298 29340 27 21 21 2034 110 79 75 49 5648 187 21 42 31 149 603 165 733 21 20 146 802 140 82
internal_value=-8.40477e-07 -0.00124493 -0.0031035 -0.0199176 -0.0322938 0.00822537 -0.00221889 0.00887899 0.0313748 0.0263541 0.00190998 0.0432006 0.0584714 0.00640354 0.0476968 0.00547231 0.0154634 0.00338194 0.0195652 -0.0132611 0.0675511 0.0145818 -0.0232376 0.0198191 0.0154368 0.00350541 0.0372949 0.0305008 0.0467994 0.0501528
internal_weight=11375.2 10481 8432.05 421.447 292.72 128.727 8010.6 681.5 161.188 155.942 520.311 54.4014 47.163 2048.99 45.1889 2003.8 592.501 513.563 32.9518 22.4667 42.4851 894.165 59.9393 532.561 465.334 259.667 76.4845 205.668 71.4893 67.227
internal_count=45537 41957 33757 1690 1174 516 32067 2727 645 624 2082 218 189 8200 181 8019 2371 2055 132 90 170 3580 240 2131 1862 1039 306 823 286 269
is_linear=0
shrinkage=0.1


Tree=5
num_leaves=31
num_cat=0
split_feature=8 18 18 7 9 2 14 8 3 9 8 9 18 8 14 21 6 7 19 11 11 23 4 5 9 20 4 26 23 12
split_gain=16.7265 12.6752 10.5232 8.57648 7.6605 7.46261 7.34117 15.7685 16.0994 11.5566 7.88964 8.33408 10.1754 8.19456 16.3266 14.1556 13.4647 11.128 11.9894 10.9327 10.4771 12.2293 10.3855 9.76187 9.60992 14.0888 9.95157 8.88562 8.37832 8.34623
threshold=-0.00096937554189935316 65.599029541015639 33.170051574707038 0.81499999761581432 -0.0020078315865248437 2433.634887695313 0.72880539298057567 3.9923356780491312e-06 2420.704956054688 0.00096646437305025767 0.00049737721565179538 0.0042784977704286584 52.420083999633796 7.6423588325269534e-05 0.93453422188758861 -1.3552736043930051 675.50000000000011 0.51499998569488536 -1.3609604835510252 -0.003238493343815207 -0.0016521415673196314 -0.99851059913635243 195.26789855957034 237149.07812500003 0.00072054061456583451 0.97587400674819957 116.57365036010744 1.5000000000000002 -0.99115538597106922 0.0016690991469658913
decision_type=2 2 2 2 2 2 2 2 2 2 2 2 2 2 2 2 2 2 2 2 2 2 2 2 2 2 2 2 2 2
left_child=-1 2 3 5 -3 -2 7 8 -4 -9 13 -12 -13 16 29 -16 17 22 27 23 21 -17 24 -18 26 -26 28 -19 -8 -15
right_child=1 4 6 -5 -6 -7 10 9 -10 -11 11 12 -14 14 15 20 19 18 -20 -21 -22 -23 -24 -25 25 -27 -28 -29 -30 -31
leaf_value=0.013131677401783918 0.12340548666297102 0.10859743154212076 0.096784713207386797 0.0087500614300831669 -0.012552669462930946 0.032041684854361201 0.068481293368037696 0.01104210680143158 -0.032464515328592812 -0.13916499455323564 -0.0073873067759779648 -0.038096716349929102 0.075022384298937483 0.0036577225264968157 0.065080831128022487 0.1440092689534245 0.034285050482765665 0.11527583256539956 -0.024287028624183585 0.0040507692956070918 -0.0013506551322336482 0.01319025440432669 0.090523583560856963 -0.016804630137687303 0.054860199595208041 -0.11073142354179287 -0.055566551326783113 0.0029137691576337512 -0.0057416856836838386 0.053399143270198769
leaf_weight=893.66403405368328 10.841077893972395 5.2471767961978903 9.9839005768299085 541.97836789488792 981.37946259975433 50.984571397304535 15.98966598510742 216.86932358145714 277.59362536668777 5.2460129112005225 1629.5140922814608 11.466704338788984 25.943877279758453 49.484738484025002 37.233822822570801 7.2450906187295905 40.971244737505913 10.24408946931362 528.87300646305084 3003.7989351898432 1521.8939941972494 522.30164448916912 12.495880857110022 429.01459281146526 48.468219146132469 5.7472790628671637 38.980317741632462 22.487659245729446 311.20944273471832 105.9727945625782
leaf_count=3580 44 21 40 2170 3939 205 64 869 1113 21 6522 46 104 198 149 29 164 41 2117 12021 6090 2090 50 1717 194 23 156 90 1246 424
internal_value=-7.49102e-07 -0.00112065 5.55647e-07 0.0127754 -0.0119084 0.0480623 -0.000867198 -0.0125193 -0.0279773 0.00749445 -0.000158429 -0.00631594 0.0403503 0.00137069 0.00630095 0.00397396 -0.00110546 -0.011365 -0.0206521 0.00183171 0.00286486 0.0149801 0.00068347 -0.0123509 -0.00198695 0.0373062 -0.00780458 0.0380798 -0.00211453 0.0375656
internal_weight=11373.1 10479.5 9492.83 603.804 986.627 61.8256 8889.03 509.693 287.578 222.115 8379.34 1666.92 37.4106 6712.41 2244.13 2088.67 4468.28 994.496 561.605 3473.78 2051.44 529.547 432.891 469.986 420.395 54.2155 366.179 32.7317 327.199 155.458
internal_count=45537 41957 37997 2419 3960 249 35578 2043 1153 890 33535 6672 150 26863 8980 8358 17883 3981 2248 13902 8209 2119 1733 1881 1683 217 1466 131 1310 622
is_linear=0
shrinkage=0.1


Tree=6
num_leaves=31
num_cat=0
split_feature=8 10 18 11 14 7 1 15 23 21 22 12 21 22 18 0 10 19 6 3 14 14 7 13 5 23 10 15 11 21
split_gain=13.5876 13.164 11.3678 11.2766 13.4598 9.50046 9.22977 9.27639 9.46022 11.1052 8.50877 9.70548 8.25604 8.51625 8.52034 8.04389 7.99893 9.52571 9.45717 7.92889 8.51349 7.78312 7.56729 7.51193 12.9096 10.2205 10.0103 10.4639 8.33661 7.76464
threshold=0.00049737721565179538 -0.0028081797063350673 70.431690216064467 0.0070751563180238017 3.8517870903015141 1.6349999904632571 2423.394897460938 2424.380004882813 0.76181921362876903 -0.18839719891548154 -0.23132287710905072 0.0091773034073412436 0.33647675812244421 -0.87777194380760182 45.227182388305671 2681.619995117188 0.00057946564629673969 -0.56096237897872914 4218.5000000000009 2555.7199707031255 2.1853255033493046 7.6922712326049814 5.2449998855590829 0.62836575508117687 146082.42968750003 -0.98734235763549794 -0.0038466746918857093 2267.5219726562505 0.0046850957442075023 -0.40902389585971827
decision_type=2 2 2 2 2 2 2 2 2 2 2 2 2 2 2 2 2 2 2 2 2 2 2 2 2 2 2 2 2 2
left_child=1 23 6 15 5 -5 12 8 9 -8 11 -9 16 14 -14 19 18 -18 -3 20 -4 -12 -15 28 -25 -26 -27 -28 29 -1
right_child=-2 2 3 4 -6 -7 7 10 -10 -11 21 -13 13 22 -16 -17 17 -19 -20 -21 -22 -23 -24 24 25 26 27 -29 -30 -31
leaf_value=0.012208441757416026 -0.0071650343434635421 0.011032639843124274 -0.034059667725914282 -0.071399713844084098 -0.024581478029935523 0.078219937525257785 -0.10834772757807798 0.0036745587935409618 -0.09610061457839264 0.00089794172310147895 -0.0026224267847693053 0.050048793955891929 0.062599005814924821 -0.00185435666947248 -0.053252734977389173 -0.1195972438611701 -0.06744326631060453 0.036369082186170652 -0.069582609252828873 0.013773141442458461 -0.11967808802276314 -0.10478817181745344 0.063224061123506162 -0.12340799377623908 0.079360754089456087 0.010710727849469937 -0.11432745620676875 -0.011525854083605493 0.11822135644263748 0.042618372999411382
leaf_weight=343.82308392226696 2147.3018181473017 504.24948664009571 86.797388076782227 4.981743410229682 53.805250644683838 28.654739946126938 10.990126922726629 2537.7633088678122 18.477413043379784 60.686288833618164 4157.5091995894909 45.946902021765709 7.2463477253913871 190.04536978900433 51.219227269291878 11.456054180860518 9.244749113917349 201.35123245418072 14.984574660658835 29.108585104346275 13.407770574092863 7.4700338542461386 19.721809610724449 7.735417127609252 18.7288838326931 529.84071135520935 10.73578794300556 127.3846255838871 8.7421901077032071 111.09292444586754
leaf_count=1377 8602 2019 349 20 216 115 44 10158 74 243 16651 184 29 761 205 46 37 806 60 117 54 30 79 31 75 2122 43 510 35 445
internal_value=-7.02414e-07 0.00166726 0.000235676 -0.0217651 0.00643931 0.0560605 0.00087634 -0.000434685 -0.0322998 -0.0158527 -9.00725e-06 0.00449925 0.00985963 -0.00514281 -0.0388938 -0.0392847 0.0153734 0.0318119 0.00870616 -0.0321697 -0.0455157 -0.00280566 0.00426416 0.0116371 0.00505611 0.00650323 0.00446039 -0.0195164 0.0214935 0.0196347
internal_weight=11370.5 9223.2 8065.12 228.212 87.4417 33.6365 7836.91 6838.84 90.1538 71.6764 6748.69 2583.71 998.063 268.233 58.4656 140.77 729.83 210.596 519.234 129.314 100.205 4164.98 209.767 1158.08 694.425 686.69 667.961 138.12 463.658 454.916
internal_count=45537 36935 32297 917 351 135 31380 27384 361 287 27023 10342 3996 1074 234 566 2922 843 2079 520 403 16681 840 4638 2781 2750 2675 553 1857 1822
is_linear=0
shrinkage=0.1


Tree=7
num_leaves=31
num_cat=0
split_feature=8 9 22 23 18 20 23 8 21 20 8 0 12 5 7 10 0 18 13 10 20 7 21 23 8 13 6 6 16 14
split_gain=12.0853 9.6904 7.5602 9.84868 9.58443 8.07734 14.7298 9.23612 9.85011 8.97696 8.69073 11.8088 11.8576 8.63437 12.6933 7.93229 7.88155 7.64971 7.63278 7.50012 7.99025 9.61779 8.66722 8.10974 7.42421 8.93904 15.5344 10.3346 9.29692 8.64471
threshold=-0.00096937554189935316 -0.00093219600967131544 0.22282424569129947 0.95172616839408886 70.431690216064467 0.23023101687431338 -0.99280729889869679 -0.00030825745488982642 0.24271947890520099 0.21851854771375659 -0.00064474978717043985 2291.404907226563 0.0036644368665292863 275465.07812500006 1.9450000524520876 -0.013551888056099413 2604.994995117188 82.51718902587892 1.5295916795730593 0.0037868949584662919 1.0893005132675173 3.685000061988831 0.17448414862155917 0.054514370858669288 -0.00067464954918250431 0.44886673986911779 1005.5000000000001 977.50000000000011 2767.3308105468755 2.26165783405304
decision_type=2 2 2 2 2 2 2 2 2 2 2 2 2 2 2 2 2 2 2 2 2 2 2 2 2 2 2 2 2 2
left_child=-1 24 5 4 19 9 7 8 13 15 11 -8 -13 -7 -15 -3 -6 -12 -19 -4 21 -21 -22 -24 29 28 27 -27 -26 -2
right_child=1 2 3 -5 16 6 10 -9 -10 -11 17 12 -14 14 -16 -17 -18 18 -20 20 22 -23 23 -25 25 26 -28 -29 -30 -31
leaf_value=0.011166972063627663 0.010398581056101079 -0.119301409099953 -0.0046309020396646909 -0.036511280683319047 -0.017696640154927262 -0.12793610032528141 0.164623670766188 -0.044810315357125485 0.096237006054285854 0.070554142098394931 -0.0042577983696741152 0.063609837429542446 -0.00590239357146689 0.13293763631294783 -0.056508774113417398 0.0039240988390180547 -0.072868781318059836 0.087484682701745753 -0.01236519232313121 0.087440986573256718 0.096219345343636742 -0.012682466960763056 -0.055175193113150306 0.023165401722055012 -0.0027970855302930078 0.047916487747326063 0.010555593641863812 0.19677634072446787 0.035556132403963679 -0.025066138619321623
leaf_weight=892.88831788301468 120.1518279761076 5.2352441400289527 3421.4931662082672 101.39374843239784 130.6181433647871 5.7434749752283158 5.7390684187412253 130.81513969600201 10.228721156716345 20.227186739444733 1885.7245999127626 36.980852022767067 72.945306375622749 5.745605155825614 9.1995504349470121 2417.2415020763874 32.294010996818542 18.205630719661716 13.211318522691725 29.681526467204094 7.9812647849321356 14.17636828124523 26.144199416041374 26.717883855104446 787.51523125171661 71.607268497347832 834.38028439879417 4.988704800605773 68.717658028006554 160.60339416563511
leaf_count=3580 481 21 13704 407 526 23 23 525 41 81 7554 148 292 23 37 9676 130 73 53 119 32 57 105 107 3153 287 3341 20 275 643
internal_value=-8.29081e-07 -0.000952707 -0.00245199 -0.00576477 -0.00491972 0.000255885 -0.00414731 -0.0331927 0.0159631 0.00421174 -0.00183643 0.0247834 0.0174826 -0.0237254 0.0163231 0.00365779 -0.0286334 -0.00344246 0.0454962 -0.00382413 0.02254 0.0550777 -0.000914293 -0.0155798 0.00521713 0.00761698 0.0145121 0.0576117 0.000280983 -0.00988868
internal_weight=11368.6 10475.7 8427.74 3790.5 3689.11 4637.24 2194.54 161.732 30.9174 2442.7 2032.81 115.665 109.926 20.6886 14.9452 2422.48 162.912 1917.14 31.4169 3526.19 104.701 43.8579 60.8433 52.8621 2047.96 1767.21 910.976 76.596 856.233 280.755
internal_count=45537 41957 33757 15187 14780 18570 8792 649 124 9778 8143 463 440 83 60 9697 656 7680 126 14124 420 176 244 212 8200 7076 3648 307 3428 1124
is_linear=0
shrinkage=0.1


Tree=8
num_leaves=31
num_cat=0
split_feature=8 18 11 14 18 10 10 13 16 23 1 15 23 21 22 26 13 13 23 2 8 2 21 10 8 8 10 10 19 0
split_gain=10.6991 9.44083 8.62796 10.8088 8.4145 8.3247 7.37913 9.70213 7.28939 7.12062 7.11632 7.58863 7.78749 9.042 7.46471 7.44835 7.27291 12.0336 7.13611 7.4331 12.3955 7.29066 8.31549 14.7955 6.99137 13.7532 11.8132 10.8771 8.9496 6.88882
threshold=0.00049737721565179538 70.431690216064467 0.0070751563180238017 3.8517870903015141 72.987422943115249 -0.0028081797063350673 0.001787606568541378 0.21437315642833712 2603.334838867188 0.84688794612884533 2423.394897460938 2424.380004882813 0.76181921362876903 -0.18839719891548154 0.95943480730056774 1.5000000000000002 0.35198888182640081 0.24030609428882602 -0.96535655856132496 2348.9499511718755 -0.00023378958576358852 2270.964965820313 -0.051919421181082719 -0.00066286069341003884 -0.00039209975511766965 0.00021905104222241792 0.00019599081861088055 0.0017229585791938009 1.5925983786582949 2426.494995117188
decision_type=2 2 2 2 2 2 2 2 2 2 2 2 2 2 2 2 2 2 2 2 2 2 2 2 2 2 2 2 2 2
left_child=1 5 6 4 -4 -1 7 -3 9 -5 14 12 13 -12 18 -15 17 -17 24 20 21 -20 23 -23 28 26 -26 -28 -7 -13
right_child=-2 2 3 8 -6 10 -8 -9 -10 -11 11 29 -14 15 -16 16 -18 -19 19 -21 -22 22 -24 -25 25 -27 27 -29 -30 -31
leaf_value=0.0099052876839306799 -0.0063595287623349596 -0.062803093711034291 -0.023997703484671774 -0.078119895982580387 0.084106545269690747 0.12701282117386686 -0.043675143480149677 0.075875032498371922 0.024854896290991801 0.028118375483399283 -0.097882800096421196 0.022002104916791932 -0.087150227266848401 -0.068856152012271188 0.039180317753529051 0.03603710122101466 0.081636698904340096 -0.087983127550759391 0.024760932106602653 0.010585429735089347 -0.031149929029207959 -0.082709675204382369 -0.052340060248383627 0.093842282219239584 -0.078768843925824422 0.097680076113576944 0.13839402865309403 -0.029716460096387138 -0.028013261578312954 -0.0004124560923327447
leaf_weight=1157.2374592423439 2146.4584704190493 8.3917229771614092 10.447937995195387 24.609512895345688 23.162660449743271 14.718336656689646 119.02315272390842 12.649312406778334 20.627729877829552 8.4838641583919507 10.95223432779312 140.02055478096008 18.424954175949097 12.240922719240187 74.398252189159393 23.466459959745407 13.238099589943884 11.736665889620779 107.73912002146244 560.12447474896908 136.39773805439472 7.4878914058208492 32.175811544060707 12.965472668409346 16.489660903811455 14.485432863235472 6.7404315322637549 8.9715973138809186 4.9851553589105597 6607.4341435730457
leaf_count=4638 8602 34 42 99 93 59 481 51 83 34 44 561 74 49 298 94 53 47 432 2243 546 30 129 52 66 58 27 36 20 26462
internal_value=-8.92391e-07 0.00147946 -0.0186435 0.0060249 0.0505021 0.00198831 -0.0340245 0.0205665 -0.0218022 -0.0508845 0.000818997 -0.000332199 -0.0291684 -0.014255 0.00870863 0.000838575 0.0184502 -0.00531104 0.00625321 0.00380609 -0.00898942 0.00985872 -0.0206482 0.0292073 0.0378377 0.0167562 -0.0196462 0.0424026 0.0877899 5.26822e-05
internal_weight=11366.3 9219.83 227.396 87.3317 33.6106 8992.43 140.064 21.041 53.7211 33.0934 7835.19 6837.51 90.0593 71.6344 997.679 60.6821 48.4412 35.2031 923.281 856.891 296.766 160.368 52.6292 20.4534 66.3906 46.6871 32.2017 15.712 19.7035 6747.45
internal_count=45537 36935 917 351 135 36018 566 85 216 133 31380 27384 361 287 3996 243 194 141 3698 3432 1189 643 211 82 266 187 129 63 79 27023
is_linear=0
shrinkage=0.1


Tree=9
num_leaves=31
num_cat=0
split_feature=18 23 20 11 22 14 8 8 22 19 22 5 9 5 17 11 13 7 16 19 21 16 4 19 9 8 4 10 8 23
split_gain=9.44334 10.2244 12.689 13.2311 10.5759 10.6188 11.0028 9.25987 9.03885 8.65696 8.60486 8.26907 8.11703 10.0974 7.77977 9.58445 9.20821 9.02071 8.39454 7.86698 9.36558 7.77696 8.83121 7.76246 7.63185 9.31174 10.8304 16.8983 14.9112 10.4559
threshold=62.64387512207032 0.02835773024708033 0.77188318967819225 0.0031820385484024887 0.93894198536872875 3.2713640928268437 0.0010182480909861626 -0.00096937554189935316 -0.067579798400402055 8.9059400558471697 -0.093673683702945695 355682.95312500006 0.0011554682860150935 643830.93750000012 2411.176635742188 0.0033769943984225397 0.77703890204429638 4.8450000286102304 2519.4580078125005 1.1013930439949038 0.49850101768970495 2504.8874511718755 99.828197479248061 1.4819779992103579 0.0011108008911833169 0.0011169292265549304 292.49549865722662 -0.0064144209027290336 -0.00086479089804925014 0.99771150946617138
decision_type=2 2 2 2 2 2 2 2 2 2 2 2 2 2 2 2 2 2 2 2 2 2 2 2 2 2 2 2 2 2
left_child=7 -2 14 4 5 6 11 12 10 -10 23 21 -1 -14 -3 16 18 -17 -16 20 -20 -4 -23 -5 25 26 27 -9 -28 -30
right_child=1 2 3 8 -6 -7 -8 24 9 -11 -12 -13 13 -15 15 17 -18 -19 19 -21 -22 22 -24 -25 -26 -27 28 -29 29 -31
leaf_value=0.0087086303632757586 -0.015564296152110838 0.081418146408732295 -0.10892804293161347 -0.11347314052286679 0.02146456623492761 0.0711205703503619 -0.16514975792233325 0.10023549709203024 -0.0098141334191841102 -0.098616044204245537 0.12896892962299314 -0.013969619961798033 0.15311199298814937 0.030742307420254023 -0.0050248302656951162 -0.0001536157485422184 0.13359040865461921 -0.14495513477613223 0.059503276599605442 0.093219135524349517 -0.019889060345297426 -0.0041517214109113134 -0.11824486483493378 0.012361526905214495 -0.0070499280754903601 -0.018262960255822611 -0.036817702720547185 -0.00042803182297492665 0.011828974350859601 -0.038994268264126636
leaf_weight=782.86474701762199 756.33284878730774 19.949189454317093 26.68972635269165 4.988900199532508 30.177472501993179 7.4853813648223868 7.9722288548946372 16.725712776184082 179.29803657531738 11.693928390741346 6.2299397140741339 51.119795545935631 7.9756997823715201 43.633335143327713 78.375725463032722 11.963707312941553 7.24245861172676 6.7181333303451529 31.714662358164787 21.204251185059547 27.956403478980064 23.915019705891609 9.4709679186344129 282.36238345503807 1241.3364628702402 233.51108096539974 68.945814296603203 5640.6188189983368 1684.2006493061781 41.476373985409737
leaf_count=3142 3046 80 107 20 121 30 32 67 720 47 25 205 32 175 314 48 29 27 127 85 112 96 38 1132 4971 935 276 22589 6743 166
internal_value=-9.5677e-07 -0.00711473 0.000434555 -0.00648911 -0.0317353 -0.0444112 -0.0516682 0.00116717 0.00168175 -0.0152512 0.0126977 -0.043532 0.0112409 0.0496534 0.0220841 0.015692 0.0233129 -0.0522254 0.0182976 0.0408993 0.0223073 -0.0686873 -0.0365178 0.0101768 0.000225479 0.00140058 0.00201675 -0.000130424 0.00878547 0.0106074
internal_weight=11364.1 1602.86 846.528 641.404 156.831 126.653 119.168 9761.29 484.573 190.992 293.581 111.196 834.474 51.609 205.125 185.175 166.494 18.6818 159.251 80.8753 59.6711 60.0757 33.386 287.351 8926.81 7685.48 7451.97 5657.34 1794.62 1725.68
internal_count=45537 6441 3395 2573 629 508 478 39096 1944 767 1177 446 3349 207 822 742 667 75 638 324 239 241 134 1152 35747 30776 29841 22656 7185 6909
is_linear=0
shrinkage=0.1


Tree=10
num_leaves=31
num_cat=0
split_feature=18 8 14 21 25 9 5 18 6 3 22 26 1 2 6 8 6 14 6 8 20 8 21 1 10 6 7 2 11 5
split_gain=8.15514 7.40465 10.7216 12.2668 8.09754 11.7715 10.8193 10.1408 9.55209 9.2801 7.41145 7.40709 13.9401 11.4152 11.3598 10.1324 21.5774 12.2392 13.2391 12.9454 11.7266 11.1753 10.0034 9.94729 8.96907 8.95192 8.96316 8.71065 8.69436 8.64045
threshold=33.170051574707038 -0.00054355413885787119 1.5409613251686098 0.29635229706764227 -0.37940952181816096 -0.00041020405478775496 366630.62500000006 39.296634674072273 1360.5000000000002 2592.119995117188 0.99970966577529918 4.5000000000000009 2549.505004882813 2547.755004882813 801.50000000000011 3.1905432479106828e-05 381.50000000000006 1.3734143376350405 1348.5000000000002 -0.00038366872468031937 1.3235841393470766 -0.00031558767659589643 0.29635229706764227 2423.394897460938 -0.00080158337368629862 1043.5000000000002 0.51499998569488536 2541.295043945313 -0.0021239707712084051 4831396.0000000009
decision_type=2 2 2 2 2 2 2 2 2 2 2 2 2 2 2 2 2 2 2 2 2 2 2 2 2 2 2 2 2 2
left_child=-1 2 3 4 5 7 9 8 -2 -6 -4 23 13 15 -14 17 -17 28 20 22 25 -21 -20 29 -23 26 -19 -26 -13 -3
right_child=1 11 10 -5 6 -7 -8 -9 -10 -11 -12 12 14 -15 -16 16 -18 18 19 21 -22 24 -24 -25 27 -27 -28 -29 -30 -31
leaf_value=0.0096859434648748684 -0.14500837535015049 0.0092107693782547892 0.0029328865195748237 0.096694418520773109 0.021861603389483411 0.059347509736827946 0.072610738160743593 0.0024930580257752823 -2.9311439252615147e-05 -0.09954479239108914 -0.0937711944758641 0.031173337240959661 0.0017229506860714301 0.1021774798501049 -0.051582280895075362 0.029537856424710043 -0.0052052688952788275 0.088101568340069422 -0.027723746216634856 0.078790621184852722 -0.030297091533186316 -0.057740749352650479 -0.13654697621215361 -0.0015524551835261122 -0.0029154825740025461 0.075122820129547963 0.0039480818925524668 0.13015441481876028 -0.021173575662019502 0.091619184540827237
leaf_weight=807.30296795070171 12.236206337809564 747.35455565154552 1419.8041076958179 22.426957920193672 63.122856974601746 17.977948099374771 44.927690342068672 28.46996334195137 7.2295806258916846 6.9936376959085456 7.9697434008121482 33.198141843080521 60.445233181118965 9.9898829162120801 118.07339486479759 221.87772023677826 919.76721327006817 15.466668099164961 21.989025413990021 15.474639296531675 31.202889069914818 29.726181253790855 13.716048687696455 5789.5804089009762 47.131695225834846 43.212763786315918 69.662207514047623 5.4924056828021994 716.94962540268898 12.943462595343588
leaf_count=3240 49 2994 5693 90 253 72 180 114 29 28 32 133 242 40 473 889 3686 62 88 62 125 119 55 23198 189 173 279 22 2876 52
internal_value=-1.12976e-06 -0.00074209 0.00545301 0.0269339 0.0182881 -0.0096587 0.0343 -0.035539 -0.0911632 0.00975215 0.00239309 -0.00187455 -0.0066608 -0.00447511 -0.0335335 -0.00496276 0.00154703 -0.0120867 0.00524224 -0.01799 0.0246864 0.00082079 -0.069528 -0.000140229 -0.0138307 0.0380542 0.0192375 0.0109731 -0.0188569 0.0106137
internal_weight=11361.7 10554.4 1631.16 203.385 180.958 65.9137 115.044 47.9358 19.4658 70.1165 1427.77 8923.25 2373.38 2194.86 178.519 2184.87 1141.64 1043.22 293.075 133.53 159.545 97.8249 35.7051 6549.88 82.3503 128.342 85.1289 52.6241 750.148 760.298
internal_count=45537 42297 6540 815 725 264 461 192 78 281 5725 35757 9513 8798 715 8758 4575 4183 1174 535 639 392 143 26244 330 514 341 211 3009 3046
is_linear=0
shrinkage=0.1


Tree=11
num_leaves=31
num_cat=0
split_feature=18 23 20 11 22 14 6 5 22 20 23 0 0 4 6 6 22 18 20 14 14 18 2 19 5 7 15 15 18 8
split_gain=7.36759 8.22246 10.3258 10.598 8.70658 8.65243 9.85239 7.6662 7.30565 7.5887 7.55689 7.06956 11.1973 8.04837 9.41761 6.96707 8.37601 7.78782 7.00611 10.4902 7.9368 6.9653 7.36201 9.30549 6.94745 8.77135 8.0514 7.69296 7.80293 7.35375
threshold=62.64387512207032 0.02835773024708033 0.77188318967819225 0.0031820385484024887 0.93894198536872875 3.2713640928268437 3356.5000000000005 874808.56250000012 -0.067579798400402055 0.90466099977493297 0.98364779353141796 2604.994995117188 2549.865112304688 632.18865966796886 2812.5000000000005 4478.5000000000009 0.7702331840991975 63.251750946044929 0.92241379618644725 4.6060540676116952 4.9621827602386483 71.510932922363295 2425.244995117188 1.0423651337623598 721496.81250000012 0.59499999880790722 2191.815063476563 2231.099975585938 47.585741043090827 0.00049737721565179538
decision_type=2 2 2 2 2 2 2 2 2 2 2 2 2 2 2 2 2 2 2 2 2 2 2 2 2 2 2 2 2 2
left_child=24 15 -3 4 5 6 7 -4 9 -5 11 12 -10 14 -13 21 17 -17 -19 -20 -21 22 23 -2 26 -26 -1 28 -28 -29
right_child=1 2 3 8 -6 -7 -8 -9 10 -11 -12 13 -14 -15 -16 16 -18 18 19 20 -22 -23 -24 -25 25 -27 27 29 -30 -31
leaf_value=-0.045782983217343878 0.098945800818231386 0.02001870214918924 -0.051383033520985624 -0.11090979697378858 0.019850263286875135 0.064327765403320428 -0.16942903627306918 0.018815805856060151 -0.01072473019205134 0.013556017215771694 -0.056517722981608565 -0.037624299656552264 0.059748415851077034 0.015759045164191687 -0.17194174461831668 0.12733511438793108 -0.068445820120542886 -0.056915995344492522 0.048057191772375302 -0.11323815221383821 0.00066885736720312958 -0.045313330679452639 -0.01765280862671793 -0.0061747088528168763 0.083876073972969159 0.004457137223236143 0.11286538923229841 0.00039942659081514191 0.012052813054446805 -0.010110339494655105
leaf_weight=39.65214891731739 12.436936900019644 205.00207379460335 93.928613036870956 4.983124077320098 30.186794891953468 7.4877420663833609 6.1810086071491233 18.644814163446426 80.115131571888924 288.59979546070099 33.884060367941856 21.121824979782108 31.375476092100143 17.393859550356865 6.9336563348770133 5.7309620678424826 13.835355892777441 14.641248345375059 54.75595523416996 6.9394748359918585 51.617209777235985 84.115577071905136 485.21611495316029 26.079100027680397 13.966333031654356 3246.4290883988142 11.732639819383619 5670.1142920255661 22.214401245117188 754.34061908721924
leaf_count=159 50 822 378 20 121 30 25 75 322 1157 136 85 126 70 28 23 56 59 221 28 209 342 1953 105 56 13008 47 22716 89 3021
internal_value=-1.11961e-06 -0.00628817 0.000483768 -0.00576542 -0.0283955 -0.0399319 -0.0465057 -0.0397565 0.00154248 0.0114434 -0.0136901 -0.0044434 0.00910769 -0.0376852 -0.0708196 -0.0138712 0.00562355 0.0132892 0.00818113 0.0165924 -0.0128301 -0.0186024 -0.0143124 0.027769 0.00103049 0.00479734 -0.000859532 -0.000583719 0.0468953 -0.000834599
internal_weight=11359.7 1601.21 845.838 640.836 156.429 126.242 118.754 112.573 484.407 293.583 190.824 156.94 111.491 45.4493 28.0555 755.368 147.52 133.685 127.954 113.313 58.5567 607.848 523.732 38.516 9758.45 3260.4 6498.05 6458.4 33.947 6424.45
internal_count=45537 6441 3395 2573 629 508 478 453 1944 1177 767 631 448 183 113 3046 596 540 517 458 237 2450 2108 155 39096 13064 26032 25873 136 25737
is_linear=0
shrinkage=0.1


Tree=12
num_leaves=31
num_cat=0
split_feature=8 10 7 13 5 22 8 13 12 5 23 7 5 16 16 18 9 25 12 10 26 20 14 21 22 22 8 11 7 19
split_gain=6.89846 7.26266 8.51206 14.8217 9.18526 7.85889 7.56488 13.9638 7.76915 7.63236 7.31916 7.15835 9.77023 9.13126 8.06213 11.2518 10.2588 8.95688 9.77369 8.63929 7.10236 6.95457 6.86493 9.95336 6.71524 9.07215 8.64058 6.96575 7.71726 6.4217
threshold=0.0012020685244351628 -0.0042241839691996566 6.8250000476837167 0.62836575508117687 2718824.6250000005 0.27353890240192419 0.00064313248731195938 1.2610310912132265 0.0047045007813721904 643830.93750000012 -0.98734235763549794 5.9449999332427987 9147542.0000000019 2192.371459960938 2490.837280273438 62.262557983398445 0.00029763711791019892 1.0000000180025095e-35 0.0062832543626427659 -0.0028626386774703856 3.5000000000000004 -2.842679381370544 8.761991500854494 -1.9611739516258238 0.54646614193916332 -0.69622442126274098 0.00022550882567884403 -0.0068582317326217881 3.5949999094009404 1.348489046096802
decision_type=2 2 2 2 2 2 2 2 2 2 2 2 2 2 2 2 2 2 2 2 2 2 2 2 2 2 2 2 2 2
left_child=1 2 3 4 -1 22 8 9 24 -8 -10 12 -3 -13 15 21 17 18 19 -16 -18 -15 -4 -24 25 27 -27 28 -5 -12
right_child=-2 11 5 6 -6 -7 7 -9 10 -11 29 13 -14 14 16 -17 20 -19 -20 -21 -22 -23 23 -25 -26 26 -28 -29 -30 -31
leaf_value=0.091290460656923256 -0.010347455550771082 -0.00038380553830444564 -0.036516156656520214 0.070532767512334713 -0.021115673415776904 0.054385493864786166 -0.011296800099553724 -0.038652201057795259 0.11687917094337473 0.10561992947834167 0.01622045404441012 0.13929072144638241 -0.11495311351712623 -0.065868752019342905 0.072436529707227651 -0.068552129086482463 0.040693793976971961 -0.025768086072732063 0.083206884056126862 -0.045939514428557218 0.12233356651690119 0.027754204970196018 0.10535045581965259 -0.034962853212142979 -0.054601913402220772 0.049315964082831426 -0.069895038624872369 -0.064220614803825349 -0.078876840931843772 -0.060157148887539036
leaf_weight=38.342260703444481 609.88452568650246 9881.7899272590876 80.486986324191093 10.201468676328657 8.970380485057829 14.916419267654417 6.9912346452474585 13.230932503938673 6.9665593653917304 27.729056566953659 271.79000598192215 5.9620056599378577 7.4489592909812918 9.4662387967109662 9.459155738353731 24.132954359054565 40.574506267905235 43.107631787657738 23.64934054017067 17.704778775572777 14.451545044779776 49.025717079639435 9.2201830595731753 11.192816808819769 31.154369965195656 38.354565039277077 7.2255033850669852 27.186489000916481 5.2290685176849356 11.472928509116171
leaf_count=154 2450 39613 323 41 36 60 28 53 28 111 1090 24 30 38 38 97 163 173 95 71 58 197 37 45 125 154 29 109 21 46
internal_value=-1.59095e-06 0.000585506 0.0110859 0.016695 0.0699785 -0.0133644 0.011185 0.0487653 0.00678536 0.0820777 0.0156174 -5.80514e-05 -0.000470104 0.0170969 0.0139509 -0.0111011 0.0278479 0.00776 0.0362037 -0.00471804 0.0621349 0.0126024 -0.0233802 0.0284141 -0.0146917 -0.000593921 0.0304182 -0.0337623 0.0199011 0.013127
internal_weight=11357.3 10747.4 620.661 504.845 47.3126 115.816 457.532 47.9512 409.581 34.7203 290.229 10126.8 9889.24 237.534 231.572 82.6249 148.947 93.9209 50.8133 27.1639 55.0261 58.492 100.9 20.413 119.351 88.1971 45.5801 42.617 15.4305 283.263
internal_count=45537 43087 2490 2025 190 465 1835 192 1643 139 1164 40597 39643 954 930 332 598 377 204 109 221 235 405 82 479 354 183 171 62 1136
is_linear=0
shrinkage=0.1


Tree=13
num_leaves=31
num_cat=0
split_feature=8 13 4 12 19 22 6 23 21 22 20 20 4 13 7 9 4 8 21 0 9 5 8 5 21 21 12 6 14 8
split_gain=5.99578 6.11544 13.6504 7.68335 10.024 7.25186 7.57871 9.93131 7.13617 8.01494 6.98478 8.4833 6.81124 7.22519 6.93177 6.69391 9.02871 8.43535 7.071 7.73839 9.39028 6.61794 8.59675 6.99518 6.55669 10.3795 9.63236 6.47363 8.97331 7.80671
threshold=0.00049737721565179538 0.27032138407230383 178.25039672851565 0.0048243314959108838 2.3812795877456669 -0.87777194380760182 1867.5000000000002 -0.44032992422580713 -0.21073042601346967 -0.9543684422969817 -0.014775004703551529 0.82498258352279674 160.09535217285159 0.28963866829872137 3.054999947547913 0.0011338404729031029 147.19895172119143 0.00074034271528944384 -0.73059692978858937 2428.105102539063 0.00027442090504337108 1057985.7500000002 0.00058954863925464462 957554.53125000012 -0.52253058552741993 -0.13649699091911313 0.0020761699415743355 1478.5000000000002 2.5101380348205571 0.00075771697447635244
decision_type=2 2 2 2 2 2 2 2 2 2 2 2 2 2 2 2 2 2 2 2 2 2 2 2 2 2 2 2 2 2
left_child=-1 24 3 4 8 6 27 -8 9 -3 -11 -12 13 -10 -14 18 17 -17 -5 -20 -21 22 -9 -24 -2 26 -26 28 29 -4
right_child=1 2 5 15 -6 -7 7 21 12 10 11 -13 14 -15 -16 16 -18 -19 19 20 -22 -23 23 -25 25 -27 -28 -29 -30 -31
leaf_value=0.0011074438374762603 0.099926298415526457 -0.14096091500328889 -0.094798408121833266 0.10473262818731999 -0.13526374426153528 -0.006517784686925013 0.10006803647657535 -0.058311237198029678 -0.072150763824784872 -0.012641715785259598 -0.12195781582357257 -0.025794560216065257 -0.092449479827747441 -0.0025128190608125975 0.036628130903403222 -0.063517824602822584 -0.096136421595512001 0.078054587314761156 0.050974543371060915 -0.10107368500955338 0.029721165093661014 0.0012676113264209043 0.032411017381943699 0.11249181373492943 0.047351632540252264 0.014457493393490024 -0.045641180103757444 -0.060528600234220409 0.11214577805577208 0.056229689585229774
leaf_weight=9212.0874383747578 7.4897853285074225 9.2415816187858564 7.9910260140895861 8.987371549010275 9.2032212316989881 1126.5279542207718 13.699199721217154 8.7384463995695096 16.696150809526443 38.68345220386982 18.221340924501419 18.475390672683716 20.186426877975467 138.41784429550171 5.2405600249767295 7.7339924424886766 13.467826992273329 9.2332032769918424 20.724422290921211 10.737580820918085 11.229634493589399 169.39044804871082 62.148867458105087 13.229949653148649 13.724115297198294 267.30323001742363 59.126875877380371 25.441433012485504 6.4940375983715048 5.9866723716259003
leaf_count=36935 30 37 32 36 37 4523 55 35 67 155 73 74 81 555 21 31 54 37 83 43 45 680 249 53 55 1072 237 102 26 24
internal_value=-1.02408e-06 -0.00476427 -0.00711402 -0.0246333 -0.0326648 -0.00277598 0.0106861 0.017135 -0.0291039 -0.0530659 -0.04229 -0.0735433 -0.0178726 -0.0100085 -0.0658463 0.00220253 -0.0350025 0.013523 0.0241135 0.00714165 -0.0342114 0.0126534 0.0355815 0.0464662 0.00737594 0.00533809 -0.0281226 -0.0268455 0.0150144 -0.0301128
internal_weight=11355.9 2143.77 1796.13 356.48 274.366 1439.65 313.12 267.207 265.163 84.6218 75.3802 36.6967 180.541 155.114 25.427 82.114 30.435 16.9672 51.679 42.6916 21.9672 253.508 84.1173 75.3788 347.644 340.154 72.851 45.9132 20.4717 13.9777
internal_count=45537 8602 7208 1429 1100 5779 1256 1072 1063 339 302 147 724 622 102 329 122 68 207 171 88 1017 337 302 1394 1364 292 184 82 56
is_linear=0
shrinkage=0.1


Tree=14
num_leaves=31
num_cat=0
split_feature=18 7 2 14 8 3 9 6 8 10 22 9 4 11 5 6 20 6 25 11 8 18 21 25 7 23 19 16 23 12
split_gain=5.74472 7.21709 6.38119 5.79459 9.85945 12.4659 10.1129 7.44157 12.6684 9.31905 8.84783 7.25217 6.75188 7.98741 6.55631 9.34894 9.64462 8.67933 7.68734 6.94465 6.74271 12.1971 8.14335 7.08178 6.43196 6.93735 11.3372 7.68113 6.12944 9.18233
threshold=33.170051574707038 0.81499999761581432 2433.634887695313 0.72880539298057567 3.9923356780491312e-06 2420.704956054688 0.0010452202986925843 202.50000000000003 3.1905432479106828e-05 0.00055885475012473773 -0.023995916359126564 -0.00070356429205276061 53.681299209594734 0.0011109485058113935 80599.949218750015 110.50000000000001 0.16168110817670825 162.50000000000003 0.91597560048103344 0.00038238023989833897 0.00035815876617562031 55.32854080200196 -0.26643966138362879 0.12940952181816107 0.67500001192092907 0.42063900828361517 0.15258478373289111 2517.1909179687505 -0.41667649149894709 0.0012646674294956031
decision_type=2 2 2 2 2 2 2 2 2 2 2 2 2 2 2 2 2 2 2 2 2 2 2 2 2 2 2 2 2 2
left_child=1 2 -1 4 5 -2 14 8 10 -10 -5 -12 13 -13 15 -6 19 -18 20 -17 22 -22 -16 -23 25 27 -27 -24 29 -26
right_child=3 -3 -4 7 6 -7 -8 -9 9 -11 11 12 -14 -15 18 16 17 -19 -20 -21 21 23 24 -25 28 26 -28 -29 -30 -31
leaf_value=0.11167514008698748 0.08691693217862885 0.0054202243123085136 0.026362980734140857 0.042982250420907725 -0.055375221874653706 -0.026695390955233978 -0.10245532236359188 -0.00036751402956536675 0.034896168324911395 0.14033242278243668 -0.13544912979463425 -0.023403266512079243 -0.10266597097110489 0.081273871439884571 -0.088348870699984788 0.046876873879677469 -0.095440898159621854 0.027363940365358913 -0.068777566571636195 0.1359637029064969 0.052436191431166748 -0.045299076518016394 0.037983804300372737 -0.17769315049560122 -0.088386584518796774 -0.14259518779522223 0.034503855247085581 -0.062281849899798881 0.095940539280832737 0.081194396115223055
leaf_weight=10.600669279694555 9.9916343092918378 745.07949773967266 50.702558562159538 32.90554291009903 11.704473227262495 288.97591146826744 8.6410053223371488 9878.6095862537622 22.207806095480919 13.465843692421911 5.2386188656091681 25.426950916647911 6.7207657247781745 10.219320297241209 7.2360324114561072 43.175064966082573 7.9740637242794064 20.681914731860161 16.935577183961868 10.974514171481131 9.2390830367803591 12.416967600584032 44.628855973482132 5.9888795465230933 5.7245717495679873 7.4928285181522352 6.9838947653770447 9.2187265306711179 18.472326591610909 7.2202354222536087
leaf_count=44 40 2991 205 132 47 1163 35 39606 89 54 21 102 27 41 29 173 32 83 68 44 37 50 179 24 23 30 28 37 74 29
internal_value=-1.33944e-06 0.00813385 0.0411153 -0.000623238 -0.0105813 -0.0228984 0.00387601 -7.15955e-05 0.0250889 0.0746955 0.00310869 -0.0244524 -0.0107278 0.0066063 0.00760998 0.0282806 0.0401052 -0.00680881 -0.00527999 0.0649321 0.00270805 -0.0413167 0.0140848 -0.0883774 0.0215162 0.00429634 -0.0571587 0.0208183 0.058965 0.00620073
internal_weight=11354.9 806.383 61.3032 10548.5 553.677 298.968 254.709 9994.79 116.185 35.6736 80.5112 47.6057 42.367 35.6463 246.068 94.51 82.8056 28.656 151.558 54.1496 134.622 27.6449 106.977 18.4058 99.7414 68.3243 14.4767 53.8476 31.4171 12.9448
internal_count=45537 3240 249 42297 2225 1203 1022 40072 466 143 323 191 170 143 987 379 332 115 608 217 540 111 429 74 400 274 58 216 126 52
is_linear=0
shrinkage=0.1


Tree=15
num_leaves=31
num_cat=0
split_feature=8 7 13 16 4 5 8 16 3 6 9 10 7 10 12 22 16 7 8 22 9 20 15 13 8 22 11 11 13 8
split_gain=5.37214 6.25027 7.53837 12.0122 5.93948 9.35969 9.63791 8.41046 8.46873 9.63163 8.13317 8.28725 7.91795 7.58769 7.12769 8.25668 6.92574 6.80817 6.4458 6.21022 6.20417 6.08724 5.86151 5.86145 8.1891 5.77304 8.14667 6.54164 13.2886 6.46397
threshold=0.0012020685244351628 11.894999980926515 1.7579177021980288 2586.7995605468755 239.92915344238284 569562.81250000012 -0.00099759415024891474 2436.9873046875005 2566.884887695313 2216.5000000000005 -0.0033942381851375099 0.0042851669713854798 0.47499999403953558 -0.0064144209027290336 0.0056085621472448119 -0.66750615835189808 2574.6018066406255 2.8249999284744267 -0.00050795875722542394 -0.93279412388801564 0.0024357665097340946 1.8386069536209109 2452.620971679688 0.58092984557151806 -0.00028652419860009099 0.18437977880239489 -0.0068582317326217881 -0.0019078102777712045 0.71560230851173412 -0.00086479089804925014
decision_type=2 2 2 2 2 2 2 2 2 2 2 2 2 2 2 2 2 2 2 2 2 2 2 2 2 2 2 2 2 2
left_child=4 -2 3 -3 5 10 -7 -8 14 16 18 13 -6 -12 15 19 -10 -11 -1 -9 -13 -18 -17 24 -24 27 -27 28 -15 -28
right_child=1 2 -4 -5 12 6 7 8 9 17 11 20 -14 25 -16 22 21 -19 -20 -21 -22 -23 23 -25 -26 26 29 -29 -30 -31
leaf_value=-0.0070483747710907351 -0.011932602373985834 0.11247139055014664 -0.022712279719546459 -0.031357190115809667 0.075524378265829695 0.064772602748717642 0.074340684608774563 -0.042090836225213708 0.092522393057471827 -0.11461503208479036 0.076952718902637898 -0.04791271958942897 0.003173755848667045 0.016841475420219035 0.026029052919212859 -0.14134062821284171 -0.00039812250535027432 -0.017660439131830592 0.12172021572985954 -0.15898978232833097 0.019460745540743982 -0.069725559043145105 0.059441518265557519 -0.12771363666411154 -0.043255641517023782 -0.077814531971846582 0.026984070885235689 0.00022564489384921957 -0.029960264933871262 -0.003898898968780041
leaf_weight=6.4808803498744991 566.20189820230007 16.629261747002605 17.66255122423172 8.9223456084728223 15.180599644780157 12.939998134970663 8.4757619649171811 6.9907431155443218 7.2385200858116141 14.483484566211702 12.669959381222723 61.491003692150116 4216.8946521580219 554.48398829996586 10.230211839079855 5.4928418993949881 115.83056485652924 14.486862570047377 9.7141488045454008 12.98697470128536 17.574417650699615 14.219997584819792 9.9857534468173963 5.7420759052038184 34.907750681042671 14.703999698162077 69.336903810501099 2416.6056259125471 68.120476588606834 3006.1231587827206
leaf_count=26 2276 67 71 36 61 52 34 28 29 58 51 247 16918 2222 41 22 464 58 39 52 71 57 40 23 140 59 279 9687 273 12056
internal_value=-1.30901e-06 -0.00913478 0.0275229 0.062248 0.000516785 -0.00137881 -0.0194676 -0.023643 -0.0269308 -0.0137361 -0.00058415 -0.000768392 0.00343328 -0.000354289 -0.0523401 -0.0628745 -0.00267965 -0.0661321 0.07019 -0.118084 -0.0329372 -0.00797853 -0.0432239 -0.0325805 -0.0204125 -0.00051409 -0.00355766 0.00258051 0.0117208 -0.00320264
internal_weight=11352.8 609.416 43.2142 25.5516 10743.4 6511.32 274.012 261.072 252.596 166.259 6237.3 6221.11 4232.08 6142.04 86.3364 76.1061 137.289 28.9703 16.195 19.9777 79.0654 130.051 56.1284 50.6356 44.8935 6129.37 3090.16 3039.21 622.604 3075.46
internal_count=45537 2450 174 103 43087 26108 1098 1046 1012 666 25010 24945 16979 24627 346 305 550 116 65 80 318 521 225 203 180 24576 12394 12182 2495 12335
is_linear=0
shrinkage=0.1


Tree=16
num_leaves=31
num_cat=0
split_feature=18 3 11 8 8 7 18 11 19 5 5 15 15 7 21 20 9 11 10 4 8 5 20 12 16 9 18 15 9 14
split_gain=5.10989 6.47793 6.40138 8.08095 7.69704 7.42598 7.74009 6.50944 6.63885 6.59405 8.3946 8.67087 7.91056 7.30325 7.23341 7.02533 12.6526 11.3093 9.66617 8.73018 8.68405 8.66319 8.99684 8.56737 8.10436 9.57455 12.9958 11.4354 12.077 9.34948
threshold=64.824592590332045 3004.845092773438 0.0082332259044051188 0.00032095549977384513 0.00046699510130565619 2.935000061988831 63.040019989013679 0.0042774563189595946 0.49910748004913336 721496.81250000012 2718824.6250000005 2497.4970703125005 2191.815063476563 0.59499999880790722 0.50915533304214489 -2.7430732250213619 0.00075271885725669574 -0.0026295182760804887 -0.0060010659508407107 69.974597930908217 0.00074034271528944384 394923.17187500006 -0.11355653405189513 0.0043487432412803182 2422.2619628906255 7.2927043220261125e-05 38.14636421203614 2543.9709472656255 -0.00070356429205276061 1.0764099955558779
decision_type=2 2 2 2 2 2 2 2 2 2 2 2 2 2 2 2 2 2 2 2 2 2 2 2 2 2 2 2 2 2
left_child=1 2 7 -4 -5 -6 -7 9 -9 12 13 -12 14 -11 -1 16 18 21 -14 -20 -21 22 -17 -23 -19 27 -27 -26 -29 -28
right_child=-2 -3 3 4 5 6 -8 8 -10 10 11 -13 15 -15 -16 17 -18 24 19 20 -22 23 -24 -25 25 26 29 28 -30 -31
leaf_value=-0.026907795404543695 -0.0063139631757758545 -0.04260719535069557 0.036426362812982054 -0.092902467974812705 0.090379261326854421 -0.031179026599932019 0.071403765073065215 0.04738103186144868 -0.012536124575312189 0.08319896627292063 0.012271513806160176 -0.016402554643475117 0.073513612640221715 0.0069634393722367328 -0.14533894497073618 0.018286102200783569 -0.055411504913782862 0.0089853707608137899 0.11824831804545149 -0.026931641058252593 0.068000879643876355 0.010454325014812325 0.1053246499474903 -0.023152146827565237 -0.011788128785555504 0.088683374913653398 0.013060922532657183 0.01542317223019544 -0.0075828149416955135 -0.0023353327346208592
leaf_weight=30.145686224102974 1152.1308103352785 34.404194265604019 109.26748563349247 9.2235705703496915 8.73198154568672 36.169063106179237 9.2327916473150236 19.197396382689476 503.47460767626762 12.629926234483717 156.25305756926537 324.41443154215813 15.330649316310881 2487.4602100402117 6.2215110957622519 427.86346359550953 64.324006333947182 657.01750616729259 4.9749141186475745 95.003066629171371 10.723557710647581 233.9521212130785 12.214945092797278 112.25683683156967 1702.2386956065893 17.181985303759575 519.37875735759735 389.69579383730888 550.54194630682468 1639.3384847044945
leaf_count=121 4651 138 439 37 35 145 37 77 2018 51 628 1302 62 9969 25 1716 258 2634 20 381 43 938 49 450 6827 69 2084 1561 2205 6567
internal_value=-1.28109e-06 0.000711841 0.000858465 0.0199511 -0.00846251 0.00592476 -0.0103181 0.00052861 -0.0103354 0.00112827 0.00502165 -0.00708133 -0.000660332 0.00734857 -0.0471684 -0.000398187 -0.0193237 0.000177151 -0.000905249 -0.0112112 -0.0173029 0.0113919 0.020702 -0.000442436 -0.00143333 -0.00285399 0.00205842 -0.00689903 0.00195237 0.00136894
internal_weight=11351 10198.9 10164.5 172.625 63.3574 54.1338 45.4019 9991.83 522.672 9469.16 2980.76 480.667 6488.4 2500.09 36.3672 6452.04 190.356 6261.68 126.032 110.702 105.727 786.287 440.078 346.209 5475.39 4818.38 2175.9 2642.48 940.238 2158.72
internal_count=45537 40886 40748 693 254 217 182 40055 2095 37960 11950 1930 26010 10020 146 25864 764 25100 506 444 424 3153 1765 1388 21947 19313 8720 10593 3766 8651
is_linear=0
shrinkage=0.1


Tree=17
num_leaves=31
num_cat=0
split_feature=7 23 23 4 8 6 10 21 9 11 23 13 7 0 8 11 13 18 4 22 16 10 7 21 9 12 11 20 21 21
split_gain=4.69442 6.17452 5.63485 5.155 5.3149 6.11213 7.36372 13.7928 9.59333 9.36204 8.55334 8.29469 8.89254 7.67694 8.676 7.60636 7.67458 7.37846 7.29272 10.9777 7.24414 9.00799 8.29355 7.06802 7.01421 8.26409 11.9481 22.2408 8.11893 11.0022
threshold=14.514999866485597 0.86051779985427868 -0.35632950067520136 2930.203247070313 0.0012020685244351628 3059.5000000000005 -0.0021504602627828713 -0.8312430977821349 -0.0032166843302547927 -0.008644315414130686 -0.86493045091629017 1.3832779526710512 3.0049999952316289 2426.494995117188 -0.0016206996515393255 0.0020632036030292515 0.96358168125152599 69.024532318115249 644.58255004882824 -0.31937207281589503 2550.120239257813 -0.002331099240109324 1.5549999475479128 1.9084539413452151 -0.0016438910388387737 0.004421359859406949 -0.0043022395111620418 -0.58269280195236195 -0.8312430977821349 -0.61172232031822193
decision_type=2 2 2 2 2 2 2 2 2 2 2 2 2 2 2 2 2 2 2 2 2 2 2 2 2 2 2 2 2 2
left_child=3 2 -2 4 5 6 8 15 -1 -9 24 13 -13 14 -11 -8 -17 23 -19 -20 21 -12 -22 -15 25 26 -10 -28 -26 -30
right_child=1 -3 -4 -5 -6 -7 7 9 10 11 20 12 -14 17 -16 16 -18 18 19 -21 22 -23 -24 -25 28 -27 27 -29 29 -31
leaf_value=0.048326190176523939 0.00024691106843179354 -0.02512289667436763 0.088220271108749471 -0.023406523522953984 -0.0094733205883237755 0.0063239903282441105 -0.061739429235946844 -0.082859537490562282 0.11439561595515445 -0.099220163375041512 -0.009798343262672005 -0.11340159278470685 0.038709743581490944 -0.0015441696693447517 0.0073056024997736214 -0.024003482726157852 0.081655167605044376 -0.024100054621948572 0.16493861290152048 -0.012269672487549317 -0.0089431854643323757 0.026825098104367191 0.023797960685223982 0.084881769819864256 0.10741191540332187 -0.072422993704224572 -0.10656063695492174 0.072042589943119351 -0.031253359938345111 0.042260701536962861
leaf_weight=53.206853061914444 11.412232831120493 13.185444369912146 20.111867561936378 94.344518423080444 555.0422994941473 1570.6112765520811 56.201989650726318 13.951986655592917 9.4490831494331307 7.6947488188743582 550.00865235924721 12.87915574014187 5.4779775291681281 6256.8281885385513 1196.3390853852034 62.382577255368233 7.7259581983089438 220.81221744418144 5.2173047810792932 10.59438198804855 116.98044045269489 76.5011305809021 228.46412740647793 9.4769136011600477 14.168517693877218 14.197282418608664 13.70678201317787 14.190590336918836 25.41947478055954 102.24624936282635
leaf_count=214 46 53 81 380 2233 6308 225 56 38 31 2208 52 22 25081 4800 250 31 896 21 43 469 307 916 38 57 57 55 57 102 410
internal_value=-1.12174e-06 0.0323384 0.0563725 -0.00012903 6.68801e-05 0.000563863 -0.000432042 -0.00155267 0.00680153 -0.0010177 0.0049056 -0.000869892 -0.0680098 -0.000709972 0.00662482 -0.0343314 -0.0123599 -0.00206803 -0.0194023 0.0462029 0.00108419 -0.00532637 0.0127106 -0.00141346 0.0241127 -0.0074801 0.017208 -0.0157103 0.0355938 0.0276233
internal_weight=11348.8 44.7095 31.5241 11304.1 11209.8 10654.7 9084.12 7865.58 1218.54 7739.27 1165.33 7725.32 18.3571 7706.96 1204.03 126.311 70.1085 6502.93 236.624 15.8117 971.954 626.51 345.445 6266.31 193.378 51.5437 37.3465 27.8974 141.834 127.666
internal_count=45537 180 127 45357 44977 42744 36436 31546 4890 31040 4676 30984 74 30910 4831 506 281 26079 960 64 3900 2515 1385 25119 776 207 150 112 569 512
is_linear=0
shrinkage=0.1


Tree=18
num_leaves=31
num_cat=0
split_feature=8 0 4 14 13 20 21 5 12 10 22 7 6 10 7 8 11 10 20 18 10 7 21 13 11 20 13 22 8 26
split_gain=3.86759 7.549 6.08194 5.99925 5.27808 8.88858 7.98114 12.5181 9.75477 9.48632 7.14165 6.57153 7.45201 11.3059 7.81483 6.87898 7.78593 6.41135 6.31049 11.2073 8.26621 6.90527 6.86299 6.53056 6.87423 6.69585 7.14618 6.33764 7.37041 7.5083
threshold=0.00056375830899924051 2990.265014648438 52.406250000000007 1.1826292276382449 0.30296915769577032 1.9584960937500002 -0.094872452318668352 765408.06250000012 0.0038244602037593727 -0.00053190975449979294 -0.39273749291896815 1.8350000381469729 1541.5000000000002 -0.00033181160688400263 1.7849999666213991 0.00061378668760880839 0.0021398103563115005 -0.0011803723173215983 -0.95647788047790516 51.065624237060554 0.00032430936698801821 2.5449999570846562 -0.047220580279827111 0.13091845065355304 -0.0012082277680747209 0.13244618475437167 0.28963866829872137 -0.93743178248405445 0.00058954863925464462 5.5000000000000009
decision_type=2 2 2 2 2 2 2 2 2 2 2 2 2 2 2 2 2 2 2 2 2 2 2 2 2 2 2 2 2 2
left_child=-1 2 3 -2 5 6 7 8 9 -4 -11 12 14 -14 15 17 -17 -6 19 -8 22 -21 -20 -22 -25 -26 27 -27 -29 -30
right_child=1 -3 4 -5 11 -7 18 -9 -10 10 -12 -13 13 -15 -16 16 -18 -19 20 21 23 -23 -24 24 25 26 -28 28 29 -31
leaf_value=0.00082132055553074126 0.026251332362226206 -0.055849313730336074 0.029761285308931691 -0.080812015939690743 0.016953052067457269 0.10841346288594791 0.02374177204204703 0.046602104777934035 -0.14197970786569333 0.021612777192579268 -0.080670275510652353 -0.0037700003774241691 -0.082843188578739221 0.087357498013624024 -0.1354064068281641 0.044564374948951962 -0.08025921462435727 -0.10541460755548315 -0.023004667247579935 -0.15082937509103589 -0.088712319595989908 -0.030820647709036045 0.091897190439366422 -0.068284923402425951 0.045234020756486318 0.090389309390479289 0.088269761711288752 0.096501823490482447 -0.039283621891039677 0.081994543679268395
leaf_weight=9468.7368239015341 7.2319485843181637 27.821418717503548 19.443027079105377 18.942555353045464 5.7343361377716091 8.6793177872896177 29.448316752910614 21.194593742489815 8.4659301638603193 8.9641599506139737 28.624682113528252 1410.0459893345833 6.2361056655645397 10.431332752108572 9.4505554735660535 15.202762335538866 7.443864405155181 16.902135193347931 6.4843495339155188 7.2334158718585995 5.9613303989171973 14.220810949802397 26.209503397345543 8.7384723275899869 70.831448078155518 5.9873304665088574 8.6857743114232999 5.226175442337996 52.44793675839901 5.6551935374736777
leaf_count=37991 29 112 78 76 23 35 118 85 34 36 115 5667 25 42 38 61 30 68 26 29 24 57 105 35 284 24 35 21 211 23
internal_value=-8.86677e-07 -0.00414652 -0.00336903 -0.0512307 -0.00268219 0.00850557 0.00590799 -0.0201984 -0.0418146 -0.0269458 -0.0562779 -0.00526874 -0.0348662 0.0236771 -0.0526937 -0.0354316 0.00353531 -0.0744161 0.015066 -0.0163086 0.0232048 -0.0712823 0.0691081 0.0140277 0.0179146 0.0229757 0.0027636 -0.00795082 -0.0172482 -0.0274796
internal_weight=11346.7 1877.94 1850.12 26.1745 1823.95 342.502 333.822 86.6924 65.4978 57.0319 37.5888 1481.45 71.4011 16.6674 54.7337 45.2831 22.6466 22.6365 247.13 50.9025 196.228 21.4542 32.6939 163.534 157.572 148.834 78.0024 69.3166 63.3293 58.1031
internal_count=45537 7546 7434 105 7329 1375 1340 348 263 229 151 5954 287 67 220 182 91 91 992 204 788 86 131 657 633 598 314 279 255 234
is_linear=0
shrinkage=0.1


Tree=19
num_leaves=31
num_cat=0
split_feature=0 4 15 12 7 4 4 12 18 18 18 4 7 8 8 10 10 19 13 9 13 5 26 6 18 23 13 22 13 21
split_gain=3.88093 7.18871 4.78956 4.86607 5.76522 5.67388 5.1208 4.70524 4.41665 6.6 5.01031 4.37913 4.06257 4.03582 3.84936 6.56443 9.49663 17.0698 8.37525 12.122 11.6164 8.70428 8.51401 8.21541 7.78519 7.61672 7.06437 6.22423 6.21173 6.18961
threshold=2183.525024414063 368.76664733886724 2191.815063476563 0.0094438004307448881 4.0950000286102304 318.00581359863287 125.58395004272462 0.0068389759398996839 32.841272354125984 44.032991409301765 54.130060195922859 215.26394653320315 2.1450001001358037 0.00021905104222241792 0.00049737721565179538 -0.0011527973692864177 -0.00090292867389507581 -1.8217368125915525 0.498101755976677 0.00018012878717854622 0.56725740432739269 1304009.8125000002 1.5000000000000002 2326.5000000000005 54.992645263671882 -0.99988102912902821 0.51568615436553966 -0.64778602123260487 0.54432126879692089 -0.6659424602985381
decision_type=2 2 2 2 2 2 2 2 2 2 2 2 2 2 2 2 2 2 2 2 2 2 2 2 2 2 2 2 2 2
left_child=1 7 3 4 5 6 -2 12 -3 -10 -11 -8 -1 -5 -4 18 17 -17 -16 20 23 22 27 26 -19 -18 -20 -22 -28 -29
right_child=2 8 14 13 -6 -7 11 -9 9 10 -12 -13 -14 -15 15 16 25 24 19 -21 21 -23 -24 -25 -26 -27 28 29 -30 -31
leaf_value=0.0035145372597837109 0.019271245719214524 -0.00045511220531441925 0.00090038624249729686 0.089769361011410281 -0.11845266052820985 0.061441496749562369 -0.14453198358417052 0.053311772113012162 0.17844515438022421 -0.00015719699081643938 0.11805001641393909 -0.027928004914251566 -0.12006422773828898 -0.036213646276673166 -0.034689983712313688 0.14688325730554738 -0.12360710400865338 -0.0051571158617277572 0.11546212955515181 -0.0271580658377529 0.038641252236359107 -0.019777542702252213 0.048305055676565692 0.13336173432745779 0.1153033055007105 -0.0018111557759086334 -0.085034207161959613 -0.018600713720458305 0.063392810593758425 -0.15296383439895558
leaf_weight=4.9742512404918653 6.7009417712688508 8.6940033882856387 9145.5189328938723 5.1862587034702283 9.2070201486349088 5.7340039461851111 6.7003890722990018 5.2111673057079306 5.4817212373018291 8.4734629541635496 6.2162693291902533 6.201986089348793 5.718303307890892 4.9886857569217682 139.36805383861065 11.72711895406246 5.1515802145004264 38.892414435744286 5.7356099188327851 151.90885891020298 10.473647594451906 96.025588840246201 52.587704569101334 11.734043821692465 6.2236779183149329 1553.3695966154337 6.4809202402830106 10.977483734488485 4.9909681379795074 4.9855947494506827
leaf_count=20 27 35 36693 21 37 23 27 21 22 34 25 25 23 20 559 47 21 156 23 610 42 385 211 47 25 6248 26 44 20 20
internal_value=-1.35102e-06 0.0293832 -0.00011776 -0.0327795 -0.0506822 -0.026056 -0.0516491 -0.0246021 0.059127 0.0848072 0.0498647 -0.0884821 -0.0625745 0.028001 1.20009e-05 -0.00383743 -0.000749435 0.0393988 -0.0139092 -0.00577164 0.0101544 0.000451368 0.0250323 0.0688426 0.0114602 -0.00221374 0.024846 -0.0212617 -0.0204594 -0.0605651
internal_weight=11345.6 44.7692 11300.9 44.7193 34.5443 25.3373 19.6033 15.9037 28.8655 20.1715 14.6897 12.9024 10.6926 10.1749 11256.2 2110.63 1615.36 56.8432 495.268 355.9 203.992 175.05 79.0244 28.9415 45.1161 1558.52 17.2075 26.4367 11.4719 15.9631
internal_count=45537 180 45357 180 139 102 79 64 116 81 59 52 43 41 45177 8484 6497 228 1987 1428 818 702 317 116 181 6269 69 106 46 64
is_linear=0
shrinkage=0.1


Tree=20
num_leaves=31
num_cat=0
split_feature=7 5 23 14 26 23 5 5 6 14 22 21 21 21 9 7 22 6 11 0 7 9 5 14 3 12 18 7 21 6
split_gain=3.89105 5.41398 5.44822 5.60117 5.44911 5.8232 4.09835 5.83253 5.57691 8.49908 5.54162 8.8865 5.70489 8.25078 5.63147 5.85958 5.50552 5.19727 10.2525 6.44937 4.9765 4.44898 7.63316 6.01178 4.31519 4.27161 4.27054 5.92359 6.48989 8.64938
threshold=14.514999866485597 7574733.0000000009 0.86051779985427868 10.790218353271486 1.5000000000000002 -0.30694064497947687 5241245.0000000009 4831396.0000000009 4478.5000000000009 3.2210328578948979 -0.87777194380760182 -1.1371166110038755 3.1315212249755864 2.4756302833557133 0.0062889524269849071 12.934999942779543 0.61048936843872081 7245.0000000000009 0.0013150290469639005 2502.619995117188 4.9449999332427987 0.0014797773328609767 6571478.5000000009 4.7684772014617929 2971.734985351563 0.0071341670118272313 33.170051574707038 0.81499999761581432 -1.011248707771301 4572.5000000000009
decision_type=2 2 2 2 2 2 2 2 2 2 2 2 2 2 2 2 2 2 2 2 2 2 2 2 2 2 2 2 2 2
left_child=6 -2 4 -4 -3 -6 7 26 9 16 11 -10 13 14 15 24 -8 18 20 -19 -9 25 -23 -24 -12 -13 27 -1 -29 -30
right_child=1 2 3 -5 5 -7 8 17 10 -11 12 21 -14 -15 -16 -17 -18 19 -20 -21 -22 22 23 -25 -26 -27 -28 28 29 -31
leaf_value=0.037418549568141071 0.11435990480335041 0.12685655050730085 -0.10656735442359613 0.032077759676249096 -0.054482996620282304 0.055967575513705063 -0.07758145370338998 -0.068649194890847032 -0.058043281466576474 -0.15024161323814533 -0.010590887333595721 0.034916013671515124 0.057786542917571182 -0.12823486994023911 -0.087380236076881293 -0.092647389348988821 0.042955741478354514 0.069987464891510878 0.13616271025996157 -0.051521351987545684 0.05472519532722947 -0.057759746343461697 0.12174251487320105 -0.015710033012693338 0.061660010332490071 0.16144801367940531 -0.00050803124506559915 0.022566101141484239 0.003902725178176861 -0.037441892499387647
leaf_weight=60.551844105124474 6.430096134543418 5.7043203413486507 6.2230421006679517 5.4796427637338638 7.4250311851501491 13.366181567311285 7.7139241546392459 5.2366427183151272 9.9666750878095609 7.2121584862470618 115.90663501620293 4.9874534010887164 9.6596065610647184 6.9087838232517234 10.356002002954481 8.2113168984651548 7.4478413909673691 7.1789571344852474 11.424726486206053 11.15677674114704 8.7032067924737913 7.4557249844074276 8.2090106755495054 5.1960953176021567 8.9011611342430097 5.7370657473802567 10320.761553764343 155.18187619745731 438.6102372854948 57.198186457157135
leaf_count=248 26 23 25 22 30 54 31 21 40 29 467 20 39 28 42 33 30 29 46 45 35 30 33 21 36 23 41414 625 1762 230
internal_value=-1.37217e-06 0.0294681 0.0151778 -0.0416484 0.0402772 0.0165231 -0.00011776 0.000152993 -0.0135134 -0.0608787 -0.00825394 0.0242827 -0.0167067 -0.0214948 -0.0163513 -0.0108215 -0.0183705 0.0366139 0.0659351 -0.00394722 0.00837838 0.0502604 0.0233507 0.0684631 -0.00543803 0.102604 8.56663e-06 0.0075017 0.00471899 -0.000866934
internal_weight=11344.5 44.6283 38.1982 11.7027 26.4955 20.7912 11299.9 11076 223.869 22.3739 201.496 41.552 159.944 150.284 143.375 133.019 15.1618 43.7003 25.3646 18.3357 13.9398 31.5854 20.8608 13.4051 124.808 10.7245 11032.3 711.542 650.99 495.808
internal_count=45537 180 154 47 107 84 45357 44455 902 90 812 167 645 606 578 536 61 176 102 74 56 127 84 54 503 43 44279 2865 2617 1992
is_linear=0
shrinkage=0.1


Tree=21
num_leaves=31
num_cat=0
split_feature=14 0 9 8 11 5 8 23 23 7 14 13 9 12 21 22 22 21 21 6 21 15 19 23 23 3 13 4 11 9
split_gain=3.56893 7.25751 6.93757 7.26878 7.87164 6.66134 10.282 7.97991 10.557 6.8198 9.97761 8.36905 6.85564 7.63973 6.55465 6.58705 7.13286 8.33762 6.35923 6.2315 6.06029 6.03469 6.00489 5.44536 6.97888 6.80048 5.30911 7.11491 5.18748 5.16858
threshold=0.56115964055061351 2426.494995117188 -0.00064556230790913094 3.9923356780491312e-06 0.0010797941940836611 64501.730468750007 4.1205763409379876e-05 -0.92304024100303639 -0.56460559368133534 0.37500000000000006 0.65967947244644176 0.28394353389739996 -0.00037158382474444801 0.0022846253123134379 0.040612256154417999 -0.0065449222456663838 0.79467767477035534 -0.089961834251880632 0.1643926799297333 297.50000000000006 -0.014082569628953932 2512.2929687500005 -1.2073687911033628 0.91442844271659862 0.832677721977234 2518.694946289063 0.13091845065355304 46.12559890747071 -5.9748623243649483e-05 0.00067627697717398416
decision_type=2 2 2 2 2 2 2 2 2 2 2 2 2 2 2 2 2 2 2 2 2 2 2 2 2 2 2 2 2 2
left_child=1 -1 -3 14 -5 6 22 28 -9 10 -10 12 -11 18 15 -4 17 19 -14 -17 -12 -19 -2 24 29 -25 27 -18 -8 -24
right_child=5 2 3 4 -6 -7 7 8 9 11 20 -13 13 -15 -16 16 26 21 -20 -21 -22 -23 23 25 -26 -27 -28 -29 -30 -31
leaf_value=0.024137893307372323 0.099213186368282524 0.074910283144234438 -0.10095972393474509 0.014503864346958953 -0.077364774533967506 -0.00013652295160982011 0.032678935610209986 0.14296626300625861 -0.023852895678024968 -0.039216696310962758 0.066916228518076992 -0.053905153818994724 0.061058449049236074 0.15338162105992934 -0.071214304809576051 -0.11490574897055093 0.026898505618697718 0.0081180109436449471 -0.04442859521766266 0.034683456629300856 0.18085307939146608 0.13107693005670207 -0.009456463117935611 -0.080937903212127002 0.079243766152716083 0.047323515445555457 -0.13113605968968753 -0.10619069442831236 -0.10064350290205584 0.063259011598053708
leaf_weight=43.490529179573059 5.8632553517818442 7.1826338320970526 8.6570482105016691 57.978035092353821 11.114757388830183 10849.12056581676 5.4845003038644791 10.660257890820501 6.7332720309495953 9.2402378767728717 10.425954729318622 12.467020481824873 24.20222744345666 6.741704747080802 44.364407256245613 5.4328455328941327 11.393810316920286 7.4114876389503541 7.4814686626195899 5.7133681923151016 8.4535667598247493 8.6499759107828122 112.47762390971184 16.892221316695217 11.219979166984556 5.4731395691633216 5.6906327158212653 6.204034134745597 6.2376257330179197 10.705388918519018
leaf_count=175 24 29 35 233 45 43549 22 43 27 37 42 50 97 27 179 22 46 30 30 23 34 35 452 68 45 22 23 25 25 43
internal_value=-1.21742e-06 -0.0125189 -0.0213859 -0.0253929 -0.000274777 0.000250134 0.0157432 0.0396422 0.0491151 0.0374471 0.0806593 0.0190413 0.0381206 0.056718 -0.0421581 -0.0203661 -0.00654918 0.0282227 0.0361498 -0.0382288 0.117933 0.0743381 -0.000146437 -0.00386256 0.00374013 -0.0495504 -0.0471727 -0.0200214 -0.0382651 -0.00313702
internal_weight=11343.2 223.284 179.793 172.61 69.0928 11119.9 270.759 108.128 96.4057 85.7455 25.6128 60.1327 47.6656 38.4254 103.518 59.1532 50.4962 27.2077 31.6837 11.1462 18.8795 16.0615 162.632 156.768 134.403 22.3654 23.2885 17.5978 11.7221 123.183
internal_count=45537 900 725 696 278 44637 1088 434 387 344 103 241 191 154 418 239 204 110 127 45 76 65 654 630 540 90 94 71 47 495
is_linear=0
shrinkage=0.1


Tree=22
num_leaves=31
num_cat=0
split_feature=8 7 21 10 5 14 10 23 23 22 22 11 20 10 9 9 18 9 19 20 0 26 3 21 14 22 5 5 18 10
split_gain=3.55429 7.12348 6.14101 8.4313 8.43294 7.91738 7.04022 5.39473 5.01156 4.87524 4.78391 7.03574 11.7694 8.57221 8.16106 7.79794 9.02619 9.31343 9.27999 8.3165 6.64974 6.64613 8.65322 7.84718 6.69531 6.57669 6.27777 6.66048 6.09197 6.03084
threshold=-0.00096937554189935316 2.9150000810623173 0.41059370338916784 0.00036298761551734065 593595.59375000012 1.6156947612762453 -0.00090292867389507581 0.99970966577529918 0.99708375334739696 0.99280729889869701 0.22282424569129947 0.0029514090856537227 0.88889965415000927 0.0038857754552736883 0.0031907192897051577 0.0012232315493747594 59.88233947753907 0.00096646437305025767 1.0423651337623598 1.1719093322753908 2576.065063476563 4.5000000000000009 2529.615112304688 0.022460211068391803 0.97723424434661876 0.93894198536872875 249231.01562500003 163090.58593750003 44.72424507141114 0.000602686923230067
decision_type=2 2 2 2 2 2 2 2 2 2 2 2 2 2 2 2 2 2 2 2 2 2 2 2 2 2 2 2 2 2
left_child=1 2 3 4 5 -1 -7 8 9 -3 -2 12 13 -12 -15 16 21 18 -18 25 -19 24 23 26 -14 -17 27 -23 -13 -30
right_child=10 7 -4 -5 -6 6 -8 -9 -10 -11 11 28 15 14 -16 19 17 20 -20 -21 -22 22 -24 -25 -26 -27 -28 -29 29 -31
leaf_value=-0.074647972272213967 0.0013717365929616877 0.0019621850119204789 -0.042691032881492202 0.13065784751488937 0.08394895085010752 -0.012832178552267419 0.10793120846020472 -0.095351923782545311 0.063062829903082276 0.055607681817541714 -0.0040263382959325467 0.12978491409618018 0.088573345343959609 0.07929999146291089 -0.048528241053267071 0.056633329226453415 -0.101513050383204 -0.12466755371752254 0.0041809962836327954 0.010593137255199869 0.013647837477766867 -0.014102046485011083 -0.099875339061396395 0.085144393716640107 0.019500109005702509 0.17360318667314942 -0.056017721777475854 0.10893538495849318 -0.032408838020501492 -0.0083763820057952913
leaf_weight=9.9200624525547045 5872.578144043684 784.54207794368267 8.4151544719934446 10.33715136349201 18.744791343808174 12.349070981144903 7.9256928265094784 5.4840388000011435 14.194725275039671 17.314502999186516 3338.7342698872089 2.9950331747531882 14.732232764363287 22.372454032301906 6.4299605488777152 13.588016495108606 8.9555764049291593 11.619137242436411 114.71242778003216 22.557798445224762 4.9595092087984076 14.934500202536585 9.7269328683614713 9.4770519584417325 295.67333114147186 7.4381133317947379 19.965371653437614 6.2373314946889868 130.36939440667629 524.59038469195366
leaf_count=40 23567 3157 34 42 76 50 32 22 57 70 13398 12 59 90 26 55 36 47 461 91 20 60 39 38 1184 30 80 25 523 2116
internal_value=-1.22943e-06 0.0060681 0.0372487 0.0485972 0.0312642 -0.00144225 0.0343759 0.00349891 0.00416321 0.00312055 -0.000517559 -0.00294002 -0.00133472 -0.00355773 0.0507631 0.012164 0.00870087 -0.0129082 -0.00347297 0.0527665 -0.0832904 0.0168752 -0.0134919 0.00310905 0.0227784 0.0980121 -0.01579 0.0221454 -0.0125093 -0.01316
internal_weight=11341.9 889.227 67.6919 59.2768 48.9396 30.1948 20.2748 821.535 816.051 801.857 10452.6 4580.07 3922.11 3367.54 28.8024 554.577 510.993 140.247 123.668 43.5839 16.5786 370.747 60.3412 50.6143 310.406 21.0261 41.1372 21.1718 657.955 654.96
internal_count=45537 3580 274 240 198 122 82 3306 3284 3227 41957 18390 15739 13514 116 2225 2049 564 497 176 67 1485 242 203 1243 85 165 85 2651 2639
is_linear=0
shrinkage=0.1


Tree=23
num_leaves=31
num_cat=0
split_feature=18 19 11 23 6 7 20 12 0 8 23 9 6 18 0 18 23 4 13 9 9 20 14 12 10 9 21 12 16 13
split_gain=3.39906 6.63227 7.4631 6.25949 7.42965 6.55196 6.62164 8.5154 7.81768 6.34427 9.6572 7.38788 6.27853 6.81186 9.46732 6.52192 6.97175 6.25451 5.79741 10.5731 9.17958 8.33929 7.53314 10.6967 5.75019 7.85456 15.9942 9.66187 8.52384 8.33159
threshold=62.64387512207032 0.54492667317390453 0.0017931914189830425 0.041439602151513107 4478.5000000000009 3.1149998903274541 1.0681155323982241 0.005253217415884138 2624.404907226563 -0.001065382035449147 0.91964805126190197 -0.0023082824191078539 5332.5000000000009 64.824592590332045 2663.545043945313 67.837451934814467 -0.25671049952507013 2547.473022460938 0.14752069860696795 0.00061779847601428639 0.0019340616418048742 -0.58269280195236195 1.5290762186050417 0.0021442404249683027 0.00055885475012473773 0.00021477406698977577 0.30985967814922338 0.0026042972458526496 2778.579467773438 0.29152271151542669
decision_type=2 2 2 2 2 2 2 2 2 2 2 2 2 2 2 2 2 2 2 2 2 2 2 2 2 2 2 2 2 2
left_child=24 2 18 4 -3 -6 17 8 -8 10 -5 -11 -9 -14 15 -15 -17 -7 19 -2 22 -22 23 -20 -1 -26 27 29 -28 -27
right_child=1 3 -4 9 5 6 7 12 -10 11 -12 -13 13 14 -16 16 -18 -19 20 -21 21 -23 -24 -25 25 26 28 -29 -30 -31
leaf_value=-0.00093896077233963145 0.040158800252975545 -0.018083725401354552 0.078243060548091534 -0.014528885046698135 -0.10585709922613767 -0.0089587340644665201 0.11057483240759812 0.065940967108980272 -0.00022216167310954308 0.12028280754076813 -0.15687246444516151 0.00098828689177478455 0.081203957157088696 -0.11664094875699854 0.032979316974320654 -0.05115186373091949 0.046775956150662573 -0.13779585086406948 0.060990572439119255 -0.14121775951093404 0.01507330386193937 -0.10486687312621235 0.16239471932574565 -0.062278268965503661 -0.00099345951353084169 0.033801515848799805 -0.0016938446237538753 0.013709835780501729 0.031848107822024595 0.10344230545733138
leaf_weight=6697.6992824375629 6.197668328881262 556.60382926464081 18.365778923034668 20.311802148818973 4.9426258355379096 14.280858844518663 17.061425000429157 14.603973686695097 10.160884171724318 5.2269561290740958 6.2275537997484198 761.65328840911388 8.1453269273042661 9.483179494738577 25.816114082932472 25.619738981127732 10.150146096944814 5.1185244768857947 29.792368173599243 6.6759020388126373 15.64545898139477 9.2091053277254087 4.9864432215690604 9.2175227701663953 1459.7181503474712 161.31966726481915 887.79127679765224 436.13686721026897 82.832098558545113 19.226573795080185
leaf_count=26880 25 2254 74 82 20 58 69 59 41 21 25 3066 33 39 105 104 41 21 120 27 63 37 20 37 5853 647 3559 1748 332 77
internal_value=-1.05431e-06 -0.00427969 0.0206414 -0.0059477 -0.0128259 0.00730371 0.0112863 0.0199792 0.0692192 0.000137891 -0.0479303 0.00180138 0.00569173 -0.00541581 -0.0153434 -0.0429107 -0.0233636 -0.0429524 0.00769669 -0.0538984 0.0192136 -0.0293669 0.0466578 0.0318638 0.000699483 0.00430097 0.00916982 0.0217633 0.00116859 0.0412176
internal_weight=11340.2 1595.5 100.09 1495.41 701.987 145.383 140.44 121.041 27.2223 793.42 26.5394 766.88 93.8185 79.2145 71.0692 45.2531 35.7699 19.3994 81.7245 12.8736 68.8509 24.8546 43.9963 39.0099 9744.72 3047.02 1587.31 616.683 970.623 180.546
internal_count=45537 6441 403 6038 2844 590 570 491 110 3194 107 3087 381 322 289 184 145 79 329 52 277 100 177 157 39096 12216 6363 2472 3891 724
is_linear=0
shrinkage=0.1


Tree=24
num_leaves=31
num_cat=0
split_feature=7 21 22 0 4 4 8 12 22 11 7 0 14 10 21 12 21 8 19 23 21 20 8 20 5 10 14 6 3 14
split_gain=3.25293 4.48558 5.38247 4.52949 4.06335 3.6208 4.8077 5.58846 10.2078 5.5603 7.41442 5.36289 4.60812 6.32 5.75409 4.30504 8.89604 4.58242 4.17026 5.19394 5.1731 4.20571 4.13074 7.11791 5.54722 5.24669 6.11197 5.34759 6.85707 5.46483
threshold=14.514999866485597 3.1315212249755864 -0.85828685760498036 2415.174926757813 4831.0649414062509 2930.203247070313 0.0021222822833806281 0.0054022651165723809 -0.55375361442565907 0.0093144816346466559 11.055000305175783 2553.785034179688 5.0611360073089608 -0.0064144209027290336 0.56286031007766735 0.009834491182118656 -1.1371166110038755 -0.0017364872037433086 10.594810485839846 -0.83747833967208851 0.62492051720619213 9.7729701995849627 0.0012020685244351628 8.3376550674438494 275465.07812500006 -0.0042241839691996566 1.6268829107284548 11405.500000000002 2500.194946289063 1.9243681430816653
decision_type=2 2 2 2 2 2 2 2 2 2 2 2 2 2 2 2 2 2 2 2 2 2 2 2 2 2 2 2 2 2
left_child=5 2 -2 4 -4 18 7 8 -7 10 -8 -10 13 -9 15 17 -17 -14 22 -20 -21 -22 25 24 -24 26 -1 29 -29 -28
right_child=1 -3 3 -5 -6 6 9 12 11 -11 -12 -13 14 -15 -16 16 -18 -19 19 20 21 -23 23 -25 -26 -27 27 28 -30 -31
leaf_value=0.12058658008508756 0.13714581848917234 -0.057983012729057593 0.14610112514972856 0.0011617795231691334 0.019282206485853444 0.12746008231106171 0.05299487992796658 -0.18280614191633207 0.033931335398475967 0.080019239207462997 -0.10925089478548902 -0.10487614559293404 -0.027329151027495849 -0.052943515811956866 -0.079539303915101792 -0.11457387216338728 0.061993916929314996 0.098269844219371363 0.12569803828432888 0.080854739216603286 0.041559658761762375 -0.057533758245713107 -0.088750858557692505 -0.09925717983842415 -0.005820450426170372 -0.00014029510976737371 -0.046586497842010986 0.015328962553878375 -0.11398535131116272 0.01213320222876692
leaf_weight=4.927062213420867 4.8773653209209433 5.4482081681489936 4.9185114204883558 23.980464532971382 5.1949737071990967 5.7201943248510387 5.916460648179056 4.9858499169349697 5.4555745273828489 9.3495781272649747 5.3759458661079407 5.6825953423976898 4.9808946251869184 15.089219257235525 12.793351069092749 6.7078531533479691 4.9659508466720563 6.9693371802568471 5.397759526968005 8.7003788799047488 7.6909829825162896 9.6657569110393524 8.1900112926959974 8.5089900791645032 531.83141294121742 10046.244512602687 16.331721276044846 8.4372511357069033 7.9779331833124152 536.50240677595139
leaf_count=20 20 22 20 97 21 23 24 20 22 38 22 23 20 61 52 27 20 28 22 35 31 39 33 35 2143 40328 66 34 32 2159
internal_value=-1.38749e-06 0.027007 0.0388886 0.0248323 0.0809583 -0.000107608 -0.0196528 -0.0316504 0.0188774 0.0229804 -0.024245 -0.036887 -0.0467289 -0.0851962 -0.0255237 0.00372782 -0.0394632 0.0459198 5.64135e-05 0.0364167 0.0179219 -0.0136243 -4.59871e-05 -0.00850809 -0.00707818 0.000391069 0.00968824 0.00872837 -0.047519 0.0103985
internal_weight=11338.8 44.4195 38.9713 34.0939 10.1135 11294.4 93.9928 73.3508 16.8584 20.642 11.2924 11.1382 56.4925 20.0751 36.4174 23.624 11.6738 11.9502 11200.4 31.4549 26.0571 17.3567 11169 548.53 540.021 10620.4 574.176 569.249 16.4152 552.834
internal_count=45537 180 158 138 41 45357 380 296 68 84 46 45 228 81 147 95 47 48 44977 127 105 70 44850 2211 2176 42639 2311 2291 66 2225
is_linear=0
shrinkage=0.1


Tree=25
num_leaves=31
num_cat=0
split_feature=0 4 17 12 18 18 18 7 26 1 9 23 14 8 9 23 21 8 7 12 18 10 13 14 5 21 12 18 8 23
split_gain=3.06227 5.76456 4.23565 3.81919 3.63913 5.35001 4.05356 3.32001 3.28695 11.2655 9.08777 6.8701 8.39933 6.29686 10.3207 8.70338 8.55757 7.76081 14.2812 11.9578 11.8045 8.86363 7.72617 7.70562 8.27444 10.7794 8.57943 8.18693 8.03353 7.61032
threshold=2183.525024414063 368.76664733886724 2183.299682617188 0.0068389759398996839 32.841272354125984 44.032991409301765 54.130060195922859 2.1450001001358037 4.5000000000000009 2554.115112304688 0.0022083424264565115 -0.99988102912902821 1.1915062069892886 -0.00055468981736339618 -0.0014065189752727745 0.054514370858669288 0.2026481702923775 7.6423588325269534e-05 1.325000047683716 0.0072059228550642737 35.245952606201179 0.0027192082488909368 0.96358168125152599 1.4351145625114443 504600.95312500006 -0.49186642467975611 0.0030233630677685146 65.33536529541017 -0.00038366872468031937 -0.73283809423446644
decision_type=2 2 2 2 2 2 2 2 2 2 2 2 2 2 2 2 2 2 2 2 2 2 2 2 2 2 2 2 2 2
left_child=1 3 -2 7 -3 -6 -7 -1 -4 10 11 12 -10 14 15 22 -17 19 -19 20 29 -20 -13 -22 -25 -26 -27 28 -28 -15
right_child=2 4 8 -5 5 6 -8 -9 9 -11 -12 13 -14 17 -16 16 -18 18 21 -21 23 -23 -24 24 25 26 27 -29 -30 -31
leaf_value=0.0029533560997944165 -0.075908100131192757 -0.0012285318534711338 0.00092821594294789861 0.047835674136918693 0.16138065063196258 2.6338875561428407e-06 0.106500095352918 -0.10903872553047951 -0.13156658214332903 -0.031151891027758456 -0.028540927713129962 0.032577637754170496 0.02974884572282567 0.072368899248712912 0.028332172760271036 -0.051783668790209236 0.080010365645792017 0.015511278244388197 -0.014583662377914265 -0.079413083506381751 -0.013569385245004742 0.026539940241221346 -0.071114586304759669 0.01792099121489461 -0.098174246566200815 0.079604808898165957 -0.074130267926882445 -0.13061969009307672 0.019870394461865889 0.01104168642806411
leaf_weight=4.9741354286670667 7.3664415478706351 8.6806540936231631 8472.8991132229567 5.2145210057497016 5.3982019573450115 8.4726392179727537 6.1816438883543006 5.658140242099762 8.5727480202913267 135.46429808437824 119.55882084369659 48.451929301023483 5.1767971366643897 25.011860936880112 183.8891893774271 49.365714102983475 5.4729353040456763 554.28875029087067 369.95932677388191 22.367252871394157 852.33259549736977 61.062516152858734 8.4370127916336042 180.058971747756 14.726526901125906 10.452321544289587 12.451927363872519 5.8976834118366233 33.690803229808814 105.94301894307137
leaf_count=20 30 35 34017 21 22 34 25 23 35 544 483 195 21 101 739 199 22 2226 1486 90 3429 246 34 722 59 42 50 24 135 428
internal_value=-1.2814e-06 0.0261562 -0.000104541 -0.0222648 0.0528612 0.0762765 0.0449267 -0.0566451 -5.50615e-05 -0.00301713 -0.00159352 -0.000333823 -0.0708302 4.72093e-05 0.0137678 -0.0102033 -0.0386305 -0.00175688 0.00489486 -0.00694641 -0.00563985 -0.00875771 0.0171994 -0.00899097 0.0061768 -0.0212082 -0.00307098 -0.0196764 -0.00549632 0.0227549
internal_weight=11337.5 44.5799 11292.9 15.8468 28.7331 20.0525 14.6543 10.6323 11285.5 2812.63 2677.17 2557.61 13.7495 2543.86 295.617 111.728 54.8386 2248.24 985.311 1262.93 1240.57 431.022 56.8889 1109.61 257.278 77.2193 62.4927 52.0404 46.1427 130.955
internal_count=45537 180 45357 64 116 81 59 43 45327 11310 10766 10283 56 10227 1189 450 221 9038 3958 5080 4990 1732 229 4461 1032 310 251 209 185 529
is_linear=0
shrinkage=0.1


Tree=26
num_leaves=31
num_cat=0
split_feature=5 8 23 25 10 8 11 6 12 13 1 23 20 18 19 6 8 6 13 19 16 25 15 10 22 14 16 21 20 11
split_gain=3.1376 15.28 7.79209 8.59658 8.17534 9.31489 7.32899 6.80065 6.55915 7.90191 6.2326 5.77233 5.39154 8.69483 6.4279 5.2834 16.7756 11.7452 9.03367 8.94023 9.76893 8.79191 12.894 8.61139 7.16597 7.09278 6.83312 7.38881 6.48896 7.89288
threshold=64501.730468750007 4.1205763409379876e-05 -0.92304024100303639 0.37940952181816107 -0.00024544518964830781 0.00011599720164667816 0.00015265078400261703 535.50000000000011 0.001689206750597805 0.30487869679927831 2490.9399414062505 0.91964805126190197 0.015448234509676697 59.278795242309577 0.30839443206787115 468.50000000000006 2.7359776140656326e-05 282.50000000000006 0.45754382014274603 2.0686099529266362 2417.361206054688 -0.12940952181816107 2552.506958007813 0.0022376927081495528 -0.19294966012239453 0.57994490861892711 2525.0844726562505 -0.26643966138362879 0.21851854771375659 -3.2341436963179142e-05
decision_type=2 2 2 2 2 2 2 2 2 2 2 2 2 2 2 2 2 2 2 2 2 2 2 2 2 2 2 2 2 2
left_child=1 7 -3 12 5 -5 -7 10 -6 -10 11 -1 -4 14 -14 16 19 26 21 20 -2 22 24 -22 -19 -26 27 -18 -23 -30
right_child=15 2 3 4 8 6 -8 -9 9 -11 -12 -13 13 -15 -16 -17 17 18 -20 -21 23 28 -24 -25 25 -27 -28 -29 29 -31
leaf_value=-0.018861298910391813 0.074182109149513759 -0.031298080258311156 0.10621295534948812 0.061061694308935835 0.0033588180096199953 -0.11968837659173991 0.016335721952927963 0.071102981245941096 0.11181389695659889 -0.026949605802147215 0.0065187499002519831 -0.089182028766614074 0.049889670546314553 0.1100116449462028 -0.097388300262512523 0.00036670041872522661 -0.058540511183915622 -0.023788361144507882 0.065511233801378299 -0.13227731444809807 -0.022366962028952789 -0.038845301643529007 -0.060490672323315668 0.062759465491552494 -0.03728741215589048 0.052019533605661528 0.075924204512962848 0.031290666725454067 0.12234354232987686 -0.0081951765227762079
leaf_weight=93.586452454328537 11.202857568860052 15.162812754511831 27.459786653518677 8.651448071002962 18.388590022921562 10.191804602742197 6.4792382419109336 10.70741845667362 19.328611209988598 5.2098931670188895 106.83299234509468 13.336511507630346 6.4625479727983492 9.6485496461391431 5.4731593430042267 10047.319886133075 10.454181432723997 21.69247131049633 18.160265684127808 6.9592276960611335 479.43671756982803 97.224518224596977 19.972767502069473 12.185542687773703 10.159494847059248 71.333977594971657 29.701379671692848 73.752561688423157 4.99281121790409 64.072292894124985
leaf_count=378 45 61 111 35 74 41 26 43 78 21 431 54 26 39 22 40354 42 87 73 28 1930 390 80 49 41 286 119 296 20 257
internal_value=-1.20859e-06 0.00922592 0.0361606 0.0448811 0.0219319 -0.0231306 -0.0668223 -0.00666831 0.048514 0.0823523 -0.010564 -0.0276324 0.0768173 0.0394197 -0.0176451 -0.000301187 -0.00750667 0.00725312 -0.00290472 -0.0197108 -0.0181529 -0.0071972 0.0130542 -0.020257 0.0272897 0.040886 0.0346843 0.0201382 -0.022196 0.00124165
internal_weight=11335.5 356.92 132.456 117.294 68.2496 25.3225 16.671 224.463 42.9271 24.5385 213.756 106.923 49.044 21.5843 11.9357 10978.6 931.301 421.517 307.609 509.784 502.825 289.448 123.159 491.622 103.186 81.4935 113.908 84.2067 166.29 69.0651
internal_count=45537 1440 534 473 275 102 67 906 173 99 863 432 198 87 48 44097 3743 1691 1234 2052 2024 1161 494 1979 414 327 457 338 667 277
is_linear=0
shrinkage=0.1


Tree=27
num_leaves=31
num_cat=0
split_feature=7 6 8 6 16 2 4 19 10 11 3 19 2 18 9 24 6 16 18 9 7 9 22 21 4 24 12 7 3 13
split_gain=2.96607 7.1761 6.24954 9.43659 5.56164 4.05523 6.69656 5.51708 5.66057 3.69694 4.59744 8.23287 5.75944 4.79882 4.3267 4.88719 3.69521 4.72923 7.48068 6.4179 6.37734 5.98997 4.1873 3.25936 7.23044 8.95798 5.71691 10.8882 8.27623 7.83829
threshold=11.894999980926515 9269.0000000000018 0.0034165055258199577 9269.0000000000018 2528.4367675781255 2181.3649902343755 506.15934753417974 -0.42407052218914026 -0.0032012079609557982 0.020189099013805393 2414.015014648438 2.1191285848617558 2289.055053710938 33.481227874755866 0.0062889524269849071 -0.6035533845424651 11405.500000000002 2579.913208007813 45.107019424438484 -0.0024436526000499721 9.5349998474121112 -0.0058698246721178285 0.15858851373195651 -1.2909349799156187 172.76615142822268 -0.37940952181816096 0.0069841702934354552 2.185000061988831 2267.5300292968755 1.897448778152466
decision_type=2 2 2 2 2 2 2 2 2 2 2 2 2 2 2 2 2 2 2 2 2 2 2 2 2 2 2 2 2 2
left_child=2 4 5 -4 -2 6 7 8 -1 10 12 13 -3 -12 -13 -16 23 18 22 21 -21 -19 -18 24 25 -7 28 -28 -26 -29
right_child=1 9 3 -5 -6 16 -8 -9 -10 -11 11 14 -14 -15 15 -17 17 19 -20 20 -22 -23 -24 -25 26 -27 27 29 -30 -31
leaf_value=0.02167886555803808 0.16004393355659116 0.019619315724276245 -0.11857197030290001 0.035122902677021159 0.019694230672877643 -0.0022497038664465894 0.070076564881727574 0.069001062093654378 -0.11316449344093336 -0.047430230579438459 -0.011965594335463882 0.11060872893799741 0.13207337567429869 -0.10784697240528394 0.082640438270149566 -0.049368492624185883 -0.058054996998805924 0.020207530501783394 -0.13027611859007868 -0.0079266891321315026 0.12676053414715105 -0.13483808775939007 0.042354282626736323 -0.00034923218758402762 -0.096838573225519628 0.14589641535687176 -0.087951154289233502 -0.0071866527926136934 0.023145328597516189 0.066735147527531624
leaf_weight=5.8765809684991845 5.8768976628780347 14.747460514307024 10.609392359852793 6.4074397683143607 5.4342179298400879 7.886103272438052 21.25208780169487 5.6945756971836081 6.6203148961067209 10.630658268928526 19.862401232123378 7.1244611889123943 6.5893375128507605 7.0808233171701422 5.1746312230825433 6.1228840500116322 10.412264168262487 4.9847735315561295 9.0277439653873426 8.6458818763494474 5.9244174957275382 4.9822596013546008 6.9091468155384055 10791.68825173378 5.9562176316976538 8.4604359120130521 15.168836161494253 127.42382442951202 165.18567825853825 16.163770481944084
leaf_count=24 24 60 43 26 22 32 86 23 27 43 80 29 27 29 21 25 42 20 37 35 24 20 28 43349 24 34 61 512 665 65
internal_value=-9.63197e-07 0.0182196 -0.000144591 -0.0607004 0.0926155 -5.28169e-05 0.031955 -0.0125804 -0.0497553 0.00733803 0.0160667 -0.0019382 0.0543479 -0.0371637 0.0495812 0.0110959 -0.000165653 -0.0270518 -0.0564706 0.00453923 0.0468384 -0.0572957 -0.0180038 -4.28167e-05 0.00950748 0.0744259 0.00629075 -0.00737719 0.0189696 0.00113478
internal_weight=11333.9 88.6438 11245.3 17.0168 11.3111 11228.3 39.4436 18.1915 12.4969 77.3327 66.702 45.3652 21.3368 26.9432 18.422 11.2975 11188.8 50.8865 26.3492 24.5373 14.5703 9.96703 17.3214 11137.9 346.245 16.3465 329.898 158.756 171.142 143.588
internal_count=45537 360 45177 69 46 45108 160 74 51 314 271 184 87 109 75 46 44948 206 107 99 59 40 70 44742 1393 66 1327 638 689 577
is_linear=0
shrinkage=0.1


Tree=28
num_leaves=31
num_cat=0
split_feature=3 16 13 18 11 4 22 6 16 23 2 22 12 12 14 7 5 21 22 3 18 23 13 6 20 14 21 7 10 11
split_gain=2.8799 16.559 7.1444 7.03683 11.2056 6.93803 5.58579 7.35712 4.59296 9.52392 7.74935 6.73963 14.2061 13.0441 11.1876 11.152 10.7693 11.109 10.6617 8.72338 11.055 9.57745 11.9869 10.8891 9.00224 10.8639 8.98417 8.63965 8.4169 8.05451
threshold=2428.105102539063 2426.8500976562505 0.70074692368507396 62.835123062133796 0.0033769943984225397 148.825553894043 -0.99851059913635243 1258.5000000000002 2301.0324707031255 -0.96535655856132496 2258.365112304688 0.34816221892833715 0.0038244602037593727 0.004647195804864169 1.9490942955017092 1.8750000000000002 201837.21875000003 0.34295821189880377 0.37258200347423559 2420.704956054688 65.075424194335952 -0.29445663094520563 0.36948484182357794 1110.5000000000002 -0.057299857959151261 0.82914513349533092 -0.042481249198317521 3.0949999094009404 0.0013916766038164499 0.003664402756839991
