tree
version=v4
num_class=1
num_tree_per_iteration=1
label_index=0
max_feature_idx=26
objective=binary sigmoid:1
feature_names=Column_0 Column_1 Column_2 Column_3 Column_4 Column_5 Column_6 Column_7 Column_8 Column_9 Column_10 Column_11 Column_12 Column_13 Column_14 Column_15 Column_16 Column_17 Column_18 Column_19 Column_20 Column_21 Column_22 Column_23 Column_24 Column_25 Column_26
feature_infos=[98344.75:118822.2734375] [98411.21875:118869.9765625] [98200:118712] [98344.75:118822.28125] [0.077799998223781586:956.35784912109375] [8207.8994140625:110129152] [55:73211] [0.0099999997764825821:1690.9100341796875] [-0.010181850753724575:0.0084533868357539177] [-0.012185920029878616:0.022239096462726593] [-0.015981024131178856:0.022980703040957451] [-0.019776241853833199:0.026120215654373169] [3.2399540941696614e-05:0.01552511565387249] [1.6960962966550142e-05:3.7004866600036621] [0.25095769762992859:382.00421142578125] [98411.265625:118699.390625] [98484.6875:118618.390625] [98463.6640625:118638.6875] [1.6676942110061646:97.802032470703125] [-413.22183227539062:648.5445556640625] [-385.3692626953125:576.98834228515625] [-136.44517517089844:250.84901428222656] [-1:1] [-1:1] [-1:1] [-1:1] [0:6]
tree_sizes=3466 3458 3484 3481 3444 3468 3488 3461 3471 3475 3461 3457 3435 3456 3459 3419 3471 3467 3413 3450 3441 3448 3416 3410 3413 3439 3441 3468 3457 3431 3438 3422 3414 3458 3457 3425 3453 3431 3431 3447 3470 3411 3427 3463 3421 3448 3441 3420 3403 3436 3442 3449 3419 3411 3445 3445 3465 3414 3426 3451 3431 3393 3433 3446 3416 3480 3426 3411 3422 3426 3407 3423 3470 3417 3432 3419 3427 3416 3435 3416 3410 3443 3419 3440 3413 3417 3433 3464 3442 3412 3416 3449 3465 3432 3476 3439 3461 3441 3449 3423 3418 3416 3412 3409 3452 3423 3449 3415 3471 3430 3462 3404 3413 3414 3429 3459 3405 3423 3454 3428 3418 3447 3409 3406 3417 3425 3409 3436 3426 3450 3425 3402 3442 3420 3400 3424 3426 3423 3434 3426 3426 3409 3411 3416 3473 3457 3417 3405 3430 3419 3419 3442 3417 3418 3421 3411 3461 3437 3406 3412 3433 3416 3421 3433 3426 3417 3416 3411 3422 3431 3433 3435 3420 3409 3455 3438 3432 3445 3445 3429 3444 3418 3441 3434 3427 3432 3419 3452 3436 3414 3441 3429 3415 3392 3447 3417 3406 3436 3464 3445 3428 3446 3470 3435 3430 3413 3450 3422 3435 3392 3410 3418 3465 3410 3424 3438 3420 3451 3424 3434 3429 3426 3425 3463 3462 3415 3446 3425 3439 3418 3430 3428 3445 3434 3422 3405 3423 3415 3439 3398 3433 3416 3430 3449 3454 3416 3425 3430 3464 3428 3406 3445 3447 3424 3435 3425 3402 3406 3443 3424 3425 3430 3435 3407 3419 3412 3436 3423 3435 3435 3406 3457 3437 3452 3437 3422 3446 3391 3407 3432 3412 3420 3429 3430 3424 3438 3452 3424 3442 3401 3406 3418 3431 3422 3410 3454 3423 3431 3420 3401 3422 3431 3422 3443 3439 3416 3458 3423 3430 3403 3401 3425 3432 3404 3425 3430 3471 3420 3436 3453 3422 3426 3417 3439 3423 3447 3445 3428 3446 3423 3403 3410 3438 3416 3396 3430 3425 3419 3415 3417 3444 3433 3418 3443 3418 3414 3429 3435 3452 3416 3443 3413 3423 3405 3417 3447 3445 3445 3429 3411 3434 3425 3428 3429 3444 3428 3427 3412 3395 3424 3412 3429 3422 3426 3423 3420 3422 3415 3428 3408 3460 3395 3418 3403 3432 3408 3418 3429 3458 3429 3440 3420 3435 3423 3436 3429 3419 3408 3422 3463

Tree=0
num_leaves=31
num_cat=0
split_feature=19 8 13 12 16 24 13 23 22 18 23 23 21 23 26 22 15 18 17 14 20 6 18 12 13 9 24 21 23 3
split_gain=38.5214 34.1112 33.5842 25.5902 19.512 21.6096 28.3977 21.8477 18.2701 21.2232 19.1992 17.0142 20.3174 18.8198 19.8469 17.1035 15.6768 15.6058 15.3283 15.1976 20.0248 19.5258 15.1625 16.318 15.7116 14.8228 15.8116 14.0382 14.7102 14.0352
threshold=-50.354576110839837 9.5462620919306587e-08 0.12792523205280307 0.0012017007102258506 103763.38281250001 0.98296290636062633 0.26726311445236212 0.99873894453048717 -0.067579798400402055 36.391452789306648 -0.92304024100303639 -0.96185845136642445 1.0000000180025095e-35 -0.99959546327590931 5.5000000000000009 0.19722913205623629 105007.20312500001 17.271273612976078 102428.13671875001 95.119956970214858 51.787939071655281 758.50000000000011 37.845088958740241 0.00076634428114630293 0.06665306538343431 -0.00090372064732946445 -0.91597560048103321 11.853581428527834 0.99988102912902843 108943.84765625001
decision_type=2 2 2 2 2 2 2 2 2 2 2 2 2 2 2 2 2 2 2 2 2 2 2 2 2 2 2 2 2 2
left_child=4 3 -3 11 8 7 -7 17 10 18 -1 12 15 -14 22 16 -2 -6 -10 20 -5 -22 -15 24 -24 -12 -27 28 29 -13
right_child=1 2 -4 19 5 6 -8 -9 9 -11 25 27 13 14 -16 -17 -18 -19 -20 -21 21 -23 23 -25 -26 26 -28 -29 -30 -31
leaf_value=-0.21008815083178811 0.012760717758574125 -0.0055995416651423539 -0.026173145428789433 -0.027203970068788996 0.097842625049578899 0.083294714378018206 -0.14080109076741681 -0.1453617759129949 0.14905294278711273 -0.03901760229680868 -0.0073535011672441197 -0.043040462383186998 -0.10784866750109799 0.14806755474901445 0.12520655226513344 0.041485853979569193 -0.085900517546955296 -0.00029645532367128177 -0.023389963880093144 -0.0035161982218596469 -0.11031563431945747 -0.042592188630142594 -0.0057399251976850106 -0.043618098100381114 0.14873211877470865 -0.1341229446613918 -0.043228023886766748 0.017196598500710106 -0.1475488566804814 -0.072191768780335119
leaf_weight=7.498733550310134 20.74649615585804 1037.0748500078917 3377.4295910596848 3224.9553422033787 16.497213810682297 7.4987335503101376 22.99611622095108 10.248269185423849 14.497551530599596 31.994596481323242 59.239995047450066 1445.2559129297733 11.248100325465201 6.9988179802894583 17.497044950723648 18.496876090764999 71.987842082977295 909.34642186760902 7.9986491203308097 231.46090891957283 47.741936936974525 393.18359582126141 16.997129380702976 44.492485731840134 10.748184755444525 27.995271921157837 60.489783972501755 34.49417433142662 14.497551530599592 186.46850761771202
leaf_count=30 83 4149 13512 12902 66 30 92 41 58 128 237 5782 45 28 70 74 288 3638 32 926 191 1573 68 178 43 112 242 138 58 746
internal_value=-0.0259892 -0.0279631 -0.0213399 -0.0330066 -0.00885287 -0.00285378 -0.0856956 -0.000155066 -0.036503 0.0133135 -0.0539909 -0.0425223 -0.0163192 0.0145794 0.0288152 -0.0463152 -0.0638281 0.00145224 0.0877399 -0.0283677 -0.0299368 -0.0499251 0.00753008 -0.006086 0.0541006 -0.0460672 -0.0719857 -0.0459399 -0.0472628 -0.0463718
internal_weight=11388.1 10211.8 4414.5 5797.27 1176.3 966.587 30.4948 936.092 209.715 54.4908 155.224 1899.93 219.213 107.982 96.7337 111.231 92.7343 925.844 22.4962 3897.34 3665.88 440.926 79.2366 72.2378 27.7453 147.725 88.4851 1680.72 1646.22 1631.72
internal_count=45560 40854 17661 23193 4706 3867 122 3745 839 218 621 7601 877 432 387 445 371 3704 90 15592 14666 1764 317 289 111 591 354 6724 6586 6528
is_linear=0
shrinkage=1


Tree=1
num_leaves=31
num_cat=0
split_feature=20 8 13 7 13 24 0 0 18 2 14 12 22 23 11 17 3 12 22 22 1 0 9 10 12 19 12 12 11 23
split_gain=31.8983 26.3023 27.8023 23.1349 18.936 26.6341 23.6419 24.0777 18.6042 17.8098 17.0151 17.634 25.5176 16.2545 17.8329 17.3146 15.3504 15.4156 14.5 14.7632 17.6252 18.3869 14.2161 14.0732 13.6487 13.2701 13.0334 12.6877 15.8102 13.3965
threshold=-51.058418273925774 9.5462620919306587e-08 0.12792523205280307 39.085000991821296 0.33450658619403845 0.98296290636062633 111422.07812500001 109868.90234375001 34.231986999511726 118004.64062500001 44.300157546997077 0.0025696048978716139 0.65110388398170482 0.99873894453048717 -0.0031128550181165333 102302.25000000001 101659.89453125001 0.0055473691318184146 -0.71477618813514698 -0.7589854598045348 103866.97265625001 101168.12109375001 0.00026620621792972093 -0.0015939639997668562 0.00049667918938212108 -15.449196338653563 0.0029891909798607235 0.0058158678002655515 -0.0015125952195376156 -0.71477618813514698
decision_type=2 2 2 2 2 2 2 2 2 2 2 2 2 2 2 2 2 2 2 2 2 2 2 2 2 2 2 2 2 2
left_child=4 3 24 -2 6 13 7 8 -1 23 -10 12 -12 14 15 16 17 -6 19 20 21 -13 -22 -5 -3 -25 -20 28 -16 -30
right_child=1 2 -4 9 5 -7 -8 -9 10 -11 11 18 -14 -15 27 -17 -18 -19 26 -21 22 -23 -24 25 -26 -27 -28 -29 29 -31
leaf_value=0.072847868173847447 -0.010370686673918687 0.061058650913501482 -0.00021638950936542993 0.022610256249446656 -0.036423510345918605 -0.13377374491923832 0.15236237537383887 -0.13896972104284602 -0.019278008770062974 -0.11040215415714377 0.13464208733413099 0.055783976306254784 -0.094758314286354714 -0.12220833984836005 -0.02105760936893698 0.032559582101184127 -0.11845804989193612 0.070835788621621251 0.13167652042715203 -0.15493810966423499 0.10492891054879905 -0.16384364925481068 -0.019539069446260587 -0.018325508027665624 0.015401793938628165 0.0045315824238708249 0.027534611919357601 -0.099202151712789843 -0.059150328589582413 0.065176541115803718
leaf_weight=89.712526932358742 3997.8644105046988 70.249447286128998 3410.3949778228998 329.6589247584343 38.703812330961227 13.184546142816542 16.49910394847393 8.249779060482977 76.975328847765923 13.747270509600638 30.988276213407516 5.9926531463861492 5.748503401875495 9.2051174193620664 155.97013460099697 358.41858373582363 13.223843544721602 20.495111659169197 15.746464774012564 6.7497259229421607 17.749207973480225 10.474472731351851 18.998113602399826 318.92292846739292 963.49241936206818 1247.6908577829599 50.743172198534012 15.246653959155081 10.749029934406279 44.742533475160599
leaf_count=359 15999 281 13644 1319 155 53 66 33 308 55 124 24 23 37 624 1434 53 82 63 27 71 42 76 1276 3854 4992 203 61 43 179
internal_value=-2.86179e-07 -0.00167351 0.00413823 -0.00604532 0.0167422 0.00697173 0.0354755 0.0297719 0.0339919 0.0030081 0.0194775 0.0377581 0.0987459 0.00975486 0.0116022 0.0235482 -0.0210488 0.000710464 0.0200402 -0.0156172 0.00205429 -0.0839176 0.0405798 0.00383028 0.0185045 -0.000121543 0.0521981 -0.0111002 -0.00474792 0.0410937
internal_weight=11386.6 10352 4444.14 5907.88 1034.57 679.939 354.627 338.128 329.878 1910.02 240.166 163.191 36.7368 666.755 657.55 430.841 72.4228 59.1989 126.454 59.9642 53.2144 16.4671 36.7473 1896.27 1033.74 1566.61 66.4896 226.708 211.462 55.4916
internal_count=45560 41420 17779 23641 4140 2721 1419 1353 1320 7642 961 653 147 2668 2631 1724 290 237 506 240 213 66 147 7587 4135 6268 266 907 846 222
is_linear=0
shrinkage=0.1


Tree=2
num_leaves=31
num_cat=0
split_feature=19 3 8 13 12 23 18 25 12 22 21 23 3 23 23 14 18 19 2 10 22 18 23 23 12 12 14 17 14 23
split_gain=26.0859 23.3367 22.6259 21.2872 21.2526 28.584 21.101 21.6776 20.4714 19.2221 26.1018 18.2145 27.5933 25.5845 21.5639 18.5236 18.3356 19.4871 19.7948 17.895 16.3715 16.8954 16.1827 25.1115 24.2233 15.7279 15.5573 16.6298 17.3064 18.8429
threshold=-50.354576110839837 118036.18750000001 9.5462620919306587e-08 0.12792523205280307 0.00093166754231788229 -0.9543684422969817 33.681205749511726 -0.7865660786628722 0.0018673592130653562 0.99280729889869701 -1.1595199108123777 0.51316559314727794 108093.18359375001 0.9247100055217744 0.97287458181381237 95.119956970214858 40.102783203125007 35.263608932495124 109171.29296875001 0.00041051801235880708 -0.77576932311058033 41.48481750488282 0.33586180210113531 0.19722913205623629 0.0010551008163020017 0.00097573618404567253 66.667716979980483 117767.40625000001 45.343048095703132 0.9785965383052827
decision_type=2 2 2 2 2 2 2 2 2 2 2 2 2 2 2 2 2 2 2 2 2 2 2 2 2 2 2 2 2 2
left_child=26 2 4 -4 5 19 7 -6 -3 -7 -11 15 13 20 -15 22 -14 -18 -19 -2 -13 -22 23 -8 -25 -9 27 28 29 -1
right_child=1 8 3 -5 6 9 11 25 -10 10 -12 12 16 14 -16 -17 17 18 -20 -21 21 -23 -24 24 -26 -27 -28 -29 -30 -31
leaf_value=0.0063631844401695371 0.0083737687508760039 0.071410511655265477 0.016609583745574051 0.00021622583479263144 0.067113987530706284 -0.027017177568916952 -0.011177622656719788 0.11732502564386933 -0.11184617816529296 0.11660260270656397 -0.02021090166309164 0.08053685567350137 -0.055358461776458423 -0.039562888294309734 0.013325246733302251 0.025854795824123422 0.0068244530112700225 -0.091342631089753046 -0.0064512311121887036 0.10321021624051402 0.063760976935929206 0.01483007715752304 -0.035258691915992464 -0.08408459564374246 0.040879319903748629 0.0024601216967188974 0.0027214901354977866 -0.15614864819226631 0.045909360483316362 0.13833525630974383
leaf_weight=297.30102254450321 98.594660639762878 7.4927897006273261 1036.6707899719477 3357.5786871761084 79.193216130137444 931.21765029430389 2303.933642834425 12.490724936127661 32.694067433476448 22.483437299728394 36.718510314822197 54.479356378316879 85.957324132323265 123.95790828764439 203.9073518961668 144.73659309744835 344.58697284758091 46.209927245974541 67.723198935389519 24.927086114883423 84.467478185892105 428.81452789902687 247.13516096770763 17.234658807516098 155.18195554614067 261.12432169914246 593.47074453532696 4.9836300164461127 267.82317772507668 11.227500155568121
leaf_count=1191 395 30 4147 13433 317 3728 9220 50 131 90 147 218 344 496 816 579 1379 185 271 100 338 1716 989 69 621 1045 2377 20 1073 45
internal_value=-5.42014e-07 -0.00162433 -0.00132378 0.00408367 -0.00543831 -0.0178475 -0.00247271 0.0210393 -0.0776782 -0.0235045 0.0317475 -0.00439811 0.00477811 0.0155708 -0.00667048 -0.00900539 -0.0129752 -0.0050297 -0.0408822 0.0275121 0.0284145 0.0228823 -0.010858 -0.00842285 0.028388 0.00770379 0.0141108 0.0257379 0.0273106 0.0111657
internal_weight=11384.3 10209.5 10169.3 4394.25 5775.08 1113.94 4661.13 352.808 40.1869 990.42 59.2019 4308.33 1440.1 895.627 327.865 2868.22 544.477 458.52 113.933 123.522 567.761 513.282 2723.49 2476.35 172.417 273.615 1174.81 581.335 576.352 308.529
internal_count=45560 40854 40693 17580 23113 4460 18653 1412 161 3965 237 17241 5763 3584 1312 11478 2179 1835 456 495 2272 2054 10899 9910 690 1095 4706 2329 2309 1236
is_linear=0
shrinkage=0.1


Tree=3
num_leaves=31
num_cat=0
split_feature=9 8 10 23 17 21 13 11 22 22 12 22 23 22 22 21 9 14 9 21 16 13 0 14 9 0 13 22 23 23
split_gain=22.4042 21.2765 18.9383 20.3783 18.9374 18.6943 18.6432 16.2671 22.5608 15.4618 29.5611 24.9918 21.4464 14.5349 17.4831 14.041 14.0776 13.4563 19.5853 13.3338 13.1085 13.0787 12.6543 12.6535 13.2545 13.8071 12.2374 11.0802 10.8705 16.5857
threshold=-0.00041338521987199778 2.1976672542223245e-05 -0.0015939639997668562 0.99873894453048717 117767.40625000001 1.0000000180025095e-35 0.12517679482698443 -0.0011661478201858697 -0.96535655856132496 -0.96185845136642445 0.0015451083891093733 -0.98518189787864674 0.041439602151513107 0.9917249083518983 0.99988102912902843 -8.329436779022215 0.0011446967255324127 3.9576820135116582 -4.3993000872433179e-05 26.09113693237305 107277.16406250001 0.020999316126108173 118036.18750000001 43.257207870483406 0.00033857942617032682 107468.54687500001 0.19594532251358035 -0.99851059913635243 0.50188699364662182 0.91442844271659862
decision_type=2 2 2 2 2 2 2 2 2 2 2 2 2 2 2 2 2 2 2 2 2 2 2 2 2 2 2 2 2 2
left_child=2 5 3 4 27 7 -3 8 -2 10 -8 12 -12 17 -15 -13 20 18 -9 -4 26 -20 -7 -14 25 -25 -17 -1 -19 -30
right_child=1 6 19 -5 -6 22 9 13 -10 -11 11 15 23 14 -16 16 -18 28 21 -21 -22 -23 -24 24 -26 -27 -28 -29 29 -31
leaf_value=0.10124319974820289 -0.076862631501945694 0.015839220764872715 0.0016777273214977507 -0.11732423849132304 -0.089601848420843941 -0.0013393678462091632 -0.080053014586055821 -0.11557603510839634 0.011677860843329231 -0.0033158826854490747 0.029814584421655257 -0.044230210239615167 -0.12981958582622477 0.037922390639092314 -0.10463095279874579 -0.080495163844903586 0.024575025719841825 -0.025735916778886866 0.055747602874025248 0.082751651670544768 0.1330942988692487 -0.050608670733967236 -0.10154639351897943 -0.058931368716359969 -0.057391207411686844 0.12924586137265157 0.080450026515064485 0.022405939359804498 0.0073612988567940373 -0.030876963507034422
leaf_weight=18.240934386849403 31.47345820069313 857.28258833289146 2062.259996265173 10.61519819498062 14.894853472709654 2640.0625538676977 27.244364246726036 36.441397801041603 336.12286005914211 2726.059017136693 117.21474970877171 10.997598037123678 13.248013541102408 73.675440892577171 9.7407315820455533 5.9987174570560482 37.737524196505547 875.59792859852314 15.724556431174276 20.487235888838768 45.229142844676971 43.678759723901749 12.662521004676817 6.4988869130611446 31.242341861128807 9.7470857352018339 22.236311197280884 785.97426326572895 300.99625642597675 182.03302961587906
leaf_count=73 126 3430 8255 43 60 10571 109 146 1346 10908 469 44 53 295 39 24 151 3506 63 82 181 175 51 26 125 39 89 3147 1205 729
internal_value=-8.4723e-07 -0.0026027 0.00756488 0.0203408 0.0221248 -0.00724537 0.00280862 -0.0148015 0.00409706 -0.000849832 0.0196838 0.0287368 0.00482494 -0.0193188 0.0212761 0.0635581 0.0742182 -0.021647 -0.057861 0.00247522 0.0997192 -0.0224553 -0.0018177 -0.0434024 -0.0192943 0.0539692 0.0462562 0.0241941 -0.0190922 -0.00704906
internal_weight=11381.4 8468.95 2912.47 829.725 819.11 4558.21 3910.74 1905.48 367.596 3053.45 327.395 300.15 177.951 1537.89 83.4162 122.199 111.202 1454.47 95.8447 2082.75 73.4642 59.4033 2652.73 60.7363 47.4883 16.246 28.235 804.215 1358.63 483.029
internal_count=45560 33900 11660 3323 3280 18252 15648 7630 1472 12218 1310 1201 712 6158 334 489 445 5824 384 8337 294 238 10622 243 190 65 113 3220 5440 1934
is_linear=0
shrinkage=0.1


Tree=4
num_leaves=31
num_cat=0
split_feature=20 3 14 23 0 22 18 18 16 16 14 18 19 16 13 16 13 23 2 22 22 17 12 20 22 11 14 23 23 23
split_gain=19.787 17.7442 18.2697 18.4239 36.3097 29.8199 30.6842 22.0418 23.2978 22.0227 19.9381 19.5488 19.2585 17.6623 29.9995 23.4249 22.7003 19.8195 19.8052 17.7528 21.0448 17.531 16.8142 16.3337 29.4599 16.7177 16.1782 23.206 20.0411 17.0945
threshold=-51.058418273925774 118036.18750000001 96.915908813476577 0.51316559314727794 108134.41015625001 -0.78396254777908314 42.159385681152351 80.375171661376967 105815.59375000001 108031.23828125001 3.4418597221374516 40.102783203125007 29.730702400207523 107308.54687500001 0.1407040283083916 107342.55078125001 0.15960423648357394 0.93894198536872875 107550.00390625001 0.18437977880239489 0.054514370858669288 113623.50781250001 0.0018673592130653562 59.933067321777351 -0.75039777159690846 0.00093557199579663586 61.985431671142585 0.83985477685928356 0.95943480730056774 0.68993380665779125
decision_type=2 2 2 2 2 2 2 2 2 2 2 2 2 2 2 2 2 2 2 2 2 2 2 2 2 2 2 2 2 2
left_child=-1 2 3 7 5 -5 9 -2 -9 13 -8 -6 -13 16 18 -16 -7 -18 -15 20 -19 -14 -3 25 -25 -12 29 -28 -29 -26
right_child=1 22 -4 4 11 6 10 8 -10 -11 23 12 21 14 15 -17 17 19 -20 -21 -22 -23 -24 24 26 -27 27 28 -30 -31
leaf_value=0.013198795083235902 -0.005760038227024495 0.067397266351008261 0.019213280146661318 0.059648380745475293 -0.035837238033810746 0.072568874020511695 -0.14633833434936236 0.11655964813941598 0.014019648360766411 0.10708809509840096 -0.0016618135572924965 0.0054355386537870143 -0.036560607512314415 -0.11535084861805095 -0.15889873879508368 0.071159721927566338 0.0458477630144946 -0.023023691089682434 0.030671357821761516 -0.079897390248527766 0.10312622547302652 0.043409981904712354 -0.098763665961483477 0.11922664037334613 0.022764995401615834 0.021880622956220796 -0.071517724428265025 0.10305027273177958 -0.099936759185791146 -0.10444320430969918
leaf_weight=1032.567728921771 6539.1856974065304 7.489148184657096 426.12136621773243 125.17445136606693 230.64717002213001 113.37181124091148 8.9680379182100278 27.730722740292549 110.25980786979198 36.209321171045303 862.53176887333393 681.60663582384586 223.93464598059654 31.160520434379578 4.996876746416091 38.732777088880539 109.19425551593304 46.466567099094391 13.23295836150646 30.222137525677681 18.485051095485687 31.235927760601044 32.597764045000076 11.996755406260489 13.242843389511107 463.83462531864643 26.994116991758347 21.991553828120235 6.2451649606227866 52.222120806574821
leaf_count=4140 26180 30 1705 501 924 454 36 111 442 145 3452 2728 897 125 20 155 437 186 53 121 74 125 132 48 53 1856 108 88 25 209
internal_value=-1.1755e-06 -0.00131857 -0.00106029 -0.00193469 0.00430056 0.0123647 0.00926602 -0.00492542 0.0346262 0.0323627 0.00231084 -0.00975831 -0.00333733 0.025696 -0.0139158 0.0448715 0.0366821 0.0167742 -0.0718241 -0.0165824 0.0128782 -0.0267713 -0.067721 0.0032245 -0.0302269 0.00657105 -0.0450821 -0.00522251 0.0581553 -0.0787104
internal_weight=11378.7 10346.1 10306 9879.87 3202.7 2035.27 1910.1 6677.18 137.991 442.072 1468.03 1167.42 936.777 405.863 88.1231 43.7297 317.74 204.368 44.3935 95.1738 64.9516 255.171 40.0869 1459.06 132.693 1326.37 120.696 55.2308 28.2367 65.465
internal_count=45560 41420 41258 39553 12820 8146 7645 26733 553 1770 5875 4674 3750 1625 353 175 1272 818 178 381 260 1022 162 5839 531 5308 483 221 113 262
is_linear=0
shrinkage=0.1


Tree=5
num_leaves=31
num_cat=0
split_feature=9 8 7 21 10 23 17 12 19 22 18 4 23 26 18 9 23 15 23 12 9 17 23 21 0 1 6 14 21 4
split_gain=18.0377 16.4508 16.8156 14.9451 14.4043 16.6154 14.7158 13.5444 12.8572 24.8005 20.461 17.5863 14.972 22.8309 12.4409 13.0962 12.4257 20.1742 19.2415 15.9974 20.312 15.4492 15.1539 30.0232 12.979 13.0948 12.4765 13.0123 12.2419 12.7887
threshold=-0.00041338521987199778 2.1976672542223245e-05 20.365000724792484 1.0000000180025095e-35 -0.0015939639997668562 0.99873894453048717 117767.40625000001 0.00052241355297155689 -25.267632484436032 -0.96535655856132496 42.780746459960945 4.8739850521087655 -0.99115538597106922 5.5000000000000009 70.019008636474624 0.00036395064671523874 -0.77576932311058033 107604.34765625001 -0.30694064497947687 0.0012097830767743292 0.00030215400329325354 108988.85546875001 -0.94622433185577381 -1.9414599537849424 108109.18359375001 108015.51562500001 128.50000000000003 2.3965766429901127 3.4047589302062993 22.794919967651371
decision_type=2 2 2 2 2 2 2 2 2 2 2 2 2 2 2 2 2 2 2 2 2 2 2 2 2 2 2 2 2 2
left_child=4 3 7 8 5 6 -1 -3 9 -2 -11 -12 13 -10 -9 -16 17 19 26 -14 -21 22 23 -19 25 -24 -18 -28 29 -6
right_child=1 2 -4 -5 28 -7 -8 14 12 10 11 -13 16 -15 15 -17 18 21 -20 20 -22 -23 24 -25 -26 -27 27 -29 -30 -31
leaf_value=0.021354573673529612 -0.076816898620854113 0.061538198564643647 -0.0015306583656065137 -0.0015679455130684875 0.0019077986678338521 -0.10721661817031397 -0.079467496342827126 0.014154542889930892 -0.082180425412724814 0.018258866333179111 0.040931201870899131 -0.10380712842345635 -0.073189359992155922 0.092438518331560929 -0.082402209295392104 0.00053083290422750013 -0.12109107962427645 0.06712629781419692 -0.012652675373782427 0.026436093357745556 -0.13118273674111014 -0.022288300664721102 0.09225247948284003 -0.13072805441591204 0.1314210454740917 -0.060240781646147656 0.097343831098152589 -0.041293425903636362 0.021858402382921648 -0.028238835566001392
leaf_weight=803.72690600156784 35.891496449708939 55.135862782597542 2867.7951490283012 2651.7786957770586 1649.5516760200262 10.473707780241964 14.742366075515745 897.04236917197704 64.08691942691803 332.70713946223259 12.240185424685476 26.720687538385391 42.891208589076996 8.4780834615230543 27.488042488694191 61.963384464383125 19.174864202737808 24.204628095030785 926.69930619001389 59.167796179652214 9.4868220537900907 35.908896505832672 14.462091699242594 11.226800978183745 30.675567418336868 9.2218817919492704 6.9724461436271659 233.23888646066189 278.62172088027 153.84193509817123
leaf_count=3220 144 221 11479 10622 6605 43 60 3590 257 1333 49 107 172 34 110 248 77 97 3715 237 38 144 58 45 123 37 28 935 1116 616
internal_value=-1.59441e-06 -0.00233675 0.00242194 -0.00642079 0.00678872 0.017937 0.0195386 0.0133042 -0.0131815 0.00256402 0.0102297 -0.0583353 -0.0174714 -0.0617789 0.0106083 -0.0249541 -0.0152124 0.00567886 -0.0193912 -0.0252768 0.00465603 0.0331489 0.0553191 0.00443418 0.0884858 0.0328758 -0.0434657 -0.0372693 0.00235009 -0.000663918
internal_weight=11375.6 8464.66 3909.42 4555.23 2910.96 828.943 818.469 1041.63 1903.46 407.56 371.668 38.9609 1495.9 72.565 986.494 89.4514 1423.33 237.246 1186.09 111.546 68.6546 125.7 89.791 35.4314 54.3595 23.684 259.386 240.211 2082.02 1803.39
internal_count=45560 33900 15648 18252 11660 3323 3280 4169 7630 1633 1489 156 5997 291 3948 358 5706 951 4755 447 275 504 360 142 218 95 1040 963 8337 7221
is_linear=0
shrinkage=0.1


Tree=6
num_leaves=31
num_cat=0
split_feature=9 8 13 9 14 6 25 14 20 21 2 25 23 20 0 4 9 10 20 23 8 11 22 12 22 12 18 23 20 20
split_gain=14.616 13.3372 14.1555 13.2737 29.6186 15.8236 13.2215 13.042 21.3609 21.296 19.5363 24.5964 23.0892 17.5046 16.4424 15.5676 15.498 14.7276 14.4627 13.1711 13.0036 13.174 12.755 24.1066 20.7119 12.7073 12.5717 12.5384 14.4012 18.5201
threshold=-0.00041338521987199778 2.1976672542223245e-05 0.12517679482698443 -4.3993000872433179e-05 3.9576820135116582 167.50000000000003 0.98296290636062633 48.378049850463874 -43.465230941772454 -15.875868320465086 108827.99609375001 1.0000000180025095e-35 -0.84455960988998402 35.687822341918952 111422.07812500001 5.5096800327301034 -0.00088244432117789973 -0.00020366119133541358 50.477426528930671 0.99280729889869701 -2.5973930860345714e-05 -0.00049211009172722686 -0.96185845136642445 0.0016360938898287716 -0.97768935561180104 0.0022654560161754493 28.020210266113285 0.02835773024708033 27.671774864196781 69.136318206787124
decision_type=2 2 2 2 2 2 2 2 2 2 2 2 2 2 2 2 2 2 2 2 2 2 2 2 2 2 2 2 2 2
left_child=7 3 -3 4 -2 6 -5 8 9 16 11 18 13 -12 -14 -9 -1 -16 -10 -17 -13 -22 23 -4 27 -26 -7 28 -25 -30
right_child=1 2 22 5 -6 26 -8 15 10 -11 12 20 14 -15 17 19 -18 -19 -20 -21 21 -23 -24 24 25 -27 -28 -29 29 -31
leaf_value=0.013765644376347409 -0.087578878825627843 0.013538851139491978 -0.062171572915576567 0.012833540775344196 -0.010473780944719902 -0.079721984165148765 0.11005919669626328 0.036486024050497536 -0.0087074893956995743 0.063416854060198452 0.051493030425698819 0.0065072047925827841 -0.04396663793674821 -0.12004804834824999 -0.031973147018280294 0.010466749197321081 -0.13808333339848602 0.20226102154827094 -0.09634448866175116 -0.048178122847080729 0.012219912958739624 0.064537444470156233 -0.0032468795898020031 0.053079768798870497 0.12412327538150776 0.039674771610410303 -0.0040597321464897378 -0.018156149619664715 -0.092462717853214693 0.043314567584121583
leaf_weight=23.141768634319305 51.385342821478844 856.68987534940243 33.9065280854702 411.71389313042164 1634.7845758199692 22.161397680640221 14.478652879595755 239.4661762714386 569.6339258402586 94.223066449165344 50.939377412199974 356.74187348783016 243.42408233880997 6.7351470291614524 5.4950978457927704 1053.8793171793222 9.4724637120962125 5.2478397488594037 19.474908575415611 39.740955099463463 94.903135299682617 97.659477755427361 2725.4509357511997 90.185803160071373 28.914134576916695 46.432301342487335 2418.6397291868925 87.025207281112671 18.494642570614815 21.990888044238091
leaf_count=93 208 3430 136 1651 6555 89 58 959 2280 378 204 1429 975 27 22 4224 38 21 78 161 380 391 10908 361 116 186 9691 349 74 88
internal_value=-2.20084e-06 -0.00210455 0.00218003 -0.00578305 -0.0128235 -0.00164232 0.0161365 0.00611104 -4.37542e-05 0.0393094 -0.00348553 0.00258905 -0.0256615 0.0314607 -0.0386234 0.0133924 -0.0303373 0.0824484 -0.0116046 0.00833566 0.0178112 0.0387531 -0.00100795 0.0176558 0.0268922 0.0720818 -0.00474671 0.0112517 0.0308369 -0.0187114
internal_weight=11372.4 8462.25 3909.09 4553.16 1686.17 2866.99 426.193 2910.18 1577.09 126.837 1450.25 1138.41 311.842 57.6745 254.167 1333.09 32.6142 10.7429 589.109 1093.62 549.304 192.563 3052.4 326.95 293.043 75.3464 2440.8 217.697 130.671 40.4855
internal_count=45560 33900 15648 18252 6763 11489 1709 11660 6316 509 5807 4558 1249 231 1018 5344 131 43 2358 4385 2200 771 12218 1310 1174 302 9780 872 523 162
is_linear=0
shrinkage=0.1


Tree=7
num_leaves=31
num_cat=0
split_feature=3 11 22 22 16 23 22 12 2 12 12 20 18 15 23 14 23 2 23 22 25 21 1 23 12 14 23 19 0 22
split_gain=14.4547 13.3453 17.1193 18.6576 16.3361 16.031 14.7288 12.866 12.7116 13.4117 12.1141 11.9456 11.8362 14.6548 19.4898 17.6755 13.8554 27.2393 22.7901 30.9289 21.8337 21.215 20.7185 20.6652 22.8721 28.0135 20.3657 23.513 23.2652 27.639
threshold=118036.18750000001 -0.0031128550181165333 0.95943480730056774 0.89783340692520153 103244.39062500001 0.99873894453048717 0.39674647152423864 0.0018673592130653562 99538.550781250015 0.0055473691318184146 0.001260276301763952 -149.22274780273435 77.508911132812514 105882.96875000001 0.84688794612884533 17.348852157592777 0.51316559314727794 107113.49609375001 0.91442844271659862 0.79467767477035534 0.91597560048103344 0.57654091715812694 100624.08203125001 0.9785965383052827 0.00075173165532760333 19.621512413024906 0.34816221892833715 37.548700332641609 111422.07812500001 0.24826665222644809
decision_type=2 2 2 2 2 2 2 2 2 2 2 2 2 2 2 2 2 2 2 2 2 2 2 2 2 2 2 2 2 2
left_child=1 2 3 4 6 10 8 -2 -1 -10 -6 -11 16 15 -15 -14 26 18 19 20 -18 -21 -20 -24 -25 -26 28 -28 -3 -30
right_child=7 12 -4 -5 5 -7 -8 -9 9 11 -12 -13 13 14 -16 -17 17 -19 22 21 -22 -23 23 24 25 -27 27 -29 29 -31
leaf_value=0.028155513188708899 0.061387942258158947 -0.0030926098866636003 -0.079008213566586133 0.12812055280213505 0.17216610761171391 -0.11470625594355588 0.085957107511473257 -0.082858996261468865 -0.082839122407883548 0.059809425528921351 0.022367662355417841 -0.067659780880675965 0.18315719198961342 0.01620404595900379 -0.1081565248214405 0.038742610137811218 0.025297187558713297 -0.0037210784316500539 0.19783752435443172 -0.0066618084382737853 0.079917296703951202 -0.13109208589562082 -0.021055754335908061 -0.17423255963445583 0.099443544163167474 0.0082728944821577836 -0.013688059953390723 -0.072808762361238996 0.0093446177461465173 0.09502082048166384
leaf_weight=26.961029663681984 7.482888162136077 6173.9135370701551 19.271104529500008 14.671258971095083 5.4567894935607901 8.4745561927556974 11.929779216647146 35.608061909675598 50.074967309832573 16.213710948824886 505.73620031774044 13.451084136962889 10.458558872342108 194.56399208307266 13.474813520908354 44.691132292151451 685.21625612676144 1934.2237291783094 5.2355890125036231 60.178680866956711 81.936234176158905 17.741897404193878 293.88279995322227 6.2143806517124167 38.443218871951103 273.27042478322983 550.98926946520805 76.626587107777596 141.03166720271111 51.367519482970238
leaf_count=108 30 24736 78 59 22 36 48 146 201 65 2029 54 42 780 54 179 2744 7752 21 241 328 71 1177 25 154 1094 2208 307 565 206
internal_value=-2.19372e-06 0.000217748 0.0138829 0.0166244 0.0140617 0.0217053 -0.0194215 -0.05781 -0.0312034 -0.0512734 0.0239667 0.00201031 -0.000644533 0.0202986 0.00814913 0.0661293 -0.00117503 0.00406521 0.0143656 0.0250339 0.0311309 -0.0349936 -0.000245052 -0.00194015 0.0157297 0.0195168 -0.00371975 -0.0209062 -0.00202545 0.0322188
internal_weight=11368.8 11325.7 672.24 652.969 638.298 519.668 118.631 43.091 106.701 79.7398 511.193 29.6648 10653.5 263.188 208.039 55.1497 10390.3 3396.34 1462.12 845.073 767.152 77.9206 617.046 611.811 317.928 311.714 6993.93 627.616 6366.31 192.399
internal_count=45560 45384 2700 2622 2563 2087 476 176 428 320 2051 119 42684 1055 834 221 41629 13607 5855 3384 3072 312 2471 2450 1273 1248 28022 2515 25507 771
is_linear=0
shrinkage=0.1


Tree=8
num_leaves=31
num_cat=0
split_feature=22 16 23 26 10 3 16 14 2 22 23 13 12 12 16 10 21 15 20 13 15 14 22 22 21 6 11 12 16 13
split_gain=12.3266 23.9143 22.8108 35.1662 25.7341 24.948 38.2522 34.0072 30.337 25.6329 58.6089 24.9656 29.3368 23.5148 23.2592 22.6625 21.1001 20.6291 20.4613 19.4149 18.7372 18.426 17.7285 18.3832 17.9563 21.8585 17.3621 17.1872 28.5897 27.7963
threshold=-0.4047416597604751 107015.09765625001 0.51316559314727794 3.5000000000000004 0.00012832391803385693 106382.42968750001 107214.21484375001 48.378049850463874 104328.48828125001 -0.93279412388801564 0.19722913205623629 0.26726311445236212 0.0028018179582431917 0.0021722862729802732 105760.41406250001 0.0055580735206604013 -1.9414599537849424 109590.10546875001 20.939579010009769 0.047612601891160018 106985.35156250001 8.9466738700866717 -0.73283809423446644 -0.6867687702178954 5.3045997619628915 4115.5000000000009 0.0050639794208109387 0.0043764004949480304 101481.21484375001 0.55305933952331554
decision_type=2 2 2 2 2 2 2 2 2 2 2 2 2 2 2 2 2 2 2 2 2 2 2 2 2 2 2 2 2 2
left_child=2 15 3 5 19 7 -7 8 -1 10 11 12 17 -9 22 -2 -16 -8 -5 -4 -3 -21 -6 -24 -25 -26 -12 28 -15 -29
right_child=1 20 4 18 14 6 9 13 -10 -11 26 -13 -14 27 16 -17 -18 -19 -20 21 -22 -23 23 24 25 -27 -28 29 -30 -31
leaf_value=0.0070716111772408446 0.0048487352447376085 -0.09554966513548456 -0.11360046738038676 -0.006663287095496101 0.064445067492775593 0.071142825842589269 0.024719504104373159 0.11652341816399714 -0.092501460437087485 -0.0026041927183996973 0.092370756539812027 -0.016276787801919251 0.12890394810665418 -0.19107036261975591 -0.072927182445023997 -0.10476019739835328 -0.003639790136538255 -0.16063220610494397 -0.038660256204100657 0.12097544703418782 -0.0070080739754443582 0.030753300133939423 -0.080702515499248617 0.074202688419858429 -0.047340650582552407 0.091257443291023921 -0.07524322276283224 -0.031142826943876784 -0.0073495863166869561 0.071840875676088406
leaf_weight=49.908313125371933 3033.008248180151 24.041855677962303 8.9651494175195676 1009.0113990604877 82.845304906368256 115.86516019701958 161.39167349040508 17.956109464168549 79.079905122518539 639.33454656600952 127.72023116052151 206.75823114812374 27.705606713891029 8.7177592366933805 51.163420379161835 18.981251433491707 311.81919692456722 6.2366918623447409 249.21776223182678 23.7001693546772 4069.4718569815159 504.26363568007946 20.978737115859985 39.970630750060081 44.955457448959351 15.235426187515257 6.4941141307353965 41.933029621839523 298.27583663165569 69.894215598702431
leaf_count=200 12155 97 36 4046 332 464 647 72 317 2561 512 829 111 35 205 76 1249 25 999 95 16322 2021 84 160 180 61 26 168 1195 280
internal_value=-2.11673e-06 -0.00253286 0.00428367 -9.30097e-05 0.0166359 0.00865161 0.0163226 -0.00885938 -0.0539745 0.0109198 0.0270418 0.00794273 0.0335788 0.00446394 0.00177757 0.00416704 -0.013406 0.0178234 -0.0130009 0.0323254 -0.00752809 0.0348034 0.0287961 0.00441651 0.0222446 -0.0122589 0.0842606 -0.000340386 -0.0125667 0.033224
internal_weight=11364.9 7145.5 4219.4 3115.5 1103.9 1857.27 1291.51 565.765 128.988 1175.64 536.307 402.092 195.334 436.777 566.968 3051.99 362.983 167.628 1258.23 536.929 4093.51 527.964 203.986 121.14 100.162 60.1909 134.214 418.821 306.994 111.827
internal_count=45560 28650 16910 12487 4423 7442 5175 2267 517 4711 2150 1612 783 1750 2271 12231 1454 672 5045 2152 16419 2116 817 485 401 241 538 1678 1230 448
is_linear=0
shrinkage=0.1


Tree=9
num_leaves=31
num_cat=0
split_feature=9 23 18 11 11 26 22 16 18 0 10 24 23 0 19 16 14 23 9 18 16 19 22 9 12 12 5 12 23 10
split_gain=12.1061 11.6456 13.913 15.5047 17.3851 12.9139 12.8463 13.427 10.8168 11.1369 10.6119 15.2295 11.2734 10.465 10.3129 26.7853 20.4728 19.5906 17.0858 16.9793 19.4765 30.5972 19.8744 18.2184 16.1114 15.5826 18.6723 17.0128 18.7777 15.2114
threshold=-0.00041338521987199778 -0.99959546327590931 82.432041168212905 0.00052739528473466646 0.00072570255724713217 1.5000000000000002 -0.89001184701919545 105815.59375000001 40.87811470031739 106963.44140625001 -0.001747507893014699 0.98296290636062633 0.99873894453048717 107608.57812500001 35.263608932495124 101845.38281250001 23.35529708862305 0.82535797357559215 0.00052352526108734321 52.76379585266114 111052.35546875001 -40.422452926635735 -0.093673683702945695 0.0011755515006370845 0.0013911226415075364 0.0012257668422535064 901246.40625000012 0.0015178735484369101 0.99873894453048717 -0.00048269573017023498
decision_type=2 2 2 2 2 2 2 2 2 2 2 2 2 2 2 2 2 2 2 2 2 2 2 2 2 2 2 2 2 2
left_child=10 8 14 -4 -5 -6 -7 -8 -2 -10 11 12 -1 -13 19 18 17 -17 -16 20 25 22 -22 -21 -23 26 -3 28 -27 -25
right_child=1 2 3 4 5 6 7 -9 9 -11 -12 13 -14 -15 15 16 -18 -19 -20 23 21 24 -24 29 -26 27 -28 -29 -30 -31
leaf_value=0.019854712998800008 0.065719574591764807 -0.014988482892456696 -0.085001407325325795 0.14595455172546401 -0.061702069526755589 0.14860744657496078 0.098974794461204746 0.0033398201649913611 -0.013910494461546245 -0.094959541384616042 0.0020839345738895339 0.0027817215619931569 -0.10178286615229946 -0.14032314071572513 -0.016942152778181178 -0.029973078228672019 -0.0086339136434759305 -0.12351034692164359 0.079934807109012448 0.008835834495195781 -0.026305908251534716 -0.10665284966197362 0.11773978172338957 0.091351873677280954 -0.033793428412207463 0.0143565010909845 0.029066739066049237 -0.0028700056066968014 0.14633742899744004 -0.020087728586469903
leaf_weight=696.25113721191883 8.4730537682771665 1256.0926966369152 10.464454695582388 14.145388707518576 13.960145369172094 9.9883456081151945 19.791466534137726 56.850144147872925 34.175288036465645 33.644424840807915 2181.8991586267948 10.182314082980158 7.7036612927913657 10.258448690176008 27.691410705447197 109.48296374082565 1362.6089808642864 28.148058772087097 53.143134102225304 2378.4669116139412 20.684598311781883 48.562692046165466 17.839158311486244 12.725117683410643 80.926855683326721 556.36872915923595 104.18569122254848 1858.5369951874018 10.993003517389296 327.15291227400303
leaf_count=2797 34 5045 42 57 56 40 80 228 137 135 8746 41 34 42 111 439 5464 113 213 9530 83 195 72 51 325 2229 418 7449 44 1310
internal_value=-2.01342e-06 -0.00191581 -0.00156168 0.0315239 0.0421516 0.0275544 0.0419378 0.028036 -0.0408087 -0.0541178 0.00556569 0.0160528 0.0185236 -0.0690372 -0.00206356 -0.00932526 -0.0123465 -0.0491032 0.0467478 -0.000342876 -0.0045254 -0.0378416 0.0403972 0.00574116 -0.061118 -0.00304698 -0.0116142 0.00175695 0.0169137 -0.0159154
internal_weight=11361.4 8455.1 8378.81 125.2 114.735 100.59 86.63 76.6416 76.2928 67.8197 2906.29 724.396 703.955 20.4408 8253.61 1581.07 1500.24 137.631 80.8345 6672.54 3954.19 168.013 38.5238 2718.34 129.49 3786.18 1360.28 2425.9 567.362 339.878
internal_count=45560 33900 33594 503 461 404 348 308 306 272 11660 2914 2831 83 33091 6340 6016 552 324 26751 15860 675 155 10891 520 15185 5463 9722 2273 1361
is_linear=0
shrinkage=0.1


Tree=10
num_leaves=31
num_cat=0
split_feature=3 12 20 13 0 0 24 13 9 16 22 14 17 22 14 23 20 12 22 22 2 25 19 12 3 20 23 23 1 6
split_gain=11.4758 10.7203 10.3395 17.0563 23.6854 20.1631 17.4662 14.2347 12.9331 17.3674 15.7384 12.2932 14.5054 14.192 13.344 32.3795 16.4671 18.3511 16.3934 15.8489 25.9597 34.2003 24.5026 22.4464 49.5765 21.5329 18.7005 18.5485 18.4596 17.8944
threshold=118036.18750000001 0.0018673592130653562 -51.058418273925774 0.33450658619403845 111422.07812500001 109868.90234375001 0.98296290636062633 0.11779307946562768 0.00037330656778067356 101481.21484375001 -0.98035496473312367 99.009597778320327 99295.960937500015 0.99560055136680614 71.826381683349624 -0.85828685760498036 95.553607940673842 0.0031678646337240939 0.8102954924106599 -0.48671542108058924 108907.17578125001 0.98296290636062633 81.427410125732436 0.00038783495256211614 107199.99609375001 73.921993255615249 0.1456510201096535 0.02835773024708033 107905.44921875001 216.50000000000003
decision_type=2 2 2 2 2 2 2 2 2 2 2 2 2 2 2 2 2 2 2 2 2 2 2 2 2 2 2 2 2 2
left_child=2 -2 3 4 5 7 -5 -1 9 -9 -11 14 -13 -14 16 -16 19 18 -18 23 22 25 -21 24 -4 29 27 -25 -29 -22
right_child=1 -3 11 6 -6 -7 -8 8 -10 10 -12 12 13 -15 15 -17 17 -19 -20 20 21 -23 -24 26 -26 -27 -28 28 -30 -31
leaf_value=-0.14156313230583681 0.056917052083657042 -0.075037169404049947 0.19557482813587712 0.0026903633598188937 0.15082492133558228 -0.13249441690336733 -0.11544586165919452 -0.092102172509715322 -0.0032247240635889639 -0.050684136382129409 0.054060465200630493 0.15222895297219816 0.011520631239135192 0.17349156157266077 0.044179499843685049 -0.021889507376312407 0.034805309638246178 -0.090087345964827981 0.14705657315798012 0.00046389308360093845 -0.062892355700743877 -0.079383392322512375 -0.062864374752164318 0.0031445801462719296 -0.11816874853065072 0.079606439676353377 0.015841727449562772 -0.061951016120671602 0.0074029515766100649 -0.010777257575293367
leaf_weight=4.9907780140638343 7.4688874483108512 35.048828706145287 5.9561510682106009 660.9134129434824 14.942287161946295 8.2242283523082715 12.75659094750881 9.3807256668806058 91.455853998661041 15.412754341959952 207.03802706301212 7.7204775661230078 383.51024842262268 5.4870535284280768 83.670642524957657 653.82012055814266 66.325359687209129 9.4794051647186262 16.185131564736366 5208.579642161727 69.95312762260437 79.968817144632339 61.821819096803665 1056.428623855114 32.617571115493774 25.192931339144707 1231.6273648738861 93.63202503323555 65.03396475315094 1133.0821767151356
leaf_count=20 30 146 24 2659 61 33 53 38 367 62 833 31 1537 22 335 2620 266 38 65 20881 281 321 248 4234 132 101 4941 376 261 4544
internal_value=-2.114e-06 -0.0518574 0.000192736 0.00977001 0.0276288 0.0221583 0.00045334 0.0260327 0.02862 0.0411825 0.0468031 -0.000761367 0.0164992 0.0138053 -0.0014535 -0.0143938 -0.000411187 0.0416853 0.0568243 -0.000838426 -0.00340861 -0.0160172 -0.000278948 0.00596487 -0.0697237 -0.0118915 0.00715814 -0.0016436 -0.0335242 -0.0138076
internal_weight=11357.7 42.5177 11315.2 1025.11 351.445 336.502 673.67 328.278 323.287 231.832 222.451 10290.1 396.718 388.997 9893.37 737.491 9155.88 91.9899 82.5105 9063.89 6578.6 1308.2 5270.4 2485.3 38.5737 1228.23 2446.72 1215.09 158.666 1203.04
internal_count=45560 176 45384 4126 1414 1353 2712 1320 1300 933 895 41258 1590 1559 39668 2955 36713 369 331 36344 26376 5247 21129 9968 156 4926 9812 4871 637 4825
is_linear=0
shrinkage=0.1


Tree=11
num_leaves=31
num_cat=0
split_feature=9 23 26 3 21 21 23 13 23 18 17 19 1 13 22 20 26 26 23 0 22 14 12 13 17 11 15 11 20 21
split_gain=9.98273 10.9689 20.7873 19.2835 15.3567 14.5437 27.4808 19.3086 18.6337 16.4379 15.4257 15.1242 15.0802 17.8076 18.6764 13.8053 16.9106 16.7033 13.2136 36.8244 23.8564 17.5329 16.9841 16.8713 16.4041 15.5226 14.2767 16.7424 15.0294 14.2163
threshold=-0.00041338521987199778 -0.59657368063926686 5.5000000000000009 108900.00390625001 7.9601473808288583 2.9479279518127446 0.99970966577529918 0.034334734082221992 0.99708375334739696 36.391452789306648 117906.83593750001 -5.129286289215087 116568.96484375001 0.25659015774726873 -0.94622433185577381 -5.2852380275726309 1.5000000000000002 1.0000000180025095e-35 -0.69622442126274098 107370.32421875001 -0.69622442126274098 11.283616542816164 0.00038783495256211614 0.71721449494361889 108186.75390625001 0.0017837368650361898 104795.31250000001 -0.00087199825793504704 -12.978715896606444 1.4966876506805422
decision_type=2 2 2 2 2 2 2 2 2 2 2 2 2 2 2 2 2 2 2 2 2 2 2 2 2 2 2 2 2 2
left_child=-1 2 18 4 -4 6 -3 -7 9 -9 12 -8 -11 -14 -15 -10 17 -17 20 21 29 22 -20 25 -21 26 28 -28 -23 -2
right_child=1 5 3 -5 -6 7 11 8 15 10 -12 -13 13 14 -16 16 -18 -19 19 24 -22 23 -24 -25 -26 -27 27 -29 -30 -31
leaf_value=0.0050559973582115433 0.15116689832185259 -0.0030833860166228689 0.032477307664561021 -0.16170840420097213 -0.016488668976800635 0.16364484015543568 0.027956694244838799 -0.061468402391044778 0.10315944150269879 0.0041821208458485892 -0.12169408378631652 -0.11964643213566106 0.167727732382741 -0.089422373813538639 0.067256660914318075 -0.043739508507241655 -0.019121587853274478 0.15637970372064502 -0.025381595009773175 -0.10585412902824931 -0.0093042050248922422 -0.008561686159589417 0.18211036515679851 0.16495167378412406 -0.03886912778853574 -0.087642683099393881 -0.030692568578241208 0.066498601664386744 -0.17842175450986811 0.021278482443008451
leaf_weight=2903.7647084891796 14.20900423824787 3048.0800283849239 237.92062716186047 5.9942182600498191 87.641461715102196 7.7223803848028174 8.9460531622171384 37.986492961645126 31.845701083540916 2664.9929742217064 9.6110874563455564 30.987935140728951 11.623292043805121 10.232437208294867 29.66329163312912 5.990321710705758 36.875407934188843 13.731898561120033 6.3899414390325573 58.398863449692726 1836.6015509366989 15.976553544402124 10.309980034828184 5.4952866435050955 97.758842647075653 23.219837337732315 30.693236097693443 41.946510329842567 7.7290858179330817 20.705656796693802
leaf_count=11660 57 12235 955 24 351 31 36 153 128 10685 40 125 47 41 119 24 148 55 26 235 7367 64 42 22 392 93 123 168 31 83
internal_value=-2.22261e-06 -0.00174058 -0.00729721 0.0160233 0.0192956 0.000595735 -0.00416316 0.00573354 0.00530605 0.00386032 0.00477062 -0.0865802 0.00521806 0.0588053 0.0270717 0.0504893 0.0208535 0.0955966 -0.0108613 -0.030422 -0.00774752 0.0064777 0.102717 -0.0063736 -0.0639198 -0.0142478 0.00344082 0.0254314 -0.0639436 0.0741384
internal_weight=11353 8449.28 2500.99 331.556 325.562 5948.29 3088.01 2860.28 2852.55 2764.11 2726.12 39.934 2716.51 51.519 39.8957 88.4433 56.5976 19.7222 2169.43 297.918 1871.52 141.76 16.6999 125.061 156.158 119.565 96.3454 72.6397 23.7056 34.9147
internal_count=45560 33900 10033 1330 1306 23867 12396 11471 11440 11085 10932 161 10892 207 160 355 227 79 8703 1196 7507 569 68 501 627 479 386 291 95 140
is_linear=0
shrinkage=0.1


Tree=12
num_leaves=31
num_cat=0
split_feature=22 13 13 14 20 3 3 11 22 18 24 21 13 15 3 12 0 22 23 2 13 21 20 12 20 14 23 21 0 15
split_gain=9.71611 18.8267 25.3644 16.4282 35.0559 20.093 26.2663 28.4923 17.7302 16.6212 15.7884 13.4563 12.9975 12.1118 19.3633 13.5837 11.8751 11.3611 43.1036 36.1565 23.9314 20.3626 23.4003 19.0566 18.3759 25.7294 16.685 15.7728 22.0823 19.1045
threshold=0.99474522471427929 0.35687237977981573 0.27323478460311895 22.929368019104007 28.64469146728516 105305.85937500001 108180.00390625001 -0.00097118632402271021 0.99946221709251415 39.459560394287116 0.98296290636062633 -9.9030666351318342 0.13414586335420611 108015.59375000001 107334.93750000001 0.00078391478746198129 109131.76562500001 0.19722913205623629 0.9556623399257661 104931.04296875001 0.072023984044790282 -18.930973052978512 54.919065475463874 0.0082735335454344767 113.36968994140626 70.972103118896499 0.31109040975570684 -18.038290023803707 113752.90234375001 107945.41796875001
decision_type=2 2 2 2 2 2 2 2 2 2 2 2 2 2 2 2 2 2 2 2 2 2 2 2 2 2 2 2 2 2
left_child=17 2 3 4 5 9 8 -8 13 -2 11 -4 -5 14 -7 -16 -9 -1 19 20 26 -22 -23 24 27 -26 -19 29 -29 -21
right_child=1 -3 10 12 -6 6 7 16 -10 -11 -12 -13 -14 -15 15 -17 -18 18 -20 23 21 22 -24 -25 25 -27 -28 28 -30 -31
leaf_value=0.0021773872491422219 0.0881331391860595 0.088896977468832711 0.11020764306437332 0.045348317123493895 0.15170350335071414 0.13458504278037664 0.17668601907353482 -0.10889011714594128 -0.0022633430024213467 -0.11565859948526161 -0.16935053955835158 -0.07703079261953831 -0.027545536629245339 0.18375596910795969 0.063377882914094116 -0.11916816560637729 -0.0019262443558845143 -0.018320114342172903 -0.052638375436672526 -0.0049565958040281464 0.07746987623401716 0.020846425657706613 -0.0527951346453151 -0.17500860059122192 0.14172698625208871 -0.041206898125991077 -0.15303048893288942 -0.0071801496356340665 0.038712981042169838 -0.074689296695616886
leaf_weight=6421.3567357808352 5.2362154424190548 32.354767933487892 5.4953650981187847 32.722408458590508 23.425709918141365 23.434192955493927 6.2339294701814643 19.704750791192055 22.942658066749573 16.980707079172134 11.719276010990145 12.728683382272719 96.889959499239922 13.730776011943815 10.952543511986734 6.4929359853267661 21.931118711829185 39.630413755774498 177.64430885016918 82.724833533167839 58.530624538660049 675.32433028519154 46.094624236226082 6.7210012674331656 19.306101754307747 12.776739433407782 11.971989914774893 3251.9215926527977 108.33838611841202 74.824246108531952
leaf_count=25778 21 132 22 131 94 94 25 79 92 68 47 51 388 55 44 26 88 159 713 333 235 2708 185 27 78 52 48 13045 439 303
internal_value=-2.34654e-06 0.0160948 0.00897036 0.0177111 0.0380574 0.0200254 0.0355519 -0.0226959 0.0715055 -0.0676278 -0.0788 -0.02057 -0.00914249 0.102497 0.0752034 -0.00456292 -0.0525484 -0.000534138 -0.00434763 -0.00239269 0.0163799 0.0207435 0.0161411 -0.00678182 -0.00646332 0.068875 -0.0495735 -0.00715041 -0.00570051 -0.0380745
internal_weight=11350.1 362.976 330.621 300.678 171.066 147.64 125.423 47.8698 77.5531 22.2169 29.9433 18.224 129.612 54.6104 40.8797 17.4455 41.6359 10987.2 4565.81 4388.16 831.552 779.95 721.419 3556.61 3549.89 32.0828 51.6024 3517.81 3360.26 157.549
internal_count=45560 1457 1325 1205 686 592 503 192 311 89 120 73 519 219 164 70 167 44103 18325 17612 3335 3128 2893 14277 14250 130 207 14120 13484 636
is_linear=0
shrinkage=0.1


Tree=13
num_leaves=31
num_cat=0
split_feature=3 19 23 18 12 23 14 22 11 23 22 16 22 20 19 14 11 12 13 6 18 21 23 14 15 14 12 21 9 21
split_gain=9.2465 8.84893 18.6759 21.494 20.8734 22.4231 21.3951 18.8 14.1288 13.5532 26.4159 22.4382 15.9536 17.9109 16.7566 18.2496 14.8323 15.2992 14.5995 14.2896 12.6562 15.0248 13.2576 22.9419 18.1987 14.376 13.5745 12.2234 12.0145 11.9592
threshold=118036.18750000001 -24.324370384216305 -0.98734235763549794 41.043996810913093 0.0014241975150071087 -0.99428912997245777 19.800113677978519 -0.99988102912902821 -0.0018358731176704166 -0.99115538597106922 -0.050157042220234864 108187.40625000001 0.041439602151513107 37.045007705688484 15.570042133331301 34.179952621459968 0.0018951616366393866 0.0020854672184214 0.093590840697288527 1463.5000000000002 40.405996322631843 9.0719256401062029 -0.42853991687297815 50.374824523925788 99284.000000000015 41.939081192016609 0.0020113071659579877 -16.246480941772457 -6.7121993197360994e-05 -6.3568034172058097
decision_type=2 2 2 2 2 2 2 2 2 2 2 2 2 2 2 2 2 2 2 2 2 2 2 2 2 2 2 2 2 2
left_child=1 2 3 4 5 6 -1 -4 -5 10 -3 12 13 14 15 18 17 -14 -12 29 -9 22 23 26 -24 -26 -22 -25 -16 -13
right_child=-2 9 7 8 -6 -7 -8 20 -10 -11 11 19 16 -15 28 -17 -18 -19 -20 -21 21 -23 24 27 25 -27 -28 -29 -30 -31
leaf_value=0.071700350275949329 -0.046950426557013501 -0.062183652706366326 0.11500896693498933 0.085903271584019919 0.1187730860176997 0.11064847189412758 -0.083392404098012352 0.0078854848310885555 -0.058551115511666231 -0.00058466695962413847 -0.039431187733049627 0.019705991709198484 0.081750371654475962 0.10888311422169455 0.021997185122372327 -0.1209299929318149 -0.071996321645273559 -0.040228539549377169 0.075896277046340374 0.02589728239941011 -0.021286447462351046 0.011608359473234955 -0.1487070252147312 0.0082144724669761231 -0.023225769068304987 0.014908992085629466 0.05337325863992453 -0.071288816734320179 -0.12462213251102289 -0.090342732148714841
leaf_weight=14.977822601795195 41.796388700604439 106.47239072620869 14.951854109764097 8.9133245944976789 42.153274953365326 20.211684867739677 21.900441899895668 1671.5691395998001 28.168942674994469 8109.580681219697 17.894957169890404 12.210646361112593 64.386143729090691 10.966372847557066 7.4739745110273388 9.4879836887121183 9.2173469364643079 12.236729383468626 28.392632901668549 20.945380389690399 83.138751670718193 317.97947347164154 8.4724975824356061 22.949138954281807 166.89809067547321 242.47080379724503 34.441381886601448 122.91574716567993 22.158554881811142 51.622200861573219
leaf_count=60 176 427 60 36 169 81 88 6727 113 32541 72 49 259 44 30 38 37 49 114 84 333 1277 34 92 669 973 138 493 89 208
internal_value=-2.32734e-06 0.000171245 0.00502185 0.0411296 0.0654015 0.0259937 -0.0204027 0.00318909 -0.0238292 -0.00144244 -0.0200684 -0.00327358 0.0165004 -0.0114252 -0.0268727 0.00541265 0.047853 0.0622702 0.0313102 -0.045774 0.0025631 -0.00634018 -0.0147174 -0.0322856 -0.00364076 -0.0006384 0.000582752 -0.0587804 -0.0876415 -0.0692914
internal_weight=11347 11305.2 2822.11 136.325 99.2432 57.0899 36.8783 2685.79 37.0823 8483.05 373.465 266.993 182.215 96.3745 85.4081 55.7756 85.8402 76.6229 46.2876 84.7782 2670.84 999.266 681.286 263.445 417.841 409.369 117.58 145.865 29.6325 63.8328
internal_count=45560 45384 11343 547 398 229 148 10796 149 34041 1500 1073 732 387 343 224 345 308 186 341 10736 4009 2732 1056 1676 1642 471 585 119 257
is_linear=0
shrinkage=0.1


Tree=14
num_leaves=31
num_cat=0
split_feature=20 19 21 23 14 21 14 13 11 9 22 21 16 10 2 23 22 16 15 20 12 20 11 12 14 12 16 19 12 3
split_gain=8.02308 15.862 23.4295 17.4091 17.2624 16.8841 20.2337 15.444 13.5387 13.154 13.5813 14.7954 13.1168 11.7123 11.5623 10.6737 18.4995 16.8854 42.9183 21.2413 37.519 20.2297 20.8152 17.462 18.6654 25.2202 31.1926 19.9743 17.365 16.0287
threshold=50.477426528930671 101.80368423461915 -18.038290023803707 0.832677721977234 52.016864776611335 -21.490557670593258 76.154411315917983 0.30676357448101049 0.0054247702937573203 -0.00034311760100536043 -0.26933941245079035 12.103903293609621 104694.31640625001 0.0036612417316064243 101965.72656250001 0.51316559314727794 -0.4047416597604751 107308.54687500001 107385.61328125001 -5.9324905872344962 0.0014582751318812372 13.476824760437013 0.00093557199579663586 0.00035894173197448259 31.315834999084476 0.0015772868064232173 108170.97265625001 33.897560119628913 0.0019630421884357934 105993.84375000001
decision_type=2 2 2 2 2 2 2 2 2 2 2 2 2 2 2 2 2 2 2 2 2 2 2 2 2 2 2 2 2 2
left_child=15 5 3 -3 -4 6 12 -8 -7 -6 -11 13 -2 -12 -5 -1 -17 19 -19 20 -18 22 -21 -20 25 26 -25 -28 -27 -24
right_child=1 2 4 14 9 8 7 -9 -10 10 11 -13 -14 -15 -16 16 17 18 23 21 -22 -23 29 24 -26 28 27 -29 -30 -31
leaf_value=-0.0013293942754973094 0.12263684768197392 -0.09187813119020749 0.09815688124136894 0.15297667084571293 0.062496384268810802 -0.019418201098532793 0.14762104669565826 0.029994125857176188 -0.1015861373175083 0.017877691936648746 -0.017458519759757908 -0.07638733988004931 -0.04357817217200731 0.14402091392855079 -0.029725007927081316 0.017447308182595416 0.059463957655560423 -0.10306515023238577 -0.17924620452027173 -0.031081331491199862 0.0044688898023188955 0.014399306236454582 0.091539370398792549 0.040887946350757855 -0.016970988149943717 0.11202204193632759 -0.0067128739049103769 -0.10984569470516195 -0.072458477751786807 -0.032163548470633789
leaf_weight=6922.0778580009937 5.2404354363679877 35.140158072113991 26.103536114096642 5.4557709246873847 44.96463979780674 656.85674718022346 13.718595206737517 59.89738105237484 20.684069707989693 168.7457389831543 16.792393282055858 37.223149582743645 50.500026911497116 6.1318095922470084 9.4872917383909208 939.74155122041702 190.43927459418774 45.513690754771233 5.6526662409305564 277.2935691177845 355.85677327215672 326.42833758890629 26.696171000599861 157.36203803122044 508.31804923713207 34.901429936289787 353.99118822813034 19.831327065825462 5.9760397672653189 17.238386437296867
leaf_count=27798 21 141 106 22 181 2640 55 241 83 678 68 151 203 25 38 3771 764 184 23 1113 1432 1308 107 631 2041 140 1422 80 24 69
internal_value=-2.46577e-06 -0.00789391 0.0098836 -0.0534314 0.020455 -0.0156061 0.0174997 0.0519143 -0.0219266 0.0130486 0.00333494 -0.0374653 -0.0279515 0.0257343 0.0369801 0.000893741 0.00560663 0.000821775 -0.00793119 0.00911724 0.0236402 -0.00313285 -0.0209488 -0.0039443 -0.0030271 0.00936304 0.00353837 -0.0121841 0.0850521 0.0430027
internal_weight=11344.3 1156.94 350.044 50.0832 299.961 806.897 129.356 73.616 677.541 273.858 228.893 60.1474 55.7405 22.9242 14.9431 10187.3 3265.24 2325.5 1131.55 1193.95 546.296 647.656 321.228 1086.03 1080.38 572.062 531.185 373.823 40.8775 43.9346
internal_count=45560 4653 1410 201 1209 3243 520 296 2723 1103 922 244 224 93 60 40907 13109 9338 4545 4793 2196 2597 1289 4361 4338 2297 2133 1502 164 176
is_linear=0
shrinkage=0.1


Tree=15
num_leaves=31
num_cat=0
split_feature=22 13 13 14 20 3 2 11 18 13 16 17 24 8 26 16 20 20 16 21 18 21 15 14 0 0 25 11 23 21
split_gain=8.27064 15.7689 20.4842 13.5551 20.1709 18.2891 27.4349 20.7647 16.8957 13.6503 15.7636 15.0058 13.084 11.5851 11.5693 21.9713 20.8627 14.1389 12.7654 11.0462 10.5851 10.3604 9.94223 23.3051 10.5647 16.7773 17.5388 17.4528 15.5936 15.1045
threshold=0.99474522471427929 0.35687237977981573 0.27323478460311895 24.722811698913578 28.64469146728516 105305.85937500001 108127.78515625001 -0.00097118632402271021 39.26026916503907 0.020999316126108173 107753.03125000001 107269.64062500001 0.98296290636062633 4.4175312723382383e-05 1.5000000000000002 106826.03906250001 -13.333869934082029 -39.968130111694329 109185.53515625001 -7.5179502964019767 46.309566497802741 14.95366430282593 117904.18359375001 40.669162750244148 111422.07812500001 109775.35546875001 0.98296290636062633 -0.00087199825793504704 -0.98933362960815419 14.006246089935305
decision_type=2 2 2 2 2 2 2 2 2 2 2 2 2 2 2 2 2 2 2 2 2 2 2 2 2 2 2 2 2 2
left_child=22 2 3 4 5 8 9 -8 -2 -7 11 -11 19 -6 15 -5 20 -16 -19 -4 -17 -3 24 -24 25 -1 28 -28 -27 -26
right_child=1 21 12 14 13 6 7 -9 -10 10 -12 -13 -14 -15 17 16 -18 18 -20 -21 -22 -23 23 -25 29 26 27 -29 -30 -31
leaf_value=0.00010220041570581466 0.088943982879511302 0.10937585890763871 0.093473283781303235 0.087714052662539926 0.15376422710395352 -0.05828044505414496 0.1367238675952567 -0.045154879354411162 -0.10734679188811934 0.13378315598673579 0.17040899058666797 0.022294579620011828 -0.15390710226398455 0.021953292115650336 0.12090955743866834 0.13318318966777246 -0.14229213101052893 -0.073038029092434273 0.069266568282800936 -0.072499135879005389 -0.045851662294051083 -0.034269022262607411 0.085329103298162734 -0.060656763934042505 0.0054358018930420497 -0.10090616015566103 -0.021743383741333257 -0.14765010696571532 -0.0089768013921610514 0.054793745296433841
leaf_weight=10036.277679502964 5.733218282461169 26.001982748508453 5.9778603762388256 26.217407256364822 19.399903833866123 7.4180580824613562 7.2275997251272193 47.732793346047401 18.648370712995529 17.902955055236816 16.363976761698723 37.070184201002121 11.575502187013628 10.160218000411986 4.9848577678203574 6.4814862757921237 11.486844658851622 49.16236524283886 7.2308534681797019 12.181028246879576 6.7326363921165466 6.2227042615413657 13.151333779096602 64.895200163125992 266.28418961167336 19.234681501984596 24.466095834970474 20.01679316163063 453.28874276578426 80.816792726516724
leaf_count=40304 23 106 24 105 78 30 29 192 75 72 66 149 47 41 20 26 46 197 29 49 27 26 53 269 1072 78 99 81 1821 326
internal_value=-2.46789e-06 0.0148714 0.00834551 0.0161935 0.0326382 0.0184616 0.0329852 -0.0212368 -0.0611899 0.0708248 0.0842499 0.0586028 -0.0708236 0.108459 -0.0112869 0.0239534 -0.0437216 -0.0405218 -0.0547914 -0.0178614 0.0419644 0.0816375 -0.000492798 -0.0360572 -0.000238157 -0.000802757 -0.0183701 -0.0784 -0.0127189 0.016928
internal_weight=11340.3 361.913 329.688 299.954 187.657 158.097 133.716 54.9604 24.3816 78.7552 71.3371 54.9731 29.7344 29.5601 112.296 50.9184 24.701 61.3781 56.3932 18.1589 13.2141 32.2247 10978.4 78.0465 10900.4 10553.3 517.006 44.4829 472.523 347.101
internal_count=45560 1457 1325 1205 755 636 538 221 98 317 287 221 120 119 450 204 99 246 226 73 53 132 44103 322 43781 42383 2079 180 1899 1398
is_linear=0
shrinkage=0.1


Tree=16
num_leaves=31
num_cat=0
split_feature=9 12 21 21 12 0 26 17 23 22 22 22 10 22 18 23 21 25 23 26 12 14 12 14 14 0 22 1 19 23
split_gain=7.96476 9.42592 16.0332 9.13578 16.1363 17.0573 24.8446 16.5048 14.2223 13.8946 19.7021 22.8406 15.6734 11.7761 15.0633 17.4282 11.9075 14.0063 12.8417 12.8234 11.0721 13.5274 13.4601 12.3444 10.8775 14.0131 12.6093 12.2152 12.6723 11.4576
threshold=-0.00041338521987199778 0.00058273877948522579 -6.217660427093505 -7.5179502964019767 0.00067819989635609101 109408.35937500001 2.5000000000000004 109284.69140625001 -0.99988102912902821 -0.57536083459854115 0.067579798400402083 0.46754305064678198 0.00066365805105306219 -0.92304024100303639 61.831584930419929 0.832677721977234 -11.684379100799559 -0.98296290636062611 -0.85149618983268727 1.0000000180025095e-35 0.0027409371687099342 68.006072998046889 0.0042865553405135879 14.128419876098635 25.807188034057621 106519.19531250001 0.10669767111539842 104909.09765625001 35.263608932495124 -0.93743178248405445
decision_type=2 2 2 2 2 2 2 2 2 2 2 2 2 2 2 2 2 2 2 2 2 2 2 2 2 2 2 2 2 2
left_child=1 2 -1 4 -2 7 -7 13 -5 12 -11 -12 -8 20 16 -16 24 -18 19 -19 23 -22 -23 -6 25 -15 -26 28 -28 -29
right_child=3 -3 -4 8 5 6 9 -9 -10 10 11 -13 -14 14 15 -17 17 18 -20 -21 21 22 -24 -25 26 -27 27 29 -30 -31
leaf_value=-0.19128190065880241 -0.1439301940050253 0.0048925401744019797 0.035917351405806652 -0.061253731452268416 0.095437792093331406 -0.082070464345580213 0.073266854607577009 0.070530469700719398 2.5432580398150791e-05 -0.11194235351473431 0.13611231892583453 -0.034816891805738041 -0.10083593480527926 0.15141808929509351 -0.1074338744759247 0.074510999670641551 -0.099010180236307185 -0.079326780182855605 -0.0145657728447949 0.060396939357489049 0.084686374095545941 -0.074827214205965081 0.061199888953682273 -0.067444529318413993 0.025599649597172293 0.025519545244274872 0.062068538493689818 0.095154299676499132 -0.071840901187435788 -0.045414087350037394
leaf_weight=6.4767201840877533 8.937835216522215 2887.7484775930643 5.9681974053382856 38.071306586265564 4.9658577442169181 73.093864873051643 30.386851921677589 29.166016533970833 7312.9552963525057 21.408071935176849 10.20712026953697 33.394349932670593 6.2310036420822135 12.470127359032629 24.816447868943218 6.6822993457317343 17.177520826458931 7.7236253023147574 294.37928000092506 43.916470482945442 14.439293310046194 22.662788912653923 10.713142856955526 73.82478454709053 178.94945842027664 30.376839369535446 30.398232489824295 6.2291982024908057 9.2074930369853956 83.869556725025177
leaf_count=26 36 11610 24 154 20 294 122 117 29384 86 41 136 25 50 100 27 69 31 1182 176 58 91 43 297 718 122 122 25 37 337
internal_value=-2.47522e-06 0.00451829 -0.0823242 -0.00155654 -0.0101194 -0.00900865 -0.0376065 -0.00346894 -0.000291935 -0.00562646 -0.0333773 0.0051977 0.043641 -0.00594174 -0.00115717 -0.0688352 0.00182559 -0.0108726 -0.00649713 0.039499 -0.0341413 0.00382015 -0.0311647 -0.0571787 0.0149463 0.0621609 0.00839198 -0.0153489 0.0309374 -0.0356955
internal_weight=11336.8 2900.19 12.4449 8436.65 1085.63 1076.69 174.721 901.968 7351.03 101.627 65.0095 43.6015 36.6179 872.802 746.197 31.4987 714.698 363.197 346.019 51.6401 126.606 47.8152 33.3759 78.7906 351.501 42.847 308.654 129.704 39.6057 90.0988
internal_count=45560 11660 50 33900 4362 4326 704 3622 29538 410 263 177 147 3505 2996 127 2869 1458 1389 207 509 192 134 317 1411 172 1239 521 159 362
is_linear=0
shrinkage=0.1


Tree=17
num_leaves=31
num_cat=0
split_feature=23 18 5 12 23 23 15 23 5 14 23 23 17 22 6 10 13 11 22 20 26 12 10 15 13 19 10 21 21 15
split_gain=6.74378 18.8109 21.8733 20.0996 17.4007 34.0683 23.9502 18.1466 13.2446 12.991 13.2344 22.1426 17.6614 22.5267 16.9463 16.7281 17.6359 15.3313 14.7004 13.8331 18.1935 13.6129 15.5286 14.8757 14.1079 13.1119 14.2076 13.0306 13.8303 17.8113
threshold=-0.53176689147949208 39.929521560668952 223691.82812500003 0.00082454949733801197 -0.79994463920593251 -0.73283809423446644 107370.31250000001 -0.99988102912902821 37052.951171875007 12.512404918670656 -0.25671049952507013 -0.015271000564098356 108044.85937500001 0.95943480730056774 128.50000000000003 -0.00088411441538482894 0.15598644316196444 0.0013515511527657511 -0.99115538597106922 -10.686302185058592 2.5000000000000004 0.00062798170256428431 -0.00045819862862117583 107252.37109375001 0.056900521740317352 -7.8229200839996329 -0.00035125479917041952 5.0416541099548349 -3.1217616796493526 107210.65625000001
decision_type=2 2 2 2 2 2 2 2 2 2 2 2 2 2 2 2 2 2 2 2 2 2 2 2 2 2 2 2 2 2
left_child=1 2 -1 4 7 -6 -7 -3 -9 10 12 18 13 25 -13 -16 17 19 -12 20 -17 22 -21 24 -24 26 -2 28 -23 -30
right_child=9 3 -4 -5 5 6 -8 8 -10 -11 11 14 -14 -15 15 16 -18 -19 -20 21 -22 27 23 -25 -26 -27 -28 -29 29 -31
leaf_value=-0.026778986720802547 -0.011681306471610864 -0.15486687319672432 0.016096753260074967 -0.010171959683296771 -0.14953555446023672 0.078635751540269416 -0.060513881714117493 0.14854961115912843 0.033744170756169353 0.0031579443657258513 0.16291695403739315 0.017957575076548327 -0.097068561890378269 -0.16681969970115404 0.074435929775396065 -0.062327300336423933 -0.11210868767919913 0.11221218729203189 0.028839245568015089 -0.14525905640806372 0.03230536338674659 -0.022559639368093982 0.076006811963825804 -0.024724226060677472 -0.033790053276679173 -0.018252128160799685 0.18197588766914152 0.017872428122830155 -0.15703788298964724 -0.059188346465487998
leaf_weight=141.73852989077568 7.2253001928329468 4.878557860851287 741.17043942213058 2554.2958664447069 16.371722459793091 27.761548802256584 22.309387490153313 10.688317149877546 167.94268703460693 6787.2400754541159 9.226412504911421 153.77142880856991 38.491790413856506 8.2239412814378721 18.168283149600029 26.848330572247505 21.379425704479218 8.7055510729551298 71.923340290784836 8.3516912013292295 83.497568666934967 57.354838579893112 34.674048736691475 122.71759431064129 17.66441111266613 42.914366751909256 7.9641522616147977 23.893205657601357 25.09571273624897 71.90066009759903
leaf_count=572 29 20 2980 10255 66 113 90 43 677 27279 37 619 155 33 73 108 86 35 290 34 337 231 140 496 71 173 32 96 101 289
internal_value=-2.92553e-06 -0.00351577 0.00921366 -0.00752359 0.0195404 -0.0243087 0.0166368 0.0354167 0.0406135 0.00169081 -0.0098881 -0.00526639 -0.0431852 -0.0119152 -0.0112079 -0.0198284 -0.0232394 -0.0192869 0.0440834 -0.0217123 0.00928023 -0.0311686 -0.0120424 -0.00568684 0.03895 0.0100097 0.0898573 -0.0508489 -0.0614868 -0.0845048
internal_weight=11334.4 3687.16 882.909 2804.25 249.952 66.4427 50.0709 183.51 178.631 7647.23 859.992 755.173 104.82 66.3278 674.023 520.251 502.083 480.704 81.1498 471.998 110.346 361.652 183.408 175.056 52.3385 58.1038 15.1895 178.244 154.351 96.9964
internal_count=45560 14816 3552 11264 1009 269 203 740 720 30744 3465 3043 422 267 2716 2097 2024 1938 327 1903 445 1458 741 707 211 234 61 717 621 390
is_linear=0
shrinkage=0.1


Tree=18
num_leaves=31
num_cat=0
split_feature=3 12 21 21 22 13 13 14 20 12 23 11 13 2 24 22 19 20 13 20 22 0 3 16 21 13 9 20 10 20
split_gain=6.4822 7.52811 9.4919 11.472 6.5919 17.5771 16.6853 11.5596 24.1077 13.2462 16.0299 14.1115 12.9843 11.8678 10.9833 9.71259 12.6035 23.0448 9.66334 10.692 10.1131 13.7083 23.6191 11.921 15.3056 14.0268 10.776 9.74169 9.29586 9.18619
threshold=118036.18750000001 0.0018673592130653562 -0.86876890063285817 -17.542700767517086 0.99474522471427929 0.35687237977981573 0.27323478460311895 22.929368019104007 28.64469146728516 0.0010011112899519505 -0.023995916359126564 -0.0008526205492671578 0.12997908145189288 107336.53906250001 0.98296290636062633 0.99946221709251415 4.4392378330230722 -15.585915088653563 0.13414586335420611 8.2258200645446795 0.99988102912902843 105102.17187500001 105456.57031250001 109185.53515625001 4.5648589134216317 0.22931466251611712 0.00077590378350578259 -38.314189910888665 -0.0010315733379684386 -13.713000297546385
decision_type=2 2 2 2 2 2 2 2 2 2 2 2 2 2 2 2 2 2 2 2 2 2 2 2 2 2 2 2 2 2
left_child=4 -2 3 -3 -1 6 7 8 9 10 -6 12 -11 -13 28 16 17 -12 19 -9 21 29 -23 25 -25 26 27 -24 -8 -20
right_child=1 2 -4 -5 5 -7 14 18 -10 11 15 13 -14 -15 -16 -17 -18 -19 20 -21 -22 22 23 24 -26 -27 -28 -29 -30 -31
leaf_value=-0.00029448623928994853 0.051288447449375552 -0.090184255259328494 -0.11063277291598206 0.079575935210411619 0.10079618133451503 0.091653696136954996 0.096756125524286529 0.078073822285678857 0.12648032370186349 -0.022682084161494406 -0.044774144545895601 0.045577755676725035 0.18912221587012554 -0.075587059225229958 -0.14199507671527398 -0.03725627752013002 -0.050104513612604352 0.1537947531396473 -0.15753324127420654 -0.044576825263972629 -0.10837830455773328 0.18606291650561257 0.041798637695488638 0.18632472365710254 -0.042781772762087063 0.069692967378512216 0.065353323496480348 -0.10722259473529971 -0.06186041507664445 -0.0091808675372459791
leaf_weight=10935.592866107821 7.4362163245677939 7.8439414501190177 17.564256653189659 8.0827502906322461 29.474233329296112 26.65596279501915 5.1835437715053603 22.194262564182281 23.074399515986443 6.1675225347280485 9.1516924947500211 10.585553362965582 5.4536669254302979 34.205351501703262 11.308440446853639 24.766014263033867 10.094948932528494 16.173273265361789 9.4659259170293826 10.456009864807127 12.417707666754721 6.7440575063228598 5.2254544794559399 6.2440786361694318 5.4706333428621292 10.446940049529074 5.7354397028684607 27.329192504286773 12.864821270108219 7.4660585373640052
leaf_count=43950 30 35 77 34 120 109 21 89 94 25 37 43 22 138 47 100 41 66 38 42 50 27 21 25 22 42 23 110 52 30
internal_value=-3.52701e-06 -0.0397291 -0.0599383 -0.00403145 0.000140482 0.0135638 0.00721179 0.01429 0.0314932 0.0164884 0.0403747 -0.0214759 0.0767148 -0.0469519 -0.0647218 0.0107851 0.0443762 0.0820378 -0.00823276 0.0387959 -0.0241371 -0.0117027 0.00856036 -0.011242 0.0793347 -0.0330135 -0.0610356 -0.0833027 -0.0163053 -0.0921181
internal_weight=11330.9 40.9272 33.4909 15.9267 11289.9 354.355 327.699 298.342 169.147 146.072 89.6602 56.4121 11.6212 44.7909 29.3568 60.1859 35.4199 25.325 129.196 32.6503 96.5455 84.1278 67.1958 60.4517 11.7147 48.737 38.2901 32.5546 18.0484 16.932
internal_count=45560 176 146 69 45384 1434 1325 1205 686 592 364 228 47 181 120 244 144 103 519 131 388 338 270 243 47 196 154 131 73 68
is_linear=0
shrinkage=0.1


Tree=19
num_leaves=31
num_cat=0
split_feature=19 11 14 16 19 13 20 21 5 22 22 14 22 20 26 11 22 13 14 20 23 20 26 23 12 16 23 22 11 20
split_gain=6.51452 16.5268 20.6623 14.4728 14.4146 13.5375 12.1968 14.8541 16.27 17.2737 13.4187 31.6901 18.784 16.9918 12.4476 12.4266 13.8413 12.288 11.9061 13.3355 12.1584 13.9085 11.8315 14.3891 11.7253 18.2008 16.7898 16.2369 15.575 15.8716
threshold=29.730702400207523 0.00087760909809730958 15.095741271972658 101845.38281250001 13.180493831634523 0.10775136947631837 13.476824760437013 16.537015914916996 526413.93750000012 -0.96185845136642445 -0.0327190039679408 24.943760871887211 -0.98933362960815419 22.274422645568851 5.5000000000000009 0.0010605750721879306 0.63101285696029674 0.51946336030960094 140.16565704345706 157.1941833496094 0.96304282546043407 90.440685272216811 4.5000000000000009 -0.84455960988998402 0.0012257668422535064 111052.35546875001 0.99988102912902843 -0.99988102912902821 -0.0031128550181165333 -57.833209991455071
decision_type=2 2 2 2 2 2 2 2 2 2 2 2 2 2 2 2 2 2 2 2 2 2 2 2 2 2 2 2 2 2
left_child=1 24 4 18 -3 -6 7 -4 -9 -10 12 -12 -8 -13 15 16 -15 -11 19 20 -2 -22 -14 -24 25 26 28 -26 -1 -30
right_child=3 2 6 -5 5 -7 10 8 9 17 11 13 22 14 -16 -17 -18 -19 -20 -21 21 -23 23 -25 27 -27 -28 -29 29 -31
leaf_value=0.13906007729314759 0.042403424236638794 0.13019044975402619 0.032618584511239855 -0.0062739129756365962 0.0062237939520155758 0.06933565093672113 -0.055434332672933823 -0.071665441595424359 0.13164780593599468 0.0078720380593346323 0.021429401419397642 -0.084851440112157478 0.032509601745178848 -0.058782877008539694 0.080669619599699163 -0.048505748669106279 0.11444511694008813 -0.14500286243439975 0.10291718226817625 -0.1197611179308143 0.03485626359807785 -0.17481677186164621 -0.17626553728903255 -0.0028781316119001121 0.080980390655875159 -0.066420103898542235 -0.10108610651241999 0.0018776686113384157 -0.17163490859678543 -0.0041896964999605197
leaf_weight=7.5721112489700309 72.318069830536842 18.135938391089439 288.418097615242 2321.4880293607712 73.740562051534653 63.044730260968208 34.845832794904709 31.195621758699417 10.714392855763434 63.353697404265404 126.798100695014 64.793143913149834 212.15563248097897 7.9689385592937496 10.977965861558912 81.200587779283524 10.951396539807318 5.7337338328361502 18.942412301898003 6.721485808491706 6.7317908853292447 5.968860924243927 5.4933834671974173 37.184411361813545 26.078367069363594 48.972956106066704 17.994726985692978 5231.391711756587 5.6740737706422797 2410.5738230198622
leaf_count=31 291 73 1157 9344 297 254 140 125 43 254 509 260 851 32 44 327 44 23 77 27 27 24 22 149 105 199 74 21023 23 9711
internal_value=-3.31466e-06 0.00125071 0.0124554 -0.00458955 0.0464192 0.0353122 0.00715005 0.0206551 -0.0104309 0.0135065 -0.00195599 -0.0166797 0.0134291 -0.0441521 -0.0204161 -0.0314999 0.0414843 -0.00481542 0.0307388 0.0158355 0.0265556 -0.0636827 0.0228454 -0.0251961 -0.000407526 -0.00605924 -0.00484864 0.00227004 -0.00413416 -0.00458291
internal_weight=11327.1 8894.96 1146.71 2432.17 154.921 136.785 991.785 399.416 110.997 79.8018 592.369 302.69 289.679 175.892 111.099 100.121 18.9203 69.0874 110.683 91.7402 85.0187 12.7007 254.833 42.6778 7748.26 2490.79 2441.81 5257.47 2423.82 2416.25
internal_count=45560 35770 4604 9790 624 551 3980 1602 445 320 2378 1216 1162 707 447 403 76 277 446 369 342 51 1022 171 31166 10038 9839 21128 9765 9734
is_linear=0
shrinkage=0.1


Tree=20
num_leaves=31
num_cat=0
split_feature=8 15 23 15 26 12 23 20 12 2 16 3 19 22 20 13 1 23 22 1 17 23 13 12 12 23 21 14 20 11
split_gain=6.20242 8.61579 6.45524 16.8222 23.9499 25.5044 24.3898 23.6091 21.6727 30.0958 26.9079 26.8837 26.4418 27.2806 22.7049 20.9006 20.298 20.148 27.9102 20.0149 18.2076 25.7863 20.8015 17.7431 28.7193 17.4964 24.9257 17.9744 17.4694 20.9779
threshold=-0.0014350726269185541 109569.01953125001 0.51316559314727794 105989.20703125001 3.5000000000000004 0.00035894173197448259 0.94336524605751049 21.401200294494632 0.0010551008163020017 109335.08203125001 109533.22656250001 108148.56640625001 8.8948512077331561 0.81789681315422069 1.5621034502983095 0.11110079661011697 107854.49609375001 0.98120620846748363 0.054514370858669288 108177.82421875001 105760.15625000001 0.9247100055217744 0.28905478119850164 0.0026405334938317542 0.0018388047465123238 0.99826323986053478 1.606947720050812 38.329891204833991 -32.12573051452636 0.0017159366980195048
decision_type=2 2 2 2 2 2 2 2 2 2 2 2 2 2 2 2 2 2 2 2 2 2 2 2 2 2 2 2 2 2
left_child=1 -1 -2 20 15 -6 8 17 11 28 -11 12 14 16 -7 -5 -14 19 -19 -8 21 -4 23 24 -22 -17 27 -27 -10 -30
right_child=2 -3 3 4 5 6 7 -9 9 10 -12 -13 13 -15 -16 25 -18 18 -20 -21 22 -23 -24 -25 -26 26 -28 -29 29 -31
leaf_value=0.014239708873665291 -0.0018583266751661929 0.10704235553145412 0.019772214486386785 0.018973588835944594 -0.084332998018466804 0.020483968054831651 -0.077876499014683589 -0.065203784863667291 -0.024435572347883433 -0.12844379794640842 0.022496532074696707 -0.085512654903743698 -0.091808328902020744 0.18044670777913049 0.11538744075655849 -0.016240164662369948 0.031394584829903226 -0.0055874809451913945 0.099135103095692054 0.023195170418240523 0.052985027112098439 -0.011426364231824485 0.1123887109790867 0.13704085927461213 -0.056082427849196273 0.051402813144774934 0.11957227600954777 -0.08788470559875923 0.096208952774062662 0.01899714660971457
leaf_weight=72.150958120822906 7616.2089474797249 11.614404723048208 710.91894145309925 229.00949963927269 26.274371519684792 103.26675774157047 42.155949994921684 58.978318855166435 18.926179707050323 14.675264373421667 60.501768514513969 28.345595940947533 41.627329498529434 5.4901199787855139 33.35027089715004 1270.2482075989246 19.701326623558998 64.378814473748207 42.087197750806808 36.605821877717972 62.322962552309036 422.28736309707165 35.282941862940788 12.487108483910559 39.408566489815712 20.346759125590324 23.416961222887039 17.010053023695946 137.43586607277393 47.297670751810074
leaf_count=291 30649 47 2860 921 109 416 170 237 76 59 243 114 167 22 134 5104 79 260 169 147 250 1697 142 50 158 82 94 72 551 190
internal_value=-3.23521e-06 0.0271072 -0.000205273 0.00326895 -0.00177428 0.0125197 0.015891 -0.0101017 0.0283222 0.0471055 -0.00696844 0.00572549 0.0184381 -0.0331126 0.0436513 -0.00893119 -0.0522304 0.0074434 0.0358105 -0.0309018 0.0124736 0.00814612 0.0452751 0.0245433 0.0107347 -0.0137324 0.0386841 -0.0120204 0.0670658 0.0764403
internal_weight=11323.8 83.7654 11240 3623.84 2341.13 781.099 754.824 244.206 510.618 278.837 75.177 231.781 203.436 66.8188 136.617 1560.03 61.3287 185.228 106.466 78.7618 1282.71 1133.21 149.502 114.219 101.732 1331.02 60.7738 37.3568 203.66 184.734
internal_count=45560 338 45222 14573 9416 3143 3034 983 2051 1119 302 932 818 268 550 6273 246 746 429 317 5157 4557 600 458 408 5352 248 154 817 741
is_linear=0
shrinkage=0.1


Tree=21
num_leaves=31
num_cat=0
split_feature=9 14 20 21 13 3 23 16 22 4 22 9 12 8 22 18 19 22 23 16 24 2 0 10 23 2 13 22 22 10
split_gain=6.24339 7.55178 14.3563 16.2344 13.972 16.1145 18.6134 18.5555 15.4656 12.9147 12.7424 12.5783 12.5297 12.1095 12.0955 11.9048 11.6549 11.5691 11.3747 13.6055 10.9201 10.786 12.4237 10.0096 9.63412 9.84476 16.4601 14.3393 14.1957 10.6827
threshold=-0.00041338521987199778 48.378049850463874 -43.465230941772454 -15.875868320465086 0.15960423648357394 108806.44531250001 -0.28192219138145441 107713.59375000001 -0.90722548961639393 5.5637500286102304 -0.87142586708068837 -0.00080801500007510174 0.00083695747889578353 -0.00024256495089503002 -0.99280729889869679 24.732563972473148 -20.482446670532223 0.9556623399257661 0.9247100055217744 109799.62109375001 0.60355338454246532 103406.57031250001 103586.80468750001 0.0001518528151791543 0.96976330876350414 107940.52343750001 0.23870405554771426 -0.58601745963096608 -0.11103504523634909 -0.00035125479917041952
decision_type=2 2 2 2 2 2 2 2 2 2 2 2 2 2 2 2 2 2 2 2 2 2 2 2 2 2 2 2 2 2
left_child=1 2 3 11 21 7 -7 8 23 -3 14 -1 -10 16 -9 20 -8 -5 19 -15 -14 -4 -23 -6 25 26 29 -27 -29 -12
right_child=-2 9 4 17 5 6 13 10 12 -11 24 -13 15 18 -16 -17 -18 -19 -20 -21 -22 22 -24 -25 -26 27 -28 28 -30 -31
leaf_value=0.0061201876380065322 -0.0013803446183804574 0.030219777777954811 0.07434208263236057 0.04136614748952562 -0.076320266803266507 0.0082312813181472464 0.047270886354058267 -0.035802411062339966 -0.1216866819001915 0.004844934445605212 -0.071733484992770491 -0.1393438118827996 0.11976615322370097 -0.084125069991297499 0.14284892915550992 -0.0080108885876190965 -0.056577842310419381 0.16039183754040517 -0.14777039160469949 0.033847528412556484 -0.014508191990042841 -0.12053880783535678 0.007160686973949424 0.015907013215576627 0.11068710861714232 -0.086018426351632468 0.12433050425974937 0.10807546277895899 -0.013055619892602564 0.081111470829060853
leaf_weight=24.282000318169594 8422.4366207271814 246.32846383750439 23.658576354384422 84.133261874318123 55.605180412530899 60.455507531762123 17.134848088026047 4.9924484193325069 9.2257113605737668 1079.8481077700853 11.725906059145929 7.8714041262865058 14.397831052541735 49.920306503772736 15.731665477156637 407.25741229951382 29.263844147324562 9.0439968109130842 19.98094567656517 12.156378537416456 10.454812556505201 7.7219979912042609 568.64029435813427 14.926798611879347 9.7183341234922391 19.946071445941925 16.365524753928185 12.211309790611265 46.579138904809952 7.4959599524736396
leaf_count=99 33900 990 95 341 223 243 69 20 37 4354 47 32 58 201 63 1635 118 37 81 49 42 31 2284 60 39 80 66 49 187 30
internal_value=-2.95357e-06 0.00400143 -0.000689639 0.031777 -0.0035045 -0.0117863 -0.0375242 -0.0043816 -0.0133214 0.00955814 0.027228 -0.0294905 -0.00637258 -0.0590581 0.0998117 -0.00391058 -0.0182269 0.0529191 -0.0821457 -0.0610227 0.0632807 0.00816619 0.00544979 -0.0568021 0.0151012 0.00697576 0.0506247 -0.0127527 0.0121044 -0.0121285
internal_weight=11319.5 2897.07 1570.9 125.331 1445.57 845.546 188.912 656.634 511.868 1326.18 144.766 32.1534 441.336 128.456 20.7241 432.11 46.3987 93.1773 82.0576 62.0767 24.8526 600.021 576.362 70.532 124.042 114.324 35.5874 78.7365 58.7904 19.2219
internal_count=45560 11660 6316 509 5807 3397 761 2636 2055 5344 581 131 1772 518 83 1735 187 378 331 250 100 2410 2315 283 498 459 143 316 236 77
is_linear=0
shrinkage=0.1


Tree=22
num_leaves=31
num_cat=0
split_feature=22 21 14 14 26 13 12 10 18 18 3 19 12 11 15 13 22 13 6 7 20 22 3 11 0 23 8 12 16 19
split_gain=5.59603 12.5836 10.9332 13.2939 12.0651 12.5982 11.9798 12.7688 15.8941 12.9441 13.2742 14.1993 13.225 14.0372 12.361 11.4668 10.2148 9.08517 13.4687 9.9533 8.93068 14.9305 8.91231 16.7205 7.97623 10.6726 11.2718 7.63339 18.224 16.4938
threshold=0.99474522471427929 -23.876353263854977 22.463750839233402 43.623395919799812 3.5000000000000004 0.35029618442058569 0.0012680483632721009 0.0015523870824836197 66.95639801025392 32.766313552856452 105305.85937500001 24.72955417633057 0.0011484741698950531 0.00072570255724713217 103420.95312500001 0.13414586335420611 0.99988102912902843 0.02962491195648909 167.50000000000003 9.6849999427795428 8.2258200645446795 0.99913862347602855 105456.57031250001 -0.00035437666520010675 106097.62500000001 0.067579798400402083 0.00030442530987784272 0.0012017007102258506 102734.92578125001 32.780645370483406
decision_type=2 2 2 2 2 2 2 2 2 2 2 2 2 2 2 2 2 2 2 2 2 2 2 2 2 2 2 2 2 2
left_child=27 -2 6 15 22 -6 7 8 9 -3 14 12 13 17 -11 20 24 -12 -19 -20 -4 -22 -5 -24 -17 26 -26 28 -1 -30
right_child=1 2 3 4 5 -7 -8 -9 -10 10 11 -13 -14 -15 -16 16 -18 18 19 -21 21 -23 23 -25 25 -27 -28 -29 29 -31
leaf_value=-0.14347750018175387 0.14597980682096232 0.12553872271729863 0.063564907666894169 0.12403399138525117 -0.11209753607355753 0.036906764063111462 0.092750116591178322 -0.14300261513827331 0.087574356685355653 0.012391700649077825 -0.088040571394686476 0.17800911647256745 -0.087693073994677725 -0.13882680477477469 -0.15670946639499733 -0.08588777812244458 -0.13342658588864992 0.13665953497866151 -0.042849286087581491 0.054068111795265654 0.070946325826967777 -0.17409790184362067 0.12154429066186717 -0.088727438941105005 0.026126370194554577 -0.09811734586571097 -0.12378909949380781 0.0010915101795210013 -0.0029159426950294267 -0.042202833969430358
leaf_weight=9.4781253784894925 6.9080146551132193 8.3067407160997373 20.865646064281467 16.519032016396526 9.2690457105636614 14.631014272570608 24.255008488893509 4.8287352025508872 29.624342024326324 7.6323640942573574 5.6949846893548957 4.8535907864570609 13.713082537055014 5.164770856499671 9.9688263833522779 20.178527534008026 11.244121432304381 12.427573040127752 16.509049326181412 29.587817713618279 4.9726203382015211 4.9733045101165771 7.6647652089595795 7.4646632522344571 41.712873637676239 11.817097082734106 5.7007740736007682 8296.5736441463232 2542.6301063746214 111.55078068375587
leaf_count=38 29 34 84 67 38 62 100 20 122 31 23 20 56 21 41 83 46 51 67 121 20 20 31 30 169 48 23 33363 10252 450
internal_value=-2.78133e-06 0.0123273 0.00968624 -0.00777499 0.0327489 -0.0208809 0.0275974 0.0169423 0.022325 0.00534813 -0.00411063 0.0117537 0.00204293 0.0197783 -0.0833825 -0.0263074 -0.0442201 0.032534 0.044267 0.0193583 0.026395 -0.0515842 0.0732487 0.017799 -0.0315887 -0.0130903 0.0081013 -0.000403826 -0.00506139 -0.0045671
internal_weight=11316.7 356.488 349.58 177.013 55.5485 23.9001 172.567 148.312 143.483 113.859 105.552 87.9509 83.0973 69.3842 17.6012 121.465 90.6534 64.2194 58.5244 46.0969 30.8116 9.94592 31.6485 15.1294 79.4093 59.2307 47.4136 10960.2 2663.66 2654.18
internal_count=45560 1457 1428 721 228 100 707 607 587 465 431 359 339 283 72 493 369 262 239 188 124 40 128 61 323 240 192 44103 10740 10702
is_linear=0
shrinkage=0.1


Tree=23
num_leaves=31
num_cat=0
split_feature=20 19 21 14 23 21 14 13 3 9 22 21 9 2 20 22 11 16 19 12 22 21 1 11 21 2 19 22 12 21
split_gain=5.81945 12.8587 18.7649 14.4762 13.6741 12.8497 15.6245 12.4844 11.3666 11.2508 12.1207 11.7114 12.9063 11.5689 23.4604 24.2563 10.9792 9.97192 9.89994 9.62772 14.909 9.54784 9.29856 8.95573 8.70874 8.65245 8.5707 11.9295 9.46609 8.83284
threshold=50.477426528930671 101.80368423461915 -18.038290023803707 51.603857040405281 0.832677721977234 -21.490557670593258 76.154411315917983 0.30676357448101049 109452.94140625001 -0.0012461659498512743 -0.60702770948410023 13.391116619110109 0.00043761693814303731 104987.91015625001 95.553607940673842 -0.44032992422580713 0.0054247702937573203 104694.31640625001 117.80540084838869 0.0044664526358246812 -0.96868926286697377 -24.716496467590328 105591.62500000001 0.001432193967048079 -10.091578960418699 101965.72656250001 117.80540084838869 -0.46368156373500818 0.0032367013627663259 36.146707534790046
decision_type=2 2 2 2 2 2 2 2 2 2 2 2 2 2 2 2 2 2 2 2 2 2 2 2 2 2 2 2 2 2
left_child=-1 5 4 8 18 6 17 -8 -4 -5 19 12 -12 14 -13 -16 24 -2 -3 20 -11 -19 -15 -23 -7 -6 -24 -28 -29 -30
right_child=1 2 3 9 25 16 7 -9 -10 10 11 13 -14 22 15 -17 -18 21 -20 -21 -22 23 26 -25 -26 -27 27 28 29 -31
leaf_value=0.00076095383859935064 0.10715185319533649 0.012737933587794258 0.13398818011056926 0.10629386790770029 0.13565810223881417 -0.040241199767397096 0.13209916319282827 0.02588741169700496 -0.014619720739592388 -0.07669444210757756 -0.027568538959153163 0.18830106709378855 0.070854062810985774 -0.17627734575668549 0.10271367648518077 -0.13298044612810794 -0.091144067800937534 -0.068040609954277451 -0.11179982190695137 0.070752332781981772 0.029119963818177209 -0.078070416617524341 -0.12424819130299312 0.080049262416682476 -0.011237982497817127 -0.024152044841161142 -0.12336570342771108 0.099387686318964955 0.026232082476288433 -0.14429721685337954
leaf_weight=10161.390566825867 5.193416714668273 8.4121510684490186 17.944504201412204 12.117944419384001 5.2815563082694998 128.93207313120365 13.592319235205649 59.560481935739517 7.2168823331594458 15.946525171399115 26.993558511137962 5.9432351738214519 26.308670192956924 6.9178770035505286 7.1925975531339708 11.112595856189722 20.573345258831978 34.358646675944328 26.463119000196457 38.579217791557312 80.705828905105591 5.4571583420038214 11.545786798000334 10.424723297357557 525.46195724606514 9.4491146653890592 8.4673687368631345 8.4296367913484627 8.2501946389675123 4.8072463124990454
leaf_count=40907 21 34 74 49 22 520 55 241 29 64 110 24 107 28 29 45 83 139 107 156 325 22 47 42 2120 38 34 34 34 20
internal_value=-2.58856e-06 -0.00673964 0.00931514 0.0187806 -0.0476384 -0.0136943 0.015278 0.0456223 0.0913639 0.0120986 0.00772859 -0.0145909 0.0210104 -0.0407052 0.0156768 -0.04037 -0.0192137 -0.0247655 -0.0817605 0.0285193 0.0116618 -0.038402 -0.068942 0.0257179 -0.0169523 0.0331465 -0.0510497 -0.0228358 0.0167798 -0.0365502
internal_weight=11313 1151.64 348.086 298.48 49.6059 803.554 128.587 73.1528 25.1614 273.318 261.2 125.969 53.3022 72.6665 24.2484 18.3052 674.967 55.4339 34.8753 135.232 96.6524 50.2405 48.4181 15.8819 654.394 14.7307 41.5002 29.9544 21.4871 13.0574
internal_count=45560 4653 1410 1209 201 3243 520 296 103 1106 1057 512 217 295 98 74 2723 224 141 545 389 203 197 64 2640 60 169 122 88 54
is_linear=0
shrinkage=0.1


Tree=24
num_leaves=31
num_cat=0
split_feature=9 3 11 12 1 16 13 13 11 2 23 15 12 12 25 5 12 25 22 22 22 23 14 14 12 18 7 21 13 0
split_gain=5.91336 10.6348 16.4842 13.9207 12.1145 13.2461 13.2322 17.4006 15.8663 11.5014 24.1339 23.3169 16.6938 13.5711 15.2194 12.7807 11.0872 10.5431 14.582 10.3689 11.2217 14.2106 10.9393 10.5118 13.5139 9.9989 9.58721 9.13845 8.50452 9.12591
threshold=0.0011755515006370845 102439.07031250001 -0.00073573261033743609 0.0066634283866733321 103536.75000000001 104612.22656250001 0.37568636238574987 0.47684827446937567 0.0032294016564264898 106264.41015625001 -0.87142586708068837 106748.23046875001 0.0021722862729802732 0.0016056054155342283 0.91597560048103344 390811.01562500006 0.0017961751436814668 1.0000000180025095e-35 0.832677721977234 0.18437977880239489 -0.82288655638694752 -0.16289508342742917 117.654354095459 90.181423187255874 0.0034863956971094017 59.52464675903321 60.774999618530281 3.5081174373626713 0.35314115881919866 104414.15234375001
decision_type=2 2 2 2 2 2 2 2 2 2 2 2 2 2 2 2 2 2 2 2 2 2 2 2 2 2 2 2 2 2
left_child=-1 2 -2 -4 6 19 -3 -8 -9 10 -7 -11 13 -13 16 -12 -15 18 27 20 21 -6 25 24 -21 -23 -16 -17 29 -22
right_child=1 4 3 -5 5 9 7 8 -10 11 15 12 -14 14 26 17 -18 -19 -20 23 28 22 -24 -25 -26 -27 -28 -29 -30 -31
leaf_value=0.00067897363209957237 -0.046977816401653688 -0.11680740340674643 0.028715049188433268 0.14701779312152272 -0.10872311890025253 -0.11988714804059333 0.13422318215689386 0.05710130057452243 -0.13238824250065595 0.084729642963552995 -0.096955615922644039 -0.031213869718375101 -0.022812669446752136 0.10292487150455934 -0.16231874251659306 -0.12333047758602311 0.027259372373401397 -0.03531517222876817 0.11170727258779001 -0.054179081562341184 -0.055024692292763258 0.19463201239143738 -0.080244249791569994 -0.11735460704823347 0.12451248763875061 0.029247070091562549 0.027557526415436719 0.01058945276272151 0.10374788240831237 0.11057734470425812
leaf_weight=10387.647251754999 23.645038411021233 22.122057691216469 54.983100980520248 12.14327137172222 8.9828803837299329 28.159079805016518 6.2278122305870083 7.2192590683698681 11.391259625554083 27.119211316108704 18.681987062096596 39.03967858850956 330.73761747777462 28.902592986822128 5.7271543294191343 5.7211050987243643 58.686206743121147 71.914561256766319 13.738736942410467 10.839550614357 8.46554186940193 5.2295829206705156 5.736246094107627 8.9362047761678678 6.9431820064783087 12.145924448966978 4.9641003012657166 46.593171045184135 31.754565298557281 5.4830083698034278
leaf_count=41844 95 89 223 50 36 113 25 29 46 109 75 157 1333 116 23 23 236 289 57 44 34 21 23 36 28 49 20 187 128 22
internal_value=-2.34458e-06 -0.00767642 0.0248242 0.0501162 -0.0112245 -0.00827129 -0.0605605 -0.0104646 -0.0588828 -0.0133657 -0.0346541 -0.00542043 -0.0106437 0.0186655 0.038479 -0.0193328 0.0522275 -0.00882199 0.0200222 0.0248727 0.0433313 -0.00199007 0.039494 -0.0288735 0.0155902 0.0790237 -0.0741565 -0.00405607 0.0751579 0.0100715
internal_weight=11309.9 922.234 90.7714 67.1264 831.462 784.502 46.9604 24.8383 18.6105 679.985 184.809 495.177 468.057 137.32 98.2801 156.65 87.5888 137.968 66.053 104.517 77.7977 32.0946 23.1118 26.7189 17.7827 17.3755 10.6913 52.3143 45.7031 13.9486
internal_count=45560 3716 368 273 3348 3159 189 100 75 2738 744 1994 1885 552 395 631 352 556 267 421 313 129 93 108 72 70 43 210 184 56
is_linear=0
shrinkage=0.1


Tree=25
num_leaves=31
num_cat=0
split_feature=0 21 21 0 13 22 21 12 22 22 13 22 10 16 10 9 23 23 16 22 13 14 9 20 22 11 19 21 17 20
split_gain=5.44317 6.80597 12.941 6.11547 22.546 19.1488 17.124 21.9275 13.6629 19.5011 20.4265 13.3216 20.0817 19.0549 13.8927 14.2008 13.4235 12.8682 12.1642 11.6601 18.8307 14.2493 13.1234 10.1928 11.1864 10.1834 9.89261 14.6041 14.9202 12.6099
threshold=118036.18750000001 5.5505533218383798 -17.06918907165527 111422.07812500001 0.14685256779193881 0.9844242036342622 0.48826357722282415 0.0021588049130514268 0.86711210012435924 0.22282424569129947 0.20358182489871982 0.29862368106842047 0.0024418126558884983 113255.71875000001 0.0032528226729482417 -0.00039547338383272285 0.98802495002746593 0.95172616839408886 111385.73828125001 -0.5206359028816222 0.28905478119850164 109.34976959228517 -0.00036140537122264499 21.873531341552738 0.69934985041618358 0.0030159585876390342 51.666440963745124 -10.091578960418699 101847.41406250001 90.440685272216811
decision_type=2 2 2 2 2 2 2 2 2 2 2 2 2 2 2 2 2 2 2 2 2 2 2 2 2 2 2 2 2 2
left_child=3 2 -2 18 23 6 7 -6 9 10 -9 13 -13 -8 15 -15 17 -17 26 20 -12 -22 -21 24 -5 -14 -1 -28 -29 -30
right_child=1 -3 -4 4 5 -7 11 8 -10 -11 19 12 25 14 -16 16 -18 -19 -20 22 21 -23 -24 -25 -26 -27 27 28 29 -31
leaf_value=0.00079054420618210233 -0.099963434027794631 -0.083224455791698529 0.057137386056004047 0.18596437303151747 -0.086374995830588483 0.14254854175789539 0.089961909234262838 -0.13148018481339774 -0.11314262684002341 0.11989090715882811 0.097180702657802986 0.12038792981651703 0.065667858308345192 0.077723229565381913 0.095965676428173385 -0.037363339086516144 0.091626964365121508 -0.17229432168002151 -0.12055345504028739 0.0020492935209942896 -0.053039079859043076 0.053811172283619049 -0.12776987252617183 -0.0045933136187493581 0.043273021886556171 -0.10606889676552439 -0.037988283318439196 0.045377300846732124 -0.014164845840665366 0.014357086327477198
leaf_weight=9768.1010412424803 8.270220026373865 17.657437577843666 14.326318651437758 13.631585285067564 38.540306240320206 9.9069909006357175 23.167045190930367 11.733023598790167 10.244951441884039 13.676634103059767 26.540622070431709 28.961935639381409 6.4734460860490781 11.944454431533812 10.881116107106207 62.00708070397377 7.093057617545127 7.9772516191005698 8.4072143137454969 23.821412041783333 28.804609373211861 22.023456111550331 11.568636134266852 7.6996475160121909 9.2033962309360486 7.3993712365627289 152.03733621537685 56.192524790763855 689.61268147826195 199.95158053934574
leaf_count=39321 38 78 60 55 156 42 94 47 42 55 107 118 26 48 44 250 29 32 34 96 116 89 47 31 37 30 617 230 2779 812
internal_value=-2.09539e-06 -0.036709 -0.000360728 0.000129041 0.0123791 0.00543276 0.00158304 -0.0191692 -0.00171702 0.006545 -0.00590715 0.0249682 0.0729996 0.00825071 -0.0106977 -0.0237352 -0.0394579 -0.0527436 -0.000314017 0.00715925 0.028908 -0.00674159 -0.0403872 0.0949047 0.128454 -0.0259317 -0.000220984 -0.0092215 -0.00459703 -0.00775384
internal_weight=11307.9 40.254 22.5965 11267.6 393.3 362.765 352.858 186.954 148.413 138.168 124.492 165.905 42.8348 123.07 99.903 89.0218 77.0774 69.9843 10874.3 112.759 77.3687 50.8281 35.39 30.5346 22.835 13.8728 10865.9 1097.79 945.757 889.564
internal_count=45560 176 98 45384 1591 1468 1426 755 599 557 502 671 174 497 403 359 311 282 43793 455 312 205 143 123 92 56 43759 4438 3821 3591
is_linear=0
shrinkage=0.1


Tree=26
num_leaves=31
num_cat=0
split_feature=8 9 9 22 14 23 13 20 10 9 9 3 23 23 12 18 4 26 1 22 16 14 12 17 20 14 14 1 17 3
split_gain=5.45016 8.68203 7.11188 12.2871 6.40583 13.8892 13.998 11.2427 8.75562 8.39058 6.61323 10.0136 10.6114 12.4005 10.2477 9.52416 9.46286 8.73929 7.58184 21.7595 16.1165 15.6669 16.1388 17.7426 13.6843 13.666 11.8795 14.374 14.1219 14.0693
threshold=0.0014969964395277204 -0.0018069000216200946 0.0038745740894228224 -0.39273749291896815 191.47937774658206 0.8537760078907014 0.99706760048866283 218.41098785400393 0.0043102083727717408 2.588940515124705e-05 0.0016991771990433337 105102.17968750001 0.891992747783661 0.68993380665779125 0.0021722862729802732 59.169136047363288 22.794919967651371 5.5000000000000009 102065.96875000001 0.88599923253059398 101845.38281250001 27.912583351135257 0.0015950697707012298 101847.41406250001 -4.8935866355895987 99.009597778320327 46.849037170410163 113401.68359375001 102428.13671875001 117901.60156250001
decision_type=2 2 2 2 2 2 2 2 2 2 2 2 2 2 2 2 2 2 2 2 2 2 2 2 2 2 2 2 2 2
left_child=2 -2 4 -4 7 -6 -7 10 -9 -10 18 12 13 17 -13 -16 -17 -12 19 21 24 -1 -23 -24 -21 -25 27 28 -20 -28
right_child=1 -3 3 -5 5 6 -8 8 9 -11 11 14 -14 -15 15 16 -18 -19 26 20 -22 22 23 25 -26 -27 29 -29 -30 -31
leaf_value=-0.13186340989455744 -0.15808517542069328 -0.017689984003996469 0.099031727770861333 -0.041174912297433447 0.10296565105497005 -0.09403761700402645 0.096261324924338351 -0.13544498580953707 0.073520286575881375 -0.074600130617997099 0.029478637011998751 0.017664931309696756 0.099083392550268323 -0.08561246825186547 0.0013211489137058634 -0.068881574290004383 -0.015560227035751224 -0.052992784232534167 0.11503278636787986 0.198845044421746 -0.030722190568057934 0.071517262787927041 -0.017623133905686802 -0.16535240251312977 0.051087479302390298 0.017165048090134503 0.0070875432628536052 0.04019005764099743 -0.0018184773895765774 -0.045507584922609784
leaf_weight=12.710012376308439 4.6706129908561698 77.366959020495415 18.168334424495701 9.5285847038030607 18.281593635678291 10.421239674091341 6.1444871723651877 10.592678874731066 6.147935792803767 10.119049802422522 71.435097128152847 45.569454431533813 12.219525903463362 14.372738704085348 52.498746395111084 87.368011698126793 53.764358967542648 15.66702117025852 10.357377052307127 8.2420292645692808 17.803799673914909 18.682845860719681 273.19420205056667 14.682498440146448 26.169208943843842 5.6930193454027167 3052.0637533217669 83.05151355266571 7205.6734286546707 51.722657635807991
leaf_count=51 19 313 74 39 74 42 25 43 25 41 289 184 50 58 211 352 219 64 42 33 72 75 1101 59 106 23 12293 339 29023 221
internal_value=-1.7774e-06 -0.025683 0.000185958 0.0507964 6.07415e-05 0.0428688 -0.0234528 -7.293e-05 -0.0646922 -0.0186196 8.29722e-05 -0.0133877 0.0110457 0.000444293 -0.0250012 -0.0350423 -0.0485688 0.0146445 0.000523948 -0.0134038 0.046516 -0.0230317 -0.0186018 -0.024337 0.0864777 -0.114356 0.00102893 -0.00117468 -0.00165076 0.00621108
internal_weight=11304.4 82.0376 11222.3 27.6969 11194.6 34.8473 16.5657 11159.8 26.8597 16.267 11132.9 352.895 113.694 101.475 239.201 193.631 141.132 87.1021 10780 377.178 52.215 324.963 312.253 293.57 34.4112 20.3755 10402.9 7299.08 7216.03 3103.79
internal_count=45560 332 45228 113 45115 141 67 44974 109 66 44865 1427 461 411 966 782 571 353 43438 1520 211 1309 1258 1183 139 82 41918 29404 29065 12514
is_linear=0
shrinkage=0.1


Tree=27
num_leaves=31
num_cat=0
split_feature=23 23 20 13 12 21 11 18 0 2 21 12 11 21 26 21 13 19 9 26 18 11 8 13 15 26 12 23 20 22
split_gain=5.53868 14.9929 14.8139 16.1929 17.5509 17.0127 13.5643 18.7806 12.8748 22.4045 21.5879 18.0179 26.7999 17.2801 16.7918 14.7388 16.5964 16.9828 13.8856 13.556 14.3446 13.4908 13.4215 12.6931 12.1069 18.2782 20.8025 20.0887 19.4686 17.0275
threshold=0.51316559314727794 0.34816221892833715 -14.064521312713621 0.041712924838066108 0.00042166573985014116 0.88206657767295849 -0.001099641667678952 42.339618682861335 105849.99609375001 106186.18750000001 13.391116619110109 0.0018989155068993571 0.0035975575447082524 -17.542700767517086 3.5000000000000004 -33.70866394042968 0.40741446614265447 55.727096557617195 0.00057103289873339247 1.0000000180025095e-35 62.872962951660163 -0.00028728885808959598 9.3127216160837647e-08 0.092478089034557356 105989.20703125001 3.5000000000000004 0.00035894173197448259 0.94336524605751049 21.401200294494632 -0.46368156373500818
decision_type=2 2 2 2 2 2 2 2 2 2 2 2 2 2 2 2 2 2 2 2 2 2 2 2 2 2 2 2 2 2
left_child=1 -1 6 5 -5 -4 7 -3 13 -10 15 -12 -13 -6 -15 -11 17 19 23 21 -21 -17 -22 -16 29 -26 -27 -28 -29 -2
right_child=24 2 3 4 8 -7 -8 -9 9 10 11 12 -14 14 18 16 -18 -19 -20 20 22 -23 -24 -25 25 26 27 28 -30 -31
leaf_value=-0.00016130190239312098 0.029719363863325576 0.0084444360444371983 -0.030084577987085939 -0.16889588201832528 0.037817049047703277 0.14958674280474313 0.035683268370446039 -0.071700973521178879 0.098187018799700793 -0.16827243176293349 0.15102384442549976 -0.11449418047807239 0.10010111239337592 -0.11991182693225309 -0.11069212185093669 0.14812346324463957 0.090753496369696846 -0.15469454368019342 -0.13437706740472766 -0.051439719519683791 0.086314298155836466 -0.0070687569407141999 -0.045262005388919085 0.021504416225232872 -0.0073057185640883733 -0.07672025351652341 0.025748076962123334 0.0068053854130138702 -0.059186728264270953 0.0039684623623390345
leaf_weight=6987.3943654447794 352.2925263941288 103.24997800588608 10.651861801743509 9.0328197926282865 16.417965888977051 10.430674493312834 87.413507699966431 40.788945123553276 15.966197595000265 7.9284660816192618 11.704418271780012 11.002822846174242 12.353685408830641 42.606888070702553 9.4077966511249524 7.720038756728175 10.917296290397642 11.35024234652519 11.155506208539007 154.49644213914871 16.121566921472553 20.410906821489334 14.934185132384298 31.861440867185593 1567.3591313362122 25.882035568356514 509.88730946183205 184.93674959242344 58.955747231841087 947.15705709159374
leaf_count=28172 1423 415 43 37 66 42 351 164 64 32 47 45 50 171 38 31 44 46 45 622 65 82 60 128 6314 109 2055 747 238 3814
internal_value=-1.69605e-06 -0.00152956 -0.0158434 -0.0266883 -0.0310276 0.0588086 0.00460777 -0.0142511 -0.0279629 -0.0170205 -0.0236148 0.0497564 -0.000990796 -0.0569176 -0.0732842 -0.0341629 -0.0296565 -0.0354981 -0.0353889 -0.0291668 -0.0389738 0.035521 0.0230415 -0.0086313 0.00320586 -0.00108162 0.0114307 0.0144575 -0.00914678 0.0109498
internal_weight=11301.8 7655.32 667.924 436.471 415.389 21.0825 231.452 144.039 406.356 294.906 278.94 35.0609 23.3565 111.45 95.0316 243.879 235.951 225.033 52.4247 213.683 185.552 28.1309 31.0558 41.2692 3646.47 2347.02 779.662 753.78 243.892 1299.45
internal_count=45560 30860 2688 1758 1673 85 930 579 1636 1188 1124 142 95 448 382 982 950 906 211 860 747 113 125 166 14700 9463 3149 3040 985 5237
is_linear=0
shrinkage=0.1


Tree=28
num_leaves=31
num_cat=0
