tree
version=v4
num_class=1
num_tree_per_iteration=1
label_index=0
max_feature_idx=17
objective=binary sigmoid:1
feature_names=Column_0 Column_1 Column_2 Column_3 Column_4 Column_5 Column_6 Column_7 Column_8 Column_9 Column_10 Column_11 Column_12 Column_13 Column_14 Column_15 Column_16 Column_17
feature_infos=[98484.6875:110324.96100000001] [98689.332200000004:110183.1734] [98920.791700000002:110149.26790000001] [98482.93741926481:110334.47497920803] [98577.71248841389:110210.16787180598] [1.6676942302553073:97.802033407269434] [6.728176916518926:85.827532126438058] [-1:1] [0:264] [-1:1] [-1:1] [-1:1] [-1:1] [0:6] [-0.99871650717105276:0.98846832432811138] [-0.99486932339189504:0.97952994125249448] [-0.49999999999999972:1.2246467991473532e-16] [-1:-0.86602540378443882]
tree_sizes=3350 3399 3407 3405 3383 3422 3425 3385 3395 3397 3394 3438

Tree=0
num_leaves=31
num_cat=0
split_feature=1 11 11 15 14 13 12 14 15 6 5 9 8 12 3 5 6 9 8 9 1 0 5 5 13 8 12 13 3 10
split_gain=878.552 475.744 385.997 351.268 339.647 289.188 279.344 278.538 261.299 146.175 142.327 102.254 103.525 108.017 93.0448 92.9227 83.2278 76.6051 74.4716 70.9352 70.1982 59.1641 54.9798 74.5818 51.7502 50.6383 48.9355 74.211 75.2895 57.2213
threshold=104279.41280000001 1.0000000180025095e-35 1.0000000180025095e-35 -0.34552334190817774 -0.52828508881293657 4.5000000000000009 -0.37940952255126015 -1.0000000180025095e-35 -1.0000000180025095e-35 41.105442055715379 56.982286482375549 0.25846434259635342 27.500000000000004 -0.12940952255126037 101803.06258703487 40.446855118605811 31.728595280885198 0.8897854307135199 75.500000000000014 -0.77608090992617063 107009.58270000001 104500.90000000001 72.6732652102353 29.370403959439994 4.5000000000000009 46.500000000000007 0.25881904510252057 5.5000000000000009 102188.50269425385 0.88978543071352001
decision_type=2 2 2 2 2 2 2 2 2 2 2 2 2 2 2 2 2 2 2 2 2 2 2 2 2 2 2 2 2 2
left_child=1 3 5 4 14 6 -2 26 9 -8 11 12 15 -14 16 -5 -1 22 25 -6 24 -7 23 -11 -4 -9 -3 -28 -29 -30
right_child=2 7 20 10 19 21 8 18 -10 17 -12 -13 13 -15 -16 -17 -18 -19 -20 -21 -22 -23 -24 -25 -26 -27 27 28 29 -31
leaf_value=-2.3246020327852084 -2.3237764922265973 -2.5265814681592769 -2.4629978217095001 -1.9419789558149951 -2.3028612715555479 -2.0177903822892675 -2.3889851167073153 -2.1218458749286997 -2.5005742481877329 -1.8732450723109531 -1.8983680599275068 -2.2998214842821096 -1.5831185183216283 -2.0763293556785554 -2.4380686929999396 -2.381242591193689 -1.6785422151818938 -1.6672222898608156 -1.7218095205067132 -1.9323046336786005 -2.5267506430819973 -2.5140115570298884 -1.8603874259312394 -2.3943616839784037 -2.5401382777706822 -2.5279813121053447 -2.4888307761532502 -1.6635623960706463 -2.3947103236357079 -1.9351960685348497
leaf_weight=5.6496443301439268 317.84699821472168 92.448575384914875 417.632768034935 7.9969822689890888 6.7502115741372135 2.4212404862046233 234.12969011068344 17.095618046820171 321.44218814373016 3.5218492820859018 31.843389213085175 28.248171746730804 7.4105583280324963 11.079152040183542 92.595315009355545 12.106357455253599 3.0816183239221573 3.1549901738762847 3.9620807021856299 22.011551044881344 744.06428802013397 314.545220695436 3.8887088894844046 12.473217144608496 109.83768403530121 3.7419651523232451 44.023119561374187 1.9076635837554956 16.875532843172554 3.2283621057867995
leaf_count=77 4332 1260 5692 109 92 33 3191 233 4381 48 434 385 101 151 1262 165 42 43 54 300 10141 4287 53 170 1497 51 600 26 230 44
internal_value=-2.44604 -2.31081 -2.46847 -2.21463 -2.32256 -2.42812 -2.39909 -2.43085 -2.44047 -2.36534 -2.07236 -2.15525 -2.04943 -1.87865 -2.40864 -2.20651 -2.09658 -2.12499 -2.11922 -2.01927 -2.50697 -2.51022 -2.19763 -2.27962 -2.47906 -2.19478 -2.47962 -2.41387 -2.26395 -2.32092
internal_weight=2897.01 412.056 2484.96 228.773 130.088 1213.42 896.458 183.283 578.611 257.168 98.6846 66.8412 38.5931 18.4897 101.327 20.1033 8.73126 23.0388 24.7997 28.7618 1271.53 316.966 19.8838 15.9951 527.47 20.8376 158.483 66.0347 22.0116 20.1039
internal_count=39484 5616 33868 3118 1773 16538 12218 2498 7886 3505 1345 911 526 252 1381 274 119 314 338 392 17330 4320 271 218 7189 284 2160 900 300 274
is_linear=0
shrinkage=1


Tree=1
num_leaves=31
num_cat=0
split_feature=0 11 13 11 1 15 14 15 12 6 14 12 1 5 2 1 12 3 10 9 4 5 6 13 5 6 11 6 8 6
split_gain=615.415 306.117 271.222 251.531 188.424 208.857 160.97 136.114 167.619 83.7674 79.9751 64.7046 56.7799 55.5834 55.9667 52.2882 50.3174 49.5854 56.0597 45.238 44.6457 43.4407 43.0328 42.1118 41.4086 40.9374 40.8095 39.5299 38.493 44.3646
threshold=104584.77125000003 0.25881904510252091 4.5000000000000009 1.0000000180025095e-35 102529.65300000001 -0.81655236941868636 0.43982890882219988 0.43813463158589139 -0.37940952255126015 19.70478114304127 -0.97827272159715761 -0.98296291314453399 107026.31640000001 26.003414266796366 104170.19555000002 104108.75120000001 -0.78656609248549325 109910.95813426106 -0.70613771591812624 -0.9323009869688772 109270.06460919719 50.883891889880211 53.365130404990637 4.5000000000000009 55.729184291990912 41.459429020831394 -0.70710678118654735 21.288913739652003 99.500000000000014 52.251852008943125
decision_type=2 2 2 2 2 2 2 2 2 2 2 2 2 2 2 2 2 2 2 2 2 2 2 2 2 2 2 2 2 2
left_child=3 2 7 4 9 19 -5 11 17 -1 -7 -2 23 -13 -15 21 -16 18 20 -6 -9 -8 -12 -3 25 -11 -21 -18 -4 -30
right_child=1 12 28 6 5 10 15 8 -10 24 22 13 -14 14 16 -17 27 -19 -20 26 -22 -23 -24 -25 -26 -27 -28 -29 29 -31
leaf_value=0.091592137578757907 -0.044611572124794885 -0.020844968831153929 -0.076666101206631809 -0.032079138247566384 0.0030315653412489535 0.18823507863046385 0.44537062433932156 0.12955810352984085 -0.059092358538488182 0.18943931612114973 -0.022367504023858578 0.28311389979546481 -0.085693101164260377 0.49036641816160026 0.13064071594336688 0.02920775106207037 0.020151438620154543 0.41787013851692145 0.026575803582781707 0.21100367372869885 0.49728382822301687 0.17366151771104177 0.38774063712967016 -0.10065059172789535 0.36670656341104313 0.38901505888092675 0.39672704187934038 0.080680440668220457 0.01287219963927283 0.48630179590954631
leaf_weight=28.070008546113968 50.229536890983582 326.24812865257263 327.954740062356 173.71939527988434 7.9717636108398429 23.566671848297119 9.8280804455280322 36.809307977557182 264.73810219764709 45.672372035682201 116.60195808857679 12.419830687344072 578.5084844827652 3.1355621367692939 99.820772223174572 12.186669155955313 205.86093053221703 3.9798323214054099 121.26189702749252 49.456274390220642 3.6269848197698584 14.663363859057425 2.6160030737519255 82.927587628364563 39.467526599764824 13.262437164783476 15.551509499549864 226.723010674119 12.400128707289694 2.3553317785263053
leaf_count=316 709 4515 4745 2422 98 237 96 466 3781 490 1546 143 8442 27 1229 148 2711 49 1538 519 47 149 34 1224 359 118 176 2937 179 34
internal_value=-0.000830209 -0.0230823 0.00748947 0.0941561 0.147053 0.090245 0.00811215 0.0331599 -0.00972484 0.24397 0.0199063 0.0640167 -0.0655286 0.0739743 0.0691241 0.198471 0.0666432 0.0691599 0.0605772 0.227863 0.162542 0.282695 -0.0133685 -0.0370192 0.287437 0.234351 0.255433 0.0518755 -0.0695573 0.0884431
internal_weight=2911.63 2359 1371.32 552.634 342.237 215.764 210.398 1028.61 430.416 126.472 142.785 598.19 987.684 547.96 535.54 36.6781 532.405 165.678 161.698 72.9795 40.4363 24.4914 119.218 409.176 98.4023 58.9348 65.0078 432.584 342.71 14.7555
internal_count=39484 32776 18595 6708 3893 2610 2815 13637 5881 1283 1817 7756 14181 7047 6904 393 6877 2100 2051 793 513 245 1580 5739 967 608 695 5648 4958 213
is_linear=0
shrinkage=0.1


Tree=2
num_leaves=31
num_cat=0
split_feature=11 1 13 15 12 1 14 15 2 13 14 1 14 11 8 6 10 5 5 1 8 3 1 6 5 12 10 13 12 14
split_gain=495.404 365.39 252.027 176.702 143.578 114.881 111.996 107.24 104.463 80.2529 57.6777 57.6521 79.1449 52.4208 52.9983 48.6523 48.1743 46.696 42.4896 41.6184 41.2561 53.6735 39.0851 38.9868 43.5804 36.4077 36.2495 32.9071 35.9873 66.8303
threshold=1.0000000180025095e-35 103015.87330000002 4.5000000000000009 -0.81655236941868636 -0.12940952255126037 105279.42070000002 0.43982890882219988 1.0000000180025095e-35 105317.54785000002 1.0000000180025095e-35 -0.917778335858911 104859.57870000003 -1.0000000180025095e-35 -0.78656609248549303 4.5000000000000009 39.265392710083084 -0.15622007704270677 33.606305379180085 27.388987968436755 104835.4042 73.500000000000014 109910.95813426106 104314.63860000001 11.125709268779584 35.430707913812839 0.78656609248549303 -0.96460205851447955 4.5000000000000009 0.78656609248549303 -0.25033082153100961
decision_type=2 2 2 2 2 2 2 2 2 2 2 2 2 2 2 2 2 2 2 2 2 2 2 2 2 2 2 2 2 2
left_child=1 -1 3 11 23 6 8 9 10 13 25 12 22 -6 -15 -11 -10 -8 -13 -19 -16 -22 26 -5 -25 -2 -3 28 -7 -30
right_child=5 2 -4 4 7 27 17 -9 16 15 -12 18 -14 14 20 -17 -18 19 -20 -21 21 -23 -24 24 -26 -27 -28 -29 29 -31
leaf_value=0.17368021639598458 -0.0063481985928000072 0.48853709458517608 -0.058567921410171947 0.25685020385104357 -0.03155790848721645 -0.064370360882170158 0.5333111905479061 -0.057888776159128456 0.95524398048733428 -0.01258302563027866 -0.065004063622146807 0.36440968349960817 0.43283054552713651 0.50989044391336136 0.11200434814422039 0.16267989372223352 0.18103339243344663 0.13561076889187204 0.066597326411166322 -0.087984956868784353 0.76797099033915961 0.077557041800003501 0.070794932852645681 0.15700470016170404 0.049653190530840934 0.12128668285739877 0.17900034902337403 -0.097856261932483701 0.1174946735548686 -0.052245729087022047
leaf_weight=173.69837028160691 115.79586109519005 4.1254491806030265 316.6172651052475 10.628468364477156 11.0318406522274 585.65302109718323 2.5976621508598319 261.63567209243774 1.5035012885928156 148.68995901197195 197.69427385926247 4.9691302105784407 10.790617398917673 5.3008340448141089 23.543999634683136 17.727176941931248 1.7267538383603085 53.316440932452679 133.40362967550755 9.8647303059697133 2.3842691406607619 2.133659303188324 38.829627059400082 42.960874572396278 315.76529885828495 27.693787574768066 45.625943638384342 232.85105180740356 32.814337134361267 79.130071759223938
leaf_count=1524 1663 33 4752 129 114 8819 20 3840 20 1895 2893 40 106 57 252 180 24 560 1594 140 25 26 418 502 3785 360 384 3671 480 1178
internal_value=-0.00122433 0.0369017 0.0198849 0.0428941 0.0213935 -0.0458691 -0.00178119 -0.0151226 -0.0246167 0.037954 -0.0299754 0.119023 0.177132 0.157412 0.219898 0.00608643 0.541385 0.117784 0.0772921 0.1007 0.165119 0.441913 0.145984 0.0681019 0.0625096 0.0182856 0.204668 -0.0653054 -0.0544403 -0.00248961
internal_weight=2910.5 1569.86 1396.16 1079.55 841.802 1340.64 410.193 472.447 344.414 210.812 341.184 237.744 99.3716 44.3946 33.3628 166.417 3.23026 65.7788 138.373 63.1812 28.0619 4.51793 88.581 369.355 358.726 143.49 49.7514 930.448 697.597 111.944
internal_count=39484 19656 18132 13380 10805 19828 5680 6389 4960 2549 4916 2575 941 474 360 2075 44 720 1634 700 303 51 835 4416 4287 2023 417 14148 10477 1658
is_linear=0
shrinkage=0.1


Tree=3
num_leaves=31
num_cat=0
split_feature=11 15 2 12 13 1 14 13 15 0 14 6 0 6 15 3 8 0 2 6 11 6 12 2 5 8 5 1 2 4
split_gain=404.071 269.531 150.943 124.564 124.455 105.532 108.332 88.5146 51.1281 55.1333 46.8679 52.9711 49.9339 39.9847 39.4981 64.5862 42.5734 58.7659 48.9696 38.4342 37.1928 36.973 36.9017 36.646 34.9877 32.7243 31.9689 40.5466 50.4349 31.2013
threshold=1.0000000180025095e-35 0.43813463158589139 102502.75195000002 -0.37940952255126015 4.5000000000000009 107009.58270000001 0.43982890882219988 4.5000000000000009 -0.81655236941868636 102837.60450000002 -0.917778335858911 62.991813063138636 107110.84700000001 51.252241818220405 -0.52625006705264832 105390.23887612049 49.500000000000007 107740.00175000001 109245.13670000002 19.70478114304127 -0.70710678118654735 20.640121244806533 0.78656609248549303 105127.97010000001 48.855086409280055 115.50000000000001 48.052939448572253 103200.81840000002 104803.51150000004 105180.02443310244
decision_type=2 2 2 2 2 2 2 2 2 2 2 2 2 2 2 2 2 2 2 2 2 2 2 2 2 2 2 2 2 2
left_child=1 2 19 7 8 6 10 -3 21 -10 22 12 -12 -6 26 20 -17 -18 -19 -1 -16 -4 -2 24 -22 -5 27 -11 -29 -23
right_child=5 3 4 25 13 -7 -8 -9 9 14 11 -13 -14 -15 15 16 17 18 -20 -21 23 29 -24 -25 -26 -27 -28 28 -30 -31
leaf_value=0.050483115402298953 -0.011884641016827152 0.069062917955473438 0.055634280831922726 -0.071970183549063468 -0.042000643156240407 -0.073179184621428126 0.098948910945216184 -0.091309522808686081 0.443043204578421 0.5306103059754318 -0.056059900017900691 0.2749822298503008 0.44822148661266747 0.18615308624119062 0.088447588766900148 0.022151173634929432 -0.028892633317196149 0.29730385888116667 -0.051785222221670139 0.16848163857621815 0.68024047848121827 0.16912072602063288 0.095361103136709563 0.12754175144711005 0.28661677161511118 0.29068249534406138 -0.024507767958365016 -0.045153884372473266 0.094285694899913119 0.073254671826586487
leaf_weight=34.448226481676102 157.81462907791138 152.91592764854431 117.74001742899418 302.59293412417173 170.28848883509636 615.56102430820465 73.204390212893486 44.41083025932312 3.4114416018128386 1.7213143557310093 395.52018142491579 4.9689126014709464 1.9733833745121945 8.0442334711551648 24.315883100032806 173.67580883949995 13.719522863626478 20.282697409391407 5.0112368613481513 138.92408016324043 3.0272475183010128 86.267628073692322 40.270931720733643 10.076763086020945 8.8883241638541204 2.5088472440838805 125.34406235814095 41.742835149168968 68.515385836362839 55.981540784239769
leaf_count=315 2286 1680 1220 4764 2607 10141 743 720 34 24 6074 78 26 93 206 2122 182 184 55 997 31 758 480 120 75 37 1548 523 764 597
internal_value=-0.00150844 0.0318373 0.0593142 -0.0289448 0.0434711 -0.0432478 -0.0159016 0.0329691 0.0611184 0.0424068 -0.0299014 -0.0495001 -0.0535564 -0.0317091 0.0396531 0.0666572 0.043356 0.137753 0.228142 0.145036 0.173677 0.0970846 0.00991849 0.267912 0.38662 -0.0689881 0.0101828 0.0490136 0.041495 0.131393
internal_weight=2903.17 1613.86 1111.43 502.429 938.054 1289.31 673.752 197.327 759.722 499.733 600.548 402.462 397.494 178.333 496.321 258.997 212.689 39.0135 25.2939 173.372 46.3082 259.989 198.086 21.9923 11.9156 305.102 237.324 111.98 110.258 142.249
internal_count=39484 19656 12455 7201 11143 19828 9687 2400 8443 5868 8944 6178 6100 2700 5834 2975 2543 421 239 1312 432 2575 2766 226 106 4801 2859 1311 1287 1355
is_linear=0
shrinkage=0.1


Tree=4
num_leaves=31
num_cat=0
split_feature=11 15 2 12 1 14 13 13 2 14 6 2 12 4 1 3 14 13 0 3 3 6 6 8 4 2 11 5 1 6
split_gain=330.293 207.906 108.107 106.897 95.9907 84.3676 71.6918 56.9787 51.31 40.477 39.5089 39.9461 50.2871 36.4678 109.435 57.1353 38.4773 50.0798 40.5688 35.399 38.0386 29.5026 29.437 34.7094 29.1456 28.8223 37.9556 27.9046 27.7208 27.6085
threshold=1.0000000180025095e-35 0.43813463158589139 101676.12935000002 -0.37940952255126015 107009.58270000001 0.43982890882219988 4.5000000000000009 4.5000000000000009 102502.75195000002 -0.917778335858911 60.306053868489862 107001.61760000001 0.60355339059327384 107216.9629539802 106065.8823 105610.94791393557 -1.0000000180025095e-35 2.5000000000000004 102837.60450000002 107202.07218920894 106064.28300581092 51.252241818220405 16.524404693698852 25.500000000000004 107141.1939923278 104482.32640000002 -0.60355339059327362 42.777349756147274 104108.75120000001 14.977899715725526
decision_type=2 2 2 2 2 2 2 2 2 2 2 2 2 2 2 2 2 2 2 2 2 2 2 2 2 2 2 2 2 2
left_child=1 2 29 6 5 9 -3 13 -9 -2 11 -11 -13 14 15 16 17 25 -19 20 -16 -10 -22 -24 -25 26 -4 -27 -7 -1
right_child=4 3 7 -5 -6 28 -8 8 21 10 -12 12 -14 -15 19 -17 -18 18 -20 -21 22 -23 23 24 -26 27 -28 -29 -30 -31
leaf_value=-0.041815714034664754 0.0087748274218251814 0.058679341906178378 0.087401488815272099 -0.066163457763262809 -0.070455626979625652 0.14766509095218133 -0.089383943937906316 0.099206940241039585 -0.039266700284535244 -0.057596806759064603 0.16987966595585846 0.017857606781992223 0.49452078535162558 0.024380909872019629 0.47868367044961213 -0.036301260228896397 0.14165153680985704 0.39076354567648575 -0.01228689631943323 0.53561663284159478 0.4508536316818903 0.14399614504657096 0.044471058455815358 0.18749297332868844 0.57496969932269848 0.10991011655747096 0.23329844342127359 0.0039474400714798767 0.028436864701591087 0.14778371326085507
leaf_weight=8.1889552287757379 199.68851661682129 161.47697448730469 103.35416251420975 287.46568918228149 577.41947591304779 35.686113640666008 41.00663423538208 37.728163525462151 164.25459915399551 364.51561649143696 8.2440959215164167 10.370385162532328 2.8137861266732207 304.47156268358231 4.0703544393181792 62.28465760499239 58.432100661098957 2.558266155421733 104.8234099522233 3.0912372991442671 3.2006147578358641 9.280717656016348 20.463609367609024 17.572547651827339 2.1823320090770713 38.790808491408825 21.549137875437737 69.1653136536479 42.995267421007156 123.60294679552317
leaf_count=73 2766 1680 749 4801 10141 245 720 279 2607 5872 110 160 36 3400 48 763 539 21 1345 34 35 93 221 178 23 376 151 707 498 813
internal_value=-0.00168016 0.0276522 0.0507379 -0.0269614 -0.0406333 -0.0147119 0.0286938 0.039799 -0.00648694 -0.0277743 -0.0466849 -0.0514119 0.119588 0.0517823 0.0680918 0.0527704 0.066686 0.0538117 -0.0026846 0.207721 0.186377 -0.0294658 0.158975 0.135747 0.230298 0.0798646 0.112573 0.042022 0.0825131 0.136003
internal_weight=2890.75 1649.01 1159.07 489.949 1241.73 664.314 202.484 1027.27 211.263 585.632 385.944 377.7 13.1842 816.01 511.539 460.958 398.673 340.241 107.382 50.5807 47.4895 173.535 43.4191 40.2185 19.7549 232.859 124.903 107.956 78.6814 131.792
internal_count=39484 19656 12455 7201 19828 9687 2400 11569 2979 8944 6178 6068 196 8590 5190 4651 3888 3349 1366 539 505 2700 457 422 201 1983 900 1083 743 886
is_linear=0
shrinkage=0.1


Tree=5
num_leaves=31
num_cat=0
split_feature=11 15 0 0 12 13 13 14 4 2 11 8 1 3 14 5 3 8 5 9 2 11 10 15 9 9 5 11 8 8
split_gain=278.331 169.225 84.8658 79.3046 70.0368 64.7554 60.2351 59.5559 46.637 42.1467 36.8968 36.2323 34.7461 35.1165 34.3998 27.6439 27.606 27.2986 35.6372 33.709 27.1452 36.7428 32.9633 27.7012 29.8384 27.0828 26.9593 24.3414 23.6979 22.0743
threshold=0.25881904510252091 0.43813463158589139 106967.88050000001 100739.55225000002 -0.37940952255126015 4.5000000000000009 4.5000000000000009 0.43982890882219988 102528.68493854697 100058.35265000003 -1.0000000180025095e-35 69.500000000000014 104249.06900000003 103978.24578485287 -1.0000000180025095e-35 78.535775620898633 104175.58878137673 41.500000000000007 82.515397171738854 -0.83752119907969291 107001.61760000001 0.60355339059327384 -1.0000000180025095e-35 -0.34552334190817774 0.15622007704270641 0.77608090992617107 78.535775620898633 -0.60355339059327362 115.50000000000001 51.500000000000007
decision_type=2 2 2 2 2 2 2 2 2 2 2 2 2 2 2 2 2 2 2 2 2 2 2 2 2 2 2 2 2 2
left_child=1 3 7 9 5 26 12 14 10 11 -8 27 16 -14 15 20 -5 18 -10 -19 23 22 -22 -2 -25 -17 -3 -1 -6 -21
right_child=2 4 -4 6 28 -7 8 -9 17 -11 -12 -13 13 -15 -16 25 -18 19 -20 29 21 -23 -24 24 -26 -27 -28 -29 -30 -31
leaf_value=0.039062343813281997 -0.053073119562878246 0.035179196926181149 -0.076124339721079806 0.068133731673957948 -0.060776621010354664 -0.091066668674731593 0.039541542698282389 0.071680194921508622 -0.057974874747252395 0.23457953112062488 0.27733119367226716 0.34337247842219981 0.34985672290047254 0.033184964732255247 -0.079509932259459001 0.070971815497975474 0.1867975307930837 0.19520680311904953 0.38762161473198492 0.10980408662111885 0.096421704125306915 -0.0083638974768607353 0.68528833915927256 -0.033692105672973365 0.051104967527868132 0.51643037939116954 0.36553193491938374 0.20223132410892763 0.22039001233900965 -0.052972170640406768
leaf_weight=54.349410310387611 165.13195851817727 192.71470858156681 461.66594797372818 184.86741606518626 302.44881009310484 47.238913655281067 44.698837459087372 65.752918243408203 151.63057099655271 26.453525692224503 7.6407639272510997 5.0954356491565695 3.5176768340170375 776.48523549735546 107.73377829790115 6.1178683750331393 21.930769026279449 10.092597365379332 1.8163154423236836 11.474582139402626 1.9199443534016611 6.0765394419431686 1.8828067928552608 91.792368348687887 75.733972311019897 1.7567376606166361 2.5023904889821997 10.991598609834908 3.0276722982525817 30.411378432065248
leaf_count=370 2723 2076 8681 1469 5364 900 330 600 2487 165 49 31 20 8624 1920 87 151 142 28 178 22 99 23 1284 1066 23 24 58 37 453
internal_value=-0.00178396 0.0206883 -0.0448647 0.0398153 -0.0261386 0.0139917 0.0330312 -0.0173184 -0.0100134 0.126958 0.0742551 0.0865389 0.044275 0.0346131 -0.0300914 -0.0148978 0.0807179 -0.0314838 -0.0527005 0.0311502 -0.0191564 0.144197 0.38798 -0.0240077 0.00464228 0.170349 0.0394138 0.0665105 -0.0579899 -0.00837991
internal_weight=2874.95 1889.39 985.565 1341.46 547.932 242.456 1244.57 523.899 257.765 96.89 52.3396 70.4364 986.801 780.003 458.146 350.412 206.798 205.425 153.447 51.9786 342.538 9.87929 3.80275 332.658 167.526 7.87461 195.217 65.341 305.476 41.886
internal_count=39484 22956 16528 14555 8401 3000 13931 7847 3667 624 379 459 10264 8644 7247 5327 1620 3288 2515 773 5217 144 45 5073 2350 110 2100 428 5401 631
is_linear=0
shrinkage=0.1


Tree=6
num_leaves=31
num_cat=0
split_feature=11 15 1 13 12 0 14 13 2 0 14 2 3 7 12 4 2 3 14 13 9 15 3 10 8 3 2 5 11 5
split_gain=231.897 134.201 77.7656 63.856 64.1111 57.369 48.4108 46.8679 37.6591 30.5165 30.3309 28.4385 51.3068 42.846 28.1419 31.4103 63.6999 32.4137 39.181 49.9815 31.1349 30.146 37.4411 41.6238 28.4506 28.2893 27.0039 26.6018 26.1688 25.0082
threshold=0.25881904510252091 0.43813463158589139 107026.31640000001 4.5000000000000009 -0.12940952255126037 100739.55225000002 0.43982890882219988 4.5000000000000009 102502.75195000002 107110.84700000001 -1.0000000180025095e-35 109099.96695000002 109142.62235991361 -1.0000000180025095e-35 -0.98296291314453399 107216.9629539802 106527.06520000001 105530.23344203224 -0.15123342103804657 2.5000000000000004 -0.15622007704270616 0.24936651517469852 106173.04791392625 0.15622007704270638 5.5000000000000009 103196.37089544565 100058.35265000003 34.68310119510442 -1.0000000180025095e-35 66.04578236380938
decision_type=2 2 2 2 2 2 2 2 2 2 2 2 2 2 2 2 2 2 2 2 2 2 2 2 2 2 2 2 2 2
left_child=1 5 6 4 11 26 9 14 -9 10 -2 28 -13 -14 -7 16 17 18 19 24 -20 27 23 -23 -16 -21 -1 -19 -3 -26
right_child=2 3 -4 -5 -6 7 -8 8 -10 -11 -12 12 13 -15 15 -17 -18 21 20 25 -22 22 -24 -25 29 -27 -28 -29 -30 -31
leaf_value=0.07396580729790618 -0.01634120544363845 0.028292475193181302 -0.074582042267584234 -0.086052783281966569 -0.049484380172856141 -0.035564106945917877 0.061139121403700182 0.062038238643592064 -0.030110431382584318 0.38015398463555627 -0.077887641709685387 0.53403205424014788 -0.024411613940550549 0.19580650271316616 0.13940701645118778 0.017414848945027411 0.15636168743653819 0.2128697089205836 0.19106140872313626 0.12615322771877999 0.065099233325820169 0.087140776412567456 -0.013363756579065737 0.68873253223204212 0.039351602862169766 -0.028865134124352394 0.18693307756600344 -0.042703125198384505 -0.085606645361195166 0.13197568121296016
leaf_weight=73.759816665202379 355.83138190582395 166.25437813997269 417.10011827945709 127.42811226844788 180.30748057365417 48.80170738697052 69.180505752563477 57.185865789651871 197.58362850546837 1.8195102624595154 103.32208773493767 2.6444170325994483 19.098298024386168 16.440272208303213 44.262257345020771 333.63968146592379 56.799955390393734 4.2974362112581721 34.663166642189026 13.255242921411989 45.225511860102415 2.5059539675712568 6.1385760903358459 2.1256872415542603 209.40938946604729 105.21447282284498 29.672906547784805 77.875260442495346 22.95707906037569 33.863610900938511
leaf_count=459 5497 1752 8442 2520 3360 780 600 392 3275 19 1970 38 198 173 325 3640 506 45 265 136 364 26 69 25 1633 1339 165 919 360 192
internal_value=-0.00182061 0.0182298 -0.0422791 -0.024264 -0.00495175 0.0347523 -0.0168647 0.0289323 -0.00942663 -0.0285712 -0.0301908 0.0303594 0.109082 0.0774621 0.0385314 0.0422621 0.0553041 0.0453876 0.0557372 0.0431408 0.119753 -0.00871886 0.148592 0.363241 0.0656623 -0.0115206 0.106374 -0.0293373 0.0144731 0.0522449
internal_weight=2858.66 1911.41 947.254 535.13 407.702 1376.28 530.153 1272.85 254.769 460.973 459.153 227.394 38.183 35.5386 1018.08 969.276 635.637 578.837 485.894 406.005 79.8887 92.9429 10.7702 4.63164 287.535 118.47 103.433 82.1727 189.211 243.273
internal_count=39484 22956 16528 8401 5881 14555 8086 13931 3667 7486 7467 2521 409 371 10264 9484 5844 5338 4254 3625 629 1084 120 51 2150 1475 624 964 2112 1825
is_linear=0
shrinkage=0.1


Tree=7
num_leaves=31
num_cat=0
split_feature=11 15 0 13 12 2 14 13 4 14 8 6 10 3 8 5 9 6 9 8 5 1 1 1 5 5 15 11 1 10
split_gain=192.397 107.237 71.9743 57.4727 52.858 43.1896 38.0173 35.9415 30.2985 28.4197 25.4424 31.0542 23.8216 30.1249 23.1513 23.2085 22.8509 22.3342 28.3614 22.8124 20.7005 20.8706 22.0933 52.9843 20.4947 20.3924 19.8177 49.5031 105.221 21.318
threshold=0.25881904510252091 0.43813463158589139 106967.88050000001 4.5000000000000009 -0.37940952255126015 101676.12935000002 0.43982890882219988 4.5000000000000009 102528.68493854697 1.0000000180025095e-35 69.500000000000014 39.265392710083084 -0.70613771591812624 109910.95813426106 41.500000000000007 82.515397171738854 -0.83752119907969291 31.390156342729345 0.8897854307135199 75.500000000000014 35.188940062727156 105659.9924 109340.5414 109457.5923 34.433956902502437 70.963015350409037 0.60896546470132462 0.12940952255126045 107323.67880000001 0.96460205851447978
decision_type=2 2 2 2 2 2 2 2 2 2 2 2 2 2 2 2 2 2 2 2 2 2 2 2 2 2 2 2 2 2
left_child=1 5 6 4 12 -1 9 17 -9 -2 -5 -12 -3 25 15 -10 -16 -7 -19 -20 21 -6 -23 -24 -8 -14 27 29 -29 -22
right_child=2 3 -4 10 20 7 24 8 14 -11 11 -13 13 -15 16 -17 -18 18 19 -21 26 22 23 -25 -26 -27 -28 28 -30 -31
leaf_value=0.07814173791645701 -0.012360000199533552 0.087303142903774764 -0.071145768932828257 -0.09529394141036393 0.39162678863747491 0.024427065443331807 0.31188196264217966 0.065722253455108584 -0.053631840148014323 -0.074538495276878211 0.018351692513503451 0.63908979039724745 -0.0075721050946727757 0.23948545757618361 0.15340009672538812 0.25731907455937009 -0.0057889605001798707 0.044960902618165176 0.11234768365500135 0.35414400165916726 -0.054136373079723812 -0.018745637647652753 0.70411639063146325 -0.10568881411111355 0.041663270370099252 0.1552315368150036 -0.067710904420891158 1.1277241139066823 -0.055748724721247173 0.28309559343558316
leaf_weight=167.27859022095799 341.32932132482529 54.968583762645721 404.6974590420723 111.38817930966616 1.6082168333232427 781.24404835700989 2.9253679290413848 42.40342878177762 140.79776056483388 93.684601545333862 5.6338644325733176 0.94048091024160374 136.4823006093502 5.5270948112010947 11.569108828902243 2.4419132471084586 40.88218792527914 183.32816722989082 30.108730465173721 4.4827946424484244 21.222313467413194 20.642169274389747 1.4778051376342767 1.7824800610542295 69.249962233006954 8.1534208059310895 148.46483290940523 1.2152668833732598 1.9675749540328977 2.056127965450286
leaf_count=1006 5327 525 8681 2387 31 8040 18 291 2487 1920 113 20 1463 37 142 28 631 1642 261 27 403 393 24 35 582 75 2801 21 34 39
internal_value=-0.00184729 0.0160527 -0.0396945 -0.0225757 -0.00470669 0.0304511 -0.0145989 0.0240033 -0.0109117 -0.0257508 -0.0840112 0.10715 0.0309792 0.0103612 -0.0275171 -0.0483308 0.0293231 0.0323233 0.0606315 0.143683 -0.0412284 0.0429243 0.0194628 0.261375 0.0526156 0.00160548 -0.0535009 0.0262262 0.396123 -0.0243495
internal_weight=2839.95 1928.07 911.887 523.531 405.568 1404.54 507.189 1237.26 238.094 435.014 117.963 6.57435 205.131 150.163 195.691 143.24 52.4513 999.164 217.92 34.5915 200.437 25.5107 23.9025 3.26029 72.1753 144.636 174.926 26.4613 3.18284 23.2784
internal_count=39484 22956 16528 8401 5881 14555 7847 13549 3579 7247 2520 133 2100 1575 3288 2515 773 9970 1930 288 3781 483 452 59 600 1538 3298 497 55 442
is_linear=0
shrinkage=0.1


Tree=8
num_leaves=31
num_cat=0
split_feature=11 15 0 13 12 0 14 13 6 12 1 3 4 5 14 8 8 5 12 2 1 8 6 6 12 3 1 0 6 9
split_gain=159.407 87.3164 65.5512 51.4174 45.6406 34.3432 30.5783 28.7632 25.7225 29.1507 31.0367 57.0419 45.0825 32.5724 25.6721 23.7309 22.256 21.5619 21.2992 23.281 19.9952 47.2053 19.9694 24.7893 34.2263 24.6777 30.12 19.9158 30.1259 29.3437
threshold=0.25881904510252091 0.43813463158589139 106967.88050000001 4.5000000000000009 -0.12940952255126037 100739.55225000002 0.43982890882219988 4.5000000000000009 21.669602960404848 0.37940952255126048 105033.08120000002 108891.57204890279 109219.43289096013 32.990113967555885 1.0000000180025095e-35 109.50000000000001 107.50000000000001 30.193859198538828 -0.98296291314453399 109845.34315000002 106852.2314 13.500000000000002 60.306053868489862 28.199403612783964 0.78656609248549303 106122.66051758164 105033.08120000002 109661.2215 18.195652206614131 -0.45336832153789985
decision_type=2 2 2 2 2 2 2 2 2 2 2 2 2 2 2 2 2 2 2 2 2 2 2 2 2 2 2 2 2 2
left_child=1 5 6 4 17 -1 14 18 -9 16 13 -12 -13 -11 22 -5 -10 -3 -7 27 -16 -22 23 24 -2 26 -24 -20 29 -29
right_child=2 3 -4 15 -6 7 -8 8 9 10 11 12 -14 -15 20 -17 -18 -19 19 -21 21 -23 25 -25 -26 -27 -28 28 -30 -31
leaf_value=0.079733404813357223 -0.0093857200018056496 0.16704426766620317 -0.068522629431948257 -0.086384560591926562 -0.044785092732496153 -0.035255999466225763 0.045629188765706395 -0.052706100387519418 -0.043766336381955109 0.37700410055290229 -0.086327059879550166 0.56610860690119447 -0.025838790354783384 0.080563826753400888 -0.086382852969163759 0.41449889057902101 0.14282535907638286 0.017117710684670755 0.033066209640494941 -0.039471560983038695 0.46299545449209117 -0.085570641411682385 0.051890959190059482 -0.051037645536040149 0.11522326670774119 -0.11074855105630446 0.48457817181768958 0.0032444522125886343 0.070671217860170055 0.50714625087132337
leaf_weight=112.95736553519964 180.8867481648922 10.015949860215185 379.49188992381096 108.58070936053991 167.16612380743027 48.609721779823303 74.651273727416992 85.650636941194534 74.084036540240049 4.0140523053705683 25.049760565161709 2.6532187387347212 2.497843861579895 48.39278382435441 80.326229751110077 0.95420227199792762 6.9960218109190455 226.86622659862041 945.59552412480116 43.051392063498497 2.286590762436389 4.9962805435061455 3.7084538489580137 122.29775840044022 25.101337790489197 2.9009068086743355 2.8415468111634254 1.7535266876220701 26.266723901033401 3.3893633410334614
leaf_count=624 2927 112 8681 2507 3360 780 600 1395 1202 40 471 33 48 402 1774 13 76 2409 8701 484 46 100 47 1973 315 36 29 20 244 35
internal_value=-0.00185814 0.0141199 -0.0371856 -0.0212511 -0.00477669 0.0268149 -0.0134012 0.0222796 -0.00830386 0.0149299 0.0567383 -0.0240061 0.279063 0.103269 -0.0237614 -0.0820212 -0.0276662 0.023457 0.0294152 0.0324971 -0.0719978 0.0866617 -0.0112489 -0.0153747 0.00579891 0.132063 0.239601 0.0356683 0.114006 0.335335
internal_weight=2824.03 1944.55 879.489 513.583 404.048 1430.96 499.997 1318 249.338 163.688 82.6077 30.2008 5.15106 52.4068 425.346 109.535 81.0801 236.882 1068.67 1020.06 87.6091 7.28287 337.737 328.286 205.988 9.45091 6.55 977.005 31.4096 5.14289
internal_count=39484 22956 16528 8401 5881 14555 7847 13931 3667 2272 994 552 81 442 7247 2520 1278 2521 10264 9484 1920 146 5327 5215 3242 112 76 9000 299 55
is_linear=0
shrinkage=0.1


Tree=9
num_leaves=31
num_cat=0
split_feature=11 3 13 1 8 15 15 3 14 6 5 14 13 8 3 0 5 3 1 9 5 2 2 12 8 4 6 4 12 15
split_gain=132.805 73.8182 71.3935 59.3251 30.2435 26.7845 44.2692 26.3732 25.3533 25.2155 26.5795 24.6724 32.7341 23.5939 37.6708 21.7765 21.6235 19.9517 24.4084 19.9457 21.3397 19.54 38.5016 26.1353 36.2809 24.9495 17.5844 18.7751 17.243 42.599
threshold=0.25881904510252091 105416.59925832649 4.5000000000000009 107026.31640000001 107.50000000000001 -0.34552334190817774 -0.81655236941868636 103196.37089544565 0.43982890882219988 11.125709268779584 27.936083919743165 -0.95291462550664219 4.5000000000000009 173.50000000000003 109270.7966034041 107110.84700000001 29.798587397484983 108891.57204890279 108827.96780000003 0.35787681872537386 62.872962229005275 104783.75380000002 105027.10770000002 -0.9159756150367534 28.500000000000004 105180.02443310244 60.306053868489862 105926.73315563127 -0.5 0.60896546470132462
decision_type=2 2 2 2 2 2 2 2 2 2 2 2 2 2 2 2 2 2 2 2 2 2 2 2 2 2 2 2 2 2
left_child=1 5 9 8 17 6 21 16 11 -3 -11 -2 15 28 -15 26 -8 -4 -19 -7 -21 -1 -23 24 -24 -25 -13 -28 -12 -30
right_child=3 2 4 -5 -6 19 7 -9 -10 10 13 12 -14 14 -16 -17 -18 18 -20 20 -22 22 23 25 -26 -27 27 -29 29 -31
leaf_value=0.068280893649497201 0.014556051369579612 0.11743110718647834 -0.081493014209097769 -0.066915965727997448 0.091089979729459203 0.078906184817101099 0.27516491241454988 -0.038617832252683601 0.039772107761246484 0.090056465437837921 0.015218878333376307 -0.027222967267113148 -0.092615456135012209 0.38172740773924474 -0.0037227360794424807 0.29731005317495129 0.025965497312312374 0.44324082825379735 0.00013785323050707581 0.00341957313171312 0.10579748245835324 -0.043099345876388778 0.132118892057423 0.10914115909692697 0.73620325628620642 -0.014444369030913218 0.20635159759992674 -0.10964595950384809 0.0060070954246800503 -0.057915153728270878
leaf_weight=167.51892238110304 126.41530847549438 20.278292194008827 158.13843729346991 343.67761528491974 12.198131203651426 190.75890866294503 3.730884261429309 140.343989148736 76.948874473571777 35.169827163219452 401.58912904560566 211.26845635473728 80.644652962684631 4.2170811071991903 6.3587286174297333 2.1655673533678046 52.201561965048313 1.4010204523801792 11.033956699073313 90.555720631033182 26.265129387378693 58.969948045909405 4.1703011132776728 33.401020929217339 1.3054450415074823 31.97137263417244 6.4737037271261197 2.6498923748731613 359.54370449483395 146.82980302721262
leaf_count=1285 1800 206 3670 8442 142 1186 33 1920 600 368 4043 3751 1824 38 60 19 420 9 188 671 126 742 77 267 24 370 56 36 4082 3029
internal_value=-0.00184599 0.0124846 -0.00367491 -0.0348466 -0.0610245 0.0358156 0.0213825 -0.0154768 -0.0130893 0.00708691 0.00474071 -0.0225573 -0.0380312 0.00147406 0.149975 -0.0182524 0.0425879 -0.0719026 0.0500613 0.0589782 0.0264375 0.0457139 0.0165932 0.0662779 0.276136 0.0486998 -0.0213531 0.114572 -0.000255651 -0.012528
internal_weight=2808.2 1957.95 1156.76 850.244 182.772 801.193 493.613 196.276 506.566 973.987 953.708 429.618 303.202 918.538 10.5758 222.558 55.9324 170.573 12.435 307.58 116.821 297.337 129.818 70.8481 5.47575 65.3724 220.392 9.1236 907.963 506.374
internal_count=39484 22956 15835 16528 4009 7121 5138 2373 8086 11826 11620 7486 5686 11252 98 3862 453 3867 197 1983 797 2765 1480 738 101 637 3843 92 11154 7111
is_linear=0
shrinkage=0.1


Tree=10
num_leaves=31
num_cat=0
split_feature=11 3 13 0 8 6 8 6 14 12 15 12 15 11 3 10 8 15 14 3 2 8 7 10 6 13 4 6 6 9
split_gain=110.346 58.2864 61.533 53.8442 25.6502 21.1567 27.4822 27.7833 23.4131 26.705 24.1421 20.9267 28.5164 20.8477 22.6704 33.0379 23.2858 20.7029 34.5053 21.6688 48.1531 21.1648 20.4012 23.7134 36.6136 20.2184 52.9776 26.4102 20.1373 19.0199
threshold=0.25881904510252091 105416.59925832649 4.5000000000000009 106967.88050000001 107.50000000000001 36.819567903270347 90.500000000000014 11.125709268779584 0.87322439853274636 -0.98296291314453399 0.8698606264137535 -0.78656609248549325 0.60896546470132462 -1.0000000180025095e-35 109142.62235991361 -0.5 20.500000000000004 -0.34552334190817774 -0.52828508881293657 103515.34288287321 103567.70175000002 86.500000000000014 1.0000000180025095e-35 -0.93230098696887709 23.859345565698778 4.5000000000000009 102344.6898291399 22.425557783464026 31.390156342729345 -0.10452846326765322
decision_type=2 2 2 2 2 2 2 2 2 2 2 2 2 2 2 2 2 2 2 2 2 2 2 2 2 2 2 2 2 2
left_child=1 17 5 25 -4 6 7 -3 9 -8 28 13 -13 22 -15 16 -16 18 19 20 -1 -22 29 24 -24 -2 27 -27 -11 -9
right_child=3 2 4 -5 -6 -7 8 11 -10 10 -12 12 -14 14 15 -17 -18 -19 -20 -21 21 -23 23 -25 -26 26 -28 -29 -30 -31
leaf_value=0.0053556175319112 0.00022986765801463697 0.10949907978386636 -0.0694986712530615 -0.063324987587209294 0.076233413085519897 0.0427452920493476 0.42505733148177899 0.051546558901660669 0.34026328403284084 -0.052724437691988771 0.12559008057337698 -0.0028582681879863762 -0.052455744694324027 -0.075161462453967431 0.70702192779663675 -0.055529477962044597 0.16755036619292052 0.051536070870766518 0.039734755157787155 -0.043485181699993658 0.5557915002169439 0.1352169854995999 0.41858326010058433 0.050102896540235344 0.033700358893232106 0.27602882407022811 -0.069206102547658341 -0.039278575015324009 0.17855727829119517 -0.045083114934359764
leaf_weight=78.879992768168449 368.82638058066368 20.858106307685375 159.60735011845827 336.31796422600746 13.066322080790995 136.8420512676239 1.862674981355666 37.668499916791916 3.0145700052380553 24.99849042668939 19.493193864822388 383.07184046134353 166.22798215225339 37.638740390539169 1.1066457331180575 5.8923525065183622 2.888645127415657 316.12887576594949 305.83659958839417 109.64677251875401 2.24191641062498 2.5661152079701424 4.6549459025263769 77.965768299996853 5.2696776762604713 7.1020527184009534 106.58109623193741 4.2438210546970367 4.4320354573428622 44.356114841997623
leaf_count=838 5447 197 3867 8681 142 1482 20 329 22 283 185 4297 3035 620 20 104 40 1983 2765 1494 26 15 37 669 43 62 2282 56 45 398
internal_value=-0.00181307 0.0110556 -0.00343559 -0.0325548 -0.058471 0.00627895 0.000348205 -0.00437533 0.0694966 0.0534245 0.0392753 -0.00747312 -0.0178674 0.0187848 -0.0397625 0.094989 0.316977 0.0315121 0.0188308 -0.0142372 0.0240832 0.331325 0.0351608 0.0686353 0.214222 -0.0112944 -0.0473376 0.158091 -0.017895 -0.000707474
internal_weight=2789.29 1966.22 1150.92 823.071 172.674 978.242 841.4 787.599 53.801 50.7864 48.9237 766.741 549.3 217.441 47.5264 9.88764 3.99529 815.3 499.171 193.335 83.688 4.80803 169.915 87.8904 9.92462 486.753 117.927 11.3459 29.4305 82.0246
internal_count=39484 22956 15835 16528 4009 11826 10344 9789 555 533 513 9592 7332 2260 784 164 60 7121 5138 2373 879 41 1476 749 80 7847 2400 118 328 727
is_linear=0
shrinkage=0.1


Tree=11
num_leaves=31
num_cat=0
split_feature=11 4 1 13 8 12 8 14 9 6 9 12 5 13 5 15 10 14 14 13 14 2 5 12 5 3 12 8 9 5
split_gain=91.3624 49.4206 48.3451 42.338 32.3495 27.6974 23.6931 27.6125 29.9197 23.1688 26.402 28.3498 33.3216 24.9249 21.2694 33.2081 23.8659 19.7048 19.8584 28.4259 19.3472 19.0397 18.7377 25.1291 31.3673 33.2173 20.2316 18.5868 18.0712 17.8127
threshold=0.25881904510252091 107207.07839052258 107026.31640000001 3.5000000000000004 107.50000000000001 -0.98296291314453399 46.500000000000007 0.87322439853274636 -0.45336832153789985 20.818810821200092 0.15622007704270641 -0.9159756150367534 31.383201115655208 1.0000000180025095e-35 38.671647972060107 -0.81655236941868636 -0.3090169943749474 0.43982890882219988 -0.95291462550664219 4.5000000000000009 0.15123342103804641 108285.17990000002 69.108738802046304 -0.78656609248549325 55.294448873765752 107602.69465184903 0.1294095225512602 163.50000000000003 0.83752119907969325 46.673604828304299
decision_type=2 2 2 2 2 2 2 2 2 2 2 2 2 2 2 2 2 2 2 2 2 2 2 2 2 2 2 2 2 2
left_child=1 5 17 6 -5 -1 14 22 -9 13 -11 -12 -13 -7 15 -3 20 18 -2 29 -17 -6 23 24 25 -8 -24 -15 -27 -20
right_child=2 3 -4 4 21 9 7 8 -10 10 11 12 -14 27 -16 16 -18 -19 19 -21 -22 -23 26 -25 -26 28 -28 -29 -30 -31
leaf_value=-0.044566108428388346 0.013178088447081543 0.30783338349118594 -0.061615829481527107 -0.064823761039299641 0.21142626848290177 0.07596751314438549 -0.089690103443717265 -0.0004509019002381416 0.19083083216157523 0.053451959965492173 -0.074940377904913952 0.12224086609915466 0.013242497611722664 -0.0031285695209554614 -0.021297022119788664 -0.036379836655153201 -0.027023973985184437 0.034797741320565838 -0.054456043859373096 -0.089898344552428344 0.13410556667888238 -0.0017662604976090479 0.054600579354570591 -0.024617503938053523 -0.04820144956776596 0.26508260025493541 0.37143258360867093 0.29597584843304958 0.025128785233791043 0.0050238352204348396
leaf_weight=58.966384410858154 127.36609745025635 4.2574305534362784 304.99826422333717 170.42588996887207 6.5840819478035 46.722177751362324 4.6884604878723648 13.535600602626799 20.656738579273224 406.68373008072376 31.492180109024048 31.404620312154293 262.32601291686296 374.54237014055252 322.76854598522186 9.2994261831045133 44.177523169666529 78.986165046691895 78.885565314441919 69.588918209075928 23.421419125050306 11.516004502773283 6.8023566417396051 88.341573212295771 13.036470428109167 13.599559165537359 2.8640232868492603 2.0891689062118521 4.080218866467475 139.18251424655318
leaf_count=967 1800 39 8442 3897 48 354 59 123 147 3685 279 288 2494 4097 3983 125 528 600 1439 1824 252 112 52 1121 113 119 29 11 34 2423
internal_value=-0.0017795 0.00976718 -0.0303104 -0.0102304 -0.0513242 0.0222848 0.00332493 0.034933 0.115109 0.025697 0.0364675 0.0152288 0.0248962 0.00707666 -0.00979057 0.0359723 0.0209208 -0.0109826 -0.0196954 -0.0342508 0.0856528 0.0757846 0.0143847 0.00391045 0.0750932 0.146951 0.148474 -0.00146944 0.209705 -0.0164929
internal_weight=2773.29 1974.28 799.008 760.055 188.526 1214.23 571.529 167.605 34.1923 1155.26 731.907 325.223 293.731 423.354 403.924 81.1558 76.8984 494.009 415.023 287.657 32.7208 18.1001 133.413 123.746 35.4047 22.3682 9.66638 376.632 17.6798 218.068
internal_count=39484 22956 16528 10781 4057 12175 6724 1797 270 11208 6746 3061 2782 4462 4927 944 905 8086 7486 5686 377 160 1527 1446 325 212 81 4108 153 3862
is_linear=0
shrinkage=0.1


end of trees

feature_importances:
Column_5=32
Column_6=31
Column_8=30
Column_14=30
Column_12=29
Column_13=29
Column_1=27
Column_3=25
Column_11=24
Column_15=24
Column_2=22
Column_0=16
Column_9=16
Column_4=12
Column_10=11
Column_7=2

parameters:
[boosting: gbdt]
[objective: binary]
[metric: binary_logloss]
[tree_learner: serial]
[device_type: gpu]
[data_sample_strategy: bagging]
[data: ]
[valid: ]
[num_iterations: 800]
[learning_rate: 0.1]
[num_leaves: 31]
[num_threads: 0]
[seed: 0]
[deterministic: 0]
[force_col_wise: 1]
[force_row_wise: 0]
[histogram_pool_size: -1]
[max_depth: -1]
[min_data_in_leaf: 20]
[min_sum_hessian_in_leaf: 0.001]
[bagging_fraction: 1]
[pos_bagging_fraction: 1]
[neg_bagging_fraction: 1]
[bagging_freq: 0]
[bagging_seed: 3]
[bagging_by_query: 0]
[feature_fraction: 1]
[feature_fraction_bynode: 1]
[feature_fraction_seed: 2]
[extra_trees: 0]
[extra_seed: 6]
[early_stopping_round: 0]
[early_stopping_min_delta: 0]
[first_metric_only: 0]
[max_delta_step: 0]
[lambda_l1: 0]
[lambda_l2: 0]
[linear_lambda: 0]
[min_gain_to_split: 0]
[drop_rate: 0.1]
[max_drop: 50]
[skip_drop: 0.5]
[xgboost_dart_mode: 0]
[uniform_drop: 0]
[drop_seed: 4]
[top_rate: 0.2]
[other_rate: 0.1]
[min_data_per_group: 100]
[max_cat_threshold: 32]
[cat_l2: 10]
[cat_smooth: 10]
[max_cat_to_onehot: 4]
[top_k: 20]
[monotone_constraints: ]
[monotone_constraints_method: basic]
[monotone_penalty: 0]
[feature_contri: ]
[forcedsplits_filename: ]
[refit_decay_rate: 0.9]
[cegb_tradeoff: 1]
[cegb_penalty_split: 0]
[cegb_penalty_feature_lazy: ]
[cegb_penalty_feature_coupled: ]
[path_smooth: 0]
[interaction_constraints: ]
[verbosity: -1]
[saved_feature_importance_type: 0]
[use_quantized_grad: 0]
[num_grad_quant_bins: 4]
[quant_train_renew_leaf: 0]
[stochastic_rounding: 1]
[linear_tree: 0]
[max_bin: 255]
[max_bin_by_feature: ]
[min_data_in_bin: 3]
[bin_construct_sample_cnt: 200000]
[data_random_seed: 1]
[is_enable_sparse: 1]
[enable_bundle: 1]
[use_missing: 1]
[zero_as_missing: 0]
[feature_pre_filter: 1]
[pre_partition: 0]
[two_round: 0]
[header: 0]
[label_column: ]
[weight_column: ]
[group_column: ]
[ignore_column: ]
[categorical_feature: ]
[forcedbins_filename: ]
[precise_float_parser: 0]
[parser_config_file: ]
[objective_seed: 5]
[num_class: 1]
[is_unbalance: 0]
[scale_pos_weight: 1]
[sigmoid: 1]
[boost_from_average: 1]
[reg_sqrt: 0]
[alpha: 0.9]
[fair_c: 1]
[poisson_max_delta_step: 0.7]
[tweedie_variance_power: 1.5]
[lambdarank_truncation_level: 30]
[lambdarank_norm: 1]
[label_gain: ]
[lambdarank_position_bias_regularization: 0]
[eval_at: ]
[multi_error_top_k: 1]
[auc_mu_weights: ]
[num_machines: 1]
[local_listen_port: 12400]
[time_out: 120]
[machine_list_filename: ]
[machines: ]
[gpu_platform_id: -1]
[gpu_device_id: -1]
[gpu_use_dp: 0]
[num_gpu: 1]

end of parameters

pandas_categorical:null
