tree
version=v4
num_class=1
num_tree_per_iteration=1
label_index=0
max_feature_idx=26
objective=binary sigmoid:1
feature_names=Column_0 Column_1 Column_2 Column_3 Column_4 Column_5 Column_6 Column_7 Column_8 Column_9 Column_10 Column_11 Column_12 Column_13 Column_14 Column_15 Column_16 Column_17 Column_18 Column_19 Column_20 Column_21 Column_22 Column_23 Column_24 Column_25 Column_26
feature_infos=[2127.219970703125:3037.5400390625] [2132.199951171875:3040.14990234375] [2111.889892578125:3032.760009765625] [2127.22998046875:3037.530029296875] [1.4061000347137451:23779.484375] [3535.53271484375:53059152] [32:54690] [0.0099999997764825821:87.930000305175781] [-0.033314067870378494:0.022304616868495941] [-0.036775074899196625:0.023961076512932777] [-0.057351190596818924:0.033225558698177338] [-0.060390103608369827:0.051851116120815277] [0.00064699380891397595:0.054237484931945801] [0.040131285786628723:8.0490102767944336] [0.25750303268432617:19.644302368164062] [2130.05810546875:3032.6298828125] [2133.756103515625:3026.923095703125] [2132.228515625:3027.810546875] [5.8664970397949219:94.886428833007812] [-29.683948516845703:24.80352783203125] [-26.136373519897461:23.395267486572266] [-10.285764694213867:7.7895913124084473] [-1:1] [-1:1] [-1:1] [-1:1] [0:6]
tree_sizes=3473 3468 3475 3465 3474 3489 3475 3462 3445 3458 3465 3488 3467 3444 3419 3458 3439 3421 3425 3430 3407 3455 3398 3443 3448 3446 3411 3445 3455 3403 3476 3408 3407 3413 3394 3445 3441 3447 3444 3406 3413 3397 3449 3434 3425 3428 3437 3406 3414 3447 3416 3384 3412 3452 3408 3417 3442 3449 3417 3427 3405 3406 3412 3420 3451 3415 3458 3409 3415 3443 3413 3447 3400 3400 3425 3413 3448 3436 3456 3405 3441 3429 3421 3410 3433 3398 3429 3466 3412 3415 3461 3448 3468 3416 3418 3413 3427 3422 3440 3411 3405 3427 3429 3419 3429 3413 3455 3437 3420 3406 3443 3438 3418 3437 3441 3442 3416 3428 3424 3420 3454 3432 3400 3403 3377 3416 3406 3415 3417 3428 3428 3424 3388 3452 3416 3438 3396 3418 3406 3414 3415 3424 3442 3425 3424 3419 3402 3418 3422 3417 3429 3419 3450 3417 3419 3411 3417 3440 3435 3405 3415 3410 3397 3450 3429 3390 3401 3439 3426 3400 3419 3437 3413 3446 3395 3417 3428 3421 3448 3420 3431 3425 3426 3406 3446 3412 3439 3424 3420 3474 3450 3411 3399 3410 3404 3436 3402 3435 3440 3392 3405 3415 3436 3432 3404 3460 3394 3431 3409 3423 3422 3442 3404 3421 3399 3431 3419 3413 3428 3428 3409 3426 3436 3409 3415 3454 3432 3443 3449 3428 3415 3436 3424 3427 3462 3427 3439 3403 3425 3402 3400 3396 3439 3404 3408 3446 3429 3413 3437 3426 3429 3421 3415 3434 3428 3395 3393 3429 3438 3399 3404 3438 3426 3417 3420 3434 3396 3426 3437 3430 3431 3435 3436 3417 3446 3418 3413 3444 3419 3422 3418 3413 3396 3415 3421 3434 3428 3422 3441 3432 3410 3417 3442 3440 3422 3449 3410 3439 3465 3421 3451 3417 3436 3423 3424 3429 3406 3449 3450 3413 3440 3411 3457 3402 3432 3425 3394 3427 3409 3445 3406 3442 3425 3412 3393 3468 3415 3436 3444 3419 3438 3401 3422 3398 3431 3416 3447 3392 3436 3437 3424 3419 3422 3406 3404 3419 3426 3408 3431 3444 3436 3421 3386 3410 3428 3432 3436 3439 3429 3425 3449 3457 3401 3429 3412 3455 3423 3419 3417 3441 3438 3429 3427 3430 3414 3427 3424 3425 3417 3439 3431 3429 3440 3426 3442 3409 3435 3430 3447 3406 3417 3429 3417 3426 3443 3407 3412 3441 3409 3442

Tree=0
num_leaves=31
num_cat=0
split_feature=19 18 18 23 22 23 22 23 12 22 2 11 26 3 21 0 14 9 23 12 12 21 18 10 16 1 0 1 11 22
split_gain=129.864 64.3368 36.0193 43.7026 32.3438 26.0268 24.6203 34.4128 26.2285 25.1507 24.534 24.1955 22.9082 22.5034 26.861 32.5191 21.563 20.0411 20.5395 20.7015 30.986 28.3434 19.5576 19.3905 18.664 20.2084 18.5643 18.3615 18.2199 17.8022
threshold=0.85270825028419506 35.230535507202156 52.054723739624031 0.19722913205623629 -0.26933941245079035 -0.95819556713104237 -0.23132287710905072 -0.96185845136642445 0.008534929249435665 0.90352019667625438 2426.884887695313 0.0028400364099070434 4.5000000000000009 2458.825073242188 1.1871184110641482 2595.0600585937505 0.84495976567268383 0.0020421172957867388 -0.5206359028816222 0.001648671110160649 0.0019789736252278094 0.34963552653789526 54.734342575073249 0.0039982765447348365 2277.977172851563 2440.505004882813 2248.4599609375005 2426.244995117188 0.00073773643816821288 -0.99115538597106922
decision_type=2 2 2 2 2 2 2 2 2 2 2 2 2 2 2 2 2 2 2 2 2 2 2 2 2 2 2 2 2 2
left_child=1 5 -2 12 -5 -1 7 -3 17 10 11 -8 16 -6 15 -15 -4 18 22 -20 21 -21 24 -17 -9 -26 -19 -24 -18 -30
right_child=2 6 3 4 13 -7 9 8 -10 -11 -12 -13 -14 14 -16 23 28 26 19 20 -22 -23 27 -25 25 -27 -28 -29 29 -31
leaf_value=0.086559181280646685 0.019420836177565487 0.10598801095403163 0.13798843629843036 0.015811428526978269 0.009961566561133707 0.031855856455143508 0.024433881960303102 -0.13028580625047625 0.063146343083205922 0.020068231268692366 -0.0026223319742350228 -0.093443211281596161 -0.050296363631748518 -0.05786295639235204 0.047937978278786146 0.0096350818950728129 0.020141436640193813 -0.14582485991082028 -0.029806001789894149 0.093293964675832619 0.021498392024580718 -0.083443078361471551 0.11000776881749058 -0.086226620514495922 0.043265295362302766 0.00026872614598658778 -0.0090799500212857299 -0.056299860435419062 -0.064276156931232731 -0.019445718120464726
leaf_weight=94.998737275600433 396.49472978711128 43.74941848218441 8.7498836964368802 686.2408784776926 249.74668036401272 1029.7363127321005 534.24289883673191 9.4998737275600416 115.7484614700079 943.73745582997799 2592.4655409157276 17.999760746955872 271.74638794362545 252.24664713442326 43.499421805143356 162.49784007668495 106.74858109652996 10.499860435724257 71.499049633741379 97.998697400093079 1522.7297598570585 9.9998670816421491 7.2499036341905585 24.249677672982216 145.74806271493435 437.24418814480305 182.2475775629282 78.748953267931938 95.998723983764648 1145.9847675561905
leaf_count=380 1586 175 35 2745 999 4119 2137 38 463 3775 10370 72 1087 1009 174 650 427 42 286 392 6091 40 29 97 583 1749 729 315 384 4584
internal_value=0.00728681 0.0143166 -0.00893167 -0.0126202 0.000213303 0.0364763 0.0106628 0.0180109 0.0165796 0.00575097 0.00145431 0.0205918 -0.0237937 -0.0144049 -0.0270175 -0.0344447 -0.0184883 0.0144852 0.0169961 0.0228603 0.0251694 0.0769294 0.00228393 -0.00281282 0.00875224 0.0110179 -0.0165291 -0.0422797 -0.0195034 -0.0229109
internal_weight=11390.3 7946.14 3444.2 3047.71 1418.48 1124.74 6821.41 2732.96 2689.21 4088.45 3144.71 552.243 1629.23 732.24 482.494 438.994 1357.48 2573.47 2380.72 1702.23 1630.73 107.999 678.491 186.748 592.492 582.992 192.747 85.9989 1348.73 1241.98
internal_count=45562 31785 13777 12191 5674 4499 27286 10932 10757 16354 12579 2209 6517 2929 1930 1756 5430 10294 9523 6809 6523 432 2714 747 2370 2332 771 344 5395 4968
is_linear=0
shrinkage=1


Tree=1
num_leaves=31
num_cat=0
split_feature=19 18 18 23 22 22 22 16 16 17 21 1 23 11 18 21 13 20 19 12 22 22 26 12 12 17 18 22 26 19
split_gain=105.216 52.1395 30.8074 27.7358 27.825 21.4357 29.14 32.2407 24.4182 23.4848 21.1921 27.7776 21.1589 17.9765 17.7164 17.4012 28.5042 22.8053 23.6958 23.9252 21.2635 24.4743 27.4166 19.7539 27.435 23.3489 18.037 17.7963 17.1938 24.8881
threshold=0.85270825028419506 35.230535507202156 55.561424255371101 0.19722913205623629 -0.26933941245079035 0.19722913205623629 0.891992747783661 2454.035278320313 2487.7519531250005 2452.786743164063 1.1871184110641482 2427.365112304688 -0.95819556713104237 -0.0025439182063564654 59.735609054565437 -0.090230695903301225 0.35673774778842932 -0.15928252041339871 0.54492667317390453 0.0026046412531286482 -0.71477618813514698 -0.28192219138145441 1.5000000000000002 0.008534929249435665 0.010365906637161972 2291.455200195313 37.963451385498054 0.041439602151513107 3.5000000000000004 -0.81833970546722401
decision_type=2 2 2 2 2 2 2 2 2 2 2 2 2 2 2 2 2 2 2 2 2 2 2 2 2 2 2 2 2 2
left_child=1 12 -2 -4 -5 14 7 9 13 -7 11 -6 -1 -9 15 16 20 23 -19 27 -3 22 -22 -17 -25 -26 -24 -20 -18 -30
right_child=2 5 3 4 10 6 -8 8 -10 -11 -12 -13 -14 -15 -16 17 28 18 19 -21 21 -23 26 24 25 -27 -28 -29 29 -31
leaf_value=0.071483214118572447 0.0022762170272309853 -0.036058901470427604 -0.029600213646763962 0.0063927073397410305 0.013289900764320798 0.0066668831739527569 0.010933555935331327 0.011832504981933539 -0.01339240502797856 0.13042119219144008 0.032119359358405764 -0.041032114532333325 0.022117693139780174 -0.074902728041645786 -0.019346943504196884 0.0067140501037956241 0.023802768093893749 0.049152990517964054 -0.076967983429726494 0.029356742638650513 -0.047875071770736598 -0.018355519550080693 -0.068169595145287837 0.11670144825870894 0.10229614631461706 -0.0508424099441981 0.064501981600733435 0.073592015629684676 -0.0300700488315239 0.03100354527202949
leaf_weight=94.822272956371307 823.12072503566742 256.17617420852184 1387.3742060661316 601.96235978603363 118.99704933166504 581.16977749764919 1005.9035552740097 30.249947711825371 1369.4976327717304 15.749972775578497 61.474709406495094 450.51811590790749 1029.4887757301331 113.74980337917805 219.90748198330402 1335.2121090739965 585.13072395324707 347.88222128152847 45.22643780708313 116.2243145108223 34.496290892362595 263.20986367762089 11.247659385204313 39.961124286055565 15.235866189002989 28.732049241662025 115.2117637693882 9.4997991770505887 171.46387016773224 109.231021925807
leaf_count=380 3293 1025 5551 2408 476 2325 4024 121 5478 63 246 1803 4119 455 880 5342 2341 1392 181 465 138 1053 45 160 61 115 461 38 686 437
internal_value=8.54805e-08 0.0063282 -0.0146001 -0.0199014 -0.00898782 0.00303904 -0.00307294 -0.00974897 -0.0175112 0.00993219 -0.0236608 -0.0296818 0.0262811 -0.0566823 0.00818123 0.00991871 0.0020067 0.0162311 0.034172 0.0036858 -0.0133105 0.000428541 0.031146 0.00967202 0.0567299 0.00222353 0.0527018 -0.0508326 0.0140425 -0.00630356
internal_weight=11388.1 7944.68 3443.45 2620.33 1232.95 6820.37 3116.32 2110.42 1513.5 596.92 630.99 569.515 1124.31 144 3704.05 3484.14 1546.17 1937.97 518.833 170.951 680.342 424.166 160.956 1419.14 83.929 43.9679 126.459 54.7262 865.826 280.695
internal_count=45562 31785 13777 10484 4933 27286 12466 8442 6054 2388 2525 2279 4499 576 14820 13940 6186 7754 2076 684 2722 1697 644 5678 336 176 506 219 3464 1123
is_linear=0
shrinkage=0.1


Tree=2
num_leaves=31
num_cat=0
split_feature=19 18 18 23 12 26 22 22 2 0 13 17 21 14 23 9 20 15 9 13 23 20 23 12 13 0 3 21 22 10
split_gain=85.2677 42.2808 25.4651 29.9677 23.1293 18.4611 18.3608 17.9191 24.8663 28.2974 24.463 29.4175 20.844 17.6304 17.2898 16.6117 16.3407 16.0664 21.8082 16.4374 36.0044 18.1514 31.5127 27.8728 23.5814 22.5945 17.6815 26.1415 21.4677 18.1282
threshold=0.85270825028419506 35.230535507202156 52.054723739624031 0.19722913205623629 0.0014636198757216337 4.5000000000000009 -0.26933941245079035 -0.92799669504165638 2566.244995117188 2611.6000976562505 0.8112890124320985 2550.284057617188 -0.018961884081363675 0.84495976567268383 -0.95819556713104237 0.0030418307287618522 0.33207605779170996 2440.6950683593755 0.0022717679385095839 0.54008942842483532 -0.85828685760498036 0.057404490187764175 0.44424325227737432 0.0016690991469658913 0.19983584433794024 2351.1950683593755 2416.355102539063 -0.3493638783693313 0.33586180210113531 -0.0013788573560304938
decision_type=2 2 2 2 2 2 2 2 2 2 2 2 2 2 2 2 2 2 2 2 2 2 2 2 2 2 2 2 2 2
left_child=1 14 -2 5 -5 13 -6 8 10 -10 11 12 -3 -4 -1 -14 -8 18 19 21 -21 22 24 -24 -9 -23 27 28 -27 -28
right_child=2 7 3 4 6 -7 16 17 9 -11 -12 -13 15 -15 -16 -17 -18 -19 -20 20 -22 25 23 -25 -26 26 29 -29 -30 -31
leaf_value=0.064630471937435194 0.010694190148955769 -0.018230489289221566 0.12095489603400333 -0.14856417415386344 0.0072368637093961283 -0.049315994923753236 0.059675594031781069 0.072764589326574106 0.1215601575573021 0.028127855003344634 0.068743514998455546 -0.14838157227381521 0.02620901968163435 -0.021660008134453564 0.019915850595106269 -0.1019470941322953 -0.01863328772881799 -0.0022159754962692534 -0.038841543652079515 0.12182763789214456 0.019279100026416963 -0.065116376671358431 -0.066724277105718585 0.007742695752992669 0.020434676440728449 -0.10791661868116853 0.069428484004831273 0.096075381418549599 0.091030687564675167 -0.015206555092177373
leaf_weight=94.409248828887939 396.4533479809761 236.16126185655594 8.7243516743183118 11.229719445109366 685.66896790266037 271.34935370087624 27.712663307785988 119.44052550196648 41.224448665976524 151.69887886941433 57.700668767094612 12.995701164007185 284.10154817998409 1347.9459819346666 1029.0003919154406 10.487654209136961 693.00459124147892 4435.4813838005066 88.130600109696388 40.446909874677658 222.99761594831944 60.222177743911743 61.486759379506111 275.37130007147789 308.61764630675316 14.993778750300409 27.484470561146736 41.47827360033989 8.4979461878538114 319.54851362109184
leaf_count=380 1586 945 35 45 2743 1087 111 478 165 607 231 52 1137 5395 4119 42 2775 17748 353 162 893 241 246 1102 1235 60 110 166 34 1279
internal_value=3.53227e-07 0.00569793 -0.0131457 -0.016249 -0.00561889 -0.0255053 -0.0044775 0.00273631 0.0168535 0.0480928 0.00683307 0.00026332 0.00390297 -0.0207429 0.0236736 0.0216465 -0.0156222 0.000874765 0.00950369 0.012343 0.0350235 0.00751334 0.0170306 -0.00584977 0.0350362 -0.00790288 0.000459972 0.0483383 -0.035949 -0.00850359
internal_weight=11384.1 7941.98 3442.09 3045.64 1417.62 1628.02 1406.39 6818.57 794.37 192.923 601.447 543.746 530.75 1356.67 1123.41 294.589 720.717 6024.2 1588.72 1500.59 263.445 1237.14 764.916 336.858 428.058 472.225 412.003 64.97 23.4917 347.033
internal_count=45562 31785 13777 12191 5674 6517 5629 27286 3179 772 2407 2176 2124 5430 4499 1179 2886 24107 6359 6006 1055 4951 3061 1348 1713 1890 1649 260 94 1389
is_linear=0
shrinkage=0.1


Tree=3
num_leaves=31
num_cat=0
split_feature=19 18 18 25 1 15 14 23 12 13 12 22 23 17 21 26 4 26 12 1 23 23 2 1 13 22 22 16 16 17
split_gain=69.1181 34.3018 22.0108 18.2782 30.6757 27.7546 19.8145 26.5275 20.1715 19.6049 18.7656 18.1018 17.4703 16.8124 16.5752 20.9571 18.7829 16.5431 19.3637 22.3119 16.3559 17.1435 16.1976 21.2899 19.3318 16.9682 23.1539 22.0723 20.8383 19.6823
threshold=0.85270825028419506 35.230535507202156 55.561424255371101 1.0000000180025095e-35 2516.3750000000005 2474.9160156250005 1.811597526073456 0.97581917047500621 0.0025898425374180083 1.112645208835602 0.0072059228550642737 -0.79994463920593251 -0.98518189787864674 2456.3923339843755 -0.18347938358783719 1.0000000180025095e-35 32.38080024719239 3.5000000000000004 0.003138927044346929 2501.555053710938 0.18437977880239489 0.02835773024708033 2181.3649902343755 2214.974975585938 0.73106887936592113 0.19722913205623629 0.89783340692520153 2454.035278320313 2487.7519531250005 2452.786743164063
decision_type=2 2 2 2 2 2 2 2 2 2 2 2 2 2 2 2 2 2 2 2 2 2 2 2 2 2 2 2 2 2
left_child=1 -1 -2 9 5 13 7 8 -6 10 20 -10 -11 14 15 -5 -16 18 -7 -20 21 -4 -3 24 -24 -25 27 29 -29 -27
right_child=2 22 3 4 6 17 -8 -9 11 12 -12 -13 -14 -15 16 -17 -18 -19 19 -21 -22 -23 23 25 -26 26 -28 28 -30 -31
leaf_value=0.021331738483110443 0.0024256556832610212 0.076802267555650158 -0.026456625012538555 -0.13975386438459317 -0.0093860979871688999 -0.065116890650230116 -0.010177664917035048 -0.12542688765722457 0.049240691941846451 0.11229262789222268 -0.080218549753092727 -0.084782264775316585 -0.0027014338270938379 -0.10254658361728163 -0.13466433467726574 0.076277355393051693 -0.0034551070642774538 0.07343428978618842 0.14828570513361058 -0.0058540783115579942 0.055245125865011228 -0.1067001204426784 -0.11896403969515904 0.0072544978477086259 0.014093552134941918 0.004595668969453159 0.0099854515755480704 -0.051029106265857542 -0.011231538458706164 0.11808126609137498
leaf_weight=1122.177800282836 822.91704645752907 29.185240194201469 912.25362686812878 4.9979435801506034 155.58515600860119 23.714176312088966 548.39856830239296 34.136470347642899 11.497508376836775 14.731580540537832 70.374941319227219 81.61226849257946 128.02664083242416 16.7044408172369 11.233379602432249 44.231166779994965 379.28646898269653 87.902661994099617 14.478133872151373 26.726165115833282 23.741029515862465 27.424752116203308 27.421417266130447 3626.6288580149412 18.144376769661903 591.12112377583981 972.883271291852 145.31898291409016 1390.386014521122 15.68806444108486
leaf_count=4499 3293 117 3656 20 624 95 2196 137 46 59 282 327 513 67 45 177 1518 352 58 107 95 110 110 14520 73 2366 3893 582 5562 63
internal_value=6.8459e-07 0.00513096 -0.0118392 -0.0163248 -0.00877195 0.00827292 -0.0212655 -0.0427643 -0.0314179 -0.025572 -0.0303689 -0.0682327 0.00916509 -0.00407674 -0.000336229 0.054345 -0.00722937 0.0451595 0.006874 0.0483067 -0.0267275 -0.0287986 0.00246399 0.00214435 -0.0659803 0.00260477 -0.00280797 -0.00861726 -0.0149975 0.00752965
internal_weight=11378.9 7938.96 3439.97 2617.06 1440.5 609.275 831.23 282.831 248.695 1176.55 1033.79 93.1098 142.758 456.453 439.749 49.2291 390.52 152.821 64.9185 41.2043 963.419 939.678 6816.78 6787.59 45.5658 6742.03 3115.4 2142.51 1535.7 606.809
internal_count=45562 31785 13777 10484 5769 2439 3330 1134 997 4715 4143 373 572 1827 1760 197 1563 612 260 165 3861 3766 27286 27169 183 26986 12466 8573 6144 2429
is_linear=0
shrinkage=0.1


Tree=4
num_leaves=31
num_cat=0
split_feature=20 18 23 19 24 9 19 12 16 17 24 22 16 20 18 0 15 1 23 18 23 13 14 16 23 19 21 13 12 26
split_gain=58.6737 29.3503 22.0739 26.5332 18.601 25.0221 21.407 28.9088 34.4944 22.2031 25.995 20.0522 23.4737 19.316 18.8283 18.283 24.3087 28.3572 24.4235 24.5083 23.525 29.115 24.2715 23.2657 22.529 21.8692 20.2335 36.9405 27.3818 26.3508
threshold=0.20605259388685229 62.831640243530281 -0.98734235763549794 -2.8246973752975459 -0.91597560048103321 0.00083934009307995449 -0.25282900035381312 0.0035779151367023592 2423.1691894531255 2435.6616210937505 -0.98296290636062611 -0.91265374422073353 2447.169067382813 -1.1443703174591062 34.081804275512702 2440.944946289063 2629.463012695313 2740.444946289063 -0.39273749291896815 43.611238479614265 0.31109040975570684 0.15025565773248675 0.72880539298057567 2431.565307617188 -0.29445663094520563 0.089187551289796843 0.47714850306510931 0.41395966708660131 0.0033140854211524133 4.5000000000000009
decision_type=2 2 2 2 2 2 2 2 2 2 2 2 2 2 2 2 2 2 2 2 2 2 2 2 2 2 2 2 2 2
left_child=2 -2 3 -1 5 6 7 8 -4 -10 13 12 -7 -11 -6 20 18 24 26 -20 21 -16 23 -22 -18 -19 28 -28 -17 -30
right_child=1 -3 4 -5 14 11 -8 -9 9 10 -12 -13 -14 -15 15 16 17 25 19 -21 22 -23 -24 -25 -26 -27 27 -29 29 -31
leaf_value=0.14394216497661352 -0.0032465927144444567 -0.020151736517384979 -0.12361692133847046 0.024676196189374756 0.017558806702203302 -0.047530781690716763 0.073311201310189297 0.04452233761355566 0.093708430980585178 0.011795012741702157 0.031464399296867451 -0.090377202516749855 0.029383387671365831 -0.10512466282670659 0.082593398017755226 0.00030867260639626048 0.082859784669518863 -0.0077791428776079492 -0.01600516865372335 0.01154595821624859 -0.0031212184264251823 0.016402442923201321 0.0046759493661912349 -0.11130124269937605 0.014673799046069311 0.054464902739828194 -0.090279131455942491 -0.00078124248635983438 -0.043860210917403344 0.060970281054064226
leaf_weight=19.85879822075367 3841.5420807898045 1401.7611101418734 22.715815901756287 307.2912729382515 763.3338960558176 60.842107653617859 100.27728587388992 241.38375675678253 25.457432702183723 23.710702583193779 73.168668448925018 26.721611082553864 114.0793703943491 34.969640269875526 75.528412476181984 565.00129380822182 87.941676422953606 431.74988022446632 529.68687796592712 826.94845862686634 41.454143106937408 553.10117562115192 471.96950824558735 38.199839577078819 107.92299045622349 64.93619878590107 100.90150345861912 84.943562150001526 309.82573691010475 25.989759236574173
leaf_count=80 15388 5621 91 1232 3062 244 402 967 102 95 293 107 457 140 303 2262 352 1728 2120 3310 166 2217 1890 153 432 260 404 340 1240 104
internal_value=6.39112e-08 -0.00776607 0.00664293 0.0319159 0.00521808 0.0202215 0.0317849 0.0219033 -0.00842551 0.0082087 -0.00829961 -0.00969465 0.0026307 -0.0578815 0.00308154 0.000521132 -0.00347177 0.0130656 -0.00815926 0.000788852 0.01113 0.0243551 -0.0039414 -0.0550014 0.0452888 0.000358576 -0.0193305 -0.0493726 -0.0131325 -0.0357471
internal_weight=11373.2 5243.3 6129.91 327.15 5802.76 723.326 521.683 421.406 180.022 157.306 131.849 201.643 174.921 58.6803 5079.43 4316.1 3135.85 692.551 2443.3 1356.64 1180.25 628.63 551.623 79.654 195.865 496.686 1086.66 185.845 900.817 335.815
internal_count=45562 21009 24553 1312 23241 2898 2090 1688 721 630 528 808 701 235 20343 17281 12552 2772 9780 5430 4729 2520 2209 319 784 1988 4350 744 3606 1344
is_linear=0
shrinkage=0.1


Tree=5
num_leaves=31
num_cat=0
split_feature=18 18 19 21 23 25 1 15 26 17 22 23 13 17 1 20 20 22 10 12 19 0 22 11 21 12 12 1 12 12
split_gain=48.3593 22.3991 20.7768 20.5951 22.1102 19.2783 19.9099 23.2151 23.3513 20.3187 18.428 18.269 30.4561 20.1854 17.9652 17.9605 17.7854 18.6194 17.569 17.5509 17.4737 17.3324 17.6065 19.1682 17.079 17.9808 21.5251 17.6581 18.9935 17.1677
threshold=55.102142333984382 35.230535507202156 0.55933386087417614 0.34963552653789526 0.99474522471427929 1.0000000180025095e-35 2516.3750000000005 2474.9160156250005 3.5000000000000004 2456.3923339843755 0.19722913205623629 0.9247100055217744 0.29767453670501715 2449.339233398438 2534.805053710938 -2.3108512163162227 1.0312028527259829 0.39674647152423864 0.0015638117911294105 0.0094438004307448881 0.98294585943222057 2779.8601074218755 -0.25671049952507013 -0.0036248865071684118 -0.080400597304105745 0.008534929249435665 0.010365906637161972 2305.404907226563 0.0045046659652143725 0.0032792738638818268
decision_type=2 2 2 2 2 2 2 2 2 2 2 2 2 2 2 2 2 2 2 2 2 2 2 2 2 2 2 2 2 2
left_child=1 -1 3 -2 21 19 7 9 -9 -7 24 13 -13 -12 -8 -15 18 -18 -17 -4 -16 22 23 -5 29 27 -27 28 -26 -3
right_child=2 10 5 4 -6 6 14 8 -10 -11 11 12 -14 15 20 16 17 -19 -20 -21 -22 -23 -24 -25 25 26 -28 -29 -30 -31
leaf_value=0.01777028667068813 0.021744143810824866 -0.012621256281184826 -0.02339357170603526 0.091158839387742288 0.12379230480050302 0.00048612345131049666 -0.043617497736237291 -0.0015463160966715074 0.070527427586943178 -0.10331356017938416 0.014044387556366906 -0.091164062701081947 -0.0069878500913642429 0.032680355513568904 0.02584143580408086 -0.014514363456812852 0.12046605604176508 0.0093702849202184271 0.044339674470042202 0.035483827325700205 -0.014866384838489753 0.071473912167999448 -0.00045976222193946345 -0.051915981735348241 0.082851264696694668 0.11131608744529096 0.010856406051044716 0.014147651712680055 -0.069034326440963495 0.0075741789961816484
leaf_weight=1120.5053746700287 392.11425052583218 642.2971950173378 1378.5105823129416 9.9571095854043943 11.995420441031454 517.44673848152161 177.0743670463562 81.795720785856247 99.800888627767563 19.571601808071136 637.1478616297245 61.703926026821136 141.67085306346416 110.43910549581051 125.52750252187252 1543.3775260895491 16.245105996727943 211.40580780804157 52.445409208536148 52.559810847043991 659.1266787648201 22.467615514993668 222.98340401053429 157.16069173812866 9.9768348038196546 41.12117475271225 44.312316715717316 1538.7950489968061 47.111355930566788 1221.2860540002584
leaf_count=4502 1571 2572 5533 40 48 2072 711 328 400 79 2552 247 567 442 503 6178 65 846 210 211 2643 90 893 630 40 166 178 6165 189 4891
internal_value=5.25687e-07 0.00473976 -0.00897563 0.00521991 -0.0100414 -0.0127016 -0.00543747 0.00715508 0.0380636 -0.00329685 0.00242927 -0.00367478 -0.0325269 -0.00139253 -0.0148468 -0.00647838 -0.00885004 0.017298 -0.0125802 -0.0212311 -0.00835402 -0.0139326 -0.0188515 -0.0433914 0.00720663 0.0145143 0.05921 0.0121216 -0.0424905 0.000613679
internal_weight=11367.9 7439.84 3928.09 816.678 424.564 3111.41 1680.34 718.615 181.597 537.018 6319.34 2774.44 203.375 2571.06 961.729 1933.91 1823.47 227.651 1595.82 1431.07 784.654 412.569 390.101 167.118 3544.9 1681.32 85.4335 1595.88 57.0882 1863.58
internal_count=45562 29810 15752 3272 1701 12480 6736 2879 728 2151 25308 11107 814 10293 3857 7741 7299 911 6388 5744 3146 1653 1563 670 14201 6738 344 6394 229 7463
is_linear=0
shrinkage=0.1


Tree=6
num_leaves=31
num_cat=0
split_feature=11 10 1 12 12 20 16 13 23 1 17 11 26 22 22 21 23 26 23 26 9 9 17 22 12 13 14 12 13 12
split_gain=40.8164 22.2103 18.1628 22.6915 20.3148 23.646 17.0944 18.4616 20.4997 17.6662 23.0806 30.3675 18.2027 17.9395 19.3199 17.1693 18.9648 16.545 15.3854 19.4443 34.9052 18.7348 16.8206 14.9268 14.8821 15.8303 16.5664 17.3467 17.8541 14.529
threshold=0.0021398103563115005 -0.0021997580770403142 2422.785034179688 0.0020761699415743355 0.0019025457440875473 -0.38011735677719111 2803.0212402343755 0.4786351621150971 0.68993380665779125 2767.8100585937505 2656.9990234375005 -0.0023104361025616522 2.5000000000000004 0.891992747783661 0.93435779213905346 1.0000000180025095e-35 0.92961356043815624 4.5000000000000009 0.98802495002746593 2.5000000000000004 -0.0017703660996630786 -0.0010088066337630151 2990.218139648438 0.86051779985427868 0.0020594384986907248 0.19378525763750079 1.9612852931022646 0.0037657304201275115 0.44630095362663275 0.0032792738638818268
decision_type=2 2 2 2 2 2 2 2 2 2 2 2 2 2 2 2 2 2 2 2 2 2 2 2 2 2 2 2 2 2
left_child=1 18 3 4 5 -3 9 8 -8 10 -4 12 -12 23 -15 16 -13 -5 21 -20 -21 -1 -23 24 -11 -26 -27 -28 -29 -2
right_child=29 2 6 17 -6 -7 7 -9 -10 13 11 15 -14 14 -16 -17 -18 -19 19 20 -22 22 -24 -25 25 26 27 28 -30 -31
leaf_value=0.024657917862556635 -0.021783072550232839 0.12180678200036742 -0.0025774798391954338 0.020136552171766183 0.15763691857102516 -0.0056432803018396094 -0.020879158969692717 0.057947657215194626 0.085838636588028649 0.095785895091300602 0.011817286623736418 0.002531033237340349 -0.077510654303520332 0.12188786259829701 -0.0068492812873642631 0.063999113655190704 0.18172504349157864 -0.011407807561473278 -0.083164848797942392 -0.082018057888459617 0.083565414537038959 0.005328003138011842 -0.13416690621493965 -0.1478066728824593 -0.11189247179333216 0.021305056393523848 -0.087082254362115988 0.025377196805617248 -0.061854094990105871 -0.0058945580362837202
leaf_weight=959.85100269317627 802.27156393229961 22.160938054323196 4987.2988864779472 478.41343738138676 18.224549770355225 42.426697909832001 94.635971397161484 100.01587606966496 22.227846652269363 8.7393622696399671 55.569061696529388 108.13879473507404 38.697971224784851 14.486095145344732 59.695950508117676 146.7512808740139 6.2473223358392707 254.84605751931667 36.658929884433746 22.426178172230721 29.447404563426971 766.10119277238846 8.7428447902202588 11.737820833921431 25.231578558683395 51.187061056494713 58.693813547492027 47.431049600243568 46.433573827147484 2036.3896540999413
leaf_count=3856 3222 89 19990 1918 73 170 379 401 89 35 223 433 155 58 239 588 25 1023 147 90 118 3073 35 47 101 205 235 190 186 8169
internal_value=6.08732e-07 0.00345983 0.00079666 0.0147771 0.0643962 0.0380867 -0.00114259 0.0264099 -0.000581116 -0.00219716 -0.000822906 0.0237986 -0.0248531 -0.0248839 0.0182902 0.0413612 0.0123179 0.00917324 0.0132454 -0.0274171 0.0119798 0.0153207 0.00375403 -0.0377229 -0.0322872 -0.0371754 -0.0279225 -0.0444396 -0.017775 -0.010385
internal_weight=11361.2 8522.52 6699.29 816.072 82.8122 64.5876 5883.22 216.88 116.864 5666.34 5342.7 355.404 94.267 323.636 74.182 261.137 114.386 733.259 1823.23 88.5325 51.8736 1734.7 774.844 249.454 237.716 228.977 203.745 152.558 93.8646 2838.66
internal_count=45562 34171 26852 3273 332 259 23579 869 468 22710 21414 1424 378 1296 297 1046 458 2941 7319 355 208 6964 3108 999 952 917 816 611 376 11391
is_linear=0
shrinkage=0.1


Tree=7
num_leaves=31
num_cat=0
split_feature=18 18 14 4 2 23 26 21 21 16 22 24 22 12 2 23 23 1 18 12 12 11 0 22 10 22 22 14 20 2
split_gain=36.3516 22.3373 16.5537 19.3477 17.4333 15.6981 14.799 18.3011 18.229 17.8022 18.0351 16.5462 18.0426 24.5766 15.2712 14.8646 13.7611 13.4339 13.3628 13.319 38.6944 16.5301 13.2169 24.5583 12.6037 12.0196 21.6089 15.3224 22.5189 17.0459
threshold=62.831640243530281 40.644189834594734 0.51715958118438732 144.5205001831055 2436.325073242188 0.054514370858669288 3.5000000000000004 0.0043429064098745593 -0.56591683626174916 2820.2590332031255 -0.91792565584182728 0.91597560048103344 0.29862368106842047 0.0020124010043218736 2552.3750000000005 0.99771150946617138 -0.98933362960815419 2194.105102539063 29.261587142944339 0.0022194944322109227 0.0019025457440875473 0.00040667560824658727 2272.660034179688 0.1456510201096535 -0.00073251972207799543 0.89783340692520153 0.47907376289367681 3.3237637281417851 2.6592527627944951 2795.8200683593755
decision_type=2 2 2 2 2 2 2 2 2 2 2 2 2 2 2 2 2 2 2 2 2 2 2 2 2 2 2 2 2 2
left_child=1 2 -1 4 -4 -2 8 11 9 10 -5 12 -8 -14 -13 -12 -6 -7 -15 20 21 -19 23 -10 -24 26 -3 28 29 -27
right_child=5 25 3 6 16 17 7 -9 22 -11 15 14 13 18 -16 -17 -18 19 -20 -21 -22 -23 24 -25 -26 27 -28 -29 -30 -31
leaf_value=0.10786662955482607 -0.024583703507251815 0.0010987518068740017 0.024099068936653485 0.091353366630930688 0.044063911985986345 0.14808655119064262 -0.0076567996639896087 0.050913375724128421 -0.19015647025649318 -0.050738216129657746 0.036502038222521113 -0.022260285809957842 -0.042764407538128268 0.14762754813324935 -0.13552104004857754 -0.085468479828319691 -0.017497375481989225 0.14409093513339719 0.045768508750267001 -0.012379103157294218 0.074870096002337863 -0.030652912185665234 0.018928676230195972 0.024313170500160144 -0.033960153612355486 0.01031815642253576 -0.012785584222976397 0.061821164124354122 -0.11405881482565364 -0.091516820712201727
leaf_weight=17.438994750380516 751.49619096517563 4968.1299237012863 168.23789201676846 61.884375467896461 39.246101841330528 5.7287939041852942 350.49139900505543 72.057734608650208 9.209916755557062 22.146652549505234 409.39556969702244 47.077045664191246 28.641473799943924 15.659588739275931 15.933782666921614 10.241787210106848 485.52212020754814 5.7364301681518546 72.545920312404633 627.83503419160843 72.226794168353081 96.142854556441307 442.59241162240505 12.703377172350882 50.164786830544472 965.85704664885998 1447.5460006445646 53.14805081486702 15.202793195843695 16.721718788146973
leaf_count=70 3023 19922 676 249 158 23 1409 289 37 89 1647 189 115 63 64 41 1947 23 291 2519 290 387 1777 51 201 3870 5801 213 61 67
internal_value=9.93873e-07 0.00225789 0.0108031 0.0100716 -0.00391288 -0.0141814 0.0160511 0.00362715 0.0234006 0.0369253 0.0409572 -0.00279756 0.00368818 0.0377183 -0.050901 0.0335252 -0.0128934 -0.00450251 0.0638521 -0.00559255 0.0188801 -0.0208138 0.010165 -0.0658261 0.0135444 -0.000410062 -0.00203392 0.00950321 0.00671643 0.00858511
internal_weight=11357 9797.8 2331.19 2313.75 693.006 1559.17 1620.75 602.407 1018.34 503.668 481.522 530.349 467.338 116.847 63.0108 419.637 524.768 807.67 88.2055 801.941 174.106 101.879 514.67 21.9133 492.757 7466.61 6415.68 1050.93 997.782 982.579
internal_count=45562 39297 9363 9293 2781 6265 6512 2420 4092 2026 1937 2131 1878 469 253 1688 2105 3242 354 3219 700 410 2066 88 1978 29934 25723 4211 3998 3937
is_linear=0
shrinkage=0.1


Tree=8
num_leaves=31
num_cat=0
split_feature=20 12 23 22 18 10 22 22 21 10 23 22 23 12 13 6 22 17 20 26 14 0 22 20 23 18 3 20 22 16
split_gain=31.2166 15.2744 25.0194 23.9637 23.9011 22.0134 21.5267 25.4598 34.5479 23.4006 21.4289 20.3479 20.0684 18.3232 18.2291 25.72 18.2267 18.0028 17.5912 19.597 17.641 17.2846 16.4872 31.8576 18.317 16.9761 18.0308 16.1744 22.3369 16.9453
threshold=0.24414256960153582 0.0033871243940666322 0.8102954924106599 -0.4752392172813415 51.939395904541023 0.0021501902956515555 -0.7589854598045348 -0.99115538597106922 0.7343503236770631 0.0087689720094203966 0.39674647152423864 -0.91792565584182728 0.31109040975570684 0.003618913004174829 0.73907324671745311 2715.5000000000005 0.75327470898628246 2438.706665039063 1.6630799174308779 5.5000000000000009 3.3237637281417851 2482.0400390625005 -0.7589854598045348 0.85431611537933361 0.43247817456722265 69.885055541992202 2426.025024414063 1.3235841393470766 -0.8959035575389861 2505.1467285156255
decision_type=2 2 2 2 2 2 2 2 2 2 2 2 2 2 2 2 2 2 2 2 2 2 2 2 2 2 2 2 2 2
left_child=-1 11 4 5 10 -4 7 -6 -9 12 14 17 -8 -5 15 21 -11 -2 19 -14 -20 -3 23 24 -13 -24 -27 -25 -29 -30
right_child=1 2 3 13 6 -7 9 8 -10 16 -12 22 18 -15 -16 -17 -18 -19 20 -21 -22 -23 25 27 -26 26 -28 28 29 -31
leaf_value=0.0047387138426132338 -0.10006511794688144 -0.00066093385228329347 0.12085126772813477 0.065245148018931706 -0.040748815934423345 0.015568232931248144 -0.019598686088318506 0.026221796411912163 -0.033517197637363251 0.054867451525647294 -0.024662575585643026 -0.10805876047157875 -0.03821571043075217 0.0032534959085817059 0.066828543214979941 -0.023622018794257262 -0.082917544103770113 -0.026509729714885501 -0.12823558463233711 0.13868842547898516 -0.041389316423930206 0.047981962570742963 -0.0086441916439596381 0.1223224746713423 0.028722290419870594 0.063705457380634212 -0.05466952264984231 0.17660018830088975 0.052821336550556722 -0.060932106075419185
leaf_weight=6250.7829431146383 43.1224185526371 122.3463673889637 39.707104712724686 52.881832301616669 115.91718852519989 39.731417804956436 679.88229976594448 383.50547935068607 129.49447286128998 59.561751037836075 138.81951823830605 22.686943367123604 60.572780147194862 484.7109596580267 70.560386747121811 138.47067241370678 11.445655122399328 145.70317487418652 49.094014778733253 6.9840313494205466 44.672575682401657 181.29889757931232 1821.3003102242947 27.430171892046928 17.222893744707108 14.203468695282934 136.8038449883461 8.9585705995559675 31.901950553059578 22.214059010148048
leaf_count=25090 173 490 159 212 467 159 2732 1538 520 239 556 91 243 1944 283 555 46 585 197 28 179 726 7309 110 69 57 552 36 128 89
internal_value=1.47067e-06 -0.00580333 -0.000861553 0.016927 -0.00586747 0.0681936 -0.0126558 0.00157799 0.0111421 -0.0224691 0.0101905 -0.0118624 -0.0271225 0.00935148 0.0196278 0.0120947 0.0326579 -0.0433077 -0.0588309 -0.0199273 -0.08686 0.0283825 -0.00903862 0.0253969 -0.0490316 -0.0113156 -0.0435354 0.0582176 0.0303393 0.00612673
internal_weight=11352 5101.21 2809.66 617.031 2192.63 79.4385 1541.13 628.917 513 912.213 651.496 2291.55 841.206 537.593 512.676 442.116 71.0074 188.826 161.323 67.5568 93.7666 303.645 2102.72 130.415 39.9098 1972.31 151.007 90.5048 63.0746 54.116
internal_count=45562 20472 11273 2474 8799 318 6189 2525 2058 3664 2610 9199 3379 2156 2054 1771 285 758 647 271 376 1216 8441 523 160 7918 609 363 253 217
is_linear=0
shrinkage=0.1


Tree=9
num_leaves=31
num_cat=0
split_feature=18 18 23 20 14 4 2 23 26 21 12 21 6 22 11 24 24 12 3 14 10 21 6 14 11 19 12 9 24 12
split_gain=25.5849 16.9067 14.3943 17.7714 14.1985 17.7973 15.7997 11.5608 11.448 17.2578 17.6637 15.3224 14.4967 14.2387 13.7455 12.5144 16.3582 17.58 12.3992 12.3974 12.2592 11.8899 11.6156 11.229 11.6075 11.0123 15.4298 14.1041 10.9556 13.4471
threshold=62.831640243530281 40.644189834594734 -0.98734235763549794 -1.939211845397949 0.51715958118438732 144.5205001831055 2436.325073242188 0.054514370858669288 3.5000000000000004 -0.45534801483154291 0.0024262821534648542 0.0043429064098745593 3538.5000000000005 -0.74168145656585682 -0.0061262850649654857 0.91597560048103344 0.37940952181816107 0.0020124010043218736 2553.914916992188 5.2933320999145517 -0.00066274101845920075 -0.5548279583454131 2326.5000000000005 10.790218353271486 -0.0074273676145821801 0.85270825028419506 0.0014636198757216337 0.00088910941849462699 -0.6035533845424651 0.0036864914000034337
decision_type=2 2 2 2 2 2 2 2 2 2 2 2 2 2 2 2 2 2 2 2 2 2 2 2 2 2 2 2 2 2
left_child=1 2 3 -1 -4 6 -6 -2 9 12 20 15 13 21 -15 16 28 -18 22 -12 -11 -7 -17 24 -13 27 -27 -9 29 -10
right_child=7 -3 4 -5 5 8 -8 25 11 10 19 23 -14 14 -16 18 17 -19 -20 -21 -22 -23 -24 -25 -26 26 -28 -29 -30 -31
leaf_value=0.14672027343964134 -0.020858354235852052 -0.00042734831434015425 0.10186229425744696 0.028787957037018641 0.019742739404924065 0.096185579856064296 -0.016197274148100467 0.10384169021630792 -0.02491360781116457 0.069724765314595913 -0.0094842431468547695 0.11552351542209856 0.010700590447938465 0.088188325891290387 0.023946226445584043 -0.050339440877496588 -0.036053260767489929 0.061201519604920922 -0.12474198012887339 0.07443838181884492 -0.081291019578956666 -0.054242005664862064 0.061929204242291848 -0.073353378997197377 0.026769740765778 -0.14589382975053522 -0.006121433677451541 0.0080674047929657471 -0.028062601002782663 0.029137161902701783
leaf_weight=14.568384796380995 749.03151908516884 7463.5304851382971 15.835559159517286 103.96274593472481 163.79075917601585 64.330859303474426 483.08854487538338 19.930248156189919 76.969330474734306 52.767815634608269 327.054648026824 22.822754099965096 218.3241822719574 38.962050035595894 229.43045620620251 35.409207597374916 24.693501561880112 75.154314205050468 15.219060137867926 18.603634789586067 5.9852234423160544 5.7217170149087897 12.457966536283491 7.2128548473119727 41.584455370903015 7.9867072105407706 711.09428822994232 67.29085735976696 159.68967588245869 114.50011539459229
leaf_count=60 3023 29934 64 421 659 260 1937 80 309 212 1313 92 881 157 923 142 99 303 61 75 24 23 50 29 167 33 2859 270 642 460
internal_value=9.35609e-07 0.00189343 0.00933337 0.0432827 0.0075122 0.00683115 -0.00709721 -0.0119134 0.0126557 0.0193711 0.00364885 0.00163536 0.0307911 0.0437511 0.0332721 -0.00440159 0.00143367 0.0371493 -0.0461182 -0.00496745 0.0543407 0.083899 -0.0211203 0.044969 0.0582197 -0.0036037 -0.00767386 0.0299521 -0.00872164 0.00740914
internal_weight=11347 9791.67 2328.14 118.531 2209.61 2193.77 646.879 1555.33 1546.89 961.181 404.411 585.713 556.769 338.445 268.393 514.093 451.007 99.8478 63.0862 345.658 58.753 70.0526 47.8672 71.6201 64.4072 806.302 719.081 87.2211 351.159 191.469
internal_count=45562 39297 9363 481 8882 8818 2596 6265 6222 3868 1624 2354 2244 1363 1080 2066 1813 402 253 1388 236 283 192 288 259 3242 2892 350 1411 769
is_linear=0
shrinkage=0.1


Tree=10
num_leaves=31
num_cat=0
split_feature=20 14 23 19 1 13 13 21 23 24 9 11 2 22 16 24 12 13 14 20 22 22 26 22 21 14 21 23 12 11
split_gain=22.3829 18.729 15.4779 18.6126 16.9017 16.5123 13.9872 21.3788 13.7651 13.1156 17.7198 20.5552 17.4301 16.2408 18.4664 14.0396 22.693 19.1897 15.7422 14.6146 12.8626 18.1449 36.0874 26.4072 20.5056 18.741 17.6206 18.7405 15.2363 15.3153
threshold=0.20605259388685229 0.68433931469917308 -0.98734235763549794 -2.8246973752975459 2776.880004882813 0.39036697149276739 0.19983584433794024 0.0043429064098745593 -0.25671049952507013 -0.91597560048103321 0.00083934009307995449 -0.00033083389280363912 2181.3649902343755 -0.91265374422073353 2447.169067382813 -0.98296290636062611 0.0022515712771564726 0.46067585051059728 1.1200925111770632 -4.222918987274169 -0.99115538597106922 -0.93279412388801564 3.5000000000000004 -0.92304024100303639 -0.54336598515510548 3.1971129179000859 0.7343503236770631 0.29862368106842047 0.006685232976451517 0.0021398103563115005
decision_type=2 2 2 2 2 2 2 2 2 2 2 2 2 2 2 2 2 2 2 2 2 2 2 2 2 2 2 2 2 2
left_child=2 6 3 -1 -5 -6 7 -2 -8 10 11 12 -4 14 -12 16 -14 18 -18 -19 28 22 26 24 -23 -24 27 -22 -3 -30
right_child=1 20 9 4 5 -7 8 -9 -10 -11 13 -13 15 -15 -16 -17 17 19 -20 -21 21 23 25 -25 -26 -27 -28 -29 29 -31
leaf_value=0.12115532030436722 -0.020358335566372295 -0.038048044475799174 0.1861986358421012 0.025092958355812281 -0.14164564147360467 0.071688684643006109 0.10078490371869714 -0.10520666988296581 -0.02631989803451374 0.0011230060176122027 -0.043053661631981266 0.069899981868618316 -0.092712951635086735 -0.082296875116331325 0.025227833594950334 0.028589406825136748 -0.11760381786949517 0.071530237238706232 0.063584666522308306 -0.045384513498385105 0.036472180887207481 0.051060652565939772 -0.055667800389217419 -0.0035552425298892402 -0.10096554907879259 0.023824920561465249 -0.016541646856012771 0.11192785439456138 0.13541759423075361 -0.0042786992618523666
leaf_weight=19.08313612639904 73.105002477765083 199.93875756859779 5.9642443954944602 288.99413366615772 11.973531201481821 5.205522119998931 12.406753584742544 50.010799080133438 27.199802383780479 5067.203747689724 60.749181896448135 86.219701156020164 26.893146649003029 26.687258452177048 113.80789452791214 259.89718393981457 5.2295824289321891 12.829764991998671 57.728172332048416 64.15779173374176 187.39774183928967 10.972240105271338 80.336918786168098 4358.2874265164137 46.357196345925331 47.013453915715218 48.726511344313622 39.928463265299797 9.9352618604898435 37.354269504547119
leaf_count=80 293 806 24 1163 48 21 50 201 110 20343 244 347 108 107 457 1047 21 52 232 259 752 44 323 17508 186 189 196 160 40 151
internal_value=1.80428e-06 -0.00480135 0.00411061 0.0253367 0.0193645 -0.077002 -0.0381954 -0.0548245 0.0134957 0.00291768 0.0155453 0.0253138 0.0164295 -0.00964313 0.00146457 0.0140568 -0.00858189 0.00758549 0.0485343 -0.025901 -0.00372877 -0.0025875 0.0177138 -0.00444219 -0.0718694 -0.0263218 0.0380286 0.0497255 -0.0259748 0.0250707
internal_weight=11341.6 5228.97 6112.62 325.256 306.173 17.1791 162.722 123.116 39.6066 5787.37 720.164 518.92 432.7 201.244 174.557 426.736 166.838 139.945 62.9578 76.9876 5066.25 4819.02 403.403 4415.62 57.3294 127.35 276.053 227.326 247.228 47.2895
internal_count=45562 21009 24553 1312 1232 69 654 494 160 23241 2898 2090 1743 808 701 1719 672 564 253 311 20355 19358 1620 17738 230 512 1108 912 997 191
is_linear=0
shrinkage=0.1


Tree=11
num_leaves=31
num_cat=0
split_feature=11 9 21 5 10 12 8 14 13 6 23 14 23 14 8 22 22 22 4 13 9 22 6 13 26 24 14 23 10 17
split_gain=20.0197 14.8123 24.8297 16.6319 13.2534 12.3877 12.2348 11.3198 11.0371 18.7367 11.9193 12.6743 11.3718 12.3593 11.1305 10.9594 21.2455 18.7372 15.6169 13.1944 15.0458 16.3072 14.6188 13.9475 17.0351 12.4828 11.484 11.1964 14.2804 13.4196
threshold=0.0021398103563115005 0.0022717679385095839 1.7304301857948305 533741.56250000012 0.00013154695625416937 0.0087294988334178942 -0.00074250547913834442 2.1500074863433842 0.24584057927131656 638.50000000000011 0.99873894453048717 2.8523293733596806 -0.17149884253740308 0.6366221308708192 0.0012027730699628594 -0.99115538597106922 -0.7589854598045348 -0.82288655638694752 226.90205383300784 0.34162063896656042 0.00072030440787784766 -0.96868926286697377 6085.0000000000009 0.84790775179862987 1.5000000000000002 -0.98296290636062611 1.8341639637947085 0.84688794612884533 0.0087689720094203966 2963.967895507813
decision_type=2 2 2 2 2 2 2 2 2 2 2 2 2 2 2 2 2 2 2 2 2 2 2 2 2 2 2 2 2 2
left_child=1 3 4 5 7 -1 -2 -3 12 -10 14 -12 13 -5 -11 -8 17 19 -19 -17 22 23 25 -22 -25 -21 -23 28 -18 -29
right_child=6 2 -4 8 -6 -7 15 -9 9 10 11 -13 -14 -15 -16 16 27 18 -20 20 21 26 -24 24 -26 -27 -28 29 -30 -31
leaf_value=-0.00067086111055895362 0.010756529836699065 0.14066269141364984 0.052596311902734762 0.08301091388580456 -0.047607665358862003 0.1160561626893379 -0.040846030852576015 -0.0099337786696220513 0.10251097076501495 0.01271694841041119 -0.00059148474880775081 -0.11888728273404432 0.010648841984667133 -0.027124956184002159 -0.012424606699761727 -0.038495460272632814 -0.020317703436478981 0.086916321750679842 0.0085337226158253218 -0.058054143787585791 0.077768179934913875 0.060182363798830518 -0.11649230821878753 0.047540253778406788 -0.15788359523632106 0.045408025719959486 -0.033379226087532216 0.0015126174954873315 0.028822714052209122 -0.14908262229177369
leaf_weight=4882.934614688158 331.88042904436588 5.2440377324819556 42.21338826417923 10.701925516128538 165.52026142179966 9.108710512518881 107.94896771013737 103.54158845543861 22.190855756402016 2616.7796539664268 24.194688260555267 14.475957646965979 207.95157644152641 212.64019455015659 188.79312911629677 73.674590170383453 1295.7393259555101 50.855560079216957 50.819493904709816 12.701050058007239 33.236557617783546 14.395563557744024 6.4688474237918845 10.186620578169824 6.6867330372333518 142.45163606107235 147.93683524429798 477.48615157604218 61.965579986572266 5.9914657324552527
leaf_count=19599 1333 21 170 43 665 37 438 416 89 10530 97 58 834 853 759 296 5222 204 204 51 134 58 26 41 27 572 595 1917 249 24
internal_value=2.0263e-06 0.00242607 -0.0188004 0.00324644 -0.0297877 -0.000453522 -0.00728298 -0.00267424 0.00873517 0.0109792 0.0102651 -0.0448743 -0.00617917 -0.0218476 0.0110251 -0.00967915 -0.00827179 0.00898574 0.0477389 0.000185439 0.00780392 -0.00968904 0.0307974 0.0401776 -0.0338671 0.0369384 -0.0250822 -0.0134215 -0.0180749 -0.000353624
internal_weight=11336.7 8506.29 316.519 8189.77 274.306 4892.04 2830.43 108.786 3297.73 2866.43 2844.24 38.6706 431.294 223.342 2805.57 2498.54 2390.6 549.413 101.675 447.738 374.064 212.442 161.622 50.1099 16.8734 155.153 162.332 1841.18 1357.7 483.478
internal_count=45562 34171 1272 32899 1102 19636 11391 437 13263 11533 11444 155 1730 896 11289 10058 9620 2208 408 1800 1504 855 649 202 68 623 653 7412 5471 1941
is_linear=0
shrinkage=0.1


Tree=12
num_leaves=31
num_cat=0
split_feature=18 5 2 16 13 9 16 16 21 10 11 19 17 6 23 23 23 12 17 22 26 20 20 20 0 18 22 13 12 23
split_gain=18.3256 22.9231 15.4212 19.3396 14.4062 12.9329 20.7388 19.9407 14.3399 13.6636 12.2805 16.869 20.1156 14.4219 14.202 12.9862 12.6587 24.5201 31.8839 18.7699 25.198 19.9446 28.5842 26.4552 19.9184 22.9795 18.7221 23.6174 18.1817 19.4258
threshold=69.885055541992202 2293414.8750000005 2181.3649902343755 2211.461303710938 0.54473271965980541 0.0024357665097340946 2256.0336914062505 2429.7890625000005 1.7304301857948305 0.0099698877893388289 -0.0029247129568830128 -1.4730851650238035 2438.0043945312505 5660.5000000000009 -0.98734235763549794 0.9556623399257661 -0.24403759837150571 0.0016265568556264045 2425.804321289063 0.08063365146517755 5.5000000000000009 0.23023101687431338 -0.34479601681232447 0.45400691032409674 2555.7199707031255 60.180669784545906 0.68993380665779125 0.27040058374404913 0.0014636198757216337 0.40872775018215185
decision_type=2 2 2 2 2 2 2 2 2 2 2 2 2 2 2 2 2 2 2 2 2 2 2 2 2 2 2 2 2 2
left_child=2 -2 -1 4 -4 9 -7 -8 -9 10 11 14 15 -14 -5 -13 17 18 -12 20 -20 22 -21 -23 25 -25 -19 -28 29 -18
right_child=1 -3 3 5 -6 6 7 8 -10 -11 16 12 13 -15 -16 -17 28 26 19 21 -22 23 -24 24 -26 -27 27 -29 -30 -31
leaf_value=0.060165754718682019 -0.035770679433942826 0.0090705398163123795 -0.1211971180105887 0.058661206502172797 -0.024217577196472096 0.082903468378741282 -0.057291508010794169 -0.015366004440036352 0.047254881633404688 0.086147891677931479 0.10574905258138101 0.053533926177493876 0.018322588969230634 -0.10922559079527705 0.0023306195845984863 0.16682200164704197 0.010156194172451068 -0.0029229427851576923 -0.069524814850497149 -0.022865459250988054 0.061297251858863824 -0.086102886136211323 0.11735116702294049 0.12486655921738166 -0.1519214865463161 -0.016700600471633683 -0.043422802303069101 -0.0063150719111466237 0.0047086712604885008 -0.0469100372588096
leaf_weight=43.659393116831779 304.47852137684822 182.23721700906754 19.850756675004959 46.223545044660568 67.075213640928268 20.675003260374069 106.95323866605759 309.90087901055813 41.46107779443264 19.144927486777306 41.259500220417976 86.915841057896614 270.04113437235355 9.1657698303461057 1410.8351116925478 11.451635196804999 102.00936417281628 2573.1515827924013 51.210742488503456 21.680802688002586 20.66437441110611 25.915226489305496 44.134526148438454 24.465840131044388 4.9845981746911994 21.579523652791977 286.78693142533302 426.71846595406532 4593.7542999684811 143.65648663043976
leaf_count=177 1234 735 80 193 271 83 430 1247 167 77 167 350 1084 37 5684 46 411 10338 206 87 83 104 177 98 20 87 1150 1714 18447 578
internal_value=1.61697e-06 -0.0189811 0.000853523 0.000613788 -0.0463642 0.000994909 -0.0150654 -0.0194849 -0.00797667 0.00174646 0.0015883 0.00899891 0.0278357 0.0141355 0.00411764 0.0667226 -3.37173e-05 -0.00457585 0.0252402 0.00976389 -0.031913 0.0307468 0.0711612 -0.0038218 0.0379641 0.05852 -0.00689729 -0.0212302 0.00329122 -0.0232141
internal_weight=11332 486.716 10845.3 10801.7 86.926 10714.7 478.99 458.315 351.362 10235.8 10216.6 1834.63 377.574 279.207 1457.06 98.3675 8381.97 3542.55 255.895 214.636 71.8751 142.761 65.8153 76.9452 51.03 46.0454 3286.66 713.505 4839.42 245.666
internal_count=45562 1969 43593 43416 351 43065 1927 1844 1414 41138 41061 7394 1517 1121 5877 396 33667 14231 1029 862 289 573 264 309 205 185 13202 2864 19436 989
is_linear=0
shrinkage=0.1


Tree=13
num_leaves=31
num_cat=0
split_feature=19 22 12 20 0 22 18 16 9 22 12 23 14 12 10 26 21 21 13 14 22 21 22 26 16 3 15 13 26 14
split_gain=15.5687 12.9602 19.1252 13.6258 16.8822 12.5423 13.5239 11.7725 11.3684 9.84427 28.1854 20.0775 14.3382 21.6971 15.5167 13.7305 16.7582 12.8079 12.2867 16.83 17.5761 18.3123 16.4693 29.5815 18.7028 12.7041 15.4029 12.5652 19.895 17.7203
threshold=0.85270825028419506 -0.98933362960815419 0.0079044490121305006 1.4557545781135561 2609.505004882813 -0.99988102912902821 47.463827133178718 2511.8930664062505 0.0022717679385095839 -0.93279412388801564 0.0025623416295275096 0.29862368106842047 2.3953424692153935 0.0043991359416395434 0.0037868949584662919 2.5000000000000004 0.7343503236770631 1.5820210576057436 0.46355567872524267 3.1493608951568608 -0.62762191891670216 -0.5548279583454131 -0.7589854598045348 1.5000000000000002 2814.8337402343755 2511.924926757813 2429.213012695313 0.67725536227226268 5.5000000000000009 5.2933320999145517
decision_type=2 2 2 2 2 2 2 2 2 2 2 2 2 2 2 2 2 2 2 2 2 2 2 2 2 2 2 2 2 2
left_child=8 2 3 4 7 -5 -7 -2 -1 10 -3 12 14 -14 -12 16 -13 18 19 22 21 -21 23 25 -25 26 -11 -20 -29 -30
right_child=1 9 -4 5 -6 6 -8 -9 -10 17 11 15 13 -15 -16 -17 -18 -19 27 20 -22 -23 -24 24 -26 -27 -28 28 29 -31
leaf_value=0.003220670212629527 -0.0097605055081032566 -0.14143503272362015 0.037627729043951869 0.018616760695100803 0.075798895641984526 0.044075381384144602 -0.11458200950869449 -0.11609756310980493 -0.015962267267534989 -0.10634603106494603 -0.016690575948783464 0.16777642383222865 0.083395495304090378 0.0005075379272737971 -0.17330804093389252 0.018756534903805997 0.0029273219484124793 0.022841074437391872 -0.023172641738207475 0.12807197508030749 0.06716707015177549 -0.055484212729400843 -0.0080174339556278573 0.056528087659558746 -0.095042955467355042 -0.15253534678509023 0.11543648591804699 -0.011026318004503001 0.070660345802290178 -0.025436021510002977
leaf_weight=7585.9996191263199 30.953706294298172 11.331741973757742 30.862608909606934 10.844204962253569 15.208834975957869 5.9814337193965903 52.778841316699982 15.687583580613135 322.05073323845863 6.9489024877548236 54.035522162914276 21.103208914399151 42.341775804758072 124.25868175923824 7.1646124422550193 24.671846359968185 8.7127143293619138 146.43935385346413 734.46421606838703 6.737087056040763 68.710663676261902 28.123116031289101 1178.0293548703194 118.80559864640236 8.7398270815610868 11.231057077646254 5.7002327442169189 560.74839590489864 60.193486645817757 28.16933411359787
leaf_count=30489 126 46 125 44 62 24 215 64 1296 28 217 85 170 500 29 99 35 589 2958 27 276 113 4751 478 35 45 23 2257 243 113
internal_value=1.75054e-06 -0.00563663 -0.0332146 -0.0498468 -0.0156928 -0.0801958 -0.0984317 -0.0455265 0.00243946 -0.0042621 0.0132034 0.019411 0.0063679 0.0215736 -0.0350256 0.0739411 0.119605 -0.00599283 -0.00749195 -0.00100218 0.0378247 -0.0200101 -0.00402698 0.0270171 0.0461419 -0.0751295 -0.00640149 -0.0142137 -0.00407667 0.0400256
internal_weight=11327 3418.98 162.317 131.455 61.8501 69.6045 58.7603 46.6413 7908.05 3256.66 293.62 282.288 227.801 166.6 61.2001 54.4878 29.8159 2963.04 2816.6 1433.03 103.571 34.8602 1329.45 151.426 127.545 23.8802 12.6491 1383.58 649.111 88.3628
internal_count=45562 13777 660 535 252 283 239 190 31785 13117 1181 1135 916 670 246 219 120 11936 11347 5776 416 140 5360 609 513 96 51 5571 2613 356
is_linear=0
shrinkage=0.1


Tree=14
num_leaves=31
num_cat=0
split_feature=18 5 2 16 13 18 0 22 23 23 2 11 20 22 6 5 13 25 16 18 25 6 23 7 16 20 14 7 14 14
split_gain=14.5209 17.6069 12.5114 15.6319 11.9316 11.5769 13.5712 19.7645 13.2362 19.6113 12.966 10.567 13.5706 11.9457 10.3039 17.0801 10.1088 11.8701 10.0161 9.85841 9.78666 11.9543 9.74234 9.71953 11.1432 11.4627 12.8823 10.9283 10.201 9.6829
threshold=69.885055541992202 2293414.8750000005 2181.3649902343755 2211.461303710938 0.54473271965980541 33.773290634155281 2267.525024414063 -0.12836257368326184 -0.86493045091629017 -0.80773079395294178 2459.795043945313 0.0077918276656419047 2.864606618881226 -0.8959035575389861 783.50000000000011 356081.17187500006 2.0764000415802006 0.98296290636062633 2447.169067382813 27.271249771118168 -0.7865660786628722 5334.5000000000009 0.093673683702945723 5.2449998855590829 2512.9514160156255 1.1943991780281069 1.2721605300903323 2.185000061988831 2.1117464303970341 1.7311916947364809
decision_type=2 2 2 2 2 2 2 2 2 2 2 2 2 2 2 2 2 2 2 2 2 2 2 2 2 2 2 2 2 2
left_child=2 22 -1 4 -4 6 7 19 -8 10 -10 13 -13 -3 -11 29 -7 -18 -14 -5 -20 -22 -2 24 -24 -26 -27 -28 -29 -16
right_child=1 11 3 5 -6 16 8 -9 9 14 -12 12 18 -15 15 -17 17 -19 20 -21 21 -23 23 -25 25 26 27 28 -30 -31
leaf_value=0.054363622887228104 -0.0511987305490261 -0.13010986100667879 -0.11028553490498226 -0.039979647288361939 -0.021667043981898781 -0.00031370447209644846 0.043260629992850547 0.062146280073520216 0.03784605331308788 0.043953660271239099 -0.10098829278942026 0.089069817505424212 -0.065810920158221917 -0.0074119591518170772 -0.0088801589667273639 0.014010215749066119 0.068865816351916215 -0.072795953823429738 0.079955535644671255 -0.17441716745083524 0.095207747731333295 -0.016914307931365152 0.020798502266053599 -0.11101102286356992 -0.085200807964160366 0.10362021049348998 -0.088177330184625868 0.14129138902800006 -0.016370181527721194 -0.086063921060956602
leaf_weight=43.3664171397686 138.81186866760254 9.7720935940742475 19.646154925227165 11.144905701279642 67.031126543879509 9786.8376793861389 133.2307136952877 10.324236840009688 9.13126492500305 91.117937713861465 25.546875551342964 25.007080778479576 15.973986923694609 42.204212844371796 41.268425524234772 515.89660766720772 38.345594793558121 6.993694379925727 20.951969787478447 10.683403596282004 11.417759478092192 56.88488532602787 69.117089048027992 9.947945296764372 28.334509119391441 8.8369478732347471 18.433428272604942 4.9275533258914974 24.549659729003906 26.814927890896797
leaf_count=177 569 40 80 45 271 39335 549 42 37 367 103 101 64 171 166 2088 154 28 84 43 46 229 279 40 116 36 75 20 99 108
internal_value=8.0124e-07 -0.0169246 0.000758523 0.000543157 -0.0417532 0.000885552 0.011907 -0.0518567 0.0143389 0.00891009 -0.0644312 0.00763928 0.0228526 -0.0304805 0.0126775 0.00779745 -9.54607e-05 0.0470141 0.00711645 -0.105777 0.0201683 0.00182849 -0.0316983 -0.0152077 -0.00902713 -0.0332562 -0.00731988 -0.0277824 0.00998529 -0.0392793
internal_weight=11322.6 485.171 10837.4 10794 86.6773 10707.3 875.159 32.1525 843.007 709.776 34.6781 182.212 130.236 51.9763 675.098 583.98 9832.18 45.3393 105.229 21.8283 89.2546 68.3026 302.959 164.147 154.199 85.0821 56.7476 47.9106 29.4772 68.0834
internal_count=45562 1969 43593 43416 351 43065 3548 130 3418 2869 140 735 524 211 2729 2362 39517 182 423 88 359 275 1234 665 625 346 230 194 119 274
is_linear=0
shrinkage=0.1


Tree=15
num_leaves=31
num_cat=0
split_feature=19 12 22 22 12 12 3 3 17 16 17 19 20 22 15 13 23 8 1 1 6 23 12 13 16 3 23 2 26 3
split_gain=12.4564 17.8899 22.419 22.3731 18.2623 26.9113 16.9971 24.9052 32.2787 19.2862 16.4927 15.9235 16.5147 23.2094 19.9102 21.5749 30.1495 23.179 20.0309 21.5624 18.9395 18.5771 24.9411 17.6487 15.9168 20.2915 19.8995 15.6545 15.2289 20.2283
threshold=-0.72563037276267994 0.0034061705227941279 -0.90722548961639393 -0.97485619783401478 0.0035408529220148925 0.0042967183981090793 2500.194946289063 2621.4799804687505 2646.3425292968755 2498.970825195313 2610.364135742188 -0.31998549401760096 0.19023557007312777 -0.97485619783401478 2669.620971679688 0.20163895934820178 0.98933362960815441 0.00011141924915136771 2765.674926757813 2799.0700683593755 1101.5000000000002 0.11970336735248567 0.001648671110160649 0.2860975861549378 2424.8728027343755 2495.115112304688 0.041439602151513107 2429.255004882813 3.5000000000000004 2567.015014648438
decision_type=2 2 2 2 2 2 2 2 2 2 2 2 2 2 2 2 2 2 2 2 2 2 2 2 2 2 2 2 2 2
left_child=1 3 4 24 -3 -6 9 10 -9 -4 28 -2 13 -13 15 17 -17 21 -16 -20 -19 -15 27 -18 -1 -26 -27 -23 -8 -30
right_child=11 2 6 -5 5 -7 7 8 -10 -11 -12 12 -14 14 18 16 23 20 19 -21 -22 22 -24 -25 25 26 -28 -29 29 -31
leaf_value=-0.14342629774556534 -0.013512723927018007 -0.081700106217562143 0.0024309640630820555 0.016825874020259441 0.088368687711976424 0.014060680571037532 -0.011231505307561361 0.10285202151483314 -0.0039348907179440435 0.077101229030953566 -0.13390457436808328 0.054058415985209121 -0.0031891994539776712 0.02813453287022883 0.089242629629513487 -0.011477030450123278 0.15147114740301654 0.065712700963601128 -0.025267275755741177 0.068292047292001543 -0.027857373554820309 0.022125367473873281 0.016478537816140868 0.015892835926121139 0.054976063093440497 0.032569781409306435 -0.11391637676073968 -0.088880023349596909 -0.034207490156929504 -0.12570366399744556
leaf_weight=12.231287792325018 1075.7215506136417 16.170445740222931 688.22327768802643 1313.7770753502846 59.101101472973824 277.93842975795269 307.39034563302994 30.23012287914753 444.73898768424988 36.420500904321671 14.449502155184744 104.13447824120522 5137.7086883038282 148.64337776601315 52.805832967162132 862.28126004338264 17.926701858639717 130.80044446885586 59.722933933138847 41.926188334822655 25.918214425444603 16.389943793416023 81.99779124557972 20.674227550625801 23.505467414855957 14.388920247554777 26.086007952690125 56.495916858315468 192.80900993943214 27.625253528356552
leaf_count=49 4320 65 2775 5287 239 1124 1237 122 1794 147 58 421 20692 599 212 3462 72 526 240 169 104 66 329 83 95 58 105 227 774 111
internal_value=4.51762e-07 0.00497403 -0.000861781 0.0137702 0.0221103 0.0270909 -0.00551992 -0.0138572 0.00286172 0.00618388 -0.0285011 -0.00221237 -0.000413451 0.00839117 0.00525341 0.00139241 -0.00760641 0.0190066 0.0392783 0.0133222 0.050238 0.0028811 -0.0213549 0.0788569 -0.0389052 -0.0189236 -0.0618402 -0.0639181 -0.0256156 -0.045674
internal_weight=11318.2 3485.09 2095.1 1389.99 353.21 337.04 1741.89 1017.24 474.969 724.644 542.274 7833.15 6757.43 1619.72 1515.58 1361.13 900.882 460.246 154.455 101.649 156.719 303.527 154.884 38.6009 76.2117 63.9804 40.4749 72.8859 527.825 220.434
internal_count=45562 14040 8446 5594 1428 1363 7018 4096 1916 2922 2180 31522 27202 6510 6089 5468 3617 1851 621 409 630 1221 622 155 307 258 163 293 2122 885
is_linear=0
shrinkage=0.1


Tree=16
num_leaves=31
num_cat=0
split_feature=18 10 11 5 3 16 20 20 23 13 12 14 26 14 16 23 14 23 14 12 23 11 22 3 18 14 22 22 2 12
split_gain=11.7765 18.3177 9.65122 15.6822 14.5975 14.9104 15.3885 15.3492 13.5129 11.4416 11.1071 11.7454 10.2195 16.8659 11.5889 9.77431 9.5506 13.2029 14.4809 9.19566 10.9626 9.92811 11.8272 10.4202 9.17081 11.6304 12.691 19.8644 12.3788 15.9467
threshold=67.493858337402358 0.0099698877893388289 0.0073832592461258182 748486.43750000012 2990.394897460938 2448.4045410156255 5.4182300567626962 2.0836998224258427 -0.98933362960815419 0.8230416774749757 0.00323020201176405 5.0611360073089608 1.0000000180025095e-35 6.7065932750701913 2284.591186523438 -0.98518189787864674 4.2488515377044687 0.88599923253059398 2.4979861974716191 0.0018291121232323351 0.42063900828361517 0.0046850957442075023 -0.85828685760498036 2405.994995117188 40.644189834594734 0.51715958118438732 0.84688794612884533 0.98734235763549816 2518.015014648438 0.0045324626844376334
decision_type=2 2 2 2 2 2 2 2 2 2 2 2 2 2 2 2 2 2 2 2 2 2 2 2 2 2 2 2 2 2
left_child=1 24 3 8 5 7 10 -4 -2 -8 -7 16 13 14 -9 -11 17 18 -12 20 -10 23 -23 -21 25 -1 -27 -28 -29 -30
right_child=2 -3 4 -5 -6 6 9 12 19 15 11 -13 -14 -15 -16 -17 -18 -19 -20 21 -22 22 -24 -25 -26 26 27 28 29 -31
leaf_value=0.088455131377808985 -0.13365316812253122 0.083860216106350374 0.096449474683491673 -0.039244179559270523 -0.13708104203446839 0.19402759718280771 -0.14881154217762482 -0.027196383950178551 -0.0039487968935606379 0.10109911098413947 -0.10025278218157732 0.13340292204122869 -0.11569005321362601 -0.097643594755257815 0.18634041345054275 -0.010338321422307463 -0.041513122073581349 -0.083393385059634936 0.075582505973728953 0.12223369383013005 -0.091244089183339691 0.084183210321241209 -0.048111764836851367 0.017162628965544373 -0.00091457143205775175 0.0089851505797983507 -0.023697057329503834 0.070317537245272455 -0.023697706009914072 0.119842930309983
leaf_weight=17.066759884357452 7.7661361545324317 26.522964805364609 6.9545558989047995 231.05033256113529 7.1335396468639365 4.9654960036277762 5.4466260075569144 5.1792953461408633 44.67826509475708 8.7140268385410291 5.1393412649631491 11.886046946048735 20.008798450231552 11.943027094006537 4.9903878271579742 81.347396537661552 16.283538684248924 7.2221035659313193 52.821276128292084 10.158474326133726 21.217320755124092 8.0409966856241208 42.340820789337158 133.20586177706718 8221.7158477604389 1903.8456777632236 296.03570480644703 40.723355382680893 49.772139638662338 9.1647966951131803
leaf_count=70 32 107 28 942 29 20 22 21 183 35 21 48 81 48 20 328 66 29 214 41 87 33 172 543 33050 7699 1192 164 200 37
internal_value=1.45358e-06 0.000860221 -0.0121199 -0.0201622 0.00391296 0.00805367 0.0205206 -0.0411843 -0.00367474 -0.00806776 0.0482919 0.0405401 -0.0639086 -0.0170539 0.0775887 0.000443973 0.0269912 0.0441046 0.0599913 0.000213045 -0.0320565 0.0111883 -0.0269973 0.0246077 0.000651325 0.00620874 0.00559833 -0.010697 0.027919 -0.00137689
internal_weight=11313.3 10564.8 748.494 498.458 250.035 242.902 193.826 49.0761 267.408 95.508 98.3178 93.3523 42.1215 22.1127 10.1697 90.0614 81.4663 65.1827 57.9606 259.642 65.8956 193.746 50.3818 143.364 10538.3 2316.61 2299.54 395.696 99.6603 58.9369
internal_count=45562 42519 3043 2033 1010 981 783 198 1091 385 398 378 170 89 41 363 330 264 235 1059 270 789 205 584 42412 9362 9292 1593 401 237
is_linear=0
shrinkage=0.1


Tree=17
num_leaves=31
num_cat=0
split_feature=2 16 21 21 18 10 13 12 14 17 21 3 18 23 19 11 5 8 3 23 11 23 22 20 0 9 18 15 19 1
split_gain=11.4055 14.0455 11.3387 12.1116 10.4272 9.68582 12.5729 9.1333 13.937 15.0073 16.4481 14.0632 12.5724 10.973 12.9555 15.8228 10.5606 12.7009 10.0919 10.9357 9.99961 10.9558 11.4119 12.2707 9.79825 9.70771 9.70627 9.59987 23.7022 18.0389
threshold=2181.3649902343755 2211.461303710938 -1.2303211092948911 -0.75004833936691273 62.831640243530281 -0.0043841111473739139 0.51248687505722057 0.0089663318358361738 7.6922712326049814 2260.3063964843755 0.52860754728317272 2291.444946289063 54.618066787719734 0.7357999086380006 1.9857288599014284 -0.0036248865071684118 1821990.6875000002 0.00088015597430057835 2996.694946289063 0.53545707464218151 -0.0017194158863276241 -0.83747833967208851 0.88599923253059398 1.1313781142234804 2248.4599609375005 -1.2388378308969548e-05 57.422691345214851 2302.567016601563 -4.763967514038085 2422.785034179688
decision_type=2 2 2 2 2 2 2 2 2 2 2 2 2 2 2 2 2 2 2 2 2 2 2 2 2 2 2 2 2 2
left_child=5 2 -2 -4 7 -1 -7 18 9 -9 16 24 -13 26 15 -15 17 -11 27 20 -20 -22 23 -23 -10 -18 -12 28 -3 -29
right_child=1 4 3 -5 -6 6 -8 8 11 10 13 12 -14 14 -16 -17 25 -19 19 -21 21 22 -24 -25 -26 -27 -28 29 -30 -31
leaf_value=-0.028158262724413366 0.10318956247577643 -0.13484508615826751 -0.14212498907455923 -0.033223010185261817 -0.0075551700141334851 -0.068955599703663967 0.10527166245046482 0.14856768754093641 -0.032060084208929161 0.008432989476138986 0.16598951336588486 -0.019016204125551887 -0.14868850607049292 0.10204005555322188 0.14465200073266646 -0.076039808430885453 0.021568184168238167 -0.081638268855180579 0.049886772549887631 -0.17672188255085211 -0.12940935309785603 -0.054059056473358985 -0.10151238844695945 0.090114829311899999 0.1142597859245921 0.12719324265668888 0.03435831196503631 0.016069281705857589 -0.0092245665962402169 0.0003210180399356009
leaf_weight=11.427117198705671 5.2188660800456992 15.639966055750845 11.909536838531492 71.66617839038372 1528.8833714127541 4.8786995708942404 27.426743447780609 10.644419208168982 7.1952448487281826 77.245856076478958 16.745394334197048 64.211938679218292 8.4622824937105161 8.0403665453195625 7.4751243740320197 13.149202600121496 34.248503416776657 19.634737372398376 13.440168321132658 5.2454431951045981 12.217856004834173 11.458329856395723 11.423247084021567 12.17670029401779 12.575040042400358 11.664885789155958 8.4179848879575712 799.22086119651794 378.85459114611149 8088.7848248779774
leaf_count=47 21 63 48 292 6208 20 113 43 29 311 68 259 34 33 30 53 138 79 54 21 49 46 46 49 51 47 34 3219 1523 32534
internal_value=8.17863e-07 -0.00019704 -0.0398118 -0.0487415 0.000117674 0.0509707 0.0789602 0.00133354 0.018517 0.0329186 0.0266577 -0.0137723 -0.0341154 0.0737655 0.0314627 -0.00846753 0.00889982 -0.0098217 0.00078264 -0.0381938 -0.026226 -0.0478641 -0.0194455 0.0202189 0.0610078 0.0484036 0.121955 0.00105961 -0.0142049 0.00173712
internal_weight=11309.6 11265.9 88.7946 83.5757 11177.1 43.7326 32.3054 9648.17 299.711 207.266 196.622 92.4445 72.6742 53.8281 28.6647 21.1896 142.794 96.8806 9348.46 65.9617 60.7163 47.2761 35.0583 23.635 19.7703 45.9134 25.1634 9282.5 394.495 8888.01
internal_count=45562 45382 361 340 45021 180 133 38813 1209 836 793 373 293 218 116 86 575 390 37604 265 244 190 141 95 80 185 102 37339 1586 35753
is_linear=0
shrinkage=0.1


Tree=18
num_leaves=31
num_cat=0
split_feature=19 23 12 14 26 12 22 4 23 13 22 22 23 9 13 14 12 20 16 19 11 15 1 19 16 16 16 8 11 26
split_gain=9.41739 14.7527 13.4348 22.6835 19.5293 15.4518 13.4298 13.2051 16.3813 13.9137 14.412 20.4474 21.4774 17.6986 13.2378 14.2795 13.1941 16.8504 16.0473 16.9817 14.7891 13.0432 13.9779 12.7883 14.3325 12.6421 13.3648 12.2086 11.911 11.8699
threshold=1.5925983786582949 0.8102954924106599 0.0029932503821328287 2.1621440649032597 2.5000000000000004 0.003504323423840106 0.42063900828361517 720.71286010742199 0.71782085299491893 2.0764000415802006 -0.98933362960815419 -0.94190874695777882 0.29862368106842047 0.00036770879523828631 0.3744294941425324 3.9728624820709233 0.0044216723181307325 3.7679700851440434 2762.8164062500005 3.1326197385787968 0.0087466980330646055 2462.476928710938 2431.005004882813 3.7488310337066655 2443.0314941406255 2564.8479003906255 2784.851684570313 0.00015278489445336166 0.0030619964236393575 1.5000000000000002
decision_type=2 2 2 2 2 2 2 2 2 2 2 2 2 2 2 2 2 2 2 2 2 2 2 2 2 2 2 2 2 2
left_child=-1 7 -3 4 5 -4 -6 8 9 10 -2 12 14 -13 -12 -16 18 29 28 -20 -19 22 -9 -22 -25 27 -27 -26 -5 -18
right_child=1 2 3 16 6 -7 -8 21 -10 -11 11 13 -14 -15 15 -17 17 20 19 -21 23 -23 -24 24 25 26 -28 -29 -30 -31
leaf_value=0.0013170357864175425 -0.060387366082415198 -0.04471484620683347 -0.11936958668960132 0.0045736623219920234 0.14022969850916864 0.053822421584885476 -0.0045880194976483648 -0.0041337445135093583 -0.069296267024589561 0.10952137991584243 -0.15296343863151618 -0.0025131108062937681 0.11233743889682275 -0.030981480532401098 0.048861912224100648 -0.037582535768022063 0.074625069232585203 -0.061625272096952767 0.068706259690973936 -0.13903796291112755 0.1466220102976151 0.013670378060536998 -0.09977987450525283 -0.071886795144498666 0.15182689828316367 -0.07681318669381601 0.052696522274491675 0.014470004819949306 -0.1118925870046405 0.016037672392243237
leaf_weight=9360.5728493928909 65.259692460298538 41.2988011687994 7.6661224961280849 12.928661122918127 32.591998860239983 15.70376907289028 7.9694449156522742 49.565202668309212 56.033632650971413 9.0684823393821699 4.9728004783391944 430.28219132125378 24.06400203704834 443.43961574137211 49.025313511490822 31.315037772059441 53.981680884957314 41.223078340291977 19.9223225414753 4.9032369405031195 6.4593232572078696 313.57951980829239 22.088741227984428 20.39244170486927 11.91832394897938 17.119661450386047 14.905967354774473 14.157488644123076 27.372333213686943 96.22187477350235
leaf_count=37692 269 167 31 52 131 63 32 201 227 37 20 1735 98 1802 198 126 217 166 80 20 26 1269 90 82 48 69 60 57 110 387
internal_value=1.30421e-06 -0.00632943 0.00962052 0.0151552 0.0698236 -0.00299047 0.111776 -0.0110838 -0.0166051 -0.013813 -0.0148799 -0.011859 0.0289019 -0.0169616 0.00536747 0.0151676 0.00492111 0.0144626 -0.0355704 0.0276752 -0.0124777 0.00487457 -0.0336186 0.0113708 0.000240919 0.0255563 -0.0165344 0.0772509 -0.0745299 0.0370934
internal_weight=11306 1945.43 446.737 405.438 63.9313 23.3699 40.5614 1498.69 1113.46 1057.43 1048.36 983.099 109.377 873.722 85.3132 80.3404 341.506 276.38 65.1266 24.8256 126.176 385.233 71.6539 84.9532 78.4939 58.1014 32.0256 26.0758 40.301 150.204
internal_count=45562 7870 1798 1631 257 94 163 6072 4512 4285 4248 3979 442 3537 344 324 1374 1112 262 100 508 1560 291 342 316 234 129 105 162 604
is_linear=0
shrinkage=0.1


Tree=19
num_leaves=31
num_cat=0
split_feature=2 16 21 21 9 26 16 21 16 8 22 14 12 22 15 13 13 12 21 21 22 22 22 18 18 12 12 3 23 23
split_gain=9.14736 11.098 9.5314 9.62693 8.88047 16.6481 16.2841 9.81754 11.8544 9.3658 12.5965 9.30243 14.472 11.3004 15.2939 14.0129 17.3384 10.52 9.20145 8.85331 8.71359 8.68069 22.2615 17.7868 8.5542 9.22417 15.129 18.5366 23.2269 23.5446
threshold=2181.3649902343755 2211.461303710938 -1.2303211092948911 -0.75004833936691273 0.0024357665097340946 1.5000000000000002 2427.3920898437505 1.5820210576057436 2795.776245117188 -0.00013133500033291054 0.08063365146517755 2.0061659812927251 0.0030096935806795959 0.041439602151513107 2272.483032226563 0.61147654056549083 1.5295916795730593 0.0039667442906647929 0.86835795640945446 2.1407083272933964 0.69934985041618358 -0.79994463920593251 -0.85828685760498036 49.423191070556648 69.885055541992202 0.0091773034073412436 0.009834491182118656 2284.295043945313 -0.10235826298594473 0.98933362960815441
decision_type=2 2 2 2 2 2 2 2 2 2 2 2 2 2 2 2 2 2 2 2 2 2 2 2 2 2 2 2 2 2
left_child=21 2 -2 -4 24 11 -7 -8 9 10 19 12 -6 14 -13 17 -17 -15 -16 -9 -11 22 23 -1 25 -3 -27 -28 -29 -30
right_child=1 4 3 -5 5 6 7 8 -10 20 -12 13 -14 15 18 16 -18 -19 -20 -21 -22 -23 -24 -25 -26 26 27 28 29 -31
leaf_value=0.1471067971641068 0.095900058980606259 0.00081627683324481137 -0.12759775848231347 -0.029888713042641249 0.043017238402008225 -0.061596325775300026 -0.021694732965264973 0.028588810980015179 0.085894742216824596 -0.048946466020867163 -0.04912869737926287 0.12652112035018589 -0.12530148221138213 0.10876332549697315 0.018939002063087559 0.11844265262604228 -0.017168077798375918 -0.045509511163714614 -0.030344388860908813 0.20141455082163007 0.062670705311318659 0.097994247818077695 -0.12061777313335842 -0.081145635957289242 -0.017951421137538916 0.066982174057161795 0.075658797600752947 -0.088744790471727092 0.026996349525065085 -0.11463110431993001
leaf_weight=11.164925634860998 5.1982234716415396 9980.9826964735985 11.74026735126972 71.462208211421967 8.8630243837833422 84.665990725159645 294.15990278124809 5.6856108009815234 19.277601078152657 37.16681145131588 7.1744864881038657 9.1329431235790235 12.057338520884512 5.6838205754756954 72.761268377304077 33.949499621987343 13.052932754158972 19.881044462323189 79.033591732382774 6.1922955811023712 8.6154270768165571 18.388073086738586 8.787141025066374 4.917789712548255 236.71066685020924 54.593993842601776 32.21770578622818 28.741522371768951 106.40240575373173 13.193554967641829
leaf_count=47 21 40186 48 292 36 343 1195 23 78 150 29 37 49 23 294 137 53 80 321 25 35 77 36 20 975 222 131 116 430 53
internal_value=4.37875e-07 -0.000175907 -0.0354684 -0.0436759 0.000103397 -0.0106597 -0.0219531 -0.0130801 0.0170473 -0.00342346 0.0554938 0.00988997 -0.0539923 0.0156136 0.000840812 0.0483743 0.0807825 -0.0112101 -0.00672091 0.118688 -0.027942 0.0458972 0.00737816 0.0773115 0.000842044 0.00127749 0.020854 0.00690635 -0.00802613 0.0113723
internal_weight=11301.9 11258.6 88.4007 83.2025 11170.2 717.354 462.938 378.272 84.1122 64.8346 19.0524 254.415 20.9204 233.495 160.928 72.5673 47.0024 25.5649 151.795 11.8779 45.7822 43.2579 24.8699 16.0827 10452.8 10216.1 235.149 180.555 148.337 119.596
internal_count=45562 45382 361 340 45021 2908 1878 1535 340 262 77 1030 85 945 652 293 190 103 615 48 185 180 103 67 42113 41138 952 730 599 483
is_linear=0
shrinkage=0.1


Tree=20
num_leaves=31
num_cat=0
split_feature=18 3 12 2 24 23 6 22 0 18 13 20 16 17 26 20 4 16 3 3 16 22 23 25 11 22 24 22 23 23
split_gain=8.57123 9.09256 11.6798 9.08561 13.4798 13.5449 14.3363 11.914 11.2817 10.8134 13.0803 10.6374 9.0015 11.1765 12.1437 19.613 11.7937 8.73579 8.56709 20.3747 24.224 21.1386 14.2104 14.9251 15.2679 15.4042 20.2323 12.1629 12.3087 21.4898
threshold=33.773290634155281 2183.5300292968755 0.0083533888682723063 2418.305053710938 1.0000000180025095e-35 -0.92799669504165638 2493.5000000000005 0.61048936843872081 2422.575073242188 22.569332122802738 3.0650578737258916 -0.85990518331527699 2192.371459960938 2272.6269531250005 3.5000000000000004 -3.1710669994354244 688.80322265625011 2420.8193359375005 2990.394897460938 2887.994995117188 2865.1535644531255 0.93435779213905346 0.54646614193916332 -0.91597560048103321 0.0093144816346466559 0.99474522471427929 0.98296290636062633 0.84688794612884533 -0.98285266757011402 -0.70556074380874623
decision_type=2 2 2 2 2 2 2 2 2 2 2 2 2 2 2 2 2 2 2 2 2 2 2 2 2 2 2 2 2 2
left_child=3 2 -2 4 5 -1 -7 11 -5 -8 12 -6 -11 -14 17 -16 -17 -15 19 20 -3 27 23 -20 25 26 -25 28 -21 -30
right_child=1 18 -4 8 7 6 9 -9 -10 10 -12 -13 13 14 15 16 -18 -19 22 21 -22 -23 -24 24 -26 -27 -28 -29 29 -31
leaf_value=-0.18400627865173499 0.015233357811067104 -0.0011472282913436607 0.14957008285818826 0.10080530203163639 0.13713004881863461 -0.082012756103093068 0.073367536632109806 -0.020483444243913119 0.012208785608579945 0.12677908934206333 -0.14123798897336998 -0.034223631772271931 -0.089307329851232076 0.1621567282365825 0.11324075750967032 -0.01616310828964471 -0.20542741361122396 -0.0093462485996646215 -0.11363429871885314 -0.053726535859942498 -0.19849250309820748 0.15902567201578899 -0.1812943537387286 0.0038494450250462415 -0.15756452574880567 0.12452818568782159 -0.17383842601087782 -0.073621429439885908 0.17177961436124692 0.027947352045685644
leaf_weight=5.4858111441135398 23.692767143249512 10051.487003922462 8.9045358896255475 14.664278447628019 14.295478701591493 29.355872690677643 15.990049824118612 17.477103650569916 722.93145227432251 4.9679287374019614 7.6606295406818381 4.8526291996240607 14.04367785155773 7.5725124776363355 6.360936716198915 7.4189730286598277 5.9192829579114914 4.886583223938942 14.802597299218176 16.035306349396706 6.2238843291997901 12.150489449501036 5.6825857013463965 84.430883154273033 6.2976402938365927 9.4422119408845884 6.9344265460968009 12.204379737377165 11.192355394363402 144.49101687967777
leaf_count=22 99 40493 39 60 59 119 65 71 2944 21 31 20 57 31 26 30 24 20 60 65 25 49 23 341 26 38 28 49 45 582
internal_value=6.11798e-07 -0.000801829 0.0519298 0.00945502 -0.0133109 -0.0308537 -0.0227889 0.0392154 0.0139702 0.000447578 -0.019372 0.0937046 -0.00112743 -0.0148808 0.0176217 -0.031249 -0.100155 0.0948915 -0.000967405 -0.000646958 -0.00126935 0.0312789 -0.0267201 -0.0195148 -0.00650688 0.00292998 -0.00963667 0.0228396 0.0296953 0.0382877
internal_weight=11297.9 10414 32.5973 883.883 146.287 109.662 104.176 36.6252 737.596 74.8206 58.8305 19.1481 51.1699 46.202 32.1583 19.6992 13.3383 12.4591 10381.4 10253.8 10057.7 196.074 127.59 121.908 107.105 100.808 91.3653 183.923 171.719 155.683
internal_count=45562 41962 138 3600 596 446 424 150 3004 305 240 79 209 188 131 80 54 51 41824 41308 40518 790 516 493 433 407 369 741 692 627
is_linear=0
shrinkage=0.1


Tree=21
num_leaves=31
num_cat=0
split_feature=11 23 21 14 3 12 20 9 12 23 12 17 23 14 18 18 14 16 26 12 10 23 19 19 9 13 13 22 4 9
split_gain=7.22803 13.3229 13.8941 13.664 23.3582 12.4766 11.907 11.4474 11.2092 10.7226 17.244 26.3158 15.9882 15.1047 14.9915 18.4021 14.6421 19.3729 14.0785 13.3905 17.839 15.2636 22.344 17.3999 21.2624 16.5673 16.5405 15.0484 18.1742 14.3304
threshold=-0.0027432844508439298 -0.98734235763549794 0.2026481702923775 1.3128789663314822 2507.835083007813 0.0016690991469658913 -1.1685859560966489 -0.0029300209134817119 0.0020761699415743355 -0.24403759837150571 0.0016265568556264045 2425.804321289063 -0.99988102912902821 0.82914513349533092 60.023992538452156 49.065746307373054 0.598546862602234 2515.2827148437505 4.5000000000000009 0.0014636198757216337 4.4162894482724375e-05 0.40872775018215185 -0.83893784880638111 -0.15868688374757764 -0.00027120595041196788 0.24409982562065127 0.17310786247253421 0.8102954924106599 47.476299285888679 0.00018004003504756841
decision_type=2 2 2 2 2 2 2 2 2 2 2 2 2 2 2 2 2 2 2 2 2 2 2 2 2 2 2 2 2 2
left_child=1 2 8 4 -3 -6 -7 -2 -1 10 11 -9 -13 -12 15 16 17 -14 -16 20 21 23 -23 25 -25 -11 -24 -22 29 -29
right_child=7 3 -4 -5 5 6 -8 9 -10 19 13 12 14 -15 18 -17 -18 -19 -20 -21 27 22 26 24 -26 -27 -28 28 -30 -31
leaf_value=-0.035396975657296652 0.023272324773679985 0.10882428996290744 -0.028295209851965909 0.0019150058652825357 -0.11217353268635005 0.054705240639433952 -0.044467332708174226 0.090911291256136367 0.088922709545596376 0.14209815769245629 -0.04690871921563039 -0.16549367442966145 -0.0091825400746148138 -0.0065364728508964416 0.070333519042430709 0.055736195805864967 0.023533480011368541 -0.18874159210218205 -0.055113573346906489 0.0023511954210380598 -0.10107871973754373 0.11079028017604629 -0.019414879198163662 0.10670517184676634 -0.093564618889754703 -0.02881248335039549 -0.13750607993728681 -0.11858430713196276 0.034865468220389988 -0.0012198925017030092
leaf_weight=8.5064538419246656 187.18455231189728 32.941182240843773 18.846066534519196 1919.3241189271212 7.9599007070064536 36.52542781829834 18.108732894062996 42.500027939677238 49.204727128148079 21.379643648862842 95.254933416843414 5.3644408285617819 17.320426613092426 3417.2381365299225 10.885659679770468 88.469175696372986 41.768984347581863 9.2004689723253232 50.210084229707718 4986.3883905559778 39.134030774235725 10.938186377286909 62.063314989209175 8.3852349817752856 14.414254099130629 7.7195889651775351 14.66296738386154 23.492757543921471 30.35570615530014 18.672836944460869
leaf_count=36 756 134 76 7762 32 147 73 175 208 87 383 22 70 13770 44 356 168 37 204 20092 159 44 250 34 58 31 59 95 124 76
internal_value=1.38825e-06 0.00530806 0.0462538 0.00375228 0.0406635 0.00479271 0.0218341 -0.00120457 0.0705984 -0.00171276 -0.00577318 0.0187893 0.00505752 -0.00763132 0.00925716 0.0256339 -0.0133634 -0.0714741 -0.0327622 0.00121628 -0.0213105 0.00252443 -0.022921 0.0455054 -0.0199091 0.0967581 -0.041983 -0.0511028 -0.0241348 -0.06661
internal_weight=11294.4 2091.42 76.5572 2014.86 95.5352 62.5941 54.6342 9203 57.7112 9015.82 3778.21 265.719 223.219 3512.49 217.855 156.759 68.2899 26.5209 61.0957 5237.61 251.219 139.563 87.6645 51.8987 22.7995 29.0992 76.7263 111.655 72.5213 42.1656
internal_count=45562 8468 320 8148 386 252 220 37094 244 36338 15229 1076 901 14153 879 631 275 107 248 21109 1017 563 353 210 92 118 309 454 295 171
is_linear=0
shrinkage=0.1


Tree=22
num_leaves=31
num_cat=0
split_feature=9 21 20 26 14 19 16 23 16 22 22 10 17 14 13 20 15 14 3 15 19 16 2 26 6 14 18 23 19 0
split_gain=7.07715 13.7144 12.7759 11.9872 10.8354 10.3005 8.95917 8.58155 12.6472 18.0157 15.8347 11.0984 8.74448 9.00112 14.9469 13.1443 18.8124 17.1813 8.58125 13.591 8.24819 8.20267 8.69094 9.63796 9.06993 8.15931 9.00709 10.0834 8.05246 7.86987
threshold=0.0024357665097340946 1.5820210576057436 7.3821260929107675 1.5000000000000002 2.6865077018737797 6.9021475315094003 2427.8044433593755 0.22282424569129947 2458.3503417968755 -0.28192219138145441 -0.4752392172813415 0.00042671897972468292 2433.4821777343755 3.0586867332458501 0.67725536227226268 -3.1710669994354244 2737.182006835938 3.5431798696517949 2248.464965820313 2517.8979492187505 1.4819779992103579 2795.776245117188 2181.3649902343755 1.5000000000000002 2574.5000000000005 3.3526072502136235 68.603343963623061 0.71782085299491893 2.9192891120910649 2535.795043945313
decision_type=2 2 2 2 2 2 2 2 2 2 2 2 2 2 2 2 2 2 2 2 2 2 2 2 2 2 2 2 2 2
left_child=-1 3 4 5 -3 18 -5 12 10 -10 -9 -11 -8 -14 28 16 -16 -17 -2 20 -20 22 -6 25 -25 -24 -27 -28 -15 -21
right_child=1 2 -4 6 21 -7 7 8 9 11 -12 -13 13 14 15 17 -18 -19 19 29 -22 -23 23 24 -26 26 27 -29 -30 -31
leaf_value=0.0006667703282534018 0.091749800922529157 0.16824321313914048 -0.075624505709820142 -0.056563319317962324 0.14698401649191345 0.077592003811247895 0.092627109977581792 -0.032995638481940863 0.029817523421669948 0.032862661545804174 0.19776211702983915 -0.082318613167294219 -0.063061524653645909 0.01439797583723147 0.11678812602008018 0.06893605767864304 -0.11503879849192003 -0.099660825554185706 -0.011929706047826213 0.13423409366340716 -0.077789229867486473 0.086211570813358493 0.13338524560321655 -0.12984590035752111 -0.0062243066659718451 0.078582167690302684 -0.04801661515382917 0.076038059185137993 0.15182199880622479 0.010342930589985373
leaf_weight=10546.235884040594 8.899286672472952 4.9679375588893881 14.341446727514265 82.313043937087059 4.5236447453498831 17.022048130631447 5.3932351022958747 5.2059723436832428 54.362515643239021 10.959083288908003 6.9351326972246152 35.349756211042404 74.201974794268608 33.526165172457695 9.7141177952289564 7.1364145874977103 5.4722896963357917 39.503169178962708 45.781658068299294 5.4708903878927222 32.526487022638321 15.963948369026182 7.6991037577390662 6.4515176713466635 74.119398131966591 18.144861444830894 21.480489999055866 9.4278854280710203 4.885155886411666 81.634787231683731
leaf_count=42536 36 20 58 337 21 69 22 21 219 44 28 144 306 136 39 29 22 162 185 22 133 65 31 26 301 74 87 38 20 331
internal_value=2.02483e-06 -0.00942821 0.014858 -0.0170243 0.0228299 0.003343 -0.0274173 -0.0192194 0.00240124 -0.00922648 0.0988157 -0.0550607 -0.0327824 -0.0366598 -0.0171155 -0.0475527 0.0332513 -0.0738635 -0.00390757 -0.00905395 -0.0392855 0.0182522 0.0106039 0.00611129 -0.016123 0.0376772 0.0226554 -0.0101766 0.0318756 0.0181242
internal_weight=11289.6 743.413 177.12 566.293 162.779 191.335 374.958 292.645 112.812 100.671 12.1411 46.3088 179.833 174.439 100.237 61.826 15.1864 46.6396 174.313 165.414 78.3081 157.811 141.847 137.323 80.5709 56.7523 49.0532 30.9084 38.4113 87.1057
internal_count=45562 3026 721 2305 663 776 1529 1192 456 407 49 188 736 714 408 252 61 191 707 671 318 643 578 557 327 230 199 125 156 353
is_linear=0
shrinkage=0.1


Tree=23
num_leaves=31
num_cat=0
split_feature=19 22 13 22 23 23 18 5 9 10 14 14 13 4 18 16 2 18 12 19 12 14 26 12 17 19 19 9 23 12
split_gain=6.66541 12.3533 19.9644 13.6215 21.7354 12.278 12.2182 11.5774 17.1984 11.699 11.4218 15.3185 11.2376 10.9989 13.4147 10.8111 11.6774 13.8669 12.7536 12.2264 10.5623 19.0046 17.7325 11.7752 14.6191 14.5864 13.3208 12.9007 12.815 16.3167
threshold=1.5925983786582949 -0.98933362960815419 1.5295916795730593 -0.94190874695777882 0.29862368106842047 0.80255532264709484 48.275167465209968 1821990.6875000002 0.00036770879523828631 0.0018212501308880749 2.3953424692153935 3.9728624820709233 0.48559881746768957 438.36698913574224 69.885055541992202 2459.814575195313 2501.545043945313 73.798065185546889 0.011523074470460417 5.1201488971710214 0.0029932503821328287 2.1980880498886113 2.5000000000000004 0.0044216723181307325 2767.8747558593755 3.031192541122437 4.4154269695281991 0.00047616875963285571 0.9247100055217744 0.0058686870615929374
decision_type=2 2 2 2 2 2 2 2 2 2 2 2 2 2 2 2 2 2 2 2 2 2 2 2 2 2 2 2 2 2
left_child=-1 2 6 4 10 7 -2 8 -5 12 -3 -12 -10 -13 -15 -9 -17 18 -18 -19 -7 22 -22 24 -23 -26 27 28 29 -25
right_child=1 3 -4 5 -6 20 -8 15 9 -11 11 13 -14 14 -16 16 17 19 -20 -21 21 23 -24 26 25 -27 -28 -29 -30 -31
leaf_value=0.001107312747689701 0.094235911350059251 -0.068718689252169146 0.08064751656070232 -0.0030544892235579522 0.10729794579094852 -0.039669733480354463 -0.067250321244041428 -0.039569150859526295 -0.03701762162797969 -0.022035114214780556 0.060115223640825367 -0.087641711555823787 -0.10703262132788011 0.034214692231231192 -0.097080945059125831 0.092508838212938052 -0.0019744882026006736 0.10205602462867108 -0.14754897963794411 0.013905520407019437 -0.0052331448541842506 -0.073819432639959617 0.10058632214566479 -0.015746017961356266 0.071641034271891946 -0.10828932845034452 -0.016148814490624552 0.054742753104339716 -0.033865959886102096 0.11828529377629148
leaf_weight=9349.2805536538363 4.9818792194128028 16.955091416835785 11.928438290953634 447.09041152894497 26.374459609389305 42.359879449009895 78.700881540775299 46.03148278594017 69.443835109472275 362.54841096699238 51.245776072144508 15.119266822934149 34.220569908618927 41.327473878860474 9.5869586616754514 17.236955612897873 176.28040911257267 24.727107420563698 6.2308541983366004 43.264345228672028 25.233002498745918 38.812016680836678 42.521542504429817 20.07794950902462 17.688621506094936 6.0452325642108908 105.39038619399071 91.741226524114609 47.344891175627708 16.585919246077538
leaf_count=37692 20 69 49 1805 109 172 328 189 282 1487 207 61 139 167 40 70 714 101 25 175 102 157 171 81 71 25 427 370 190 67
internal_value=1.14083e-06 -0.00533774 -0.0403843 -0.00351809 0.0243054 -0.00617665 -0.0576366 -0.0113741 -0.0170675 -0.0305057 0.00799896 0.01909 -0.0601302 -0.0127478 0.00949231 0.0051977 0.0128943 0.00741606 -0.00694434 0.0459641 0.00787731 0.0127725 0.0611773 0.00322997 -0.0360133 0.0258111 0.0119605 0.0288166 0.000504024 0.0448868
internal_weight=11286.4 1937.1 95.6112 1841.48 160.609 1680.88 83.6828 1227.07 913.303 466.213 134.235 117.279 103.664 66.0337 50.9144 313.771 267.74 250.503 182.511 67.9915 453.801 411.441 67.7545 343.686 62.5459 23.7339 281.14 175.75 84.0088 36.6639
internal_count=45562 7870 397 7473 653 6820 348 4987 3713 1908 544 475 421 268 207 1274 1085 1015 739 276 1833 1661 273 1388 253 96 1135 708 338 148
is_linear=0
shrinkage=0.1


Tree=24
num_leaves=31
num_cat=0
split_feature=22 13 16 11 14 18 23 22 20 23 20 21 22 17 14 23 14 2 16 26 3 17 22 11 10 19 10 14 14 21
split_gain=6.48794 15.382 14.2521 12.1674 12.1252 11.602 12.5804 9.26439 18.2987 14.9556 21.9548 28.6249 21.411 14.6038 19.6406 18.4375 17.4107 22.0741 16.4016 18.4991 25.9311 21.358 17.2628 15.9591 15.8932 15.6962 14.6671 14.4767 32.1337 20.9296
threshold=0.96648588776588451 1.5295916795730593 2238.7875976562505 -0.0052160900086164466 2.2112457752227788 38.906900405883796 -0.16289508342742917 0.49052239954471594 -2.2525649070739742 -0.36852931976318354 -2.4374909400939937 -0.29725357890129084 0.84688794612884533 2449.339233398438 1.4985476732254031 -0.7238691747188567 1.2531930804252627 2420.505004882813 2509.6157226562505 1.0000000180025095e-35 2576.095092773438 2512.3806152343755 0.92961356043815624 -0.00072226449265144755 0.0011785522219724955 1.3257262706756594 0.0019231667974963786 1.5740659832954409 1.8233552575111391 0.2838550209999085
decision_type=2 2 2 2 2 2 2 2 2 2 2 2 2 2 2 2 2 2 2 2 2 2 2 2 2 2 2 2 2 2
left_child=7 2 -2 4 -4 6 -6 -1 9 10 11 -9 -13 14 15 -10 17 -17 27 20 26 22 -21 -18 -23 -19 -20 -15 29 -29
right_child=1 -3 3 -5 5 -7 -8 8 13 -11 -12 12 -14 18 -16 16 23 25 19 21 -22 24 -24 -25 -26 -27 -28 28 -30 -31
leaf_value=0.0011316866901528999 0.17108623313888216 -0.10800379825802205 -0.13400008112011394 0.010822382297214153 -0.098182251418661368 -0.1217175442881524 0.092414761824626657 0.069439932849044622 0.089792374455505974 0.056722031596463079 0.10560245752239117 -0.012643469633014824 -0.13527083516698338 -0.051933725591921776 -0.012779514541092133 0.065611891141871673 -0.014010495120393932 -0.0073931718360861834 0.044007206949897335 0.084463201923986805 -0.014933562228325382 -0.02004686226157985 -0.071634254408175016 0.087902925454691985 0.0042683638545156404 -0.15573917049468458 0.16118336040686915 0.1033313426234142 -0.034608981130417764 -0.054321572998506686
leaf_weight=7500.3520537763834 5.4246484637260428 11.282402187585829 11.420533686876295 870.03013321757317 4.9144760668277767 6.466302126646041 11.726108744740488 25.066365629434586 35.343564793467522 82.010596588253975 16.389592692255974 39.049953654408455 22.409337893128395 174.57950408756733 324.56881679594517 43.606999754905701 22.118226319551468 196.19586962461472 79.788686871528625 37.761276185512543 94.138512536883354 1034.2533438205719 8.7208482176065427 50.328943818807602 363.22291976213455 7.401595562696456 12.333544939756392 32.742145046591759 146.36073903739452 11.336451947689055
leaf_count=30316 22 46 46 3509 20 26 48 102 144 331 66 157 90 703 1308 176 89 792 320 152 380 4155 35 202 1476 30 50 132 593 46
internal_value=3.18167e-07 0.00804229 0.00948108 0.00851193 -0.0497073 -0.0080457 0.0361256 -0.00071481 -0.00555771 0.0248648 -0.000521485 -0.0206234 -0.057356 -0.00766101 0.00500002 0.0212557 0.0136777 0.0010433 -0.0119733 -0.00768303 0.0219768 -0.0115089 0.0551766 0.0567886 -0.013727 -0.0127862 0.059695 -0.031134 -0.0120664 0.062785
internal_weight=11281.3 921.265 909.982 904.558 34.5274 23.1069 16.6406 10360.1 2859.73 184.926 102.915 86.5257 61.4593 2674.8 679.564 354.995 319.652 247.204 1995.24 1630.22 186.261 1443.96 46.4821 72.4472 1397.48 203.597 92.1222 365.019 190.439 44.0786
internal_count=45562 3717 3671 3649 140 94 68 41845 11529 746 415 349 247 10783 2741 1433 1289 998 8042 6568 750 5818 187 291 5631 822 370 1474 771 178
is_linear=0
shrinkage=0.1


Tree=25
num_leaves=31
num_cat=0
split_feature=18 5 14 13 22 13 9 4 11 14 10 7 14 23 21 19 11 11 23 6 6 14 5 24 16 22 11 5 13 12
split_gain=6.3468 10.4422 6.9716 11.3135 8.63687 8.01344 7.82035 12.2819 9.34801 8.12344 7.73469 7.40329 7.39258 6.90154 12.0121 9.36348 11.2906 6.5497 8.17233 6.54892 11.7046 7.51159 6.44025 13.2478 15.9521 20.0419 17.8446 19.8192 14.0192 10.6004
threshold=69.885055541992202 2293414.8750000005 1.3128789663314822 0.33958572149276739 -0.084981974214315401 0.62307095527648937 0.0015769419842399659 369.05860900878912 0.0049577793106436738 2.8138961791992192 0.0050271046347916135 4.2149999141693124 1.4564865231513979 -0.8959035575389861 0.14878135919570926 10.594810485839846 0.0077918276656419047 0.0062121686059981593 0.49052239954471594 1593.5000000000002 2394.5000000000005 3.0824429988861088 533741.56250000012 -0.98296290636062611 2525.1528320312505 -0.97768935561180104 -0.0037958689499646421 269282.34375000006 0.51946812868118297 0.0034456985304132108
decision_type=2 2 2 2 2 2 2 2 2 2 2 2 2 2 2 2 2 2 2 2 2 2 2 2 2 2 2 2 2 2
left_child=22 2 3 -2 6 12 -4 10 -9 -10 -8 19 -6 -3 -15 16 17 18 -16 -7 -21 -22 23 24 26 28 -1 -28 29 -26
right_child=1 13 4 -5 5 11 7 8 9 -11 -12 -13 -14 14 15 -17 -18 -19 -20 20 21 -23 -24 -25 25 -27 27 -29 -30 -31
leaf_value=0.054798611571355196 -0.032407239878892692 0.054842651755014286 -0.054918802711497218 0.037617442166693778 0.0013784118795944285 -0.088244231001953735 0.093489133023293036 -0.10313905970733145 0.072148043162742759 -0.032249768903969522 -0.033171371833892724 -0.11368811817274299 -0.10188485077869121 0.11602085443710825 -0.050862386048703447 -0.072136839178278594 0.023113767150943484 -0.094244851579152814 0.070370586371126018 0.084419638778049783 -0.095115126523670199 0.016977503029073592 0.0031865369757568679 -0.0007975467927828384 -0.023368433640740954 0.12262767084800757 -0.020308768270443877 -0.097867138604092879 -0.15187625847794964 0.082118652857213287
leaf_weight=16.175059214234352 50.008729264140129 26.500174507498741 30.557843461632729 42.835669085383415 8.4194575548171979 8.9754742980003339 18.968302875757221 11.554005801677702 10.906853303313254 23.540144592523575 6.4643262773752204 8.4134030789136869 39.260722279548645 8.3753288537263852 16.549189090728763 19.229788273572922 86.138800203800201 14.726739972829817 8.373953163623808 12.768251046538351 10.963541671633722 13.147495582699774 4883.9034131318331 5701.9748283922672 34.755865871906281 13.616786912083624 70.673033639788628 61.723682299256325 6.415130376815795 13.123322889208792
leaf_count=66 208 108 126 177 35 38 79 48 45 97 27 35 166 34 69 78 351 61 34 53 46 54 19755 22961 141 55 286 250 26 53
internal_value=3.34976e-07 -0.0112921 -0.0228152 -9.99154e-05 -0.0331565 -0.05374 -0.0125817 0.00552925 -0.0253022 0.000805408 0.0612953 -0.0274605 -0.0836504 0.00771842 -0.000422715 -0.00714774 0.00278739 -0.0413714 -0.0101292 -0.0116396 0.00700404 -0.0339922 0.000498639 -0.00171941 -0.0260005 0.0141504 -0.0443532 -0.0564667 -0.0130553 0.00554478
internal_weight=11279 476.678 296.784 92.8444 203.94 101.948 101.991 71.4336 46.001 34.447 25.4326 54.2682 47.6802 179.894 153.394 145.018 125.789 39.6499 24.9231 45.8548 36.8793 24.111 10802.4 5918.46 216.483 67.9111 148.572 132.397 54.2943 47.8792
internal_count=45562 1969 1234 385 849 427 422 296 190 142 106 226 201 735 627 593 515 164 103 191 153 100 43593 23838 877 275 602 536 220 194
is_linear=0
shrinkage=0.1


Tree=26
num_leaves=31
num_cat=0
split_feature=1 3 16 9 22 23 22 3 25 20 22 11 23 10 21 23 10 14 13 22 19 19 13 11 16 23 9 22 12 18
split_gain=6.49736 16.5595 21.2586 15.7834 15.6566 11.4385 27.3571 15.22 15.0734 13.8805 10.8644 11.2619 14.4595 14.3493 10.5067 10.2355 14.8735 11.2891 10.2074 9.89924 9.42845 10.5822 8.7961 15.7528 8.58709 17.4268 12.5924 11.706 19.4167 8.78148
threshold=2992.505004882813 2887.994995117188 2865.1535644531255 -0.0020669365767389532 0.92961356043815624 0.97287458181381237 -0.11103504523634909 2964.394897460938 0.37940952181816107 -1.8946071267127989 0.31109040975570684 0.0093144816346466559 -0.023995916359126564 -0.0028125117532908912 0.45950825512409216 -0.71477618813514698 0.0021939798025414352 3.221472024917603 0.69319742918014537 -0.41667649149894709 1.2764356732368471 0.32334171235561376 0.53615674376487743 0.0030619964236393575 2984.2585449218755 -0.093673683702945695 0.00073792267357930552 -0.71477618813514698 0.0048927643802016982 58.950277328491218
decision_type=2 2 2 2 2 2 2 2 2 2 2 2 2 2 2 2 2 2 2 2 2 2 2 2 2 2 2 2 2 2
left_child=1 2 -1 -2 5 7 -7 -3 24 -8 19 12 13 -12 20 17 -17 -15 -6 22 21 -10 -5 -24 26 27 -9 -26 -29 -28
right_child=3 4 -4 10 18 6 9 8 14 -11 11 -13 -14 15 -16 16 -18 -19 -20 -21 -22 -23 23 -25 25 -27 29 28 -30 -31
leaf_value=-0.00018341862453223341 0.071135591680685339 0.070441815085650408 -0.18267873163113635 -0.082220104255565529 0.18050326277952669 -0.21149800685651671 0.090519535465667711 0.11895113512906788 -0.097212138747912277 -0.080082286974841224 -0.14529600382109714 -0.13412711022473164 0.17467471434165721 0.15399032471889595 0.054119648467634486 -0.13347878155482926 0.047995293186720397 -0.002512026741214667 0.016650294867871306 -0.14553997522731674 -0.15776260768741621 0.061881746431642397 0.082654524688070191 -0.099209087332216214 -0.15409961446351614 0.091839849933981615 -0.05140097426968622 -0.10014048703747996 0.085775509782011858 0.092506517219154108
leaf_weight=10922.628010779619 15.794584721326826 59.103248864412308 6.3868405222892752 26.176019161939621 10.510974586009981 6.9685799926519421 11.405568897724155 20.71217292547226 10.427805855870252 8.1963637024164164 6.304298371076583 5.8632764071226111 4.9428352862596503 8.6223853379487974 7.9187543243169776 8.3458246141672188 9.8426406532525998 9.9025253206491453 5.9564571231603614 12.246477365493773 9.3878218829631788 6.9790996313095084 11.361925944685938 8.2003757655620557 7.1403820067644146 14.309752166271208 10.941123813390734 11.227072179317476 11.242831766605375 6.9236796349287024
leaf_count=44128 64 239 26 106 43 28 46 84 42 33 26 25 20 35 32 34 40 40 24 50 38 28 46 34 29 58 44 46 46 28
internal_value=-8.73734e-07 0.000255939 -0.000290068 -0.022438 0.0274603 0.0198488 -0.0413164 0.0290664 0.00820294 0.019184 -0.0356566 -0.00330201 0.0126916 -0.00592061 -0.0470802 0.0180125 -0.0352746 0.0703317 0.121236 -0.0656894 -0.0769882 -0.0334253 -0.0443093 0.00641861 0.0314652 0.00122838 0.06589 -0.0425614 -0.00711729 0.00437178
internal_weight=11276 11148.4 10929 127.603 219.352 202.884 26.5705 176.314 117.21 19.6019 111.809 53.8238 47.9605 43.0177 34.7135 36.7134 18.1885 18.5249 16.4674 57.9848 26.7947 17.4069 45.7383 19.5623 82.497 43.92 38.577 29.6103 22.4699 17.8648
internal_count=45562 45042 44154 520 888 821 107 714 475 79 456 220 195 175 140 149 74 75 67 236 108 70 186 80 335 179 156 121 92 72
is_linear=0
shrinkage=0.1


Tree=27
num_leaves=31
num_cat=0
split_feature=18 14 6 12 14 13 23 23 22 10 12 19 13 21 12 1 9 3 16 16 23 13 5 13 15 12 23 6 10 19
split_gain=5.95814 9.04846 9.65357 10.8406 13.9216 23.8773 18.1319 16.4187 13.4015 13.1007 13.2462 10.1295 9.98903 9.95605 9.91502 13.7536 12.0434 12.0205 17.4206 11.1167 9.80344 11.6887 10.196 11.7328 9.71817 9.38313 13.6916 11.5366 11.1264 10.0601
threshold=40.644189834594734 0.51715958118438732 1406.5000000000002 0.0032630050554871563 2.3953424692153935 0.57209980487823497 -0.94622433185577381 0.98592084646224987 -0.11103504523634909 -0.0047229728661477557 0.003598486771807075 -2.4375208616256709 0.54880568385124218 -0.79162409901618946 0.0059190429747104653 2987.055053710938 -0.0023094108328223224 2763.9099121093755 2762.8164062500005 2266.669311523438 0.80255532264709484 0.8112890124320985 12691678.500000002 3.0650578737258916 2773.1430664062505 0.0076028387993574151 -0.24403759837150571 4947.0000000000009 -0.0040984898805618277 -1.5641917586326597
decision_type=2 2 2 2 2 2 2 2 2 2 2 2 2 2 2 2 2 2 2 2 2 2 2 2 2 2 2 2 2 2
left_child=1 -1 24 11 5 12 -7 14 -9 10 -8 -4 -5 -12 15 17 -17 18 19 -6 22 -22 23 25 -3 26 -16 28 -27 -28
right_child=-2 2 3 4 7 6 9 8 -10 -11 13 -13 -14 -15 20 16 -18 -19 -20 -21 21 -23 -24 -25 -26 27 29 -29 -30 -31
leaf_value=0.0781044394020141 -0.0011674635227952996 -0.0020131158752493216 0.073145995886408507 0.00032070959535297874 0.13262833167603957 0.10087114751981892 -0.11398062792846018 -0.17042974607464068 -0.023568812632003847 -0.11942814427221045 0.11390557942062061 0.019215014253361602 0.13320996164793106 -0.050506429757367181 -0.032969390346487833 0.048120482776235464 -0.14958244819533148 0.074700105732964941 -0.095862695652901786 0.022235631165357581 -0.035768898568174279 0.062489340089742752 -0.10469559023388245 -0.10986601826059128 -0.069569575256637178 0.1197655524364695 0.04901761932924608 0.003204013041014957 -0.027648264750734782 -0.052270878874180242
leaf_weight=16.595379844307899 8965.4477187842131 957.60361143946648 40.811110466718674 121.83672368526459 9.3561416417360288 5.9071610867977133 10.147225618362429 7.2254658639430991 44.367993876338005 37.871713608503342 7.6223791539669037 237.49728704988956 5.9318380802869788 7.1268825232982618 112.25384478271008 4.8858386576175681 8.3421357423067075 47.006510958075523 12.318961024284361 364.70188882946968 16.377544149756432 46.426663935184479 10.265522882342337 9.9146243631839734 21.777948334813118 20.061863303184513 45.097159221768379 59.206421867012978 6.8745949119329444 12.530275255441664
leaf_count=70 36199 3865 167 493 39 25 41 29 179 153 31 964 24 29 457 20 35 192 50 1487 66 189 42 40 88 82 184 243 28 51
internal_value=-1.0449e-06 0.00453003 0.00399716 0.00960523 0.00488851 -0.0190698 -0.0666235 0.0105101 -0.0441361 -0.0823866 -0.0260402 0.0271234 0.00649028 0.0344613 0.0140988 0.0238865 -0.0765596 0.0269524 0.0211434 0.0249968 0.00120446 0.0368664 -0.00690446 -0.00312962 -0.00351533 0.00100379 -0.0126285 0.0278879 0.0821433 0.0269939
internal_weight=11273.4 2307.94 2291.35 1311.97 1033.66 196.444 68.6754 837.213 51.5935 62.7682 24.8965 278.308 127.769 14.7493 785.62 446.611 13.228 433.384 386.377 374.058 339.009 62.8042 276.204 265.939 979.382 256.024 169.881 86.1429 26.9365 57.6274
internal_count=45562 9363 9293 5340 4209 796 279 3413 208 254 101 1131 517 60 3205 1823 55 1768 1576 1526 1382 255 1127 1085 3953 1045 692 353 110 235
is_linear=0
shrinkage=0.1


Tree=28
num_leaves=31
num_cat=0
