tree
version=v4
num_class=1
num_tree_per_iteration=1
label_index=0
max_feature_idx=49
objective=binary sigmoid:1
feature_names=atr_14 high_low_ratio_15 volume_mean_60 day_sin hour_sin high_low_ratio_30 volume_std_60 day_cos minute_cos hour_cos dow minute_sin bb_width sma_100 low_std_60 pct_change_60 trend_duration close_lag_1 adx_14 volatility_15 macd_diff rsi_14 close_min_60 volatility_30 macd_signal low_min_60 high_std_60 bb_upper macd close_std_60 close_q25_60 volume_ma_ratio bb_lower close_lag_15 close_max_60 acceleration_15 stoch_d ema_26 ema_12 pct_change_30 sma_20 momentum_15 close_lag_5 high_max_60 stoch_k pct_change_15 acceleration_5 momentum_30 low_mean_60 sma_50
feature_infos=[0.25095768723042561:249.0541319648286] [1.0000000931092803:1.0178349318678852] [0.78646299999999991:102.05856433333334] [-0.99871650717105276:0.99871650717105276] [-1:1] [1.00003963165131:1.0229238900312121] [0.81875186798806865:83.046490390375851] [-0.99486932339189504:0.97952994125249448] [-1:1] [-1:1] [0:6] [-1:1] [1.6960963730121158e-05:2.5230144340815017] [98920.791700000002:110149.26790000001] [7.996972742136025:982.18695251334952] [-0.025060315170174596:0.027294361957431956] [0:264] [98344.75:110490] [6.728176916518926:85.827532126438058] [4.9449791149791271e-08:0.0059887955288529891] [-136.4451737692543:147.91634177480609] [1.6676942302553073:97.802033407269434] [98344.75:109943.97] [1.690611303159979e-05:0.0067167670686088289] [-385.36925407170827:373.48922426889749] [98200:109943.77] [9.4979055315763805:918.18625581798938] [98617.507619996119:110585.39066893951] [-413.22182756630355:420.75508487092156] [8.8051631176482665:942.17346253925518] [98524.464999999997:110081.985] [0.020218783776938632:30.930099046769406] [98221.877536719243:110169.50644663155] [98344.75:110490] [99156.509999999995:110490] [-1899.0100000000093:1813.6500000000087] [0:100] [98577.71248841389:110210.16787180598] [98482.93741926481:110334.47497920803] [-0.019776242744322547:0.022309495741936081] [98484.6875:110324.96100000001] [-1692.3000000000029:1801.6600000000035] [98344.75:110490] [99180.210000000006:110530.17] [0:100] [-0.015981024103837838:0.017375983960926877] [-1438.0399999999936:1354.679999999993] [-2093.9600000000064:2313.2000000000116] [98685.51449999999:110134.76016666667] [98689.332200000004:110183.1734]
tree_sizes=984 994 991 997 996 996 984 992 996 994 984 978 986 994 986 989 988 992 984 989 988 993 992

Tree=0
num_leaves=8
num_cat=0
split_feature=0 0 0 3 25 0 0
split_gain=8565.94 1018.48 914.724 420.155 178.224 149.898 132.659
threshold=47.938465281970188 28.532493853035319 71.800592397156223 0.87322439853274636 108689.70500000002 16.157041027799941 60.581158581093902
decision_type=2 2 2 2 2 2 2
left_child=1 5 6 -4 -3 -1 -2
right_child=2 4 3 -5 -6 -7 -8
leaf_value=-0.85878356613591034 -0.66398886941287438 -0.73950810086338614 -0.51029051677106707 -0.7171424657364075 -0.80987610441192759 -0.8174036337327738 -0.60442401903074527
leaf_weight=1491.0703867077827 994.04692447185516 2085.6138845235109 1162.7894579470158 107.38161221146584 435.0051025301218 2130.1005524396896 601.11788223683834
leaf_count=6804 4536 9517 5306 490 1985 9720 2743
internal_value=-0.733864 -0.800473 -0.591091 -0.527768 -0.751659 -0.834448 -0.64153
internal_weight=9007.13 6141.79 2865.34 1270.17 2520.62 3621.17 1595.16
internal_count=41101 28026 13075 5796 11502 16524 7279
is_linear=0
shrinkage=1


Tree=1
num_leaves=8
num_cat=0
split_feature=0 0 0 3 25 0 0
split_gain=6775.61 864.083 673.255 328.339 161.946 151.019 113.704
threshold=47.615848715330152 27.20283357571434 78.006216230013948 0.87322439853274636 108689.70500000002 60.581158581093902 16.157041027799941
decision_type=2 2 2 2 2 2 2
left_child=1 6 5 -4 -3 -2 -1
right_child=2 4 3 -5 -6 -7 -8
leaf_value=-0.11816551749707283 0.060526323809323261 -0.0092826683031559422 0.20011352321527803 -0.007599084493786182 -0.073944831490247109 0.1165364357310408 -0.080401131288639072
leaf_weight=1422.2511872649193 1052.9541892260313 2241.8800210952759 1007.0096243619919 82.218061745166779 468.25694397091866 889.28407172858715 1824.4060657024384
leaf_count=6804 4698 10276 4296 373 2198 3870 8586
internal_value=-0.000214177 -0.062153 0.12149 0.184427 -0.0204609 0.0861811 -0.0969506
internal_weight=8988.26 5956.79 3031.47 1089.23 2710.14 1942.24 3246.66
internal_count=41101 27864 13237 4669 12474 8568 15390
is_linear=0
shrinkage=0.1


Tree=2
num_leaves=8
num_cat=0
split_feature=0 0 0 0 3 1 2
split_gain=5545.54 751.307 497.539 214.419 157.333 114.86 68.9813
threshold=41.951312601395287 64.550018856828032 23.810098488360527 93.254942611608968 0.87322439853274636 1.0033154057960987 3.9669941666666673
decision_type=2 2 2 2 2 2 2
left_child=2 4 6 -3 -2 -4 -1
right_child=1 3 5 -5 -6 -7 -8
leaf_value=-0.11084009143626297 0.061135614211518363 0.11486352014073464 -0.038873704470653317 0.18763960486352821 -0.024467417203815432 0.11428790831202827 -0.077363019303524988
leaf_weight=1562.4328517913818 1653.4278298765421 1154.2373321056366 2612.275246232748 625.53183364868164 246.51242284476757 49.772460013628006 1022.4080729782581
leaf_count=7784 7313 4830 12244 2576 1110 230 5014
internal_value=-0.000347111 0.0937684 -0.0663539 0.140457 0.050023 -0.0360022 -0.0976059
internal_weight=8926.6 3679.71 5246.89 1779.77 1899.94 2662.05 2584.84
internal_count=41101 15829 25272 7406 8423 12474 12798
is_linear=0
shrinkage=0.1


Tree=3
num_leaves=8
num_cat=0
split_feature=0 0 0 3 3 19 2
split_gain=4503.98 630.881 426.255 217.088 118.222 96.1981 62.5227
threshold=41.329305447045307 61.68401632159685 22.138002510445443 0.87322439853274636 0.87322439853274636 0.00086834551641778405 3.9669941666666673
decision_type=2 2 2 2 2 2 2
left_child=2 4 6 -3 -2 -4 -1
right_child=1 3 5 -5 -6 -7 -8
leaf_value=-0.1079272587689067 0.048628019437770537 0.13004359657102502 -0.040508816148121324 0.012033744814981316 -0.026538565975607033 0.054305393835586739 -0.072763190180444123
leaf_weight=1426.3103159964085 1562.6879447549582 1839.5589175224304 2700.994376257062 170.53759342432022 241.34605200588703 111.25264503061771 788.59042412042618
leaf_count=7490 6835 7486 12932 729 1103 514 4012
internal_value=-0.000432134 0.0815071 -0.0626023 0.120038 0.0385658 -0.0367527 -0.0954157
internal_weight=8841.28 3814.13 5027.15 2010.1 1804.03 2812.25 2214.9
internal_count=41101 16153 24948 8215 7938 13446 11502
is_linear=0
shrinkage=0.1


Tree=4
num_leaves=8
num_cat=0
split_feature=0 0 0 3 13 30 0
split_gain=3680.14 501.492 406.74 192.476 107.551 98.2166 69.2952
threshold=41.951312601395287 69.44078352333203 24.710181338695417 0.87322439853274636 110005.87290000002 108896.20250000001 15.193049931922632
decision_type=2 2 2 2 2 2 2
left_child=2 4 6 -3 -2 -4 -1
right_child=1 3 5 -5 -6 -7 -8
leaf_value=-0.10441323886775905 0.045829626222851479 0.12765420869188948 -0.01987765890071775 -0.0019811068427462684 -0.14833176383728863 -0.075491229536574889 -0.070791728654284333
leaf_weight=1104.1166352331638 2198.2831842005253 1432.7508785873652 2084.2662326097488 124.32008562982082 28.785716995596886 374.81757918000221 1388.7159490436316
leaf_count=6156 9418 5745 9952 534 132 1874 7290
internal_value=-0.000486112 0.0737584 -0.0572244 0.117298 0.0433091 -0.0283611 -0.0856908
internal_weight=8736.06 3784.14 4951.92 1557.07 2227.07 2459.08 2492.83
internal_count=41101 15829 25272 6279 9550 11826 13446
is_linear=0
shrinkage=0.1


Tree=5
num_leaves=8
num_cat=0
split_feature=0 0 0 3 0 0 2
split_gain=3020.31 439.948 349.405 176.938 147.383 86.5297 60.3504
threshold=41.329305447045307 78.006216230013948 22.138002510445443 0.87322439853274636 53.275040563223143 32.84111268830312 3.9669941666666673
decision_type=2 2 2 2 2 2 2
left_child=2 4 6 -3 -2 -4 -1
right_child=1 3 5 -5 -6 -7 -8
leaf_value=-0.098705568999021692 0.016546248637953703 0.12770828005967585 -0.045095435453350409 -0.021294895330140798 0.063499552443733023 -0.0086549437532889139 -0.062649763946466278
leaf_weight=1282.863291323185 1188.2309912741184 1070.7687016874552 1650.0353577584028 85.954796820878983 1530.6117632240057 1078.189074113965 731.88425660133362
leaf_count=7490 5184 4296 8262 373 6300 5184 4012
internal_value=-0.000517701 0.064969 -0.0540303 0.116627 0.0429842 -0.0306986 -0.0856164
internal_weight=8618.54 3875.57 4742.97 1156.72 2718.84 2728.22 2014.75
internal_count=41101 16153 24948 4669 11484 13446 11502
is_linear=0
shrinkage=0.1


Tree=6
num_leaves=8
num_cat=0
split_feature=0 0 0 0 43 17 2
split_gain=2481.82 387.184 315.572 168.17 95.4161 86.0096 56.6897
threshold=41.329305447045307 93.254942611608968 21.933029257792771 55.048062068208971 110529.675 108707.63000000002 3.9669941666666673
decision_type=2 2 2 2 2 2 2
left_child=2 3 6 -2 -3 -4 -1
right_child=1 4 5 -5 -6 -7 -8
leaf_value=-0.094577041277274246 0.017447844917975196 0.13534202172463491 -0.01901191748913315 0.063624052441051515 -0.15555868935140052 -0.062357872573211875 -0.058488917745642494
leaf_weight=1205.7328854203224 1349.1154209077358 619.81691052019596 2136.694896787405 1901.2539985477924 11.373418167233465 583.0224524140358 685.32347187399864
leaf_count=7454 5832 2527 10560 7745 49 3048 3886
internal_value=-0.000530084 0.058387 -0.0501315 0.044462 0.130061 -0.0283095 -0.0815076
internal_weight=8492.33 3881.56 4610.77 3250.37 631.19 2719.72 1891.06
internal_count=41101 16153 24948 13577 2576 13608 11340
is_linear=0
shrinkage=0.1


Tree=7
num_leaves=8
num_cat=0
split_feature=0 5 0 3 25 1 2
split_gain=2041.5 340.55 285.525 135.52 121.029 77.3907 60.8172
threshold=41.329305447045307 1.005219879826212 23.391470911171595 0.87322439853274636 104118.34500000002 1.0030703970272545 2.6655074166666672
decision_type=2 2 2 2 2 2 2
left_child=2 3 6 -2 -3 -4 -1
right_child=1 4 5 -5 -6 -7 -8
leaf_value=-0.10120794708890257 0.039777052808372071 0.13204094634946878 -0.02687690040219555 -0.031791484940747593 0.06966555351426415 0.076978797172723032 -0.063122874570867724
leaf_weight=600.22139002382755 2272.9258052706718 512.63089376688004 2406.5324101001024 299.20831805467606 795.36179552972317 73.815307840704918 1405.649467498064
leaf_count=3981 9442 2116 12134 1326 3269 340 8493
internal_value=-0.000532939 0.0525811 -0.0464735 0.031447 0.0941275 -0.0237792 -0.0745285
internal_weight=8366.35 3880.13 4486.22 2572.13 1307.99 2480.35 2005.87
internal_count=41101 16153 24948 10768 5385 12474 12474
is_linear=0
shrinkage=0.1


Tree=8
num_leaves=8
num_cat=0
split_feature=0 0 0 25 22 0 3
split_gain=1690.09 379.809 229.237 94.7704 91.714 91.5775 79.2658
threshold=47.938465281970188 28.532493853035319 93.254942611608968 108689.70500000002 109679.15500000001 15.193049931922632 0.87322439853274636
decision_type=2 2 2 2 2 2 2
left_child=1 5 4 -3 -2 -1 -4
right_child=2 3 6 -5 -6 -7 -8
leaf_value=-0.088558956205401551 0.04601242276866379 0.0011653320855555547 0.12055999814163064 -0.053291663251207072 -0.10846142762934396 -0.049206592375475616 -0.042333655653303513
leaf_weight=885.899170383811 2527.6014117449522 2020.0983784645796 573.88413162529469 379.45386882126331 38.899203896522522 1787.455671608448 31.374162539839745
leaf_count=6156 10331 9517 2443 1985 168 10368 133
internal_value=-0.000529126 -0.0363306 0.056728 -0.00744408 0.0436632 -0.0622537 0.112095
internal_weight=8244.67 5072.91 3171.76 2399.55 2566.5 2673.35 605.258
internal_count=41101 28026 13075 11502 10499 16524 2576
is_linear=0
shrinkage=0.1


Tree=9
num_leaves=8
num_cat=0
split_feature=0 0 22 0 40 4 26
split_gain=1423.52 392.927 132.345 121.844 112.294 50.9463 37.4739
threshold=32.84111268830312 60.581158581093902 104243.74500000001 16.832685146042923 108697.62625000002 0.25881904510252091 148.36217935875507
decision_type=2 2 2 2 2 2 2
left_child=3 4 -3 6 -2 -5 -1
right_child=1 2 -4 5 -6 -7 -8
leaf_value=-0.082292035116703521 0.018479283390813717 0.10123120212880253 0.048023579551174068 -0.021511013575008064 -0.033834653607400032 -0.05222260764593592 0.22139062447030461
leaf_weight=1002.8497009277344 2355.6865362077951 721.88204039633274 1331.0149111747742 946.61617782711983 496.66534090042114 1262.88104583323 3.9691178053617469
leaf_count=7264 10394 3067 5472 5277 2404 7197 26
internal_value=-0.000518078 0.0333813 0.0667423 -0.052221 0.00936585 -0.0390708 -0.0810632
internal_weight=8121.56 4905.25 2052.9 3216.32 2852.35 2209.5 1006.82
internal_count=41101 21337 8539 19764 12798 12474 7290
is_linear=0
shrinkage=0.1


Tree=10
num_leaves=8
num_cat=0
split_feature=0 1 0 38 41 42 7
split_gain=1230.1 372.889 176.976 132.297 101.669 67.7172 29.642
threshold=36.691036590907309 1.0039340991735837 16.157041027799941 108574.75615726261 231.39000000000672 106162.10500000003 -0.52625006705264832
decision_type=2 2 2 2 2 2 2
left_child=2 3 6 -2 -4 -3 -1
right_child=1 5 4 -5 -6 -7 -8
leaf_value=-0.026974892343460361 0.029263268592183252 0.11201068502864149 -0.033148495571435004 -0.02261115531097202 0.12797540115099917 0.057497726156843766 -0.088548536630058405
leaf_weight=87.491246461868286 2665.5610256493092 582.33162103593349 2841.8300110250711 602.52183431386948 39.588653817772865 376.58658766746521 783.53551981598139
leaf_count=90 4917 626 4041 1108 118 703 925
internal_value=-0.00120208 0.0357898 -0.0428746 0.019696 -0.030927 0.0906207 -0.0823787
internal_weight=7979.45 4227 3752.45 3268.08 2881.42 958.918 871.027
internal_count=12528 7354 5174 6025 4159 1329 1015
is_linear=0
shrinkage=0.1


Tree=11
num_leaves=8
num_cat=0
split_feature=0 0 0 27 30 43 15
split_gain=945.24 267.02 248.021 106.05 95.5124 92.4918 49.5055
threshold=42.261538104199666 81.181798912784416 18.751769372374 104639.38018283506 104931.83375000001 110529.675 0.0027661045163942526
decision_type=2 2 2 2 2 2 2
left_child=2 3 6 -2 -4 -3 -1
right_child=1 5 4 -5 -6 -7 -8
leaf_value=-0.076315986233428473 0.063481014535541821 0.086030935115383872 0.015973899086589916 0.01146037325621156 -0.027219457968749562 -0.15258339931892895 0.067285896946324378
leaf_weight=1092.996718980372 475.09801416099072 943.79978878796101 646.54009746015072 2240.4394637644291 2453.7379664182663 16.411667108535767 24.400412037968636
leaf_count=1300 735 1140 1142 4344 3729 9 34
internal_value=-0.000465861 0.0366006 -0.0327721 0.0205673 -0.0182084 0.0819269 -0.0731657
internal_weight=7893.42 3675.75 4217.68 2715.54 3100.28 960.211 1117.4
internal_count=12433 6228 6205 5079 4871 1149 1334
is_linear=0
shrinkage=0.1


Tree=12
num_leaves=8
num_cat=0
split_feature=0 0 32 38 34 3 0
split_gain=839.406 312.871 152.882 116.105 92.8101 92.4116 60.0257
threshold=56.416278569055187 26.17437473388161 105039.8060504246 105685.12778441409 105661.04000000002 -0.917778335858911 110.16683898750721
decision_type=2 2 2 2 2 2 2
left_child=1 5 6 -3 -4 -1 -2
right_child=2 3 4 -5 -6 -7 -8
leaf_value=0.072187350211947485 0.064375972681272028 0.022601685988340586 -0.10956457512716973 -0.016663769763921119 0.032436644871489444 -0.056929857457097346 0.12014804653204521
leaf_weight=56.869346484541893 716.83257815241814 1111.3540624827147 47.64200747013092 2334.7966863512993 1263.2282911688089 1992.8352797329426 265.26159831881523
leaf_count=44 905 2233 68 4207 2229 2491 208
internal_value=-0.00119658 -0.0224024 0.0496248 -0.00399789 0.0272604 -0.0533394 0.0794606
internal_weight=7788.82 5495.86 2292.96 3446.15 1310.87 2049.7 982.094
internal_count=12385 8975 3410 6440 2297 2535 1113
is_linear=0
shrinkage=0.1


Tree=13
num_leaves=8
num_cat=0
split_feature=0 34 23 10 6 33 1
split_gain=728.348 246.969 210.989 165.367 98.8557 67.2727 53.7404
threshold=30.141811487986761 109025.99500000001 0.0011207025868341647 1.5000000000000002 4.6714917544015249 106438.13000000002 1.0022160416584105
decision_type=2 2 2 2 2 2 2
left_child=4 2 -2 -3 6 -6 -1
right_child=1 3 -4 -5 5 -7 -8
leaf_value=-0.064329195595518113 0.014122387815568514 -0.079299549965607785 0.060790977293398531 0.012264187420701346 0.015526243914528885 -0.039088305852306965 0.094132346551211721
leaf_weight=1452.9839188680053 2925.0027078688145 374.83648788928986 1449.0312816500664 415.81472793221474 330.52891740202904 708.2411569878459 21.587585613131523
leaf_count=1842 5406 479 2212 913 505 991 58
internal_value=-0.00119657 0.0202877 0.029586 -0.0311372 -0.0453477 -0.0217012 -0.0619965
internal_weight=7678.03 5164.69 4374.03 790.651 2513.34 1038.77 1474.57
internal_count=12406 9010 7618 1392 3396 1496 1900
is_linear=0
shrinkage=0.1


Tree=14
num_leaves=8
num_cat=0
split_feature=0 49 5 4 21 5 18
split_gain=624.733 177.072 168.58 120.945 92.5509 53.9729 17.2996
threshold=43.220529013043254 104370.21220000002 1.0010118892305424 0.25881904510252091 36.110716509593971 1.0060966209473106 9.3264712953422926
decision_type=2 2 2 2 2 2 2
left_child=2 5 6 -4 -3 -2 -1
right_child=1 4 3 -5 -6 -7 -8
leaf_value=0.13025117240881542 0.051573329503613985 0.069377723030103561 -0.0015758388840745438 -0.037631723746763837 0.011296367253018413 0.10513847920760162 -0.089286025192225948
leaf_weight=3.5005721673369399 495.41630209982395 311.54462279379368 1801.8639617860317 1924.6102804243565 2300.5214810669422 304.85820966959 411.70399087667465
leaf_count=4 739 552 3124 2715 4412 301 534
internal_value=-0.000835533 0.0308452 -0.0269398 -0.0202007 0.0182299 0.0720013 -0.0873806
internal_weight=7554.02 3412.34 4141.68 3726.47 2612.07 800.275 415.205
internal_count=12381 6004 6377 5839 4964 1040 538
is_linear=0
shrinkage=0.1


Tree=15
num_leaves=8
num_cat=0
split_feature=0 4 2 2 0 15 3
split_gain=595.838 230.281 145.978 132.819 95.3055 59.8972 55.9377
threshold=56.416278569055187 0.12940952255126045 3.9303795000000004 5.2213009166666673 97.08534050945255 0.001771638048187363 0.87322439853274636
decision_type=2 2 2 2 2 2 2
left_child=1 2 -1 -3 5 -2 -6
right_child=4 3 -4 -5 6 -7 -8
leaf_value=-0.045476273623542535 0.044253730122276534 -0.069560925626731121 0.013168408906481644 -0.024034592406714628 0.091294888136422378 0.0051680601785434729 -0.06257530917310368
leaf_weight=536.77693747729063 1136.4684648960829 1012.4656208157539 2026.7219472303987 1748.7945997864008 420.12715074419975 599.51377679407597 24.889563754200935
leaf_count=773 2036 1316 4020 2661 431 1114 44
internal_value=-0.0026629 -0.0206961 0.000883577 -0.0407331 0.0413584 0.0307623 0.082655
internal_weight=7505.76 5324.76 2563.5 2761.26 2181 1735.98 445.017
internal_count=12395 8770 4793 3977 3625 3150 475
is_linear=0
shrinkage=0.1


Tree=16
num_leaves=8
num_cat=0
split_feature=1 2 0 34 4 18 16
split_gain=401.048 158.363 119.226 110.455 79.9698 69.0373 13.8961
threshold=1.0025400604625327 3.8179097500000005 114.88497057273135 102000.87000000001 0.12940952255126045 20.456934924190524 77.500000000000014
decision_type=2 2 2 2 2 2 2
left_child=1 5 4 -3 -2 -1 -4
right_child=2 3 6 -5 -6 -7 -8
leaf_value=-0.0086705709587731449 0.032667695027417502 0.08726109849300423 0.11195848658697478 -0.014876700266764915 -0.010070391860614045 -0.073810321996304315 0.047424903364760317
leaf_weight=213.36426093429327 1715.3787046670914 108.699711561203 174.01571668684483 3914.9901853427291 587.37982894480228 690.27114614844322 42.256000995635986
leaf_count=334 3167 169 152 6524 1014 952 38
internal_value=-0.00401804 -0.0206125 0.0284371 -0.0121129 0.021762 -0.0584431 0.0994224
internal_weight=7446.36 4927.33 2519.03 4023.69 2302.76 903.635 216.272
internal_count=12350 7979 4371 6693 4181 1286 190
is_linear=0
shrinkage=0.1


Tree=17
num_leaves=8
num_cat=0
split_feature=5 3 4 3 0 1 24
split_gain=397.098 162.689 104.015 88.6963 66.4391 52.622 21.4397
threshold=1.0039609884026885 0.81970999721622506 1.0000000180025095e-35 0.97827272159715795 114.88497057273135 1.0017223217587119 51.448880085845708
decision_type=2 2 2 2 2 2 2
left_child=1 2 -1 -3 5 -2 -6
right_child=4 3 -4 -5 6 -7 -8
leaf_value=0.0085848145223941224 0.12388499245860624 -0.082621588323547629 -0.022172763015096769 -0.016465988147250546 0.11256324479648078 0.026762535517391751 0.046078997567973498
leaf_weight=2018.7703177556396 57.548470288515091 505.09384040534496 2413.5088683515787 339.21607472002506 136.57209095358849 1796.5460521429777 76.463405981659889
leaf_count=3925 122 654 3612 586 120 3265 71
internal_value=-0.00127261 -0.0158284 -0.00816155 -0.0560591 0.0358771 0.0297889 0.0887791
internal_weight=7343.72 5276.59 4432.28 844.31 2067.13 1854.09 213.035
internal_count=12355 8777 7537 1240 3578 3387 191
is_linear=0
shrinkage=0.1


Tree=18
num_leaves=8
num_cat=0
split_feature=0 13 10 0 2 21 30
split_gain=333.45 177.849 175.06 138.263 99.5803 88.6633 78.7813
threshold=32.84111268830312 108531.21895000002 1.5000000000000002 68.728633666800036 3.9303795000000004 26.154479217233384 109511.00375000002
decision_type=2 2 2 2 2 2 2
left_child=4 3 -3 -2 6 -6 -1
right_child=1 2 -4 -5 5 -7 -8
leaf_value=-0.059503629304354134 0.013063382738487931 -0.072041251404479617 0.01663212081183426 0.054512258811041658 0.12426192410728745 -0.017857011282001355 0.14020277617003046
leaf_weight=892.17425122857094 2678.774013236165 410.37069667875767 486.1875913888216 1150.9513815939426 44.991705350577831 1638.6569326296449 20.079631015658379
leaf_count=1278 5151 570 1089 1715 81 2411 45
internal_value=0.000320142 0.0161367 -0.023948 0.0255237 -0.0284725 -0.0140462 -0.0550823
internal_weight=7322.19 4726.28 896.558 3829.73 2595.9 1683.65 912.254
internal_count=12340 8525 1659 6866 3815 2492 1323
is_linear=0
shrinkage=0.1


Tree=19
num_leaves=8
num_cat=0
split_feature=0 12 4 5 48 25 27
split_gain=345.005 130.712 96.9016 81.1974 79.9437 47.8075 33.4411
threshold=33.067828512680144 0.50618599128519226 0.12940952255126045 1.0008810596716402 104943.59341666668 104284.68500000001 108240.43844580845
decision_type=2 2 2 2 2 2 2
left_child=3 2 -2 6 -5 -3 -1
right_child=1 5 -4 4 -6 -7 -8
leaf_value=-0.093470677277180378 0.02233202437890253 0.092524750260595881 -0.011438634835699664 0.020219432016174821 -0.029628147554787633 0.037756714383249991 0.050559653021425455
leaf_weight=219.6754208356142 2654.0569503456354 263.66282702982426 1249.2571808546782 384.04987578094006 1974.3983083441854 405.86969085037708 17.244085945188999
leaf_count=354 5268 285 2100 617 2915 775 28
internal_value=0.00199839 0.0185273 0.0115212 -0.0271201 -0.0215063 0.0593496 -0.0829295
internal_weight=7168.21 4572.85 3903.31 2595.37 2358.45 669.533 236.92
internal_count=12342 8428 7368 3914 3532 1060 382
is_linear=0
shrinkage=0.1


Tree=20
num_leaves=8
num_cat=0
split_feature=12 5 31 33 17 3 20
split_gain=267.912 155.665 100.435 94.1946 92.9928 59.5954 41.9352
threshold=0.30325659063496269 1.0013528681806476 0.78046535010287454 108434.645 106992.17000000003 0.87322439853274636 7.7765117330712261
decision_type=2 2 2 2 2 2 2
left_child=1 6 3 -2 -3 -4 -1
right_child=2 4 5 -5 -6 -7 -8
leaf_value=-0.065649337557076567 0.019975943749308764 0.0084966061932073827 0.056575270097919843 -0.055624783087682012 -0.021267791589840213 -0.01064968064131918 0.042263166539755946
leaf_weight=610.97088456898928 889.53774975240231 2058.7732674926519 1034.6225421279669 202.14826533198357 2140.7663830518723 150.82943348586559 38.088075563311577
leaf_count=910 1634 3470 1796 432 3746 329 57
internal_value=-0.00043183 -0.0137214 0.0278601 0.00596418 -0.006674 0.0480136 -0.0592963
internal_weight=7125.74 4848.6 2277.14 1091.69 4199.54 1185.45 649.059
internal_count=12374 8183 4191 2066 7216 2125 967
is_linear=0
shrinkage=0.1


Tree=21
num_leaves=8
num_cat=0
split_feature=4 3 38 21 12 19 5
split_gain=218.649 139.087 132.659 111.42 98.1693 56.8564 48.4508
threshold=1.0000000180025095e-35 -0.95291462550664219 106828.37421398467 80.107720217096428 0.44217338196481276 0.001354695429750609 1.0034057224718846
decision_type=2 2 2 2 2 2 2
left_child=1 6 3 -2 -3 -4 -1
right_child=2 4 5 -5 -6 -7 -8
leaf_value=0.13912125020178098 0.0013928680248257727 0.0045194057145648654 -0.039445388581930932 0.275080222024921 0.048936653007088882 0.096486887406226837 0.055509138592216747
leaf_weight=89.888639286160469 1531.8960394710302 2932.4050366654992 1597.8099227026105 14.920973092317579 599.35900892317295 31.241296157240868 306.9088933467865
leaf_count=150 2382 5690 2536 42 1112 53 374
internal_value=0.00259813 0.0183724 -0.0169117 0.00405695 0.0120612 -0.0368268 0.0745052
internal_weight=7104.43 3928.56 3175.87 1546.82 3531.76 1629.05 396.798
internal_count=12339 7326 5013 2424 6802 2589 524
is_linear=0
shrinkage=0.1


Tree=22
num_leaves=8
num_cat=0
split_feature=12 1 31 0 2 35 47
split_gain=203.889 134.606 90.5434 67.5457 57.4924 33.6746 30.6616
threshold=0.3394365145459492 1.0006708338665022 0.44733732423129835 88.575725726579265 28.618786833333338 324.62999999999744 99.674999999995649
decision_type=2 2 2 2 2 2 2
left_child=1 6 -3 4 -2 -5 -1
right_child=3 2 -4 5 -6 -7 -8
leaf_value=-0.076948635098277152 0.022201315257891006 -0.025151710719496397 0.0042615130060750777 0.080119556394642896 -0.10817607228681195 0.015073749185802286 0.025634217191799365
leaf_weight=331.87581464648247 1312.8544196337461 1519.6890379264951 3360.0290472880006 327.17976824939251 34.595559999346733 105.75229179859161 31.742271475493908
leaf_count=545 2695 2511 5931 384 76 129 60
internal_value=0.000653196 -0.00927355 -0.00489698 0.0298924 0.0188389 0.0642604 -0.0679623
internal_weight=7023.72 5243.34 4879.72 1780.38 1347.45 432.932 363.618
internal_count=12331 9047 8442 3284 2771 513 605
is_linear=0
shrinkage=0.1


end of trees

feature_importances:
atr_14=57
day_sin=15
volume_mean_60=10
high_low_ratio_15=7
hour_sin=7
high_low_ratio_30=7
low_min_60=5
bb_width=4
rsi_14=3
close_q25_60=3
close_max_60=3
ema_12=3
dow=2
sma_100=2
pct_change_60=2
close_lag_1=2
adx_14=2
volatility_15=2
close_min_60=2
bb_upper=2
volume_ma_ratio=2
close_lag_15=2
high_max_60=2
volume_std_60=1
day_cos=1
trend_duration=1
macd_diff=1
volatility_30=1
macd_signal=1
high_std_60=1
bb_lower=1
acceleration_15=1
sma_20=1
momentum_15=1
close_lag_5=1
momentum_30=1
low_mean_60=1
sma_50=1

parameters:
[boosting: gbdt]
[objective: binary]
[metric: binary_logloss]
[tree_learner: serial]
[device_type: cpu]
[data_sample_strategy: goss]
[data: ]
[valid: ]
[num_iterations: 1000]
[learning_rate: 0.1]
[num_leaves: 8]
[num_threads: 0]
[seed: 0]
[deterministic: 0]
[force_col_wise: 0]
[force_row_wise: 0]
[histogram_pool_size: -1]
[max_depth: 3]
[min_data_in_leaf: 20]
[min_sum_hessian_in_leaf: 0.0411704]
[bagging_fraction: 1]
[pos_bagging_fraction: 1]
[neg_bagging_fraction: 1]
[bagging_freq: 0]
[bagging_seed: 3]
[bagging_by_query: 0]
[feature_fraction: 1]
[feature_fraction_bynode: 1]
[feature_fraction_seed: 2]
[extra_trees: 0]
[extra_seed: 6]
[early_stopping_round: 0]
[early_stopping_min_delta: 0]
[first_metric_only: 0]
[max_delta_step: 0]
[lambda_l1: 0.0969216]
[lambda_l2: 0.100876]
[linear_lambda: 0]
[min_gain_to_split: 0]
[drop_rate: 0.1]
[max_drop: 50]
[skip_drop: 0.5]
[xgboost_dart_mode: 0]
[uniform_drop: 0]
[drop_seed: 4]
[top_rate: 0.2]
[other_rate: 0.1]
[min_data_per_group: 100]
[max_cat_threshold: 32]
[cat_l2: 10]
[cat_smooth: 10]
[max_cat_to_onehot: 4]
[top_k: 20]
[monotone_constraints: ]
[monotone_constraints_method: basic]
[monotone_penalty: 0]
[feature_contri: ]
[forcedsplits_filename: ]
[refit_decay_rate: 0.9]
[cegb_tradeoff: 1]
[cegb_penalty_split: 0]
[cegb_penalty_feature_lazy: ]
[cegb_penalty_feature_coupled: ]
[path_smooth: 0]
[interaction_constraints: ]
[verbosity: -1]
[saved_feature_importance_type: 0]
[use_quantized_grad: 0]
[num_grad_quant_bins: 4]
[quant_train_renew_leaf: 0]
[stochastic_rounding: 1]
[linear_tree: 0]
[max_bin: 255]
[max_bin_by_feature: ]
[min_data_in_bin: 3]
[bin_construct_sample_cnt: 200000]
[data_random_seed: 1]
[is_enable_sparse: 1]
[enable_bundle: 1]
[use_missing: 1]
[zero_as_missing: 0]
[feature_pre_filter: 1]
[pre_partition: 0]
[two_round: 0]
[header: 0]
[label_column: ]
[weight_column: ]
[group_column: ]
[ignore_column: ]
[categorical_feature: ]
[forcedbins_filename: ]
[precise_float_parser: 0]
[parser_config_file: ]
[objective_seed: 5]
[num_class: 1]
[is_unbalance: 0]
[scale_pos_weight: 1]
[sigmoid: 1]
[boost_from_average: 1]
[reg_sqrt: 0]
[alpha: 0.9]
[fair_c: 1]
[poisson_max_delta_step: 0.7]
[tweedie_variance_power: 1.5]
[lambdarank_truncation_level: 30]
[lambdarank_norm: 1]
[label_gain: ]
[lambdarank_position_bias_regularization: 0]
[eval_at: ]
[multi_error_top_k: 1]
[auc_mu_weights: ]
[num_machines: 1]
[local_listen_port: 12400]
[time_out: 120]
[machine_list_filename: ]
[machines: ]
[gpu_platform_id: -1]
[gpu_device_id: -1]
[gpu_use_dp: 0]
[num_gpu: 1]

end of parameters

pandas_categorical:null
