tree
version=v4
num_class=1
num_tree_per_iteration=1
label_index=0
max_feature_idx=26
objective=binary sigmoid:1
feature_names=Column_0 Column_1 Column_2 Column_3 Column_4 Column_5 Column_6 Column_7 Column_8 Column_9 Column_10 Column_11 Column_12 Column_13 Column_14 Column_15 Column_16 Column_17 Column_18 Column_19 Column_20 Column_21 Column_22 Column_23 Column_24 Column_25 Column_26
feature_infos=[98344.75:118822.2734375] [98411.21875:118869.9765625] [98200:118712] [98344.75:118822.28125] [0.077799998223781586:956.35784912109375] [8207.8994140625:110129152] [55:73211] [0.0099999997764825821:1690.9100341796875] [-0.010181850753724575:0.0084533868357539177] [-0.012185920029878616:0.022239096462726593] [-0.015981024131178856:0.022980703040957451] [-0.019776241853833199:0.026120215654373169] [3.2399540941696614e-05:0.01552511565387249] [1.6960962966550142e-05:3.7004866600036621] [0.25095769762992859:382.00421142578125] [98411.265625:118699.390625] [98484.6875:118618.390625] [98463.6640625:118638.6875] [1.6676942110061646:97.802032470703125] [-413.22183227539062:648.5445556640625] [-385.3692626953125:576.98834228515625] [-136.44517517089844:250.84901428222656] [-1:1] [-1:1] [-1:1] [-1:1] [0:6]
tree_sizes=3452 3506 3474 3502 3492 3482 3474 3487 3479 3451 3482 3480 3455 3469 3474 3469 3454 3469 3459 3442 3485 3443 3493 3434 3479 3413 3464 3405 3436 3421 3455 3428 3462 3463 3462 3403 3450 3432 3481 3405 3418 3421 3423 3458 3441 3417 3423 3440 3415 3417 3461 3434 3414 3423 3424 3419 3432 3448 3445 3392 3428 3428 3413 3415 3405 3473 3410 3429 3406 3422 3437 3480 3413 3459 3457 3458 3406 3441 3415 3435 3406 3455 3428 3457 3433 3419 3407 3402 3404 3440 3426 3442 3436 3418 3415 3457 3439 3426 3457 3419 3414 3413 3450 3438 3447 3414 3446 3416 3442 3436 3425 3468 3406 3411 3433 3431 3406 3408 3409 3431 3422 3440 3427 3472 3417 3444 3405 3419 3421 3429 3403 3412 3429 3464 3416 3426 3437 3430 3401 3409 3451 3414 3415 3441 3432 3409 3463 3423 3431 3407 3432 3411 3437 3420 3388 3417 3430 3401 3406 3422 3427 3473 3445 3437 3447 3410 3444 3430 3438 3436 3433 3408 3408 3394 3404 3430 3442 3422 3431 3418 3453 3430 3434 3416 3420 3426 3403 3432 3442 3437 3459 3415 3428 3397 3415 3422 3439 3414 3426 3428

Tree=0
num_leaves=31
num_cat=0
split_feature=14 8 8 8 8 12 14 8 8 14 5 13 5 17 8 16 7 7 17 5 23 18 12 7 6 12 23 9 18 23
split_gain=238.355 175.437 57.6028 32.1669 35.9711 37.2286 23.602 18.8042 28.6626 24.0026 15.0467 14.6317 15.3484 14.134 13.3664 13.2749 12.5209 12.0516 11.6356 11.0375 13.9516 10.9654 10.4798 10.2919 10.4842 10.5714 10.1973 10.041 10.3617 9.9528
threshold=18.788610458374027 1.8824928815774913e-07 1.0000000180025095e-35 -0.00044131814502179617 2.2008380256011154e-05 0.0023575267987325792 8.9466738700866717 -9.6625417000950606e-08 -9.1776794164388762e-08 11.94774913787842 657136.43750000012 0.075051583349704756 812175.34375000012 118013.86718750001 -0.0001726958362269215 107413.18750000001 35.364999771118171 5.4349999427795419 108949.46484375001 708702.15625000012 0.61048936843872081 85.056079864501967 0.0013824456837028267 18.195000648498539 1290.5000000000002 0.0011648309882730248 0.99381411075592052 -0.0018069000216200946 37.845720291137702 -0.54280677437782276
decision_type=2 2 2 2 2 2 2 2 2 2 2 2 2 2 2 2 2 2 2 2 2 2 2 2 2 2 2 2 2 2
left_child=1 2 7 -2 5 10 -4 9 -9 26 18 -10 -13 -7 15 27 -11 -6 -5 20 -16 -3 -8 -21 25 -25 -1 -12 -29 -19
right_child=3 21 6 4 17 13 22 8 11 16 14 12 -14 -15 19 -17 -18 29 -20 23 -22 -23 -24 24 -26 -27 -28 28 -30 -31
leaf_value=-0.21988618652286213 -0.12071416719911329 -0.13198436730201785 -0.26427304119648032 -0.15381303751931868 -0.089584210399433484 -0.12960563922892607 -0.2106808884381684 -0.13937028163156662 -0.20162775083883433 -0.18546297618581103 -0.25073393761991192 -0.17119050870126107 -0.0021660798428700945 -0.23900616491842158 -0.075535373997648189 -0.1457058279934505 -0.13795883762433078 -0.14070389997212682 -0.17404482983110817 -0.18157062457686871 -0.19985660298487515 -0.066812676840984186 -0.092409006149792444 -0.25073393761991192 -0.15811090701063316 -0.098550873019407015 -0.10497447690138922 -0.073235399385403729 -0.12260364482153994 -0.12986388639124466
leaf_weight=260.63487529754639 1070.1449126005173 665.26554524898529 122.60781824588776 1444.6831971406937 64.163929224014282 1100.4859954118729 127.83046364784241 215.86934328079224 229.29900288581848 431.73868656158447 4.9739480018615714 296.94469571113586 5.4713428020477286 11.937475204467772 34.817636013031006 227.55812108516693 63.666534423828125 1236.0260784626007 353.89640033245087 135.04268825054169 12.18617260456085 26.85931921005249 7.9583168029785147 4.9739480018615714 219.59980428218842 55.459520220756531 7.9583168029785147 62.423047423362732 133.30180644989014 2691.1545664072037
leaf_count=1048 4303 2675 493 5809 258 4425 514 868 922 1736 20 1194 22 48 140 915 256 4970 1423 543 49 108 32 20 883 223 32 251 536 10821
internal_value=-0.144618 -0.172143 -0.188835 -0.136971 -0.139204 -0.146166 -0.232467 -0.181376 -0.170101 -0.192409 -0.152531 -0.182577 -0.168133 -0.13078 -0.141899 -0.129171 -0.179358 -0.132573 -0.157794 -0.153694 -0.107767 -0.129455 -0.203749 -0.158895 -0.14796 -0.111076 -0.216481 -0.110424 -0.106858 -0.133276
internal_weight=11324.9 2462.1 1769.98 8862.83 7792.68 3801.34 258.397 1511.58 747.584 763.998 2688.92 531.715 302.416 1112.42 890.337 428.257 495.405 3991.34 1798.58 462.08 47.0038 692.125 135.789 415.076 280.033 60.4335 268.593 200.699 195.725 3927.18
internal_count=45537 9900 7117 35637 31334 15285 1039 6078 3006 3072 10812 2138 1216 4473 3580 1722 1992 16049 7232 1858 189 2783 546 1669 1126 243 1080 807 787 15791
is_linear=0
shrinkage=1


Tree=1
num_leaves=31
num_cat=0
split_feature=14 8 8 8 8 12 12 6 8 14 5 17 7 8 1 22 7 9 13 2 14 22 2 8 8 21 22 1 10 3
split_gain=193.544 142.883 47.5267 25.9881 29.109 30.1511 19.8798 15.7534 22.0178 16.8485 12.1984 11.5308 11.218 10.8239 12.161 10.7845 10.2999 10.2355 10.0486 10.4031 9.81102 9.66935 9.6628 9.55778 13.3908 9.78024 9.4374 9.21576 11.0128 9.55907
threshold=18.788610458374027 1.8824928815774913e-07 1.0000000180025095e-35 -0.00044131814502179617 2.2008380256011154e-05 0.0023575267987325792 0.00071711852797307085 161.50000000000003 -9.2376637894631117e-08 11.94774913787842 657136.43750000012 118013.86718750001 60.149999618530281 -0.0001726958362269215 109616.90625000001 -0.11970336735248564 0.014999999664723875 -0.00094769243150949467 0.60725885629653942 104487.64062500001 18.394953727722172 -0.88396760821342457 105501.96484375001 -9.3284427293838221e-08 -1.0000000180025095e-35 -3.2411501407623287 -0.87142586708068837 108059.03125000001 -9.0853918663924546e-05 107679.68359375001
decision_type=2 2 2 2 2 2 2 2 2 2 2 2 2 2 2 2 2 2 2 2 2 2 2 2 2 2 2 2 2 2
left_child=1 2 7 -2 5 10 22 8 21 23 17 -7 18 14 -12 -14 -8 -5 19 -6 -3 -1 -4 -9 -25 -26 -16 28 29 -19
right_child=3 20 6 4 12 11 16 9 -10 -11 13 -13 15 -15 26 -17 -18 27 -20 -21 -22 -23 -24 24 25 -27 -28 -29 -30 -31
leaf_value=0.12702937570290004 0.021477150462930195 0.016222594772947737 0.016933814214258287 0.016216859338507136 -0.0030461856960973641 0.013496150210856057 -0.06237601967188116 -0.06611000567511692 -0.031096680034919583 -0.029102624740658729 0.021446367402703233 -0.085758998521392293 0.0095020147572455593 -0.0081817455192855597 -0.14988421956122558 -0.0099703146578384617 0.038901320888251184 -0.022371814572482357 0.056713819055651121 0.015988933580530409 -0.041017598997377752 0.012804164904089498 -0.11708299319585749 0.0025951163454697337 0.0065544022142847314 -0.068373752530919527 -0.013240521111390414 -0.024203743531640155 0.0015293051699425012 0.025229417264101703
leaf_weight=7.9612774848937979 1071.8405579775572 661.45190446078777 5.6570055335760108 120.99739064276218 327.80839231610298 1101.6173534095287 129.76721598207951 270.57900534570217 285.52058766782284 654.65486945211887 356.75815999507904 11.830246925354002 878.30132116377354 461.62906488776207 5.4709113836288443 420.63785482943058 10.883935853838919 511.7174107581377 55.25700668990612 2312.6130167841911 31.364021927118301 107.20845617353916 109.88220325112343 59.190811961889267 21.069551408290863 100.58402010798454 66.396969974040985 571.80872352421284 546.26268520951271 45.977523550391197
leaf_count=32 4303 2657 23 487 1317 4425 525 1095 1152 2639 1433 48 3529 1858 22 1690 44 2059 222 9291 126 431 447 238 85 406 267 2303 2198 185
internal_value=-3.17098e-06 -0.0248463 -0.0399674 0.00687737 0.00486986 -0.00139515 -0.0797864 -0.0331972 -0.0162088 -0.0393514 -0.00712882 0.0124416 0.0108304 0.00244323 0.0138863 0.00319625 -0.0545389 -0.0118716 0.014509 0.0136257 0.0136313 0.0207002 -0.110521 -0.0542143 -0.0364158 -0.0553967 -0.0236425 -0.0138997 -0.00856252 -0.0184475
internal_weight=11322.7 2455.77 1762.96 8866.92 7795.08 3800.47 256.19 1506.77 400.69 1106.08 2687.02 1113.45 3994.62 890.255 428.626 1298.94 140.651 1796.76 2695.68 2640.42 692.816 115.17 115.539 451.423 180.844 121.654 71.8679 1675.77 1103.96 557.695
internal_count=45537 9900 7117 35637 31334 15285 1039 6078 1615 4463 10812 4473 16049 3580 1722 5219 569 7232 10830 10608 2783 463 470 1824 729 491 289 6745 4442 2244
is_linear=0
shrinkage=0.1


Tree=2
num_leaves=31
num_cat=0
split_feature=14 8 8 8 8 12 14 9 8 6 8 14 11 6 19 12 5 7 10 23 17 7 5 9 4 18 18 14 8 0
split_gain=157.271 116.498 39.5078 21.0101 23.5592 24.4214 17.2844 14.3001 14.4058 16.2752 16.2043 12.5022 12.0886 10.5376 11.0428 10.5131 9.89456 9.8275 11.8187 10.6754 9.43149 9.1265 14.9199 9.20127 9.04492 12.3538 10.7352 9.85446 9.74199 9.01612
threshold=18.788610458374027 1.8824928815774913e-07 1.0000000180025095e-35 -0.00044131814502179617 2.2008380256011154e-05 0.0023575267987325792 9.3353171348571795 -0.0011751685524359343 -4.1838236484181826e-06 859.50000000000011 -9.1776794164388762e-08 6.4826421737670907 0.0013778433785773816 123.50000000000001 -14.698182582855223 0.0013824456837028267 657136.43750000012 6.4349999427795419 -0.00055100533063523461 -0.95037782192230214 118013.86718750001 18.195000648498539 708702.15625000012 -0.0019137690542265771 2.4400949478149419 80.375171661376967 74.954051971435561 18.394953727722172 0.00027973089891020214 117158.45703125001
decision_type=2 2 2 2 2 2 2 2 2 2 2 2 2 2 2 2 2 2 2 2 2 2 2 2 2 2 2 2 2 2
left_child=1 2 7 -2 5 16 -4 -1 9 12 13 -12 -9 14 -10 -8 -5 18 -6 -20 -7 22 -18 -23 25 26 -3 28 -26 -24
right_child=3 24 6 4 17 20 15 8 10 -11 11 -13 -14 -15 -16 -17 21 -19 19 -21 -22 23 29 -25 27 -27 -28 -29 -30 -31
leaf_value=0.13959942332996597 0.019305337820126469 0.02493744605160933 -0.099359121714498871 -0.010697064395457631 0.10082753273440029 0.012135904921192354 -0.054159176278097049 -0.053631200635846477 0.164419082367907 -0.017810569374212441 -0.053396168699300119 -0.020346936215343194 0.024765761304541254 -0.010861128593059896 0.022912352518840506 0.068141926665472682 0.052417824738967327 0.0089810310032951996 -0.084687279198767326 0.035424867564461636 -0.07816464581040615 -0.078528182035261018 -0.03763236678330828 0.0083902912184204807 -0.0018903393070591617 0.12479809313441866 -0.077066438030417225 -0.06686318173910745 0.03955847661303085 0.099811597910832064
leaf_weight=4.9553703069686881 1073.1058319509029 278.76666162908077 124.03536503016949 1794.889421865344 24.95054192841053 1102.5299303233624 121.7665259540081 487.63560643792152 6.2254857867956153 218.08414077758789 167.89764659106731 359.65474039316177 20.495494350790977 188.02665753662586 48.303992956876755 7.4591944813728324 24.403168380260468 3905.6933629512787 8.4788686037063581 58.132601633667946 11.689063310623167 12.389224559068678 129.58008429408073 718.91410668194294 302.5192659497261 11.978133559226988 10.714065462350844 19.604091823101044 69.786281585693359 4.9552613496780387
leaf_count=20 4303 1119 513 7232 100 4425 496 1980 25 883 681 1455 83 757 194 30 98 15682 34 233 48 50 523 2889 1214 48 43 79 280 20
internal_value=-6.19968e-06 -0.0224452 -0.0361591 0.00618663 0.004381 -0.00125737 -0.0726939 -0.0299958 -0.0305575 -0.0406616 -0.0210292 -0.0308651 -0.0504691 0.000363483 0.0390678 -0.0470997 -0.00642192 0.00974022 0.0421243 0.020136 0.0111886 0.00219754 -0.0195211 0.00691778 0.0122574 0.02528 0.0211621 0.00224027 0.00587897 -0.03257
internal_weight=11317.6 2447.91 1754.54 8869.71 7796.61 3799.35 253.261 1501.28 1496.32 726.215 770.109 527.552 508.131 242.556 54.5295 129.226 2685.13 3997.26 91.562 66.6115 1114.22 890.242 158.939 731.303 693.369 301.459 289.481 391.91 372.306 134.535
internal_count=45537 9900 7117 35637 31334 15285 1039 6078 6058 2946 3112 2136 2063 976 219 526 10812 16049 367 267 4473 3580 641 2939 2783 1210 1162 1573 1494 543
is_linear=0
shrinkage=0.1


Tree=3
num_leaves=31
num_cat=0
split_feature=14 8 8 14 8 7 13 12 9 4 23 21 8 12 16 20 9 8 8 4 22 14 2 13 5 9 22 7 4 8
split_gain=127.869 95.042 33.0089 17.915 22.2263 15.9389 15.431 14.9348 14.3503 14.342 13.064 12.4536 12.1193 11.6718 12.6455 11.8611 11.5317 11.9679 15.5526 14.5584 11.3414 11.3295 10.7034 10.4347 12.2674 9.35946 9.42355 9.16425 8.99772 8.70938
threshold=18.788610458374027 1.8824928815774913e-07 1.0000000180025095e-35 31.544457435607914 9.5462620919306587e-08 54.514999389648445 0.16291607916355136 0.00071711852797307085 -0.0014904347481206057 5.5614950656890878 -0.99959546327590931 2.6118580102920537 -0.00025211182946804905 0.0018165839137509467 107297.21875000001 50.477426528930671 -0.0011751685524359343 -9.6625417000950606e-08 -9.1776794164388762e-08 4.4259901046752939 -0.023995916359126564 10.970208168029787 106581.19921875001 0.075051583349704756 812175.34375000012 -0.00082655489677563299 0.96648588776588451 4.9349999427795419 6.0047149658203134 9.5462620919306587e-08
decision_type=2 2 2 2 2 2 2 2 2 2 2 2 2 2 2 2 2 2 2 2 2 2 2 2 2 2 2 2 2 2
left_child=1 2 16 4 5 13 9 29 -7 -6 -8 -11 -5 14 15 28 -1 19 -19 21 -14 -18 -13 -20 -25 -15 -27 -12 -2 -4
right_child=3 -3 7 12 6 8 10 -9 -10 11 27 22 20 25 -16 -17 17 18 23 -21 -22 -23 -24 24 -26 26 -28 -29 -30 -31
leaf_value=0.12457667508006461 -0.0037733031849289766 0.011025023042432152 -0.10006671691763094 0.015896728858483457 0.029080147551326319 -0.10943166977709209 -0.15401140667144855 -0.044463203190526927 0.036143117435711018 -0.025461860847122954 0.050931237747616348 -0.026267450667141118 0.0096608956365225509 0.059616979403581349 -0.019447592587808062 -0.09156114715145687 -0.067247133067523057 0.0040023656832140937 -0.044113958510602132 -0.015576311594037702 -0.00068978756417114153 -0.035632211228715981 0.045280201445440094 -0.018419067956643737 0.1323649946238061 -0.070721613651767753 0.013822691940816893 -0.0054469253674356202 0.026259919008050206 0.028381214623542868
leaf_weight=4.9949796497821799 467.23854650557041 693.6413149535656 105.75272254645824 1637.7273673862219 452.50247468054295 7.2382750809192649 5.7279299348592749 138.52827905118465 105.01689679920673 111.34042708575726 30.610927313566208 30.14123460650444 2888.6628682911396 7.7083950191736212 663.46768102049828 13.674413055181502 167.13752119243145 215.64996084570885 225.97657902538776 229.79837803542614 1670.9258691519499 352.23601944744587 68.262612879276276 294.11346344649792 5.4964759200811377 72.189751133322716 16.129712462425232 496.13290268182755 126.83173748850822 5.5561140179634085
leaf_count=20 1883 2783 447 6569 1816 29 23 569 421 447 123 121 11598 31 2676 55 687 867 922 935 6714 1433 274 1192 22 291 65 1991 510 23
internal_value=-8.81402e-06 -0.0202878 -0.032733 0.00556611 -0.00127479 -0.00946719 0.00887038 -0.0663794 0.0267564 0.019061 -0.00380398 -0.00255417 0.00851804 -0.0124413 -0.00990184 0.000519155 -0.0271117 -0.0276201 -0.0186113 -0.0365335 0.00586774 -0.0458061 0.0233651 -0.0278897 -0.0156529 -0.0460582 -0.0552814 -0.00217059 0.00263868 -0.0936551
internal_weight=11310.4 2438.88 1745.24 8871.53 2674.21 1479.5 1194.72 249.837 112.255 662.247 532.472 209.744 6197.32 1367.24 1271.21 607.745 1495.4 1490.41 741.236 749.172 4559.59 519.374 98.4038 525.587 299.61 96.0279 88.3195 526.744 594.07 111.309
internal_count=45537 9900 7117 35637 10756 5961 4795 1039 450 2658 2137 842 24881 5511 5124 2448 6078 6058 3003 3055 18312 2120 395 2136 1214 387 356 2114 2393 470
is_linear=0
shrinkage=0.1


Tree=4
num_leaves=31
num_cat=0
split_feature=14 8 8 14 8 14 7 13 9 4 23 6 4 8 21 8 12 16 20 22 18 15 10 4 6 5 0 18 19 20
split_gain=103.989 77.5924 27.6529 14.5063 18.015 13.2202 12.9143 12.4844 11.6717 11.5902 10.7632 10.5252 14.7762 12.4439 10.092 9.80323 9.53551 10.2702 9.69651 9.1782 8.83915 8.69317 8.83678 10.0304 9.43828 11.3211 8.66952 8.63281 11.3528 13.6974
threshold=18.788610458374027 1.8824928815774913e-07 1.0000000180025095e-35 31.544457435607914 9.5462620919306587e-08 8.9466738700866717 54.514999389648445 0.16291607916355136 -0.0014904347481206057 5.5614950656890878 -0.99959546327590931 161.50000000000003 2.7289000749588017 -9.2376637894631117e-08 2.6118580102920537 -0.00025211182946804905 0.0018165839137509467 107297.21875000001 50.477426528930671 -0.023995916359126564 25.566928863525394 102906.31250000001 -0.0068146390840411178 21.555805206298832 5232.5000000000009 1863067.5000000002 106603.32031250001 58.294054031372077 -30.861323356628414 -39.968130111694329
decision_type=2 2 2 2 2 2 2 2 2 2 2 2 2 2 2 2 2 2 2 2 2 2 2 2 2 2 2 2 2 2
left_child=1 2 11 4 6 -4 16 9 -8 -6 -9 13 -13 -1 -11 -5 17 18 20 21 -2 22 -17 24 25 -24 -16 28 29 -3
right_child=3 27 5 15 7 -7 8 10 -10 14 -12 12 -14 -15 26 19 -18 -19 -20 -21 -22 -23 23 -25 -26 -27 -28 -29 -30 -31
leaf_value=0.017092655484462295 0.074765560012574089 -0.077845276461896207 -0.085622586925718391 0.014296177124965469 0.026133142300684212 -0.039150987174975331 -0.099250312536635299 -0.14080049220956165 0.032484107096439931 -0.022955762358906676 -0.0019542814620324791 -0.039859827119079622 -0.0164092226499843 -0.021891457528520855 -0.023199561127904569 -0.13546657537655507 -0.041679998678310543 -0.017536494996587843 -0.083158921178954015 -0.00062083706528492249 0.00031894951671979229 0.010292210492139351 -0.023255011346862656 0.023680452589322002 0.051611193637877223 -0.14987718582899537 0.040916706234609607 0.021922804188282859 -0.0058777090891295077 0.086821421673806437
leaf_weight=115.3366731107235 16.401309654116631 6.2316718101501456 114.11340674757957 1638.9062229841948 453.14040707051754 132.05816560983658 7.1852485984563819 5.6428832262754431 105.15318119525909 111.15588940680027 526.64804419875145 613.35540109872818 478.15629418194294 282.27574925124645 30.588783264160156 5.4850918501615515 95.547679588198662 662.26009504497051 13.556431859731672 1670.8514228016138 577.7067898362875 2662.9080525487661 126.62639887630939 72.049455553293228 15.708895385265349 7.4780759513378134 67.906713321805 321.48182994127274 339.62662614881992 26.675561234354973
leaf_count=463 66 25 493 6569 1816 546 29 23 421 447 2114 2511 1952 1152 123 22 387 2676 55 6714 2327 10686 508 289 63 30 272 1289 1362 107
internal_value=-1.12687e-05 -0.018343 -0.0296453 0.00500777 -0.00115039 -0.060693 -0.0085331 0.0079789 0.0240583 0.0171384 -0.00342621 -0.0245127 -0.0295869 -0.0105832 -0.00230285 0.00766262 -0.0112144 -0.00892222 0.000466004 0.00527904 0.00237417 0.00868975 -0.0100798 -0.00697987 -0.0217253 -0.0303159 0.0210047 0.00991687 -0.000443779 0.0556383
internal_weight=11302.2 2429.31 1735.3 8872.91 2672.89 246.172 1477.81 1195.08 112.338 662.792 532.291 1489.12 1091.51 397.612 209.651 6200.01 1365.47 1269.92 607.665 4561.11 594.108 2890.26 227.348 221.863 149.813 134.104 98.4955 694.016 372.534 32.9072
internal_count=45537 9900 7117 35637 10756 1039 5961 4795 450 2658 2137 6078 4463 1615 842 24881 5511 5124 2448 18312 2393 11598 912 890 601 538 395 2783 1494 132
is_linear=0
shrinkage=0.1


Tree=5
num_leaves=31
num_cat=0
split_feature=14 8 8 14 8 8 8 18 12 19 7 9 13 6 17 21 25 13 22 23 19 21 18 10 19 10 11 2 18 19
split_gain=87.6681 50.9477 29.114 24.5519 22.7566 13.3278 11.9202 11.4236 11.7139 11.1137 11.5366 10.6923 11.1597 10.229 10.9101 10.1401 9.67704 10.8715 9.60504 14.3756 11.9609 11.6678 10.6573 9.90371 9.22647 9.13988 8.99478 8.79932 12.2454 11.1859
threshold=12.512404918670656 9.5462620919306587e-08 9.164685366158666e-08 23.548541069030765 -2.2453339624917131e-05 -9.6625417000950606e-08 -1.0000000180025095e-35 37.845720291137702 0.001157066260930151 41.385570526123054 40.07500076293946 5.9781734307762242e-05 0.06665306538343431 123.50000000000001 107341.12890625001 -10.520610332489012 1.0000000180025095e-35 0.044725893065333373 -0.93279412388801564 0.21004468202590945 -109.92980957031249 -13.515820026397703 42.641048431396491 -0.0016292328364215789 -23.478323936462399 -0.0016292328364215789 -0.0003381212154636159 108127.17187500001 63.504878997802741 -45.68968200683593
decision_type=2 2 2 2 2 2 2 2 2 2 2 2 2 2 2 2 2 2 2 2 2 2 2 2 2 2 2 2 2 2
left_child=1 2 5 4 9 -1 11 8 -5 10 27 13 -13 -7 -15 -12 17 -16 19 20 -9 -21 -22 -23 -3 -6 -26 28 29 -2
right_child=3 24 -4 7 25 6 -8 18 -10 -11 15 12 -14 14 16 -17 -18 -19 -20 21 22 23 -24 -25 26 -27 -28 -29 -30 -31
leaf_value=-0.046213488530283953 0.080693563617976957 0.10040440044247466 -0.078134785082863631 0.080208535266804867 -0.070646679918124816 0.033875635988124909 -0.029766278819998701 0.15368201202045123 0.013086444041707022 -0.083027858284472511 -0.054978996889399993 0.088972851781227685 -0.0044287523005300585 -0.086278880845564274 0.1423642959554601 0.027750973093304022 -0.057387619324394602 -0.0026565545422927543 0.0024432669360438361 -0.046955228556725223 -0.025641672089010949 -0.087736451382365355 0.01004693224666142 0.045477048373896357 -0.032164230350934568 0.0023832095061894817 0.016066344651995117 -0.035944048739500155 0.058322453085783446 -0.019968395817305268
leaf_weight=289.33315432071686 11.373483344912527 11.230521991848944 142.94326554238796 26.574113860726357 17.35110941529274 31.187119483947754 344.16431860625744 5.4909213632345191 1203.1809429824352 26.647708520293236 17.874796941876411 24.880493059754372 26.329313114285469 26.309178218245506 6.7052524089813259 86.564390331506729 21.846814721822739 22.565640926361084 5627.2106378078461 15.954533398151396 95.705736741423607 5.7397210597991934 665.52722777426243 201.64605590701103 46.503929361701012 1389.9440266937017 229.46462889015675 274.54661297798157 22.852115884423256 375.61814691126347
leaf_count=1204 46 45 625 107 70 125 1415 22 4830 108 72 100 106 106 27 349 88 91 22596 64 384 23 2669 809 187 5608 921 1119 93 1528
internal_value=-1.29685e-05 -0.02529 -0.0365921 0.00305815 -0.00621949 -0.0291068 -0.0192861 0.00568616 0.0145369 -0.0195116 -0.0173659 0.00328202 0.0409508 -0.0144782 -0.0339549 0.0135917 -0.00702487 0.0305642 0.00404133 0.0131242 0.00662078 0.0354505 0.00556 0.0417902 0.0115547 0.00148279 0.00793893 -0.0220901 -0.0128096 -0.01701
internal_weight=11293.3 1223.46 936.265 10069.8 2222.77 793.321 503.988 7847.03 1229.76 815.477 788.83 159.824 51.2098 108.614 77.4269 104.439 51.1177 29.2709 6617.27 990.064 766.724 223.34 761.233 207.386 287.199 1407.3 275.969 684.39 409.844 386.992
internal_count=45537 5040 3887 40497 8993 3262 2058 31504 4937 3315 3207 643 206 437 312 421 206 118 26567 3971 3075 896 3053 832 1153 5678 1108 2786 1667 1574
is_linear=0
shrinkage=0.1


Tree=6
num_leaves=31
num_cat=0
split_feature=14 8 8 14 8 5 9 13 11 23 22 18 23 12 0 14 7 7 14 17 22 0 13 4 16 16 20 19 8 7
split_gain=71.5331 41.8641 21.2888 20.7252 25.5137 13.0054 11.0781 15.9532 10.9649 10.1245 9.74565 9.50852 9.31501 12.7574 12.2958 11.1692 11.114 9.09857 8.5225 8.35521 9.8892 8.32658 8.19232 12.1429 9.493 8.22789 8.10471 8.40276 7.97849 12.4689
threshold=12.512404918670656 1.8824928815774913e-07 9.164685366158666e-08 31.544457435607914 9.5462620919306587e-08 959243.93750000012 4.3424346586107283e-05 0.038476657122373588 -0.0019124256796203552 0.99560055136680614 0.99771150946617138 56.531883239746101 -0.54280677437782276 0.0021329749142751102 107925.60156250001 30.165146827697757 60.149999618530281 82.024997711181655 29.285295486450199 109011.03515625001 -0.7589854598045348 118036.18750000001 0.083616770803928389 15.343990325927736 107588.25390625001 107864.24218750001 3.1753661632537846 6.9769663810729989 -9.6625417000950606e-08 10.315000057220461
decision_type=2 2 2 2 2 2 2 2 2 2 2 2 2 2 2 2 2 2 2 2 2 2 2 2 2 2 2 2 2 2
left_child=1 2 6 4 5 8 10 -8 -2 19 -1 -4 14 -14 15 16 -6 18 22 28 -21 -5 23 -7 -24 -26 -9 -28 29 -10
right_child=3 -3 11 21 12 17 7 26 9 -11 -12 -13 13 -15 -16 -17 -18 -19 -20 20 -22 -23 24 -25 25 -27 27 -29 -30 -31
leaf_value=-0.036172187461633552 0.015515452017488046 0.011388060949198552 -0.086513498976706529 0.0066407961375162354 -0.0065074365328089984 -0.10547159956879125 0.076623109180803936 0.0044410443671906866 -0.038042107958582871 0.025189738510481507 0.040875348128422015 -0.034730058314434119 0.012809445137874492 -0.10082276976341516 0.013851075765087357 -0.076779492937570346 -0.0966804375690513 0.076736802948331517 -0.034636805286550679 0.040339166180027246 -0.034916625454570853 -0.03727814445472985 0.045217617734960337 0.047197621238767723 -0.068597582347727587 0.011462152141743532 -0.11115403581195751 -0.024834902310783127 -0.0019106096783800522 -0.011676205641721098
leaf_weight=546.53356167674065 128.01351678371429 275.02949073910713 95.362447738647461 6159.9855546951294 264.08674256503582 13.085456714034082 20.439904555678368 99.470529064536095 234.82983136177063 61.332497462630272 16.925391137599945 56.449437588453293 1089.9621885865927 9.9703968614339811 215.99692068994045 28.61725877225399 14.414498597383497 19.17610302567482 44.225133329629898 18.516647934913635 306.42927280068398 43.472771570086479 84.643816754221916 8.6560995727777463 14.832172870635985 95.424723118543625 12.844475820660589 92.432910040020943 454.55432367324829 759.44650320708752
leaf_count=2265 518 1102 425 24705 1060 53 84 410 957 249 70 251 4371 40 867 115 58 77 178 75 1249 176 341 35 60 386 53 380 1847 3080
internal_value=-1.45957e-05 -0.0229302 -0.0329663 0.0027515 -0.00299516 -0.00990517 -0.0263652 -0.00761744 -0.012781 -0.0147549 -0.0338578 -0.0672584 0.00655496 0.0117794 -0.0044303 -0.0172876 -0.0111746 0.0102549 0.00536786 -0.0161361 -0.0306283 0.00633302 0.0135344 -0.0446885 0.0200292 0.000692215 -0.0160271 -0.0353664 -0.0128858 -0.0179033
internal_weight=11285.2 1215.49 940.459 10069.7 3866.21 2243.17 788.647 225.188 1963.12 1835.11 563.459 151.812 1623.05 1099.93 523.115 307.118 278.501 280.044 260.867 1773.78 324.946 6203.46 216.642 21.7416 194.901 110.257 204.748 105.277 1448.83 994.276
internal_count=45537 5040 3938 40497 15616 9105 3262 927 7975 7457 2335 676 6511 4411 2100 1233 1118 1130 1053 7208 1324 24881 875 88 787 446 843 433 5884 4037
is_linear=0
shrinkage=0.1


Tree=7
num_leaves=31
num_cat=0
split_feature=14 8 8 14 8 21 4 20 13 15 10 8 8 4 23 22 20 8 2 16 22 19 20 23 17 21 12 16 9 2
split_gain=58.3836 29.9749 21.2991 17.9806 20.9189 11.8102 11.1324 11.0436 10.0494 13.3488 9.682 9.08892 10.8462 8.98572 10.4756 9.90946 8.80689 8.67423 10.0277 12.7847 9.71928 9.7971 9.64941 10.9584 9.64831 9.89957 9.29645 8.76482 16.2287 13.6789
threshold=12.251229763031008 9.5462620919306587e-08 9.2240444615754327e-08 27.274853706359867 9.5462620919306587e-08 19.366970062255863 11.419960021972658 -45.383174896240227 0.16951211541891101 109642.83984375001 -0.0012889342615380881 -9.6625417000950606e-08 -1.0000000180025095e-35 2.7289000749588017 0.75327470898628246 0.99771150946617138 8.6323142051696795 -0.00032821256900206203 117872.87109375001 118019.07812500001 -0.11970336735248564 13.180493831634523 4.8435735702514657 0.76181921362876903 117749.33203125001 -14.145919322967528 0.0027618971653282647 105269.39453125001 0.001519756449852139 105462.38671875001
decision_type=2 2 2 2 2 2 2 2 2 2 2 2 2 2 2 2 2 2 2 2 2 2 2 2 2 2 2 2 2 2
left_child=1 2 11 4 5 6 7 -2 9 10 -9 13 -13 15 -15 -1 -7 18 -5 -20 27 22 24 -24 -22 -26 -25 -19 29 -29
right_child=3 -3 -4 17 -6 16 -8 8 -10 -11 -12 12 -14 14 -16 -17 -18 20 19 -21 21 -23 23 26 25 -27 -28 28 -30 -31
leaf_value=-0.060585982341441039 0.035627326476339531 0.0077411446149733667 -0.068738960816982511 0.013140755614379499 0.0060768742776246892 -0.0049093159573496085 0.017419697315162633 0.099665365915450888 -0.027850768476364657 -0.049194355490510634 -0.0081204876402019011 0.0058575197145551219 -0.025900878578692794 -0.031825615517264684 0.047030621375816262 0.085892481963510167 0.16459801598596205 -0.0012155935535503209 -0.14657062081956027 0.022403233699867589 -0.0020947428931591457 0.0064121878775780204 -0.010409464370568758 -0.079722836608824274 -0.16815455644721639 -0.023508311688512508 0.0096849302032145888 0.049938186376565039 -0.015880311139977395 0.011212410778955996
leaf_weight=139.49497944116592 44.158561542630196 273.45341575145721 123.01839172840118 1395.4503293484449 1218.6990776360035 5.6772265285253507 123.36921299993992 8.398335859179495 445.28560402989388 81.712275117635727 1084.0777953267097 156.57433639466763 343.36555580794811 103.65846920013428 20.115460366010666 4.7766669243574134 6.6617558151483536 924.78813442587852 8.9636829495429993 8.9469972550868988 1235.0555509775877 976.43226519227028 135.58435858786106 52.200731128454208 6.9006580710411098 15.052494660019873 14.96327170729637 95.549643769860268 214.87510676681995 2009.2581414580345
leaf_count=595 179 1098 566 5588 4887 23 498 34 1810 335 4423 632 1429 436 84 20 27 3709 36 36 4962 3924 545 210 28 61 60 383 861 8058
internal_value=-1.60642e-05 -0.02122 -0.0301083 0.00242568 -0.00403928 -0.010891 -0.0115642 -0.0137135 -0.0150589 -0.0102079 -0.00729189 -0.0239203 -0.0159546 -0.0387774 -0.0190101 -0.0557363 0.0866069 0.0051761 0.0121865 -0.0621624 0.00343189 -0.00134157 -0.00652807 -0.0267723 -0.00326279 -0.0689758 -0.0598039 0.00701617 0.0102979 0.0129704
internal_weight=11276.5 1164.46 891.004 10112.1 3018.04 1799.34 1787 1663.63 1619.47 1174.19 1092.48 767.985 499.94 268.046 123.774 144.272 12.339 7094.02 1413.36 17.9107 5680.66 2436.19 1459.76 202.748 1257.01 21.9532 67.164 3244.47 2319.68 2104.81
internal_count=45537 4860 3762 40677 12216 7329 7279 6781 6602 4792 4457 3196 2061 1135 520 615 50 28461 5660 72 22801 9790 5866 815 5051 89 270 13011 9302 8441
is_linear=0
shrinkage=0.1


Tree=8
num_leaves=31
num_cat=0
split_feature=14 8 8 6 21 6 13 8 7 14 9 9 13 18 6 12 4 23 8 8 9 24 7 12 10 13 7 21 10 23
split_gain=47.9075 36.1283 15.7214 11.728 11.5644 9.85722 10.8547 9.09616 13.1494 11.7424 9.59589 8.60357 8.43217 8.4468 8.89723 8.33213 7.84615 7.68065 10.7291 9.81623 11.7862 13.1379 11.9423 11.7666 10.9589 10.6699 10.9571 9.74506 9.39503 9.27928
threshold=18.788610458374027 1.8824928815774913e-07 1.0000000180025095e-35 339.50000000000006 -0.36672866344451899 3225.5000000000005 0.1351382061839104 2.2008380256011154e-05 53.085000991821296 49.515775680541999 1.2132883966842202e-05 -0.0011751685524359343 0.71721449494361889 45.907840728759773 729.50000000000011 0.0013824456837028267 13.11852025985718 -0.53176689147949208 5.9549818615778356e-05 0.00012682061787927526 -0.00051687174709513773 -0.7865660786628722 12.434999942779543 0.0017852520686574282 0.0013109750580042603 0.1156570613384247 22.154999732971195 26.129609107971195 -0.0017873877077363429 -0.70556074380874623
decision_type=2 2 2 2 2 2 2 2 2 2 2 2 2 2 2 2 2 2 2 2 2 2 2 2 2 2 2 2 2 2
left_child=1 2 11 15 -5 7 16 9 17 -2 -10 -1 13 14 -11 -4 -7 28 -19 20 21 -20 23 24 -22 26 -21 -24 -9 -30
right_child=5 -3 3 4 -6 6 -8 8 10 12 -12 -13 -14 -15 -16 -17 -18 18 19 25 22 -23 27 -25 -26 -27 -28 -29 29 -31
leaf_value=0.1145958459182896 -0.0046873440661225688 0.0066403616698622429 -0.054337079222547817 -0.040650887550088374 0.13431769879401603 0.14022628822955879 0.009234213848202194 0.050009821419151813 -0.02245697465902333 0.096284692541081796 0.0016490352463562044 -0.017047760588200522 -0.042692048707619112 0.0015154828629815535 0.017071165960254688 0.05072576239441684 0.031605052572455182 0.033863550933388435 0.090821451464201258 0.089846675715017282 0.02082912509966927 0.0019952840322669859 -0.028724610210629081 -0.033257393335323009 0.13071512247768055 0.011660949383336915 0.023563663122499582 0.087359870693116945 0.0042429291430342003 -0.024192808577649685
leaf_weight=4.9814620763063422 2931.6871724873781 694.66473381221294 209.24079665541649 8.161346957087515 7.0324605405330649 10.478621467947962 1636.8859800249338 36.902733996510506 232.41168874502182 14.676099449396132 570.44916521012783 1461.5939183831215 32.446884274482727 613.09538088738918 418.91133494675159 7.8309556841850272 18.201160699129105 218.19554167985916 25.970611333847046 35.720746204257011 80.404143989086151 46.401686638593674 210.65393261611462 37.681140661239624 10.230533763766287 915.15066014230251 82.631390631198883 7.4887106120586386 541.41211983561516 145.6256115436554
leaf_count=20 11822 2783 942 35 30 42 6558 148 932 59 2288 6058 130 2457 1679 32 73 874 104 143 322 186 844 151 41 3667 331 30 2172 584
internal_value=-1.73037e-05 -0.0125726 -0.0204289 -0.0446019 0.0403334 0.00336925 0.0103028 0.00176713 0.00574582 -0.00140458 -0.00532916 -0.0166006 0.00751374 0.00907011 0.0197524 -0.0505469 0.0712916 0.00945924 0.0131876 0.0100813 -0.00283315 0.0338703 -0.0105002 0.0137072 0.0332327 0.0153149 0.043569 -0.0247395 0.000855844 -0.00178436
internal_weight=11267.2 2393.51 1698.84 232.266 15.1938 8873.71 1665.57 7208.15 3197.33 4010.82 802.861 1466.58 1079.13 1046.68 433.587 217.072 28.6798 2394.47 1670.53 1452.33 418.831 72.3723 346.458 128.316 90.6347 1033.5 118.352 218.143 723.94 687.038
internal_count=45537 9900 7117 1039 65 35637 6673 28964 12817 16147 3220 6078 4325 4195 1738 974 115 9597 6693 5819 1678 290 1388 514 363 4141 474 874 2904 2756
is_linear=0
shrinkage=0.1


Tree=9
num_leaves=31
num_cat=0
split_feature=14 8 8 14 8 4 20 12 7 22 9 13 23 11 11 6 3 12 26 4 19 24 13 22 21 14 10 16 11 8
split_gain=40.3994 21.0975 16.0242 12.4658 14.4227 11.3554 11.4205 9.54231 9.16773 8.50289 8.42255 12.8688 8.4165 8.27597 8.7627 8.103 7.92121 8.52932 7.8991 7.87077 7.78751 7.62289 7.81319 7.5069 7.90967 10.1564 11.2901 10.2976 9.4457 7.37998
threshold=12.251229763031008 9.5462620919306587e-08 9.2240444615754327e-08 27.274853706359867 -2.2453339624917131e-05 8.9479050636291522 -43.465230941772454 0.0018872158834710719 22.414999961853031 0.9556623399257661 4.3424346586107283e-05 0.038476657122373588 0.99638012051582348 -0.0028155858162790533 -0.0024658469483256336 546.50000000000011 107320.05468750001 0.0012757121585309508 2.5000000000000004 4.5186150074005136 3.4198406934738164 0.12940952181816109 0.1362760812044144 0.99771150946617138 -3.7881441116333003 11.94774913787842 -0.00020352167484816161 108132.46484375001 -4.620559957402292e-05 -9.6177736850222559e-05
decision_type=2 2 2 2 2 2 2 2 2 2 2 2 2 2 2 2 2 2 2 2 2 2 2 2 2 2 2 2 2 2
left_child=1 2 10 4 5 6 8 13 15 -9 23 -12 -8 -6 -15 -2 -7 -18 -19 20 21 -13 -23 24 25 26 28 -28 -1 -21
right_child=3 -3 -4 -5 7 16 12 9 -10 -11 11 19 -14 14 -16 -17 17 18 -20 29 -22 22 -24 -25 -26 -27 27 -29 -30 -31
leaf_value=-0.008087985402230229 0.096210713453335914 0.0064952108003346444 -0.05968866244158362 0.0042932345729504951 0.1317148353944739 0.038836038035848564 -0.020116893238034478 -0.10433417037903947 0.11593501160043669 0.02431390443845162 0.07185782247485939 0.047491316132122513 0.034326491546574599 -0.077362949752399268 0.0030638645975186677 -0.043367494693909284 -0.025524311270256853 -0.013555662409298362 0.079569356890998449 -0.036662755658562834 -0.035165732375298658 -0.0035210685808960288 -0.13248111095717838 0.041184124210771972 -0.035964667576904918 0.10389963479034577 -0.0096739754378045578 0.11937896319634995 -0.073375683860774574 0.097928909079169346
leaf_weight=67.094452068209648 6.1494341194629731 273.43849566578865 117.46810735762119 7094.9430921077728 4.967653587460517 65.301344931125641 908.2060135602951 15.512335836887361 11.179579958319662 7.6817459762096396 20.518707364797592 28.687136501073837 29.311374187469482 13.647806718945501 1830.0407551229 12.85116823017597 70.962033271789551 17.840232521295547 18.609871327877045 6.2064674645662334 105.52829891443253 43.189942985773087 5.2714641392230979 15.793504029512404 390.68273983895779 7.6785587817430487 14.56803508102894 10.742260739207266 33.088685393333435 11.857036381959913
leaf_count=284 25 1098 566 28461 20 263 3720 63 45 31 84 119 119 55 7388 52 288 72 75 26 441 180 22 65 1648 32 61 45 140 49
internal_value=-1.72346e-05 -0.0177616 -0.0253128 0.00200491 -0.0033849 -0.0122499 -0.0164656 0.00201607 0.0440827 -0.0617267 -0.0200059 -0.00357501 -0.0184147 0.00281582 0.00246851 0.00180618 0.0113699 -0.00532824 0.03399 -0.0112854 -0.017512 0.00663584 -0.0175489 -0.0267427 -0.0287906 -0.00774409 -0.0145752 0.045099 -0.0296513 0.0516843
internal_weight=11259 1151.81 878.375 10107.2 3012.26 1140.41 967.698 1871.85 30.1802 23.1941 760.907 221.259 937.517 1848.66 1843.69 19.0006 172.713 107.412 36.4501 200.74 182.677 77.1485 48.4614 539.648 523.855 133.172 125.493 25.3103 100.183 18.0635
internal_count=45537 4860 3762 40677 12216 4659 3961 7557 122 94 3196 921 3839 7463 7443 77 698 435 147 837 762 321 202 2275 2210 562 530 106 424 75
is_linear=0
shrinkage=0.1


Tree=10
num_leaves=31
num_cat=0
split_feature=14 8 8 4 8 11 14 15 9 8 13 5 21 21 7 10 23 23 4 6 22 13 1 3 4 23 8 19 13 8
split_gain=32.9674 17.3011 13.6534 10.9311 20.2699 14.8951 13.0971 11.4557 11.211 10.2065 10.0705 9.71273 8.78662 10.3414 9.65824 9.50227 9.33272 10.4679 9.08469 8.68735 8.51219 9.7508 8.96654 8.92215 10.9148 9.75802 8.52103 8.43871 8.17642 14.4753
threshold=12.251229763031008 9.5462620919306587e-08 9.2240444615754327e-08 4.8713500499725351 9.5462620919306587e-08 -0.0020257553551346059 70.972103118896499 108222.85156250001 -0.001207279914524406 -0.00024704345560166979 0.30161556601524359 499341.34375000006 7.6211254596710214 9.6343564987182635 29.195000648498539 -0.00024761415261309588 0.58954745531082164 0.55738157033920299 0.61639001965522777 909.50000000000011 0.31109040975570684 0.060930641368031509 104666.91015625001 107875.10156250001 3.8167949914932255 0.10669767111539842 9.3245873244995905e-08 37.548700332641609 0.1156570613384247 0.00022398045257432389
decision_type=2 2 2 2 2 2 2 2 2 2 2 2 2 2 2 2 2 2 2 2 2 2 2 2 2 2 2 2 2 2
left_child=1 2 -1 4 5 -2 11 8 27 -5 -8 12 16 15 19 -14 17 18 -6 -15 21 -10 -22 -24 25 -25 -23 -7 29 -20
right_child=3 -3 -4 9 6 7 10 -9 20 -11 -12 -13 13 14 -16 -17 -18 -19 28 -21 22 26 23 24 -26 -27 -28 -29 -30 -31
leaf_value=-0.018115641572030321 0.018241128535622254 0.0058446331110108126 -0.055158204735120675 0.011473762945667612 -0.077338212946803556 0.055629670971247713 -0.10758644385711534 -0.020532597194752526 0.069513933799860192 0.0020589659426525136 -0.014132672755844553 -0.027548446913422533 -0.13998908707698574 0.0034602699192783633 0.025231097093904351 -0.022866060275625488 0.024448234032344335 -0.071000951680661367 0.01203891809187378 -0.04502131231583259 0.029478204833919698 -0.013267937037018241 -0.0076472899384282525 0.056584000373354343 0.17138102577935174 -0.024615611085536313 -0.076682833930143482 -0.078585332213075301 0.0035019203380499755 0.072978300967100049
leaf_weight=757.05146251618862 201.19840270280838 273.48543055355549 114.5612086802721 1592.5792703032494 12.188600733876227 44.347381621599197 16.471071362495422 725.18505139648914 13.904905915260313 4157.3197037577629 38.44343064725399 76.105997487902641 7.4868997782468787 136.70176003873348 137.77100022137165 92.619584888219833 462.02382159233093 16.968206390738487 168.66638678312302 50.656048133969307 97.970666259527206 812.54983577132225 513.751573741436 32.551245748996735 5.1511829346418372 27.138517484068871 21.75629934668541 5.2379173487424842 588.51878294348717 50.6944659948349
leaf_count=3196 810 1098 566 6382 49 178 66 2964 57 16695 154 305 30 548 552 371 1851 68 676 203 398 3292 2089 134 21 112 89 21 2359 203
internal_value=-1.80943e-05 -0.0160991 -0.0229844 0.00180403 -0.00197454 -0.00785014 0.00594508 -0.010133 -0.00534271 0.00466663 -0.0421632 0.00741244 0.00895553 -0.00352133 0.00513193 -0.0316256 0.0130397 0.00674248 0.00835108 -0.00964773 -0.00686446 -0.0135374 0.00150149 -0.00323569 0.0317186 0.0196658 -0.0149216 0.0414519 0.00964389 0.0261221
internal_weight=11251.1 1145.1 871.613 10106 4356.06 2500.74 1855.32 2299.54 1574.36 5749.9 54.9145 1800.4 1724.3 425.235 325.129 100.106 1299.06 837.036 820.068 187.358 1524.77 848.211 676.563 578.593 64.8409 59.6898 834.306 49.5853 807.88 219.361
internal_count=45537 4860 3762 40677 17600 10165 7435 9355 6391 23077 220 7215 6910 1704 1303 401 5206 3355 3287 751 6192 3438 2754 2356 267 246 3381 199 3238 879
is_linear=0
shrinkage=0.1


Tree=11
num_leaves=31
num_cat=0
split_feature=12 8 8 6 7 5 23 21 12 5 1 4 8 23 11 11 11 11 23 5 6 6 14 23 23 10 19 11 8 5
split_gain=28.2133 25.1112 11.3553 10.8869 10.8867 10.367 10.8679 10.2378 9.94146 11.3636 8.71506 8.3931 10.184 10.3845 12.0813 11.0344 10.4986 9.54953 12.6244 9.54845 8.61891 8.47345 8.40103 8.34041 12.8341 8.17548 8.00826 12.5121 8.33796 9.35264
threshold=0.001070303551387042 1.8824928815774913e-07 1.0000000180025095e-35 161.50000000000003 32.375000000000007 146350.84375000003 0.99946221709251415 -7.8128147125244132 0.00095132880960591148 33614.917968750007 108937.09375000001 4.8713500499725351 -2.5973930860345714e-05 -0.53176689147949208 -0.00087322003673762072 -0.0012398203834891317 0.004117614822462202 -0.0023493636399507518 -0.29445663094520563 467624.10937500006 167.50000000000003 250.50000000000003 51.104774475097663 0.19722913205623629 0.94762688875198375 -0.0017873877077363429 -33.880163192749016 -0.0018746707355603574 0.00020002415112685415 1992542.7500000002
decision_type=2 2 2 2 2 2 2 2 2 2 2 2 2 2 2 2 2 2 2 2 2 2 2 2 2 2 2 2 2 2
left_child=1 2 3 8 -5 7 26 -3 -1 -10 23 12 17 14 15 -14 21 18 -2 -20 -17 -15 -22 -9 -25 -21 27 -7 -28 -30
right_child=11 5 -4 4 -6 6 -8 10 9 -11 -12 -13 13 16 -16 20 -18 -19 19 25 22 -23 -24 24 -26 -27 28 -29 29 -31
leaf_value=-0.005242461469835695 0.080975993360081613 -0.10188522206884452 -0.041284030067634862 -0.024206991087070875 0.010691139188849732 -0.022089752070279689 -0.1308872814704965 0.078772677288614798 -0.063939989522584006 0.076801011135713734 -0.084167174921494253 0.0048181405732853908 -0.012447037656657863 -0.0072782114051681366 -6.1202988480360025e-05 0.054938409171697615 -0.061302498091353658 -0.0099445820291815881 0.016374209943957465 0.0069130230613712977 -0.094944481644675088 0.011380583321727745 0.038933299845981297 -0.0076525109909892849 0.11064092780500419 -0.16047305821393421 -0.010077831410820795 0.11286954545954078 0.013141791580287035 0.13176406266357352
leaf_weight=298.30023090541363 26.670713350176811 5.2441553622484198 182.53256836533546 798.03057707846165 100.66652637720108 12.200275331735613 6.2432149499654761 46.451018169522285 7.1020122319459906 29.84566955268383 5.2480467706918708 5486.645896717906 98.559381678700447 298.08599057793617 453.31209281086922 5.14731541275978 22.185452401638031 1378.0918737649918 61.572073012590408 5.4866560697555542 44.840422660112381 1326.2857752591372 5.2343744337558737 38.968764066696167 11.994626775383948 6.2325279116630536 324.37153233587742 15.721897557377813 134.86919581890106 6.9911747574806204
leaf_count=1239 107 21 868 3360 413 49 25 186 29 122 21 22008 397 1216 1828 21 89 5586 247 22 181 5322 21 156 48 25 1299 63 540 28
internal_value=-1.80604e-05 -0.0107067 -0.0180046 -0.014561 -0.0202979 0.00628708 0.000224845 0.0343996 0.000818044 0.049748 0.0413612 0.00232966 -0.00132911 0.00290154 -0.00827762 -0.0324977 0.00702335 -0.00777975 0.022065 0.000627232 -0.0682838 0.00795654 -0.0809501 0.0481239 0.0201888 -0.0821067 0.00188133 0.0539006 -0.00123405 0.0189877
internal_weight=11243.1 2024.78 1416.48 1233.95 898.697 608.304 500.397 107.907 335.248 36.9477 102.662 9218.35 3731.7 2253.65 607.094 153.781 1646.56 1478.05 99.962 73.2913 55.2221 1624.37 50.0748 97.4144 50.9634 11.7192 494.154 27.9222 466.232 141.86
internal_count=45537 8467 6031 5163 3773 2436 2004 432 1390 151 411 37070 15062 9075 2448 620 6627 5987 401 294 223 6538 202 390 204 47 1979 112 1867 568
is_linear=0
shrinkage=0.1


Tree=12
num_leaves=31
num_cat=0
split_feature=14 8 8 7 20 11 8 8 6 14 12 11 0 21 0 13 19 18 6 4 0 19 7 20 7 12 19 6 7 8
split_gain=23.1149 17.6157 14.4522 12.3934 8.65314 9.00816 8.64209 12.543 11.2543 8.98544 15.065 12.0624 10.0365 8.9085 9.02857 8.17196 8.19327 10.3038 12.7067 10.3913 8.88707 8.10608 8.02137 9.78221 14.8522 7.91345 9.13476 7.64799 7.63539 13.1651
threshold=23.548541069030765 9.5462620919306587e-08 1.0000000180025095e-35 0.014999999664723875 -44.458833694458001 -0.0014057540684007106 -2.2453339624917131e-05 -4.864101538260001e-05 671.50000000000011 20.5927267074585 0.0016715563833713534 0.00033725323737598961 107901.49218750001 -1.3430171012878416 105919.16406250001 0.32850217819213873 35.263608932495124 59.703771591186531 2373.5000000000005 5.6250450611114511 107950.57812500001 41.385570526123054 12.175000190734865 0.32621614634990698 18.195000648498539 0.0010452221031300726 -45.68968200683593 250.50000000000003 32.375000000000007 0.0002047933958237991
decision_type=2 2 2 2 2 2 2 2 2 2 2 2 2 2 2 2 2 2 2 2 2 2 2 2 2 2 2 2 2 2
left_child=1 2 6 -4 -3 -6 7 21 9 10 -8 13 -13 -11 -15 16 17 18 20 -19 28 25 -10 -24 -25 -1 -27 -9 29 -7
right_child=-2 4 3 -5 5 15 8 27 22 11 -12 12 -14 14 -16 -17 -18 19 -20 -21 -22 -23 23 24 -26 26 -28 -29 -30 -31
leaf_value=-0.019782268772703442 0.0029608175499845416 -0.061058266953988409 -0.041039202286951355 0.063319097184308989 0.040116912365572611 -0.019115717850072256 -0.0061706098358937124 -0.12983768114049116 0.11663478248193451 -0.044997575587719163 -0.1314081160428168 0.11476990223330107 -0.0011974556600559249 0.15967840184455898 0.0088299527386228333 0.10797369819345122 -0.034068903350001643 0.026577148513745458 0.15082610174138245 -0.011356373820065626 0.0074444227819982561 -0.069484191060146527 -0.062487221741794143 -0.037426012000671555 0.20599540121291304 0.07894127223051195 -0.0034942330530647945 -0.038508724021002999 -0.054622369098095792 0.042504919840576749
leaf_weight=439.48398175835609 7850.043391764164 20.647308155894279 221.24464245140553 11.996931597590445 66.007277891039848 252.2568171620369 831.01737800240517 10.00780566036701 12.93901899456978 25.769031912088394 9.7173532396554929 21.266261637210846 11.497902885079382 4.956440061330798 19.88927660882473 7.2342899292707434 61.594377294182777 275.91025586426258 5.233849123120307 97.815923273563385 282.60567137598991 23.668013259768486 8.8129555732011813 5.112478628754614 4.917435884475708 13.861426487565039 444.40267907083035 109.42042617499828 45.643929526209831 40.196192905306816
leaf_count=1861 31504 83 1039 51 265 1014 3453 43 53 105 40 86 47 20 81 29 247 1106 21 392 1133 98 36 21 20 56 1826 463 183 161
internal_value=-1.77484e-05 -0.00692498 -0.0121169 -0.0356715 0.00309794 0.00426555 -0.0093655 -0.0156701 -0.00250056 -0.00451281 -0.00761813 0.026799 0.0740736 -0.00380297 0.0389225 0.0020508 0.00132875 0.00350978 -0.00433507 0.0166487 -0.00564341 -0.011718 0.056009 0.0143785 0.0819179 -0.0101951 -0.00100075 -0.0461619 -0.0165832 -0.0106463
internal_weight=11235.2 3385.13 2229.98 233.242 1155.15 1134.5 1996.74 1040.84 955.896 924.114 840.735 83.3789 32.7642 50.6147 24.8457 1068.49 1061.26 999.663 625.936 373.726 620.703 921.416 31.7819 18.8429 10.0299 897.748 458.264 119.428 338.097 292.453
internal_count=45537 14033 9399 1090 4634 4551 8309 4347 3962 3832 3493 339 133 206 101 4286 4257 4010 2512 1498 2491 3841 130 77 41 3743 1882 506 1358 1175
is_linear=0
shrinkage=0.1


Tree=13
num_leaves=31
num_cat=0
split_feature=14 9 8 8 16 19 19 9 5 11 4 22 17 0 12 9 2 16 8 19 14 23 18 14 9 4 12 22 21 9
split_gain=19.3081 10.5483 8.29954 12.1106 13.7975 9.98699 14.265 10.4278 8.99159 8.96708 12.2256 10.3 9.8343 9.20854 8.59306 10.6217 8.12587 10.3944 7.97318 7.73025 7.58253 7.38065 7.52291 8.29789 9.98534 9.83497 9.11446 7.98264 7.52271 8.9214
threshold=12.251229763031008 9.5619668627477963e-08 -0.00032821256900206203 -2.2453339624917131e-05 107267.91015625001 27.714339256286625 29.224102973937992 0.00020896824571536857 1586738.4375000002 -0.0020257553551346059 3.2123950719833378 0.95943480730056774 108766.04687500001 107355.62890625001 0.0012978961458429696 9.5619668627477963e-08 117872.87109375001 118019.07812500001 3.3888574762386277e-05 -52.859254837036126 2.3965766429901127 -0.54280677437782276 85.056079864501967 68.006072998046889 0.0026813047006726269 50.028650283813484 0.0025511126732453708 0.23556562513113025 11.618600368499758 0.00077613175380975019
decision_type=2 2 2 2 2 2 2 2 2 2 2 2 2 2 2 2 2 2 2 2 2 2 2 2 2 2 2 2 2 2
left_child=1 18 16 4 5 8 7 -7 -4 10 12 13 -6 -12 15 -8 -2 -18 -1 -11 -3 28 23 24 25 -23 -25 -28 29 -5
right_child=2 20 3 21 9 6 14 -9 -10 19 11 -13 -14 -15 -16 -17 17 -19 -20 -21 -22 22 -24 26 -26 -27 27 -29 -30 -31
leaf_value=-0.024525714288738624 0.0087546733306964591 0.056227828646131066 -0.005749569976097847 -0.0019750201564935014 0.12267888500696059 0.181524801797875 -0.0084479202714063985 0.01468727681568573 0.024086503207618015 -0.08578494047150842 -0.12178924124935304 -0.1059809895757685 -0.0038334458515060636 0.010388199004448755 0.0083061935633208916 0.14108979321695447 -0.13578983604716025 0.016843386776041774 0.016495530922671919 -0.014020015963066429 -0.0042806840854118606 0.0066296386156541078 0.052732631739537884 -0.092393127673223135 -0.10481967928738717 0.06785929767347168 0.0014489371793111226 -0.028464122042123577 -0.015458466916824253 0.02352306241555352
leaf_weight=571.65419441461563 1574.8144110441208 21.634260043501854 968.93440617620945 1288.7913975417614 15.646516859531404 8.9299006313085538 8.3003066331148165 6.4538889378309241 112.7624220252037 15.189381539821623 5.4923241287469855 8.899972587823866 10.117512434720991 130.67886650562286 278.80116228759289 11.105071306228636 8.8802738636732101 8.9669345915317535 51.66426108777523 1268.0790599435568 484.78714320063591 3197.8875804692507 33.115213885903358 11.97394824028015 7.9868718385696402 26.450062096118927 468.3730351626873 110.20292502641678 357.83460333943367 153.57127474248409
leaf_count=2519 6312 93 3921 5192 63 36 34 26 452 61 22 36 41 525 1121 45 36 36 207 5168 2041 12861 133 48 32 106 1876 442 1436 616
internal_value=-1.78895e-05 -0.0124159 0.00136914 0.000128591 -0.0051878 0.00191599 0.0176289 0.111532 -0.00263928 -0.0120042 0.00951851 -0.00175511 0.0729976 0.00505696 0.0127847 0.0771277 0.00799427 -0.0591027 -0.0211256 -0.0148695 -0.00169577 0.0028068 0.00527499 0.00486389 0.0068553 0.00713192 -0.00603589 -0.00424868 -0.00248 0.000739812
internal_weight=11228 1129.74 10098.2 8505.58 2849.39 1395.29 313.59 15.3838 1081.7 1454.1 170.835 145.071 25.764 136.171 298.207 19.4054 1592.66 17.8472 623.318 1283.27 506.421 5656.19 3855.99 3822.87 3232.32 3224.34 590.55 578.576 1800.2 1442.36
internal_count=45537 4860 40677 34293 11551 5635 1262 62 4373 5916 687 583 104 547 1200 79 6384 72 2726 5229 2134 22742 15498 15365 12999 12967 2366 2318 7244 5808
is_linear=0
shrinkage=0.1


Tree=14
num_leaves=31
num_cat=0
split_feature=13 9 4 4 8 7 9 11 9 13 16 10 14 9 13 4 8 8 5 22 7 5 20 21 20 14 22 7 8 9
split_gain=16.948 10.115 9.18719 8.80602 12.0723 12.3265 11.159 9.41023 8.76338 9.06176 9.96192 9.25908 8.71874 8.53537 8.33566 8.31678 8.10451 9.92718 8.69442 8.07108 7.43248 9.9725 9.08961 8.62671 8.59714 7.65925 7.63211 8.42414 7.33699 7.12033
threshold=0.079573974013328566 8.9694534835871323e-05 7.2452299594879159 4.8713500499725351 9.5462620919306587e-08 6.4349999427795419 0.00029431008442770695 -0.0020257553551346059 -0.0011034896597266195 0.080884106457233443 108168.92968750001 0.00024263870727736506 70.972103118896499 -0.00058715988416224707 0.30161556601524359 1.4030600190162661 -0.00013793437392450866 -0.00015318074292736125 331506.59375000006 -0.99280729889869679 26.285000801086429 499341.34375000006 59.933067321777351 7.784287929534913 26.680179595947269 58.750753402709968 -0.96868926286697377 18.865000724792484 -0.00035304712946526701 0.00010090000068885276
decision_type=2 2 2 2 2 2 2 2 2 2 2 2 2 2 2 2 2 2 2 2 2 2 2 2 2 2 2 2 2 2
left_child=1 -1 29 4 7 6 13 16 -9 10 11 15 20 -6 -14 -10 17 18 28 -18 22 -22 23 24 -7 26 -25 -28 -2 -3
right_child=3 2 -4 -5 5 12 -8 8 9 -11 -12 -13 14 -15 -16 -17 19 -19 -20 -21 21 -23 -24 25 -26 -27 27 -29 -30 -31
leaf_value=-0.019203515886958594 0.12130826767631896 0.073274005509522552 -0.047913724269782437 0.0038085103902310694 0.090513780946278682 -0.0019475515415683143 0.063225361883392908 0.022621075271668564 0.17507472602707713 -0.0099249430340481067 0.18244167734964922 -0.079346512437966532 -0.097737376429349904 0.0035329162538740434 -0.012490240547653748 -0.0091612085237596421 -0.087630310229959887 -0.1267917096597575 -0.019287454288123729 0.043523493097368304 0.013536733486191697 -0.033393545175803306 -0.077604416801012974 0.059003269245794722 0.027584094046183151 -0.13724052791771699 -0.0064372532311989571 -0.052370188495345582 0.01731967751013538 0.0040933225310028215
leaf_weight=689.27058410644531 8.7379410862922651 15.721178635954855 32.916430175304413 5722.5013279020786 12.444030821323393 566.22799061238766 61.256491169333458 89.050872668623924 4.6559581160545367 2325.2855238765478 4.8216370791196814 6.022398740053176 16.355034217238426 120.78358106315136 38.406386494636536 5.1720549911260605 4.9622102826833716 6.2091650813817969 64.023478344082832 86.207545012235641 656.91360779106617 48.631115600466728 16.219827920198441 12.232742115855215 119.35717952251434 5.4855331629514685 112.73640002310276 61.824377954006195 30.356690302491188 277.23185648024082
leaf_count=2966 35 66 133 22972 50 2269 246 358 20 9581 20 26 66 486 154 22 20 25 257 348 2631 195 65 49 478 22 452 248 122 1155
internal_value=-1.72358e-05 -0.01234 0.00217757 0.00120834 -0.00210973 0.00408501 0.0278996 -0.00645549 -0.00817013 -0.00933894 0.0565773 0.0182899 0.00128545 0.0116573 -0.0379501 0.0781194 0.0143685 -0.00399139 0.00340292 0.036385 0.00262863 0.010302 -0.00342659 -0.00205605 0.00319377 -0.0207747 -0.0173544 -0.0227054 0.0405619 0.00780587
internal_weight=11222 1015.14 325.869 10206.9 4484.38 1848.87 194.484 2635.51 2435.01 2345.96 20.672 15.8504 1654.39 133.228 54.7614 9.82801 200.497 109.327 103.118 91.1698 1599.63 705.545 894.084 877.864 685.585 192.279 186.794 174.561 39.0946 292.953
internal_count=45537 4320 1354 41217 18245 7411 782 10834 10027 9669 88 68 6629 536 220 42 807 439 414 368 6409 2826 3583 3518 2747 771 749 700 157 1221
is_linear=0
shrinkage=0.1


Tree=15
num_leaves=31
num_cat=0
split_feature=14 8 8 6 17 17 6 12 4 11 8 19 23 11 11 10 9 8 20 11 23 18 12 18 8 8 6 20 1 22
split_gain=14.1184 10.4267 12.1845 10.5658 7.78186 14.2373 11.9372 11.9391 10.9241 10.2596 8.54244 9.25543 8.49062 8.192 8.02696 10.7246 9.71625 8.06602 7.32906 7.90218 11.4159 7.29102 9.1817 8.21467 7.13549 10.1056 8.6409 7.63719 9.99375 7.96597
threshold=23.548541069030765 9.5462620919306587e-08 1.0000000180025095e-35 339.50000000000006 105665.79296875001 105049.74609375001 828.50000000000011 0.0013748758938163521 0.83263498544693004 0.0012994105927646162 1.047682235366665e-05 -19.244398117065426 0.99560055136680614 0.0005807459237985314 -0.00019027235248358918 -0.00021338169608497989 0.00014260424359235915 0.00019482102652546021 -44.458833694458001 -0.0017283940105699001 0.18437977880239489 55.906879425048835 0.00042166573985014116 57.329387664794929 -2.2453339624917131e-05 -4.864101538260001e-05 671.50000000000011 31.261444091796879 108208.06640625001 0.23556562513113025
decision_type=2 2 2 2 2 2 2 2 2 2 2 2 2 2 2 2 2 2 2 2 2 2 2 2 2 2 2 2 2 2
left_child=1 2 24 21 5 6 7 14 -9 12 11 -6 -7 -13 15 -3 -17 -16 -12 20 -20 22 -4 -23 25 27 -26 -1 29 -29
right_child=-2 4 3 -5 10 9 -8 8 -10 -11 18 13 -14 -15 17 16 -18 -19 19 -21 -22 23 -24 -25 26 -27 -28 28 -30 -31
leaf_value=-0.0067106077357090115 0.0023073665550768672 0.017586679205883124 -0.11176391409255021 0.044636464995303958 0.16624119422885919 -0.047952161964219607 -0.033975561668973822 -0.042112684483427539 0.1230291582085304 -0.15023750531736568 -0.062398149148735454 -0.016140988932248759 0.074868823151371819 0.090809884308242619 0.01290978467543513 -0.13629225554025065 0.0012351669372522576 0.11299983900324284 -0.0057179255531839036 0.0046970556191424373 0.15173467392602996 0.11280441197329057 -0.040010620171030055 -0.020913799340726826 -0.002459601517805866 -0.040307042778550045 0.050512302935034128 -0.080250967269785312 -0.099278291910157385 0.016224404300300036
leaf_weight=854.59880931675434 7848.9505069255829 24.197005033493042 21.03742578625679 16.958654582500458 6.1844408661127082 58.369746580719948 65.488659054040909 5.2203083187341717 17.214721620082855 8.9704174101352674 15.885518223047255 16.081147179007534 6.2291911393403998 12.912318855524061 62.566559433937073 12.507017597556116 8.7179096788167936 9.2406645864248258 9.4608782380819338 806.44196949899197 8.9713378399610502 4.9238544106483451 117.10196220874786 68.618252098560333 919.61345061659813 117.42691498994827 31.861014649271965 12.457427904009817 20.964823350310326 27.346819534897804
leaf_count=3588 31504 98 117 73 25 234 263 21 69 36 64 65 25 52 253 51 35 37 38 3232 36 23 548 329 3832 506 130 52 88 113
internal_value=-1.65254e-05 -0.00543293 -0.00945231 -0.0313121 0.00227024 -0.0122832 0.00125114 0.017769 0.084603 -0.0500246 0.00690112 0.0551798 -0.0361087 0.0314899 0.00497844 -0.0279226 -0.0798044 0.0257901 0.00488111 0.00617678 0.0709175 -0.0373967 -0.050938 -0.011961 -0.00693349 -0.0126893 -0.000685788 -0.00914634 -0.0434001 -0.0139692
internal_weight=11216.5 3367.57 2212.91 228.64 1154.66 278.722 205.153 139.664 22.435 73.5694 875.938 35.1779 64.5989 28.9935 117.229 45.4219 21.2249 71.8072 840.76 824.874 18.4322 211.681 138.139 73.5421 1984.27 1032.79 951.474 915.368 60.7691 39.8042
internal_count=45537 14033 9399 1090 4634 1122 827 564 90 295 3512 142 259 117 474 184 86 290 3370 3306 74 1017 665 352 8309 4347 3962 3841 253 165
is_linear=0
shrinkage=0.1


Tree=16
num_leaves=31
num_cat=0
split_feature=13 8 4 10 18 12 22 8 6 9 7 14 18 10 11 6 1 8 2 6 6 15 10 7 22 23 20 14 21 9
split_gain=12.2262 8.34228 15.1497 8.222 7.95548 7.73184 8.05171 7.19176 7.34525 7.12903 8.32467 10.2991 7.75532 12.8086 11.5777 17.0383 8.90369 7.27741 7.97874 7.02057 6.96092 7.0319 8.68668 7.36399 6.95123 7.80365 9.20628 7.02243 10.4389 6.85753
threshold=0.079573974013328566 8.083849752438256e-05 4.3751451969146737 -0.00015256712504196909 85.056079864501967 0.0011397227062843742 -0.39273749291896815 -0.00047882457147352392 1331.5000000000002 -0.00092506426153704513 91.450000762939467 140.16565704345706 45.084730148315437 -0.0012187524116598067 -0.002246111747808754 2254.5000000000005 104493.99609375001 2.2008380256011154e-05 99219.253906250015 1781.5000000000002 9754.0000000000018 105949.91015625001 0.0014853157917968931 0.034999999217689044 0.94336524605751049 -0.20577672123908994 6.5078361034393319 43.578392028808601 -18.038290023803707 9.5619668627477963e-08
decision_type=2 2 2 2 2 2 2 2 2 2 2 2 2 2 2 2 2 2 2 2 2 2 2 2 2 2 2 2 2 2
left_child=1 29 5 -4 7 -3 -7 8 -2 10 11 12 13 -9 15 16 -15 18 -11 -10 21 -6 23 -23 25 -16 -27 -28 -29 -1
right_child=4 2 3 -5 20 6 -8 9 19 17 -12 -13 -14 14 24 -17 -18 -19 -20 -21 -22 22 -24 -25 -26 26 27 28 -30 -31
leaf_value=-0.021894342175871471 0.061771174223768259 0.04099540389873136 0.072955391089351604 -0.046688628374817132 0.079960001264883632 -0.12045719193801588 0.013191011483990003 0.017941246280241147 -0.016229688683631574 0.087762946151647384 -0.015694439040661558 0.14078445352370819 0.031962363146941557 -0.0051047379813535017 -0.0065088731926083278 -0.044238330231920295 0.1493092570525468 0.0020963743032051622 -0.0040159273457827833 0.010705054497332223 0.12462329325215182 -0.024130485850803171 -0.048094380016153293 0.089580146963315899 0.047491801538532302 -0.080457570683227592 -0.050847315356830819 -0.034280580981692073 0.13140927702249214 -0.0031917003099591057
leaf_weight=512.57685723900795 25.681132361292839 99.357041716575623 6.4713281542062751 51.086883053183556 16.132432743906975 6.2446014136076 16.207252219319344 348.11787801980972 109.54367934167385 9.4931356161832792 118.86693519353867 6.2425245642662039 149.59633639454842 5.2430662214756074 76.622818112373352 13.226899042725561 12.975633278489111 4048.3348314911127 4285.2109623998404 829.96778680384159 7.7475364357233039 9.6562014818191546 18.898956045508385 13.883999824523924 12.656427130103109 46.209989488124847 21.070879176259041 8.7305489629507047 6.7363596558570853 317.47356338799
leaf_count=2250 103 398 26 205 65 25 65 1397 439 38 476 25 600 21 308 53 52 16224 17504 3322 31 43 76 56 51 186 85 35 27 1351
internal_value=-1.67511e-05 -0.0105151 0.00904127 -0.0332369 0.0010221 0.0290189 -0.023981 0.000796195 0.00900685 -6.80838e-05 0.00879205 0.0129064 0.011768 0.00629106 -0.013641 0.0421516 0.104871 -0.000945594 -0.00381306 0.00756456 0.0355442 0.0237613 0.00239845 0.042936 -0.0238396 -0.0295044 -0.0507979 -0.0132867 0.0378829 -0.014741
internal_weight=11210.3 1009.42 179.367 57.5582 10200.8 121.809 22.4519 10134.5 965.193 9169.34 826.296 707.429 701.187 551.59 203.473 31.4456 18.2187 8343.04 4294.7 939.511 66.3191 58.5716 42.4392 23.5402 172.027 159.371 82.7478 36.5378 15.4669 830.05
internal_count=45537 4320 719 231 41217 488 90 40946 3864 37082 3316 2840 2815 2215 818 126 73 33766 17542 3761 271 240 175 99 692 641 333 147 62 3601
is_linear=0
shrinkage=0.1


Tree=17
num_leaves=31
num_cat=0
split_feature=14 8 12 20 15 9 25 12 9 22 22 13 23 14 9 14 18 10 23 7 7 5 11 20 23 6 4 0 15 22
split_gain=10.2904 7.87773 7.43622 9.74361 6.35295 9.33853 7.91678 9.27075 7.79788 7.09921 9.14997 7.32553 7.03689 6.27801 6.20613 5.91497 5.88726 8.2889 9.40501 8.78862 12.7144 8.35307 8.64567 9.57492 8.15982 8.96264 7.2868 6.80203 10.5051 8.78238
threshold=12.512404918670656 4.4195339796715423e-05 0.00073427113238722097 19.279498100280765 108188.14843750001 0.00039156063576228922 0.98296290636062633 0.00080897004227153968 -0.00028119652415625746 0.96976330876350414 0.94762688875198375 0.038476657122373588 0.57892408967018139 12.251229763031008 -0.00023187782062450421 10.970208168029787 33.07867622375489 -0.0068146390840411178 -0.35632950067520136 59.145000457763679 60.774999618530281 3186272.6250000005 -0.0035037393681704994 -49.805942535400384 -0.45204447209835047 1781.5000000000002 26.550294876098636 118036.18750000001 111374.47656250001 0.53545707464218151
decision_type=2 2 2 2 2 2 2 2 2 2 2 2 2 2 2 2 2 2 2 2 2 2 2 2 2 2 2 2 2 2
left_child=1 4 3 -2 9 6 7 8 15 10 -1 -12 13 -9 -10 -6 17 18 -4 -19 -21 24 23 -23 26 -26 -22 28 -18 -30
right_child=2 -3 16 -5 5 -7 -8 12 14 -11 11 -13 -14 -15 -16 -17 27 19 -20 20 21 22 -24 -25 25 -27 -28 -29 29 -31
leaf_value=-0.017540590151298604 -0.077079703730096427 0.0080997353372413948 -0.088534733417735115 0.052448588019467363 0.11968352339013011 0.10835893488458564 0.090817053261052369 -0.0068669845799752176 -0.11049063117881278 0.0072262567525839764 -0.0012372246121392021 -0.092067474629207724 -0.11211350723299328 -0.12441140345632057 0.0061853214702231075 -0.0052176275908272784 -0.00010039210176694918 0.0042360746503604958 0.010244390075804322 0.14326939654160631 0.045382466552625511 0.041093707403330834 0.08573225329847943 -0.060477804719757014 -0.12314423574603926 -0.0030361403396510743 -0.075150954418954488 -0.039763869139123324 0.0081167704314547579 0.043375067753081212
leaf_weight=621.09164464473724 24.842790275812149 219.95615975558758 18.20649217069149 7.5793506056070319 10.535111397504808 8.2527108043432218 8.9277978092432004 36.556772530078888 4.8402055203914633 106.18657740950584 12.577979892492293 30.195440828800201 10.777400016784666 5.1887161880731574 78.435813322663307 5.9234058707952491 8722.1734008193016 576.46091201901436 20.483191162347794 8.9889290332794172 57.645438030362129 53.219080418348312 33.951231375336647 11.241303130984305 6.7265782058238974 81.349796637892723 5.4935676008462897 41.933109357953072 280.6964074075222 94.406851962208748
leaf_count=2758 103 882 73 31 47 35 39 159 22 470 57 132 47 22 344 26 35160 2337 82 36 231 213 136 45 27 326 22 171 1125 379
internal_value=-1.55436e-05 -0.0089357 0.00101403 -0.0467998 -0.0129241 0.0046065 -0.000705645 -0.00607219 0.0118347 -0.0167814 -0.0206215 -0.0653579 -0.0400751 -0.0214771 -0.00059617 0.0747317 0.00116885 0.00901093 -0.0362388 0.0111074 0.0264237 0.0222162 0.0448914 0.0233806 0.00745901 -0.012209 0.0348952 0.000419094 0.000604314 0.0169907
internal_weight=11204.8 1159.45 10045.4 32.4221 939.49 169.438 161.185 152.257 99.7345 770.052 663.865 42.7734 52.5229 41.7455 83.276 16.4585 10013 873.767 38.6897 835.077 258.616 249.627 98.4116 64.4604 151.215 88.0764 63.139 9139.21 9097.28 375.103
internal_count=45537 5040 40497 134 4158 741 706 667 439 3417 2947 189 228 181 366 73 40363 3528 155 3373 1036 1000 394 258 606 353 253 36835 36664 1504
is_linear=0
shrinkage=0.1


Tree=18
num_leaves=31
num_cat=0
split_feature=12 6 26 10 9 10 9 22 3 10 22 14 6 13 23 10 19 19 19 22 10 10 23 19 19 4 21 22 11 8
split_gain=8.68985 10.4636 9.68773 11.6619 8.84142 7.52861 7.34374 9.10854 12.4331 9.76733 8.83295 8.08905 7.76168 9.3113 7.55731 7.37034 11.7304 7.12385 9.8286 6.40152 7.41018 15.1199 7.36981 8.97495 14.5389 10.1694 8.67503 6.7349 6.66268 6.19108
threshold=0.001070303551387042 2975.5000000000005 2.5000000000000004 -0.0017873877077363429 -3.1508094252785661e-05 0.0013109750580042603 -0.00024499988649040455 0.68039956688880932 104467.45312500001 1.0000000180025095e-35 0.94762688875198375 17.348852157592777 749.50000000000011 0.18195213377475741 0.79467767477035534 -0.00022531251306645569 0.7399289906024934 -3.3612707853317256 10.880019187927248 -0.19294966012239453 -3.0992334359325462e-05 9.6720032161101712e-05 1.0000000180025095e-35 17.259539604187015 22.247069358825687 2.1543600559234624 -1.0591884851455686 0.97581917047500621 0.00078107768786139797 0.00012682061787927526
decision_type=2 2 2 2 2 2 2 2 2 2 2 2 2 2 2 2 2 2 2 2 2 2 2 2 2 2 2 2 2 2
left_child=1 2 19 -4 6 -6 7 9 10 15 -9 -8 13 -10 -11 16 -5 -13 -19 -1 -21 29 23 25 -25 27 -26 -23 -28 -22
right_child=-2 -3 3 4 5 -7 11 8 12 14 -12 17 -14 -15 -16 -17 -18 18 -20 20 21 22 -24 24 26 -27 28 -29 -30 -31
leaf_value=0.03559304873392681 0.0012796901015209657 0.10890537492373156 0.17922127752210701 0.017340141568177765 -0.0029701372469583287 -0.077278876795573798 -0.024738777599044519 0.12692556966810284 -0.031528616557151765 -0.015560800478232609 -0.027528512594447382 -0.11661703424734521 -0.077129674792399461 0.10700500924713384 -0.13776622549625947 0.066049568903257069 -0.089390179145608276 0.039607751364557423 -0.13429904132763801 -0.012049741802289519 0.054295110736259145 -0.11518228294983901 -0.01936529630634581 0.13585486888173212 0.093912945162701933 0.018245840298678508 -0.11281793997423047 0.024140460159443416 0.012435712786729249 0.16556978961814633
leaf_weight=61.088486611843109 9209.7227112799883 7.8928243219852439 3.227059766650199 102.72273004055023 805.35209146142006 13.869167163968084 316.59125120937824 8.1075455099344236 61.271572142839432 17.592291519045833 6.8148396015167227 19.018360003829002 38.163492426276207 5.2689917385578147 7.1038316488265982 25.557471573352814 11.444916337728499 9.0479740053415281 5.0713049620389929 222.06878323853016 30.599947199225426 12.191686645150186 87.291501462459564 13.511327952146528 12.169453531503676 35.974109560251236 4.8079747110605231 4.8499063849449149 36.38991342484951 5.9766204953193656
leaf_count=254 37070 32 13 436 3425 57 1397 34 265 75 30 78 160 22 30 111 50 37 21 931 129 51 361 56 51 147 20 20 150 24
internal_value=-1.53967e-05 -0.00600594 -0.00646328 -0.0106676 -0.0110893 -0.00422816 -0.019958 -0.00801372 -0.0290077 0.00726065 0.0563886 -0.0296591 -0.0411783 -0.0205589 -0.0507132 0.0175074 0.00664079 -0.0766671 -0.0228554 0.00515591 0.00116443 0.0132026 0.00273823 0.0188311 0.043191 -0.0118985 0.0197308 -0.0755321 -0.00218194 0.0724774
internal_weight=11200.8 1991.04 1983.14 1456.22 1453 819.221 633.777 284.048 119.626 164.421 14.9224 349.729 104.704 66.5406 24.6961 139.725 114.168 33.1376 14.1193 526.92 465.831 243.762 207.186 119.894 66.8787 53.0157 53.3673 17.0416 41.1979 36.5766
internal_count=45537 8467 8435 6241 6228 3482 2746 1213 511 702 64 1533 447 287 105 597 486 136 58 2194 1940 1009 856 495 277 218 221 71 170 153
is_linear=0
shrinkage=0.1


Tree=19
num_leaves=31
num_cat=0
split_feature=13 18 4 12 6 22 18 20 14 22 7 25 11 6 18 6 10 13 8 8 10 22 20 3 16 21 6 6 6 13
split_gain=7.77862 6.69391 7.89168 7.92475 7.91932 7.13335 7.78325 6.73814 10.7831 10.5868 10.6595 8.0276 7.43536 7.13583 6.55421 6.44118 6.20518 6.67687 5.71419 5.7137 5.70664 12.7816 8.44319 8.20455 8.51 11.4096 8.35501 6.79383 9.15644 7.98029
threshold=0.079573974013328566 39.101928710937507 0.76026499271392833 0.00027483711892273282 259.50000000000006 -0.11103504523634909 39.26182937622071 -2.9252566099166866 17.121404647827152 -0.69622442126274098 2.3649998903274541 -0.91597560048103321 -1.0000000180025095e-35 643.50000000000011 85.056079864501967 909.50000000000011 -0.00033947042538784439 0.060930641368031509 -0.00018895057291956616 -8.0845489719649763e-05 0.0048423267435282477 0.15858851373195651 -13.725957870483397 104720.00390625001 109841.66015625001 12.843660831451418 4478.5000000000009 3225.5000000000005 3016.5000000000005 0.1351382061839104
decision_type=2 2 2 2 2 2 2 2 2 2 2 2 2 2 2 2 2 2 2 2 2 2 2 2 2 2 2 2 2 2
left_child=1 2 -1 4 -4 7 -7 8 9 10 -3 -11 -12 -10 20 -15 -5 18 -18 -20 27 22 -22 26 25 -25 -24 28 -2 -29
right_child=14 5 3 16 -6 6 -8 -9 13 11 12 -13 -14 15 -16 -17 17 -19 19 -21 21 -23 23 24 -26 -27 -28 29 -30 -31
leaf_value=-0.056954855444362122 0.00027159004148169188 0.090270223988199963 -0.018027372716538086 0.0069423815280796226 0.15623058098007817 0.12444561775229157 -0.011531285842802741 -0.00099451535070405506 -0.083040638864948321 0.042623106397320698 -0.07364907868496956 0.17230498410019846 0.06405366776221251 0.11681294746760483 0.03220682623371806 -0.040969554100430107 0.078682005971283164 -0.082883272771451647 -0.10319517083158879 -0.010430214745163688 -0.12479846457077766 -0.087020714824738332 0.149640836794354 0.061309178579351413 0.035940916162457315 -0.08229302324266019 0.018333879727122412 0.058154854585787133 -0.02090394017090997 0.0059483277754276455
leaf_weight=55.915411502122879 8257.7947096079588 13.756913259625437 5.075181305408476 51.391135856509209 5.3647271394729614 4.2406577914953223 572.97214323282242 167.09194624423981 10.495325788855554 8.2072105407714862 11.646343603730203 11.408935293555258 5.9115168601274481 4.9238978177309018 66.06140798330307 5.4522352069616318 5.5082421302795401 23.039564877748489 8.4111872017383558 31.526371970772743 5.4958520382642737 23.667027950286865 5.7443181574344626 6.9948426634073249 16.240903064608574 26.471650123596191 30.982531636953354 29.856360897421837 209.37873443961143 1516.3858078867197
leaf_count=257 33451 61 23 225 24 19 2448 718 43 35 48 47 24 20 271 22 24 101 38 143 22 95 23 28 65 106 124 120 839 6073
internal_value=-1.56315e-05 -0.00842146 -0.0255287 -0.0120445 0.0715181 -0.00451767 -0.0105323 0.0100148 0.0356346 0.0604424 0.0243576 0.118047 -0.0272862 -0.0249019 0.000810796 0.0339047 -0.0193219 -0.0390305 -0.0167985 -0.0299673 0.000606031 -0.0214854 -0.00461362 0.00302824 -0.0234547 -0.0522787 0.0388711 0.000861059 -0.000252045 0.00695638
internal_weight=11197.4 1002.34 186.232 130.316 10.4399 816.107 577.213 238.894 71.8024 50.9309 31.3148 19.6161 17.5579 20.8715 10195.1 10.3761 119.877 68.4854 45.4458 39.9376 10129 115.597 91.9301 86.4342 49.7074 33.4665 36.7268 10013.4 8467.17 1546.24
internal_count=45537 4320 835 578 47 3485 2467 1018 300 215 133 82 72 85 41217 42 531 306 205 181 40946 463 368 346 199 134 147 40483 34290 6193
is_linear=0
shrinkage=0.1


Tree=20
num_leaves=31
num_cat=0
split_feature=14 8 16 8 18 7 24 16 12 11 6 5 4 20 2 12 18 6 22 19 5 11 15 16 15 18 18 21 6 21
split_gain=6.68645 9.22655 11.6148 10.8408 9.46929 8.37221 8.5551 8.33312 9.08566 9.17367 8.38607 8.04157 7.99759 7.97435 7.50238 7.32342 9.23816 8.50444 10.4071 8.42041 7.3184 8.49456 7.43164 9.90021 7.22083 9.47586 7.06433 9.38431 6.88104 6.63222
threshold=41.265281677246101 9.5462620919306587e-08 115898.85546875001 1.0000000180025095e-35 22.349528312683109 82.024997711181655 -0.98296290636062611 101182.41796875001 0.0018061185837723317 0.0019781721057370309 319.50000000000006 93499.316406250015 0.90590500831604015 -13.725957870483397 118004.64062500001 0.0010356227867305281 70.923213958740249 167.50000000000003 -0.93279412388801564 46.015415191650398 194552.06250000003 0.0014883612748235466 109565.05078125001 109147.43750000001 107197.34765625001 41.977712631225593 48.784420013427741 8.8715085983276385 2427.5000000000005 -9.360165596008299
decision_type=2 2 2 2 2 2 2 2 2 2 2 2 2 2 2 2 2 2 2 2 2 2 2 2 2 2 2 2 2 2
left_child=1 3 4 5 -3 6 -1 -8 9 15 -11 -5 -2 26 -14 17 29 18 -9 -18 -19 22 23 -22 25 -20 27 -10 -16 -17
right_child=12 2 -4 11 -6 -7 7 8 13 10 -12 -13 14 -15 28 16 19 20 24 -21 21 -23 -24 -25 -26 -27 -28 -29 -30 -31
leaf_value=-0.03212527896078031 0.088222118268059979 0.078361571536388619 0.074931402726268734 -0.043593270890691302 0.001424189059506338 0.031204272393397688 0.10776935851281991 0.10829931457639273 -0.035723830275317191 0.03592625484730403 -0.040275461714484567 -0.0089270131338202944 0.0030860742205970015 -0.0074287644853473006 -0.092359324734410053 0.01549771081864044 0.023800304275060233 -0.026036957266245449 0.089010103118564124 0.15983448162143021 -0.0070152262146578135 0.097589092392518367 -0.052549293425087788 0.065794839557610132 -0.0042515136201807966 0.0064673658907499244 -0.09882151463447908 0.056063046227842507 -0.003116027189578935 -0.00030055053555384461
leaf_weight=107.53768335282803 10.968363627791403 16.094519168138504 21.950141578912735 121.0187503695488 2644.4452806264162 67.495324790477753 6.7188295274972907 9.684462442994116 130.55211885273457 16.894972503185272 99.472701817750931 149.67732089757919 4510.3956033289433 319.85591857135296 15.771924346685408 323.57327528297901 13.231601670384409 274.39206731319427 20.646823167800903 6.9352692961692801 409.63277839124203 7.8612503111362448 33.574041754007339 19.567103713750839 260.87559375166893 42.611069545149803 15.573958992958067 12.177903622388838 19.105936706066132 1486.4791044145823
leaf_count=442 44 65 88 602 10611 271 27 40 527 69 405 679 18071 1293 65 1314 54 1198 87 28 1758 33 145 83 1103 178 63 49 78 6067
internal_value=-1.53817e-05 -0.00204007 0.00248729 -0.00510995 0.00188961 -0.00369122 -0.00434223 -0.00349111 -0.00370447 -0.00167999 -0.029212 -0.0244251 0.00293462 -0.0165139 0.00272881 -0.000578657 0.00327354 -0.00711376 0.00615024 0.0705817 -0.0130568 -0.00548912 -0.00724013 -0.00369584 0.00309823 0.0334086 -0.0348705 -0.0278925 -0.0434722 0.00252362
internal_weight=11194.8 6638.53 2682.49 3956.04 2660.54 3685.34 3617.85 3510.31 3503.59 3025.43 116.368 270.696 4556.24 478.16 4545.27 2909.06 1830.22 1078.85 333.818 20.1669 745.027 470.635 462.774 429.2 324.133 63.2579 158.304 142.73 34.8779 1810.05
internal_count=45537 27279 10764 16515 10676 15234 14963 14521 14494 12562 474 1281 18258 1932 18214 12088 7463 4625 1408 82 3217 2019 1986 1841 1368 265 639 576 143 7381
is_linear=0
shrinkage=0.1


Tree=21
num_leaves=31
num_cat=0
split_feature=14 12 9 10 21 18 22 12 23 14 18 6 13 8 7 14 18 6 25 23 6 21 16 20 12 20 16 0 16 8
split_gain=5.64578 10.1514 9.19846 8.32177 7.30229 9.12939 8.15697 8.68312 9.08754 8.9835 7.5017 12.6633 8.63381 8.5292 13.724 8.3322 7.30833 7.27534 7.21171 8.42865 7.76294 8.8821 7.17728 8.64326 7.13139 7.13051 12.5964 9.37953 6.81865 6.71994
threshold=31.544457435607914 0.0018165839137509467 -0.00082655489677563299 -0.0022538575576618309 -9.360165596008299 59.52464675903321 -0.98933362960815419 0.00091875210637226712 0.99771150946617138 17.992295265197757 59.52464675903321 859.50000000000011 0.29400727152824407 -0.00025211182946804905 57.045000076293952 25.135715484619144 40.884944915771491 962.50000000000011 0.98296290636062633 0.99946221709251415 769.50000000000011 9.0772943496704119 103852.80468750001 15.025058269500734 0.0017364879604429009 10.451129436492922 107052.18750000001 106092.22265625001 103528.56250000001 9.7171050583710908e-05
decision_type=2 2 2 2 2 2 2 2 2 2 2 2 2 2 2 2 2 2 2 2 2 2 2 2 2 2 2 2 2 2
left_child=1 3 -3 -1 5 6 16 9 -9 -8 11 18 22 14 15 -12 17 -5 20 -20 29 25 23 28 -15 26 -22 -27 -13 -6
right_child=-2 2 -4 4 10 -7 7 8 -10 -11 13 12 -14 24 -16 -17 -18 -19 19 -21 21 -23 -24 -25 -26 27 -28 -29 -30 -31
leaf_value=-0.062942226788329711 0.0019974487585321153 0.051279350824873074 -0.033563047065679828 0.066254881867992096 -0.011298359747070217 -0.11593603935282271 -0.0047512466864891648 0.017167224783496079 0.13887027268891133 -0.11279508761532242 -0.028996050962861383 -0.029698820669949944 -0.070938800769899266 0.003976011708331585 0.09202746882148842 -0.14453708848465333 -0.14383661976587131 -0.088848063688519496 0.04416539614543339 -0.051876419050109507 0.023003600387174861 -0.11713814984189014 0.0070998010819552041 0.07216300171032286 0.054820358011323317 -0.16789027528874334 -0.042597449987616581 -0.03605500235467634 -0.13179228138660382 0.0065786267496351081
leaf_weight=22.068544805049896 6205.7036460191011 13.923647806048391 155.4129015058279 6.2119750827550906 1619.641612559557 5.6746579557657233 41.812275364995003 409.19014570116997 6.2288015037775031 9.4315508008003217 14.300916299223905 30.765537306666374 15.136923149228094 1184.9167172908783 5.721475511789321 11.075069203972815 6.0524916797876349 5.8932835012674332 46.098678097128868 11.396780610084532 50.649456605315208 11.377475216984747 918.42981222271919 6.6192925572395316 28.243561774492264 7.3681769073009518 69.343869432806969 20.16774445772171 8.3085874170064908 241.64082467556
leaf_count=89 24881 56 635 26 6902 23 178 1662 25 39 59 125 61 4886 23 45 25 24 192 48 206 46 3735 27 114 30 288 84 34 969
internal_value=-1.54625e-05 -0.00252224 -0.0265869 -0.0016757 -0.00139354 0.0101666 0.0116426 0.0142012 0.018992 -0.024637 -0.00271181 -0.0053762 0.00399877 0.00383415 -0.0478784 -0.0794227 -0.0541148 -0.00925492 -0.00979483 0.0251279 -0.0107887 -0.0320042 0.0051753 -0.0335068 0.00515972 -0.0254387 -0.0149071 -0.071332 -0.0514076 -0.00897748
internal_weight=11188.8 4983.1 169.337 4813.77 4791.7 490.495 484.821 466.663 415.419 51.2438 4301.2 3056.94 979.26 1244.26 31.0975 25.376 18.1578 12.1053 2077.68 57.4955 2020.19 158.907 964.123 45.6934 1213.16 147.529 119.993 27.5359 39.0741 1861.28
internal_count=45537 20656 691 19965 19876 2002 1979 1904 1687 217 17874 12747 3982 5127 127 104 75 50 8765 240 8525 654 3921 186 5000 608 494 114 159 7871
is_linear=0
shrinkage=0.1


Tree=22
num_leaves=31
num_cat=0
split_feature=8 8 16 19 16 8 21 23 23 18 8 11 8 7 4 0 8 8 23 17 20 9 19 16 13 11 10 14 9 20
split_gain=5.074 7.16409 9.10205 8.79156 8.0882 8.31544 13.1434 7.90255 7.83947 12.5294 10.9499 7.64299 7.61352 11.6849 10.0597 8.10254 10.7135 10.7143 9.80075 9.3335 7.79128 10.2303 10.8879 7.78443 10.513 9.8026 10.3603 7.78239 7.30405 7.29508
threshold=-0.00032821256900206203 9.5462620919306587e-08 107238.91015625001 27.714339256286625 107521.67578125001 -0.00025211182946804905 5.4227824211120614 -0.023995916359126564 0.99708375334739696 52.054410934448249 -0.00022632441687164825 -0.0055610879790037862 -8.0845489719649763e-05 7.055000066757203 7.7611351013183603 109051.58984375001 -1.1069463425883439e-06 -1.0000000180025095e-35 0.84688794612884533 108847.67968750001 -18.747950553894039 -0.0008449984889011829 -20.499535560607907 109304.65234375001 0.47064229846000677 0.00012053671889589169 -0.00043126789387315506 55.457670211791999 -0.00027347866853233421 34.312458038330085
decision_type=2 2 2 2 2 2 2 2 2 2 2 2 2 2 2 2 2 2 2 2 2 2 2 2 2 2 2 2 2 2
left_child=-1 2 3 -2 5 6 -4 -5 11 10 -10 -6 -13 15 20 16 18 -18 -14 -19 21 -15 -23 25 -25 26 28 -27 -16 -9
right_child=1 -3 4 7 8 -7 -8 29 9 -11 -12 12 13 14 23 -17 17 19 -20 -21 -22 22 -24 24 -26 27 -28 -29 -30 -31
leaf_value=0.0051980079797611864 -0.0018401139223991271 0.0017686013708761051 0.076140326146134057 -0.00056242641210352674 0.081412276320600052 -0.022764511073345442 -0.067774831389943155 0.057695656272660836 -0.063181344894788605 -0.028498725960729512 0.099158592217401531 -0.012504083662447733 -0.020290642778868301 -0.13481944327633308 0.012428938222261392 -0.024532127294330641 0.028624826167771768 -0.0087103083862420643 -0.12085527816699798 0.049181705608687176 0.042536622265521074 0.034003263953413819 -0.084647566702669153 0.0032520411837175102 0.1238212702591161 -0.033181510484755157 0.080401756868679258 -0.13348277493088742 -0.10432139983523986 0.016374425127455246
leaf_weight=1599.9259193390608 1563.7003241181374 4934.6113967448473 20.608156830072407 177.34058111906052 9.9919955134391767 443.71806870400906 9.169560030102728 59.652729228138924 4.9386439919471767 19.712008699774742 26.181023672223091 1024.650213316083 90.566327676177025 5.2250789552927008 14.074283242225645 199.21537402272224 135.69465462863445 350.11092039942741 10.852243050932882 30.25547006726265 138.51938572525978 41.817181318998337 9.4889707118272764 49.063765868544579 8.4821601063013059 23.690219596028328 12.821299955248831 11.486441567540167 8.6530684977769869 150.56355690956116
leaf_count=6423 6426 19787 84 715 40 1930 37 241 20 82 110 4214 392 21 57 837 554 1547 46 127 569 171 39 198 34 96 52 46 35 607
internal_value=-1.51891e-05 -0.000885388 -0.00370167 0.00150158 -0.00746341 -0.0193315 0.031824 0.0149845 -0.00493836 0.0338819 0.0733955 -0.00584576 -0.00624854 -0.000626043 0.0154645 -0.00699612 -0.00133854 0.00450078 -0.0310515 -0.00410541 0.0297687 -0.00151668 0.012059 -0.00628673 0.0210237 -0.028508 0.00852587 -0.0659335 -0.0320218 0.0281001
internal_weight=11184.8 9584.86 4650.24 1951.26 2698.99 473.496 29.7777 387.557 2225.49 50.8317 31.1197 2174.66 2164.67 1140.02 323.322 816.695 617.48 516.061 101.419 380.366 195.051 56.5312 51.3062 128.271 57.5459 70.7253 35.5487 35.1767 22.7274 210.216
internal_count=45537 39114 19327 7989 11338 2051 121 1563 9287 212 130 9075 9035 4821 1318 3503 2666 2228 438 1674 800 231 210 518 232 286 144 142 92 848
is_linear=0
shrinkage=0.1


Tree=23
num_leaves=31
num_cat=0
split_feature=13 19 18 6 10 22 10 22 19 3 14 16 21 7 19 11 8 18 9 6 7 20 18 7 16 12 9 6 14 10
split_gain=4.1986 5.9651 5.26058 5.57991 5.56367 5.38564 4.89867 10.5192 7.02767 5.82312 8.41762 6.01459 8.82576 6.31103 5.69431 7.64112 5.49898 5.47768 6.14046 5.93764 6.16133 4.76928 9.99969 8.92233 10.4565 9.36351 7.95062 7.05128 6.99256 6.21167
threshold=0.079573974013328566 -33.235193252563469 85.056079864501967 9754.0000000000018 0.0055580735206604013 0.99946221709251415 0.0048423267435282477 0.15858851373195651 101.80368423461915 104720.00390625001 133.18363189697268 109841.66015625001 12.843660831451418 166.62500000000003 166.33592224121097 0.0071842460893094548 -0.00014186622865963725 73.699245452880874 0.0014727693051099779 7505.0000000000009 114.76499938964845 50.477426528930671 39.932214736938484 15.994999885559084 108981.43359375001 0.0032371093984693293 0.0006485283374786378 208.50000000000003 24.005460739135746 0.0019281861023046078
decision_type=2 2 2 2 2 2 2 2 2 2 2 2 2 2 2 2 2 2 2 2 2 2 2 2 2 2 2 2 2 2
left_child=1 -1 6 4 5 -4 14 8 -8 10 -10 12 -11 -13 21 16 -16 18 19 20 -17 29 -23 24 25 26 27 -24 -25 -2
right_child=2 -3 3 -5 -6 -7 7 -9 9 11 -12 13 -14 -15 15 17 -18 -19 -20 -21 -22 22 23 28 -26 -27 -28 -29 -30 -31
leaf_value=-0.12466940113826047 0.00057104563153126907 -0.0057119172902369746 0.040542420027726296 0.10870274172920298 -0.063942143808937521 -0.0683542155087246 -0.078084011948808041 -0.079695060666065617 0.10449802071469128 0.055034568592079308 0.00050847685437606664 0.087491291611742919 -0.072987962965137348 -0.040474082282592388 0.14221583779261676 0.027428636333292379 0.028230723859714577 0.092889302633646628 -0.094207194327742536 0.068938679813520684 -0.11196472944103097 -0.10832055504176252 0.070399471252889465 -0.081372464020733018 -0.098323621890602328 -0.1394549963667519 0.069646218976122706 -0.036291930659011561 -0.0010577248412940326 0.012374060260324556
leaf_weight=4.2333833128213874 8503.8934404104948 989.81161679327488 45.996831804513931 7.7066873908042899 7.2296622544527045 5.0391504764556876 11.448331162333487 23.55685319006443 11.979371279478071 6.9954878240823772 22.227320030331612 8.9933644384145719 23.389303416013718 6.7442026585340491 8.9931958466768283 7.4931350797414833 7.9950181543827048 6.230975240468978 6.744856819510459 10.73863326013088 5.4973234534263611 9.4897501021623594 7.1397003680467597 10.978021547198294 20.240061596035957 5.7276964038610449 11.430357128381727 46.793465360999107 864.75516386330128 470.55770081281662
leaf_count=18 34461 4302 190 31 29 21 46 95 48 28 89 36 94 27 36 30 32 25 27 43 22 38 29 46 82 23 46 190 3467 1886
internal_value=-1.51306e-05 -0.00621853 0.000590254 0.0287368 0.0181599 0.0297903 0.000406768 -0.0200846 -0.00478416 0.00566239 0.0369262 -0.0175244 -0.0435133 0.0326528 0.000642992 0.0331213 0.088572 0.00745688 -0.0100114 0.0139208 -0.0315601 0.000467748 -0.0061689 -0.00516649 -0.0349097 -0.0168554 -0.00611217 -0.0221681 -0.00206453 0.00118991
internal_weight=11180.1 994.045 10186 65.9723 58.2656 51.036 10120 115.334 91.7774 80.329 34.2067 46.1224 30.3848 15.7376 10004.7 53.6931 16.9882 36.7049 30.4739 23.7291 12.9905 9951.01 976.554 967.064 91.3313 71.0912 65.3635 53.9332 875.733 8974.45
internal_count=45537 4320 41217 271 240 211 40946 463 368 322 137 185 122 63 40483 215 68 147 122 95 52 40268 3921 3883 370 288 265 219 3513 36347
is_linear=0
shrinkage=0.1


Tree=24
num_leaves=31
num_cat=0
split_feature=9 8 13 10 22 10 23 7 19 13 14 15 8 14 10 3 9 13 13 6 12 22 16 20 7 12 14 20 13 12
split_gain=4.07213 10.6396 6.76507 6.76478 6.25939 8.12238 7.7309 7.46496 7.30216 7.51073 7.89643 9.38682 8.80948 10.107 8.1989 10.8291 10.0374 8.29997 7.9824 7.22606 7.87759 8.18001 7.68533 9.40327 8.71881 11.4422 7.62547 8.03977 7.1748 7.11426
threshold=-0.00047346472274512047 0.00055799048277549456 0.062735699117183699 0.00297988357488066 -0.16289508342742917 0.0048423267435282477 -0.98518189787864674 24.07499980926514 8.5382237434387225 0.51946336030960094 68.76255035400392 111374.47656250001 -8.7440992501797141e-05 46.815982818603523 0.0013955918257124724 109089.08593750001 0.00067861046409234415 0.31155256927013403 0.35687237977981573 3133.5000000000005 0.0014494943898171189 0.88599923253059398 105007.48046875001 4.8435735702514657 79.880001068115249 0.0027026506140828137 49.515775680541999 -25.706972122192379 0.056900521740317352 0.0040260392706841239
decision_type=2 2 2 2 2 2 2 2 2 2 2 2 2 2 2 2 2 2 2 2 2 2 2 2 2 2 2 2 2 2
left_child=1 2 -1 -3 6 8 -2 29 19 10 11 14 13 -13 -10 16 -16 -17 -19 22 -21 -22 28 24 -24 26 27 -26 -6 -8
right_child=4 3 -4 -5 5 -7 7 -9 9 -11 -12 12 -14 -15 15 17 -18 18 -20 20 21 -23 23 -25 25 -27 -28 -29 -30 -31
leaf_value=0.14947946176030324 0.076905368718801825 -0.035220971906517268 0.0045060978911441894 0.07909554839215184 -0.051856200227524685 -0.057245487059075478 -0.0051818485061338893 0.0049710885335569176 0.003862078384012993 0.032573787070467181 -0.032228846931914357 -0.085780434579991904 0.06008518655863157 0.068348105829415473 -0.021563518679927271 -0.086361072539353767 0.011592797234787329 0.097492036865563 -0.039984813793524782 0.090177936733542186 -0.029648573978375333 -0.12876017236929435 -0.0067797079108426004 -0.02815321063791373 0.10484033935359052 0.13941616178133925 -0.071310830992408675 -0.010752365076654143 0.0085205227550704896 0.094273123430950026
leaf_weight=3.2229316234588614 13.74416960775852 92.805675491690636 2520.2913117706776 5.482283726334571 20.551154464483261 27.872655034065247 1219.5201017707586 2434.418497428298 1394.4638593196869 74.758277520537376 71.980928510427475 10.347900331020357 49.147844642400742 7.2252216786146155 191.89259940385818 31.985428601503372 174.17831239104271 5.4797472953796413 18.423260256648064 4.9414418786764136 85.085745602846146 9.2307214587926847 1988.5442629903555 208.06227946281433 10.727605462074278 8.9813832789659482 8.226000636816023 13.702898398041727 465.42300350964069 7.2351190447807303
leaf_count=14 56 372 10166 22 89 113 5053 9768 5712 300 289 42 197 29 775 129 699 22 74 20 341 37 8263 871 43 36 33 55 1888 29
internal_value=-1.39796e-05 0.00343403 0.00469125 -0.0288447 -0.00107053 -0.00341738 0.00204669 0.00176567 -0.00310825 0.00146643 0.000276978 0.00151947 0.0383574 -0.0224102 0.000166342 -0.0120471 -0.00578758 -0.053047 -0.00846834 -0.00639713 -0.0329003 -0.0393486 -0.00543148 -0.00790641 -0.00583143 0.0394567 0.0119653 0.0400052 0.00596728 -0.00459529
internal_weight=11178 2621.8 2523.51 98.288 8556.15 4881.23 3674.92 3661.17 4853.36 2029.88 1955.13 1883.14 66.721 17.5731 1816.42 421.959 366.071 55.8884 23.903 2823.48 99.2579 94.3165 2724.22 2238.24 2030.18 41.6379 32.6565 24.4305 485.974 1226.76
internal_count=45537 10574 10180 394 34963 20057 14906 14850 19944 8268 7968 7679 268 71 7411 1699 1474 225 96 11676 398 378 11278 9301 8430 167 131 98 1977 5082
is_linear=0
shrinkage=0.1


Tree=25
num_leaves=31
num_cat=0
split_feature=19 15 3 16 9 23 22 20 14 23 8 8 21 14 1 23 2 14 18 21 7 13 7 9 4 4 6 3 1 13
split_gain=3.73056 11.8046 16.4238 9.07033 8.26312 8.23414 7.61921 10.2446 9.80095 9.40482 9.41694 10.7776 8.53331 7.97776 7.37183 7.16451 7.66893 7.13455 7.10637 7.04996 7.39527 8.21632 8.29974 6.83169 6.55081 6.43876 6.20103 6.32971 9.3357 8.97311
threshold=-58.121904373168938 104909.80078125001 105159.99609375001 104670.98828125001 1.2132883966842202e-05 -0.91792565584182728 -0.95037782192230214 -56.358459472656243 63.130924224853523 0.98802495002746593 5.0036111133522361e-05 -0.00060928557650186111 -2.3721004724502559 99.009597778320327 105226.10156250001 -0.76744312047958363 103100.83984375001 85.288421630859389 40.884944915771491 39.409067153930671 12.434999942779543 0.30161556601524359 10.315000057220461 -0.0026634022360667582 29.631965637207035 19.959135055541996 749.50000000000011 109728.01171875001 109587.62500000001 0.46341341733932501
decision_type=2 2 2 2 2 2 2 2 2 2 2 2 2 2 2 2 2 2 2 2 2 2 2 2 2 2 2 2 2 2
left_child=1 3 4 5 -3 -1 7 12 18 10 11 15 -7 17 -4 -10 23 -12 -8 20 21 -16 -23 -17 25 -15 -22 28 -28 -29
right_child=-2 2 14 -5 -6 6 8 -9 9 -11 13 -13 -14 24 19 16 -18 -19 -20 -21 26 22 -24 -25 -26 -27 27 29 -30 -31
leaf_value=-0.067206558477843431 -0.00055501001313365756 0.11397442273301428 -0.10436787876641576 -0.042760239388832853 -0.024926891310126632 0.029466056950175359 0.039553126347813487 -0.12983303277443883 -0.10322232860269934 -0.0920572123986724 -0.032546385597570004 0.060241041157890668 -0.064035845182351545 0.0070650959265835603 0.12716913035933439 0.060546260175327583 0.11024826971672393 -0.15097030807637013 0.1661534372029497 0.12752468994900154 -0.076729173115679922 -0.020402199578482313 0.12696349393421391 -0.056759284280935046 -0.026622941899304465 0.1382183797229716 0.012467369863893072 -0.043005669092451737 0.12903433940362546 0.028185778096411981
leaf_weight=17.455643400549889 10271.867479100823 23.456981673836712 5.4843226373195639 63.642611399292946 5.239469349384307 22.966321602463722 39.671229258179665 8.7337489873170835 6.9946367591619483 10.231893390417097 18.708798915147785 47.937477886676788 16.974847555160522 9.9741965234279615 11.155253231525423 7.4875356703996685 5.9909998774528495 6.9872879832983008 4.9917175918817511 5.2454609870910636 8.47060379385948 14.136928722262384 5.2378593385219565 14.734572753310205 23.641733899712563 5.9919083565473548 408.22640836238861 48.310251340270042 6.9882313609123221 27.946369051933289
leaf_count=70 41917 94 22 255 21 92 159 35 28 41 75 192 68 40 45 30 24 28 20 21 34 57 21 59 95 24 1636 194 28 112
internal_value=-1.32731e-05 0.00614903 0.0148904 -0.00880569 0.0886135 -0.000786546 0.00381392 -0.0317248 0.0123209 0.000673479 0.00706496 0.0293861 -0.0102719 -0.0213544 0.0109813 -0.0126247 0.00983642 -0.0647483 0.0537025 0.0121622 0.0110214 0.058801 0.0194372 -0.0172343 0.00679785 0.0562855 0.00810367 0.00956578 0.0144292 -0.0169156
internal_weight=11174.9 903.015 569.898 333.117 28.6965 269.475 252.019 48.6749 203.344 158.681 148.449 83.1452 39.9412 65.3039 541.202 35.2077 28.2131 25.6961 44.6629 535.717 530.472 30.53 19.3748 22.2221 39.6078 15.9661 499.942 491.471 415.215 76.2566
internal_count=45537 3620 2285 1335 115 1080 1010 195 815 636 595 333 160 262 2170 141 113 103 179 2148 2127 123 78 89 159 64 2004 1970 1664 306
is_linear=0
shrinkage=0.1


Tree=26
num_leaves=31
num_cat=0
split_feature=8 21 22 22 10 23 1 23 22 6 14 23 11 23 10 12 0 22 21 8 13 7 22 0 12 9 12 10 11 13
split_gain=3.53966 6.37751 9.9745 7.0054 11.5645 11.4204 9.48746 9.28906 11.323 8.54262 8.09002 8.77195 7.95671 9.28802 7.76816 7.63637 9.61914 7.04242 6.7877 9.24798 9.01902 6.73505 9.10404 7.52744 6.66292 6.55824 6.49216 9.66953 6.47255 6.28713
threshold=-0.00042996478441637004 -31.473503112792965 -0.97485619783401478 -0.84455960988998402 -0.00044369303213898087 0.99280729889869701 102773.37500000001 -0.73283809423446644 -0.42853991687297815 1820.5000000000002 101.18798446655275 -0.80773079395294178 -0.0016372074605897067 0.02835773024708033 -0.00097051984630525101 0.0034869734663516287 105025.57421875001 0.02835773024708033 -15.869482040405272 -0.00063646095804870118 0.41243346035480505 65.170001983642592 0.02835773024708033 104600.42187500001 0.0058246180415153512 -0.0021953757386654611 0.0042883420828729877 -0.0024140952154994007 -0.00091260383487679053 0.24185039103031161
decision_type=2 2 2 2 2 2 2 2 2 2 2 2 2 2 2 2 2 2 2 2 2 2 2 2 2 2 2 2 2 2
left_child=1 2 -1 24 7 6 12 8 15 14 -8 -12 -6 -14 -10 -5 -17 -7 19 20 28 -4 -23 -24 25 -3 27 -18 -9 -20
right_child=-2 3 21 4 5 17 10 18 9 -11 11 -13 13 -15 -16 16 26 -19 29 -21 -22 22 23 -25 -26 -27 -28 -29 -30 -31
leaf_value=0.076021241942808723 -0.00061127223693378113 -0.073726651755957509 -0.1205835680488313 -0.085345400344404201 -0.046707351866348619 -0.014701996763486304 -0.008502957198411069 -0.094580091588042994 0.034860558081266084 0.043847113571833962 0.11250915497720554 0.0092645405182895987 0.0069427114088955258 0.11638081210374396 -0.091079228982496055 -0.087801011590672731 0.094309892487724381 -0.14975005835691876 0.029111549952100208 0.049679165340836613 0.044748158282104641 -0.036187454472000079 -0.0510983009737421 0.087755892163198998 0.076970763669587439 -0.0054663907199117073 0.1242211989061095 -0.068751262408326907 -0.00032348884897640071 0.065354563732998291
leaf_weight=10.231208875775335 10036.018872201443 14.964611381292341 7.2380240559577933 18.964836701750755 6.9923735707998267 7.4785510599613172 273.9323878288269 16.221123650670052 9.2279562205076235 60.761050567030907 11.712394759058951 27.671890377998352 13.23725149035454 18.725390270352364 10.437205061316488 9.4803192913532275 6.2308847904205349 7.9835603088140488 111.98759025335312 32.67015078663826 14.214060291647909 72.093773081898689 5.7372513115406063 12.219484344124792 9.2326920330524427 236.78981563448906 5.7414444535970679 8.734706446528433 13.225178852677347 83.589598312973976
leaf_count=41 40974 60 29 76 28 30 1099 65 37 244 47 111 53 75 42 38 25 32 450 131 57 289 23 49 37 949 23 35 53 335
internal_value=-1.20064e-05 0.00527419 -0.0179011 0.00769292 0.0124962 -0.000315504 0.00337656 0.0242309 0.00219677 0.0253061 -0.00241007 0.0399682 0.0499187 0.0710573 -0.0319815 -0.0356164 -0.0043747 -0.0844314 0.0347313 0.00944059 -0.0206691 -0.0277783 -0.0203188 0.0433914 -0.00646403 -0.00952387 0.0338204 -0.000861177 -0.0522467 0.0446018
internal_weight=11173.7 1137.73 107.52 1030.21 769.22 367.734 352.272 401.486 129.578 80.4262 313.317 39.3843 38.955 31.9626 19.6652 49.1522 30.1874 15.4621 271.908 76.3305 43.6604 97.2885 90.0505 17.9567 260.987 251.754 20.707 14.9656 29.4463 195.577
internal_count=45537 4563 431 4132 3086 1475 1413 1611 520 323 1257 158 156 128 79 197 121 62 1091 306 175 390 361 72 1046 1009 83 60 118 785
is_linear=0
shrinkage=0.1


Tree=27
num_leaves=31
num_cat=0
split_feature=2 15 5 13 10 22 4 12 20 7 6 9 9 22 22 18 6 11 4 20 7 12 12 1 21 14 15 6 23 19
split_gain=3.33399 5.85878 7.07413 12.2808 12.5458 12.4847 11.023 12.4719 7.57438 6.7439 8.9654 8.61184 12.0981 6.57927 6.2887 6.04243 5.75609 7.30107 5.70494 5.68861 5.5346 5.43175 5.50954 5.31673 5.29186 5.66545 5.20115 5.98312 5.69484 6.00253
threshold=118004.64062500001 111374.47656250001 1335487.7500000002 0.45126855373382574 -0.0023337311577051874 0.61048936843872081 6.0047149658203134 0.002185866236686707 37.849439620971687 87.615001678466811 4923.0000000000009 -0.00059856974985450495 0.0012483109603635969 0.11970336735248567 -0.0065449222456663838 63.954994201660163 1067.5000000000002 0.0021494211396202449 43.305425643920906 31.261444091796879 78.844997406005874 0.0024086361518129711 0.0021577971056103711 116527.51171875001 6.5359461307525644 128.1043395996094 109721.07031250001 224.50000000000003 -0.99674141407012928 -22.182321548461911
decision_type=2 2 2 2 2 2 2 2 2 2 2 2 2 2 2 2 2 2 2 2 2 2 2 2 2 2 2 2 2 2
left_child=1 26 6 4 -4 15 7 8 -3 11 -11 -5 -13 14 16 -6 -8 19 24 -18 -17 22 -7 -20 25 -12 -1 -28 29 -29
right_child=-2 2 3 9 5 21 13 -9 -10 10 18 12 -14 -15 -16 20 17 -19 23 -21 -22 -23 -24 -25 -26 -27 27 28 -30 -31
leaf_value=0.00017515712282934978 -0.027904045561765341 0.091284700969105181 -0.10443366140923183 0.1653137162127154 -0.034501052675504823 0.04735846106331261 0.11747167768248097 -0.042742092912239252 -0.050973905524453939 -0.066621678953866503 0.19777470047027701 -0.0097316637251412107 0.15414961997579948 0.084748754106359778 -0.069779539046929531 -0.016105731334904883 0.026220816983602003 -0.060295846968949365 0.037692749456609907 0.12298723331437184 0.094385910407917911 0.11931866657476742 -0.034163042233574602 -0.063751292767289414 -0.0014649745492754738 0.054809650705566253 -0.070906395503263012 -0.0027736733487780372 -0.0065380258216878196 -0.15639297316344389
leaf_weight=10156.94069172442 42.68711930513382 15.141546666622164 13.914946228265761 7.4645083844661739 91.063324496150017 28.431381478905678 8.2340922206640226 34.906185254454613 4.9716503620147696 11.220724180340765 4.9906934350729006 14.718553915619852 6.4912872761487952 34.177836701273918 5.7248376756906501 11.477482885122301 32.173662275075912 7.9881851226091376 14.689963668584825 7.489303544163703 7.493103712797164 6.9539321213960639 11.702715218067167 7.96919061243534 5.4858687967061988 6.2346940040588379 15.501478210091589 4.9313287287950516 545.99622802436352 5.2530896216630918
leaf_count=41425 176 61 56 30 365 114 33 140 20 45 20 59 26 137 23 46 129 32 59 30 30 28 47 32 22 25 67 20 2218 22
internal_value=-1.05602e-05 9.64229e-05 0.0119624 0.00165413 -0.0134251 -0.0053652 0.0290714 -0.00660124 0.0561207 0.0341916 0.012232 0.0729355 0.0404243 0.0495614 0.0300414 -0.0238053 0.0402669 0.026926 0.0347057 0.0444926 0.0275368 0.0377251 0.0235876 0.00201503 0.0790316 0.11837 -0.000347207 -0.00962793 -0.00792002 -0.08201
internal_weight=11172.4 11129.7 401.11 250.302 171.037 157.122 150.807 55.0194 20.1132 79.2655 50.5911 28.6743 21.2098 95.7879 61.6101 110.034 55.8852 47.6512 39.3704 39.663 18.9706 47.088 40.1341 22.6592 16.7113 11.2254 10728.6 571.682 556.181 10.1844
internal_count=45537 45361 1609 1004 686 630 605 221 81 318 203 115 85 384 247 441 224 191 158 159 76 189 161 91 67 45 43752 2327 2260 42
is_linear=0
shrinkage=0.1


Tree=28
num_leaves=31
num_cat=0
split_feature=22 22 9 22 9 10 10 26 7 22 13 5 23 20 22 19 6 12 12 21 4 3 19 8 0 6 21 8 23 5
split_gain=3.33087 10.3887 10.6891 9.17233 8.82626 8.51135 11.7177 7.0633 7.62069 8.9243 9.97926 10.8275 8.28559 7.65735 7.18379 9.90284 7.05766 6.99217 7.64213 6.87033 10.799 9.09977 6.97905 10.2979 10.8406 11.4323 9.51606 8.32449 9.91448 7.2846
