{"learner":{"attributes":{},"feature_names":["open","high","low","close","volume","quote_volume","nb_trades","sma_5","sma_10","ema_5","ema_10","rsi_14","macd","macd_signal","macd_diff","bb_upper","bb_lower","bb_width","atr_14"],"feature_types":["float","float","float","float","float","float","int","float","float","float","float","float","float","float","float","float","float","float","float"],"gradient_booster":{"model":{"gbtree_model_param":{"num_parallel_tree":"1","num_trees":"100"},"iteration_indptr":[0,1,2,3,4,5,6,7,8,9,10,11,12,13,14,15,16,17,18,19,20,21,22,23,24,25,26,27,28,29,30,31,32,33,34,35,36,37,38,39,40,41,42,43,44,45,46,47,48,49,50,51,52,53,54,55,56,57,58,59,60,61,62,63,64,65,66,67,68,69,70,71,72,73,74,75,76,77,78,79,80,81,82,83,84,85,86,87,88,89,90,91,92,93,94,95,96,97,98,99,100],"tree_info":[0,0,0,0,0,0,0,0,0,0,0,0,0,0,0,0,0,0,0,0,0,0,0,0,0,0,0,0,0,0,0,0,0,0,0,0,0,0,0,0,0,0,0,0,0,0,0,0,0,0,0,0,0,0,0,0,0,0,0,0,0,0,0,0,0,0,0,0,0,0,0,0,0,0,0,0,0,0,0,0,0,0,0,0,0,0,0,0,0,0,0,0,0,0,0,0,0,0,0,0],"trees":[{"base_weights":[2.2290074E-8,-2.472899E-1,1.2954763E-1,-5.4088557E-1,-1.7559706E-1,8.418811E-1,1.11108676E-1,-7.923832E-1,4.506734E-2,-2.0157674E-1,7.5012445E-1,1.4570315E-1,1.2942626E0,1.4080824E-1,-2.0277974E-1,1.72869E-1,-8.5493016E-1,1.0961902E0,-2.288404E-1,3.7745407E-1,-2.323003E-1,1.0063714E0,-1.7365044E-1,6.9983935E-1,-7.0325476E-1,6.1048234E-1,4.6909463E-1,2.261787E-1,2.5331372E-2,-5.126328E-1,9.196298E-2,-9.83356E-1,-1.1178162E-1,8.580952E-2,4.1345704E-1,6.018591E-1,-5.3765464E-1,-8.829212E-1,6.8864197E-1,-2.0942922E-1,-7.783475E-1,1.2138643E0,-3.9829977E-2,9.344099E-1,-3.9829977E-2,-3.9829977E-2,-2.6879612E-1,3.3808666E-1,-1.7365044E-1,1.1011348E-1,3.9650795E-1,-6.7719156E-1,8.336377E-2,1.0619555E-1,-7.884484E-1,4.3427497E-1,-2.4613302E-2,-3.119541E-1,1.4972883E-1,1.2806237E-1,-3.2595035E-1,4.1445255E-1,6.7985957E-3,6.2009003E-2,-3.181659E-1,-3.3216563E-1,-9.12184E-2,3.0705026E-1,-9.604847E-2,-8.788279E-2,-6.232887E-3,-4.664555E-2,-3.188338E-1,3.252006E-2,4.7866634E-1,-3.9829977E-2,3.9752588E-1,1.5900118E-2,2.2012381E-1,1.9104289E-1,7.552769E-2,-1.1409547E-1,-4.6205035E-1,-1.6091663E-1,3.643151E-2,-1.8366028E-1,1.5588987E-1,-2.9537466E-1,7.028489E-2,4.721957E-2,-2.2838743E-1],"categories":[],"categories_nodes":[],"categories_segments":[],"categories_sizes":[],"default_left":[0,0,0,0,0,0,0,0,0,0,0,0,0,0,0,0,0,0,0,0,0,0,0,0,0,0,0,0,0,0,0,0,0,0,0,0,0,0,0,0,0,0,0,0,0,0,0,0,0,0,0,0,0,0,0,0,0,0,0,0,0,0,0,0,0,0,0,0,0,0,0,0,0,0,0,0,0,0,0,0,0,0,0,0,0,0,0,0,0,0,0],"id":0,"left_children":[1,3,5,7,9,11,13,15,17,19,21,23,25,27,29,-1,31,33,35,37,39,41,-1,43,45,47,-1,49,51,53,55,57,59,-1,-1,61,63,65,67,69,71,73,-1,75,-1,-1,-1,-1,-1,77,79,81,83,85,87,-1,89,-1,-1,-1,-1,-1,-1,-1,-1,-1,-1,-1,-1,-1,-1,-1,-1,-1,-1,-1,-1,-1,-1,-1,-1,-1,-1,-1,-1,-1,-1,-1,-1,-1,-1],"loss_changes":[4.115133E1,9.20001E0,1.0978306E1,1.2736893E1,8.722753E0,6.4620695E0,7.6992607E0,5.659485E0,7.9753942E0,6.269043E0,3.9678602E0,4.9351296E0,1.3798008E0,7.4106293E0,6.580198E0,0E0,5.437332E0,9.1235495E-1,5.9957085E0,7.6241713E0,3.965456E0,2.2173347E0,0E0,1.3379955E0,3.459952E-1,3.8600307E0,0E0,8.504679E0,1.3138856E1,6.061984E0,5.963329E0,4.658554E0,5.5528255E0,0E0,0E0,2.8876286E0,6.6984825E0,1.801331E-1,5.363801E0,5.0143375E0,2.1239285E0,2.9736557E0,0E0,2.2496033E0,0E0,0E0,0E0,0E0,0E0,9.170084E0,5.9216785E0,5.7151966E0,7.0803766E0,3.7870898E0,5.114294E0,0E0,4.8828053E0,0E0,0E0,0E0,0E0,0E0,0E0,0E0,0E0,0E0,0E0,0E0,0E0,0E0,0E0,0E0,0E0,0E0,0E0,0E0,0E0,0E0,0E0,0E0,0E0,0E0,0E0,0E0,0E0,0E0,0E0,0E0,0E0,0E0,0E0],"parents":[2147483647,0,0,1,1,2,2,3,3,4,4,5,5,6,6,7,7,8,8,9,9,10,10,11,11,12,12,13,13,14,14,16,16,17,17,18,18,19,19,20,20,21,21,23,23,24,24,25,25,27,27,28,28,29,29,30,30,31,31,32,32,35,35,36,36,37,37,38,38,39,39,40,40,41,41,43,43,49,49,50,50,51,51,52,52,53,53,54,54,56,56],"right_children":[2,4,6,8,10,12,14,16,18,20,22,24,26,28,30,-1,32,34,36,38,40,42,-1,44,46,48,-1,50,52,54,56,58,60,-1,-1,62,64,66,68,70,72,74,-1,76,-1,-1,-1,-1,-1,78,80,82,84,86,88,-1,90,-1,-1,-1,-1,-1,-1,-1,-1,-1,-1,-1,-1,-1,-1,-1,-1,-1,-1,-1,-1,-1,-1,-1,-1,-1,-1,-1,-1,-1,-1,-1,-1,-1,-1],"split_conditions":[2.8367304E1,1.0852634E1,1.1692758E5,6.163884E1,2.207E3,4.5436516E0,7.692217E1,3.5408E-1,8.8915276E1,1.1731611E5,3.395E3,1.26E3,8.33449E0,1.18980836E5,1.1985887E5,1.72869E-1,3.08875E0,-2.3367137E-1,1.1783715E5,2.3523108E1,1.299894E1,1.9218723E2,-1.7365044E-1,1.151285E1,1.1678567E5,3.455933E2,4.6909463E-1,1.1820669E5,1.19609336E5,-1.8716673E1,1.2024398E5,1.9270086E1,4.9225793E0,8.580952E-2,4.1345704E-1,9.710659E0,8.273945E0,1.047E3,2.225662E2,5.791743E1,1.6554296E1,1.1384545E2,-3.9829977E-2,-3.6729276E-1,-3.9829977E-2,-3.9829977E-2,-2.6879612E-1,3.3808666E-1,-1.7365044E-1,1.3513196E2,1.1868111E5,1.1929201E5,5.88E2,-3.2603107E1,4.5196648E1,4.3427497E-1,7.173219E1,-3.119541E-1,1.4972883E-1,1.2806237E-1,-3.2595035E-1,4.1445255E-1,6.7985957E-3,6.2009003E-2,-3.181659E-1,-3.3216563E-1,-9.12184E-2,3.0705026E-1,-9.604847E-2,-8.788279E-2,-6.232887E-3,-4.664555E-2,-3.188338E-1,3.252006E-2,4.7866634E-1,-3.9829977E-2,3.9752588E-1,1.5900118E-2,2.2012381E-1,1.9104289E-1,7.552769E-2,-1.1409547E-1,-4.6205035E-1,-1.6091663E-1,3.643151E-2,-1.8366028E-1,1.5588987E-1,-2.9537466E-1,7.028489E-2,4.721957E-2,-2.2838743E-1],"split_indices":[18,18,15,11,6,14,13,4,17,1,6,6,4,16,0,0,4,14,7,11,4,17,0,4,0,17,0,0,15,14,1,13,12,0,0,18,18,6,17,11,18,17,0,13,0,0,0,0,0,18,3,0,6,14,14,0,11,0,0,0,0,0,0,0,0,0,0,0,0,0,0,0,0,0,0,0,0,0,0,0,0,0,0,0,0,0,0,0,0,0,0],"split_type":[0,0,0,0,0,0,0,0,0,0,0,0,0,0,0,0,0,0,0,0,0,0,0,0,0,0,0,0,0,0,0,0,0,0,0,0,0,0,0,0,0,0,0,0,0,0,0,0,0,0,0,0,0,0,0,0,0,0,0,0,0,0,0,0,0,0,0,0,0,0,0,0,0,0,0,0,0,0,0,0,0,0,0,0,0,0,0,0,0,0,0],"sum_hessian":[1.2825413E3,4.4059415E2,8.419471E2,8.5188156E1,3.5540598E2,2.011732E1,8.218298E2,5.9358513E1,2.5829645E1,3.4646497E2,8.941031E0,8.444307E0,1.1673013E1,7.51295E2,7.05348E1,2.2352579E0,5.7123253E1,4.7188773E0,2.1110767E1,1.6888615E1,3.2957635E2,7.699221E0,1.2418098E0,5.2156014E0,3.2287056E0,4.2221537E0,7.450859E0,4.3140475E2,3.1989023E2,3.402559E1,3.650921E1,4.8430584E1,8.692669E0,1.7385339E0,2.9803438E0,5.4639635E0,1.5646805E1,2.9803438E0,1.3908271E1,3.1765497E2,1.1921375E1,6.4574113E0,1.2418098E0,3.9737916E0,1.2418098E0,1.2418098E0,1.9868958E0,2.9803438E0,1.2418098E0,2.5755136E2,1.7385338E2,2.3594387E1,2.9629584E2,1.0679564E1,2.3346025E1,1.9868958E0,3.4522316E1,4.6940414E1,1.4901719E0,5.9606876E0,2.7319818E0,1.7385339E0,3.7254295E0,6.7057734E0,8.941031E0,1.4901719E0,1.4901719E0,1.0431203E1,3.4770677E0,2.1980035E2,9.785462E1,4.2221537E0,7.699221E0,1.9868958E0,4.4705157E0,1.2418098E0,2.7319818E0,2.3693732E2,2.0614044E1,6.407739E1,1.0977599E2,1.8627148E1,4.9672394E0,1.639189E1,2.7990393E2,3.7254295E0,6.9541354E0,1.9620596E1,3.7254295E0,2.8313265E1,6.209049E0],"tree_param":{"num_deleted":"0","num_feature":"19","num_nodes":"91","size_leaf_vector":"1"}},{"base_weights":[-3.1446593E-4,-1.7628121E-1,9.0757884E-2,-2.6520398E-1,-2.6586803E-2,1.7114682E-1,-2.6954226E-2,-5.328747E-1,-1.5873228E-1,4.8755456E-2,-3.55921E-1,1.1888577E-1,5.408247E-1,3.928522E-2,-2.9536116E-1,3.1296408E-1,-6.225698E-1,4.2873807E-2,-3.141744E-1,8.003696E-3,1.0590397E0,-1.0052603E0,2.563147E-3,1.4268295E-1,-5.645974E-1,6.686005E-1,-6.5747815E-1,-2.5417816E-4,6.762108E-1,-5.3988636E-1,3.9160284E-1,-2.2432274E-1,7.596856E-1,-6.884514E-1,2.1006978E-1,-1.3232636E-1,6.0557604E-1,-2.264872E-1,-8.282907E-1,-1.7058487E-1,1.8230622E-1,4.176345E-1,4.0250756E-2,-3.5952374E-1,-1.2878039E0,-4.2913672E-1,5.4586273E-1,5.219073E-1,9.928855E-2,1.3937827E-2,-4.541644E-1,4.9614254E-1,1.1355442E0,1.2312956E-1,-3.6781907E-1,-9.1958545E-2,2.9045516E-1,4.6440864E-1,2.6512605E-1,4.7901416E-1,-6.807451E-1,-3.3594944E-2,8.205447E-1,-6.090429E-2,4.3481693E-1,-1.6174828E-1,-3.3868903E-1,2.6120558E-1,-3.1816524E-1,1.06634684E-1,-8.181249E-2,3.0824044E-1,-3.2390583E-2,-1.1076734E-1,2.7750326E-2,-2.9593894E-1,8.7024696E-2,-1.18567556E-1,1.704255E-2,9.5842205E-2,-1.59552E-1,-2.0837364E-1,9.552333E-2,-4.460049E-1,-1.2579547E-1,-3.6945656E-2,-3.7101182E-1,3.0848292E-1,-1.2148281E-1,2.1642832E-1,-1.5001112E-1,-8.3580196E-2,4.7501802E-2,2.087533E-1,-1.05392076E-1,3.0743977E-1,1.1285497E-2,-4.6441957E-2,3.8080496E-1,-1.8282472E-1,-9.839881E-3,-1.9395736E-1,1.2564221E-1,1.7687687E-1,-2.1586521E-1,-1.2209065E-1,3.8876775E-1,-2.5041157E-1,1.5744042E-2,1.5216774E-1,-2.1081905E-1,4.9751174E-1,6.2275766E-3],"categories":[],"categories_nodes":[],"categories_segments":[],"categories_sizes":[],"default_left":[0,0,0,0,0,0,0,0,0,0,0,0,0,0,0,0,0,0,0,0,0,0,0,0,0,0,0,0,0,0,0,0,0,0,0,0,0,0,0,0,0,0,0,0,0,0,0,0,0,0,0,0,0,0,0,0,0,0,0,0,0,0,0,0,0,0,0,0,0,0,0,0,0,0,0,0,0,0,0,0,0,0,0,0,0,0,0,0,0,0,0,0,0,0,0,0,0,0,0,0,0,0,0,0,0,0,0,0,0,0,0,0,0],"id":1,"left_children":[1,3,5,7,9,11,13,15,17,19,21,23,25,27,29,31,33,35,37,39,41,43,45,47,49,51,53,55,57,59,61,-1,63,65,67,69,71,73,75,77,79,-1,-1,81,83,85,87,89,91,93,-1,95,97,-1,-1,99,101,-1,103,105,107,109,111,-1,-1,-1,-1,-1,-1,-1,-1,-1,-1,-1,-1,-1,-1,-1,-1,-1,-1,-1,-1,-1,-1,-1,-1,-1,-1,-1,-1,-1,-1,-1,-1,-1,-1,-1,-1,-1,-1,-1,-1,-1,-1,-1,-1,-1,-1,-1,-1,-1,-1],"loss_changes":[2.049591E1,5.7989845E0,7.979499E0,7.7105427E0,4.078113E0,9.613155E0,6.1072907E0,6.067951E0,6.190418E0,5.511144E0,7.1232014E0,7.2395706E0,9.895996E0,6.9476986E0,1.1631024E1,4.4002194E0,4.00235E0,8.626614E0,4.835185E0,4.0739245E0,1.4121695E0,1.5226603E0,5.090781E0,6.9607983E0,8.265057E0,3.9707718E0,4.422799E0,6.9781065E0,5.3687215E0,7.581994E0,3.3881083E0,0E0,4.402156E0,3.692461E0,5.8947897E0,4.6798615E0,6.361215E0,4.4305863E0,3.0913258E0,3.3256888E0,6.655691E0,0E0,0E0,1.2887241E0,6.1736107E-1,2.8371842E0,4.8235455E0,9.234584E0,8.604397E0,2.8142102E0,0E0,1.0359216E1,2.6845837E0,0E0,0E0,6.0712323E0,7.8196063E0,0E0,4.3108044E0,5.3962097E0,5.1044445E0,4.0526404E0,6.1381855E0,0E0,0E0,0E0,0E0,0E0,0E0,0E0,0E0,0E0,0E0,0E0,0E0,0E0,0E0,0E0,0E0,0E0,0E0,0E0,0E0,0E0,0E0,0E0,0E0,0E0,0E0,0E0,0E0,0E0,0E0,0E0,0E0,0E0,0E0,0E0,0E0,0E0,0E0,0E0,0E0,0E0,0E0,0E0,0E0,0E0,0E0,0E0,0E0,0E0,0E0],"parents":[2147483647,0,0,1,1,2,2,3,3,4,4,5,5,6,6,7,7,8,8,9,9,10,10,11,11,12,12,13,13,14,14,15,15,16,16,17,17,18,18,19,19,20,20,21,21,22,22,23,23,24,24,25,25,26,26,27,27,28,28,29,29,30,30,32,32,33,33,34,34,35,35,36,36,37,37,38,38,39,39,40,40,43,43,44,44,45,45,46,46,47,47,48,48,49,49,51,51,52,52,55,55,56,56,58,58,59,59,60,60,61,61,62,62],"right_children":[2,4,6,8,10,12,14,16,18,20,22,24,26,28,30,32,34,36,38,40,42,44,46,48,50,52,54,56,58,60,62,-1,64,66,68,70,72,74,76,78,80,-1,-1,82,84,86,88,90,92,94,-1,96,98,-1,-1,100,102,-1,104,106,108,110,112,-1,-1,-1,-1,-1,-1,-1,-1,-1,-1,-1,-1,-1,-1,-1,-1,-1,-1,-1,-1,-1,-1,-1,-1,-1,-1,-1,-1,-1,-1,-1,-1,-1,-1,-1,-1,-1,-1,-1,-1,-1,-1,-1,-1,-1,-1,-1,-1,-1,-1],"split_conditions":[2.8367304E1,3.6435744E5,1.6319624E6,4.1929882E1,1.1796522E5,1.151285E1,1.2130391E5,1.173047E5,1.2225076E2,1.18036734E5,7.59E2,6.4504596E2,1.10215324E2,1.2086375E5,4.194E3,1.238413E1,1.1805612E5,5.8798317E1,3.4410137E1,1.4510597E2,1.1797318E5,3.95E2,1.18156164E5,-5.2895084E1,9.68127E0,7.4346146E1,4.4463097E1,1.7360113E1,1.21024945E5,3.5018635E1,1.2204384E5,-2.2432274E-1,1.1725069E5,1.1779126E5,2.3646432E2,-6.6592493E0,1.1787467E5,1.9270086E1,6.252054E0,-8.2509166E-1,1.179465E5,4.176345E-1,4.0250756E-2,3.69E2,2.427714E1,1.9218723E2,2.6090307E1,1.1774876E6,-3.1682753E1,1.1721026E5,-4.541644E-1,5.5493073E1,-8.967107E1,1.2312956E-1,-3.6781907E-1,1.536E3,1.561729E1,4.6440864E-1,1.413682E2,5.7240303E1,2.868698E1,1.21786164E5,6.92149E1,-6.090429E-2,4.3481693E-1,-1.6174828E-1,-3.3868903E-1,2.6120558E-1,-3.1816524E-1,1.06634684E-1,-8.181249E-2,3.0824044E-1,-3.2390583E-2,-1.1076734E-1,2.7750326E-2,-2.9593894E-1,8.7024696E-2,-1.18567556E-1,1.704255E-2,9.5842205E-2,-1.59552E-1,-2.0837364E-1,9.552333E-2,-4.460049E-1,-1.2579547E-1,-3.6945656E-2,-3.7101182E-1,3.0848292E-1,-1.2148281E-1,2.1642832E-1,-1.5001112E-1,-8.3580196E-2,4.7501802E-2,2.087533E-1,-1.05392076E-1,3.0743977E-1,1.1285497E-2,-4.6441957E-2,3.8080496E-1,-1.8282472E-1,-9.839881E-3,-1.9395736E-1,1.2564221E-1,1.7687687E-1,-2.1586521E-1,-1.2209065E-1,3.8876775E-1,-2.5041157E-1,1.5744042E-2,1.5216774E-1,-2.1081905E-1,4.9751174E-1,6.2275766E-3],"split_indices":[18,5,5,11,2,4,16,0,17,15,6,17,18,16,6,18,15,11,13,17,1,6,15,12,4,18,11,14,16,11,0,0,0,9,17,12,15,13,14,14,15,0,0,6,18,17,18,5,12,8,0,18,13,0,0,6,4,0,18,18,4,9,13,0,0,0,0,0,0,0,0,0,0,0,0,0,0,0,0,0,0,0,0,0,0,0,0,0,0,0,0,0,0,0,0,0,0,0,0,0,0,0,0,0,0,0,0,0,0,0,0,0,0],"split_type":[0,0,0,0,0,0,0,0,0,0,0,0,0,0,0,0,0,0,0,0,0,0,0,0,0,0,0,0,0,0,0,0,0,0,0,0,0,0,0,0,0,0,0,0,0,0,0,0,0,0,0,0,0,0,0,0,0,0,0,0,0,0,0,0,0,0,0,0,0,0,0,0,0,0,0,0,0,0,0,0,0,0,0,0,0,0,0,0,0,0,0,0,0,0,0,0,0,0,0,0,0,0,0,0,0,0,0,0,0,0,0,0,0],"sum_hessian":[1.2769413E3,4.3517535E2,8.417659E2,2.7251938E2,1.6265596E2,4.9990958E2,3.4185638E2,7.641261E1,1.9610677E2,1.3306618E2,2.9589783E1,4.3914905E2,6.0760532E1,2.7487448E2,6.698192E1,7.087471E0,6.932514E1,8.569102E1,1.1041576E2,1.2887566E2,4.190525E0,9.883369E0,1.9706413E1,4.2513803E2,1.40110035E1,5.5305336E1,5.455198E0,2.597492E2,1.5125246E1,4.9556393E1,1.7425526E1,1.9006577E0,5.1868134E0,6.440254E1,4.9226036E0,6.592864E1,1.9762375E1,9.555801E1,1.4857753E1,6.3665726E1,6.520992E1,2.709536E0,1.4809892E0,3.6999068E0,6.183463E0,1.1098107E1,8.608306E0,4.252082E1,3.8261722E2,9.317703E0,4.6933007E0,4.189474E1,1.3410597E1,1.992E0,3.463198E0,1.9798003E2,6.1769196E1,3.9604049E0,1.1164841E1,5.727306E0,4.3829086E1,9.213815E0,8.211711E0,2.459481E0,2.727332E0,4.9762016E1,1.4640524E1,3.4458222E0,1.476781E0,1.4391496E1,5.1537144E1,1.214283E1,7.6195455E0,6.590852E1,2.9649483E1,1.3120112E1,1.7376401E0,3.1655457E1,3.201027E1,5.516659E1,1.0043332E1,2.4597006E0,1.2402061E0,4.452135E0,1.7313278E0,8.884359E0,2.2137485E0,5.6567435E0,2.9515624E0,3.5821278E1,6.6995435E0,5.120679E1,3.3141043E2,2.9342875E0,6.3834157E0,1.8885574E1,2.3009165E1,1.2452366E0,1.21653595E1,1.9357822E1,1.7862221E2,6.955616E0,5.481358E1,8.699486E0,2.4653556E0,2.9881594E0,2.7391462E0,3.6108704E1,7.7203817E0,5.229279E0,3.9845357E0,3.486186E0,4.725525E0],"tree_param":{"num_deleted":"0","num_feature":"19","num_nodes":"113","size_leaf_vector":"1"}},{"base_weights":[-1.2882039E-3,-1.2380451E-1,6.8266615E-2,-6.529635E-1,-1.0731379E-1,1.255085E-1,-8.70502E-2,-9.035522E-1,-2.037553E-1,-1.281402E-1,3.724294E-1,6.594058E-2,4.3084618E-1,3.5779518E-1,-1.10179536E-1,-1.0136671E0,-8.362569E-2,1.3810067E-1,-5.462561E-1,3.3604288E-1,-1.481209E-1,5.65362E-1,-3.385348E-1,5.154931E-2,1.2435333E0,3.828368E-1,4.5731273E-1,-4.2258456E-1,-2.4505334E-2,-1.1150819E0,-1.1519023E-1,-9.048607E-3,-2.8118855E-1,5.9941864E-1,-7.4310964E-1,1.0713862E0,-1.6048434E-1,7.593985E-1,-4.4473043E-1,1.1997966E-1,-1.09813474E-1,4.7443965E-1,3.883239E-2,5.5058885E-1,1.0085756E-1,2.3481987E-1,-4.9404377E-1,6.7228365E-1,-1.05588034E-1,-1.0285112E-1,-3.7206662E-1,-7.246038E-2,2.3115106E-1,-3.554921E-1,-6.2068715E-4,4.7760352E-1,-9.802456E-3,-7.271354E-2,-3.1247975E-3,3.3786383E-1,9.8529354E-2,-2.6200816E-2,-1.8101302E-1,2.6261864E-2,2.128638E-1,1.602871E-1,-5.148646E-2,9.675395E-2,3.4282628E-1,1.7499936E-1,-5.0515153E-2,-7.917954E-3,-1.9816358E-1,3.268477E-1,-1.4164141E-1,-2.2348695E-2,-2.6883093E-1],"categories":[],"categories_nodes":[],"categories_segments":[],"categories_sizes":[],"default_left":[0,0,0,0,0,0,0,0,0,0,0,0,0,0,0,0,0,0,0,0,0,0,0,0,0,0,0,0,0,0,0,0,0,0,0,0,0,0,0,0,0,0,0,0,0,0,0,0,0,0,0,0,0,0,0,0,0,0,0,0,0,0,0,0,0,0,0,0,0,0,0,0,0,0,0,0,0],"id":2,"left_children":[1,3,5,7,9,11,13,15,17,19,21,23,25,-1,27,29,-1,-1,31,33,35,37,-1,39,41,43,-1,45,47,49,-1,-1,-1,51,53,55,57,59,61,63,65,-1,-1,67,69,-1,71,73,75,-1,-1,-1,-1,-1,-1,-1,-1,-1,-1,-1,-1,-1,-1,-1,-1,-1,-1,-1,-1,-1,-1,-1,-1,-1,-1,-1,-1],"loss_changes":[1.0822516E1,3.9431634E0,7.213335E0,1.3583593E0,4.5158734E0,1.0745621E1,6.6061974E0,3.025627E-1,1.661189E0,4.0317855E0,6.0998363E0,8.355907E0,4.4835377E0,0E0,5.7651405E0,9.365559E-3,0E0,0E0,8.892417E-1,5.5683136E0,6.388568E0,3.74408E0,0E0,5.4446454E0,2.0373964E0,4.381139E0,0E0,4.3814163E0,9.698479E0,9.4301224E-2,0E0,0E0,0E0,2.3502235E0,1.3015585E0,2.505516E0,5.024562E0,1.9932508E0,1.4185512E-1,6.553147E0,5.943948E0,0E0,0E0,7.5436783E0,4.8019285E0,0E0,3.439496E0,9.06013E0,3.706301E0,0E0,0E0,0E0,0E0,0E0,0E0,0E0,0E0,0E0,0E0,0E0,0E0,0E0,0E0,0E0,0E0,0E0,0E0,0E0,0E0,0E0,0E0,0E0,0E0,0E0,0E0,0E0,0E0],"parents":[2147483647,0,0,1,1,2,2,3,3,4,4,5,5,6,6,7,7,8,8,9,9,10,10,11,11,12,12,14,14,15,15,18,18,19,19,20,20,21,21,23,23,24,24,25,25,27,27,28,28,29,29,33,33,34,34,35,35,36,36,37,37,38,38,39,39,40,40,43,43,44,44,46,46,47,47,48,48],"right_children":[2,4,6,8,10,12,14,16,18,20,22,24,26,-1,28,30,-1,-1,32,34,36,38,-1,40,42,44,-1,46,48,50,-1,-1,-1,52,54,56,58,60,62,64,66,-1,-1,68,70,-1,72,74,76,-1,-1,-1,-1,-1,-1,-1,-1,-1,-1,-1,-1,-1,-1,-1,-1,-1,-1,-1,-1,-1,-1,-1,-1,-1,-1,-1,-1],"split_conditions":[3.0548634E1,2.228224E1,3.761995E1,1.1748904E5,1.933E3,5.5236984E1,1.16937836E5,1.1738557E5,1.1775874E5,1.1731001E5,1.352656E1,6.052709E1,1.2226798E5,3.5779518E-1,4.863804E1,1.325E3,-8.362569E-2,1.3810067E-1,6.6E2,4.62413E0,2.4709957E1,2.8675528E1,-3.385348E-1,1.1988882E5,3.3449382E6,3.1070743E2,4.5731273E-1,4.4745667E1,5.272977E1,2.22E2,-1.1519023E-1,-9.048607E-3,-2.8118855E-1,1.3354031E1,1.844325E2,1.1783135E5,5.7259224E1,9.3635E0,5.649926E1,1.19799625E5,3.0745586E1,4.7443965E-1,3.883239E-2,1.5290673E1,2.475573E1,2.3481987E-1,1.1812222E5,6.296254E1,6.999467E1,-1.0285112E-1,-3.7206662E-1,-7.246038E-2,2.3115106E-1,-3.554921E-1,-6.2068715E-4,4.7760352E-1,-9.802456E-3,-7.271354E-2,-3.1247975E-3,3.3786383E-1,9.8529354E-2,-2.6200816E-2,-1.8101302E-1,2.6261864E-2,2.128638E-1,1.602871E-1,-5.148646E-2,9.675395E-2,3.4282628E-1,1.7499936E-1,-5.0515153E-2,-7.917954E-3,-1.9816358E-1,3.268477E-1,-1.4164141E-1,-2.2348695E-2,-2.6883093E-1],"split_indices":[18,11,12,15,6,11,8,8,7,1,14,13,16,0,12,6,0,0,6,4,11,13,0,8,5,17,0,11,12,6,0,0,0,18,17,8,11,4,11,7,11,0,0,14,14,0,0,11,14,0,0,0,0,0,0,0,0,0,0,0,0,0,0,0,0,0,0,0,0,0,0,0,0,0,0,0,0],"split_type":[0,0,0,0,0,0,0,0,0,0,0,0,0,0,0,0,0,0,0,0,0,0,0,0,0,0,0,0,0,0,0,0,0,0,0,0,0,0,0,0,0,0,0,0,0,0,0,0,0,0,0,0,0,0,0,0,0,0,0,0,0,0,0,0,0,0,0,0,0,0,0,0,0,0,0,0,0],"sum_hessian":[1.2680183E3,4.5890567E2,8.091126E2,1.2702677E1,4.46203E2,5.9135944E2,2.1775314E2,7.504753E0,5.197923E0,4.2834094E2,1.7862053E1,4.9584222E2,9.5517235E1,2.9681256E0,2.1478502E2,5.851157E0,1.6535959E0,1.6515716E0,3.5463517E0,1.7024185E1,4.1131677E2,1.63798E1,1.4822521E0,4.908869E2,4.9553156E0,9.27934E1,2.7238321E0,4.537947E1,1.6940555E2,4.375634E0,1.475523E0,1.9930513E0,1.5533003E0,1.4041735E1,2.98245E0,3.2684188E0,4.0804834E2,1.3948511E1,2.4312897E0,3.4488525E2,1.4600165E2,3.4801788E0,1.4751365E0,5.7583725E1,3.520968E1,1.982733E0,4.3396736E1,1.6898235E1,1.5250731E2,1.1316712E0,3.2439632E0,2.3041413E0,1.1737593E1,1.4930906E0,1.4893594E0,1.9207295E0,1.3476894E0,2.6358936E2,1.4445898E2,6.6636133E0,7.2848973E0,1.224123E0,1.2071667E0,3.279867E2,1.6898552E1,1.2114252E1,1.3388739E2,4.2687164E1,1.4896561E1,1.2193202E1,2.3016478E1,1.1698321E1,3.1698414E1,1.24188385E1,4.4793963E0,1.4778876E2,4.7185626E0],"tree_param":{"num_deleted":"0","num_feature":"19","num_nodes":"77","size_leaf_vector":"1"}},{"base_weights":[6.7110275E-5,5.398259E-1,-8.841736E-3,7.378933E-1,-2.0904784E-1,-2.5900868E-1,8.328127E-3,-9.625216E-2,8.447926E-1,-3.3397543E-1,5.834289E-1,-3.320671E-1,5.104375E-1,-6.604512E-1,1.3894431E-2,3.4531018E-1,1.0000123E0,2.879191E-1,-2.1016084E-2,-6.538999E-2,-6.778486E-1,9.8680973E-1,-2.0632897E-1,-1.1760467E0,4.671409E-1,1.8071209E-1,-1.3207741E-2,9.6451384E-1,-2.7572045E-1,1.1422307E0,6.2327992E-2,-3.0418932E-1,2.9652616E-1,-7.532593E-1,1.6130398E-1,-5.1975887E-2,4.2723393E-1,-3.227126E-2,-4.1536948E-1,-1.7879462E-1,3.712653E-1,6.917136E-1,1.1071035E-1,-3.426714E-1,3.793036E-3,3.4676105E-1,8.958729E-2,3.8987327E-2,3.8497508E-1,-1.7327209E-1,1.2127536E-1,3.498979E-1,1.9834142E-2,6.763762E-2,-2.4812861E-1,-5.975273E-2,3.366715E-1,-2.7708417E-2,9.1519654E-2,-1.179967E-2,-2.0784432E-1,2.6778276E-3,-2.2605084E-1],"categories":[],"categories_nodes":[],"categories_segments":[],"categories_sizes":[],"default_left":[0,0,0,0,0,0,0,0,0,0,0,0,0,0,0,0,0,0,0,0,0,0,0,0,0,0,0,0,0,0,0,0,0,0,0,0,0,0,0,0,0,0,0,0,0,0,0,0,0,0,0,0,0,0,0,0,0,0,0,0,0,0,0],"id":3,"left_children":[1,3,5,7,9,11,13,-1,15,-1,17,19,21,23,25,27,29,-1,-1,31,33,35,-1,37,39,41,43,45,-1,47,-1,49,51,53,-1,-1,-1,-1,-1,-1,-1,55,57,59,61,-1,-1,-1,-1,-1,-1,-1,-1,-1,-1,-1,-1,-1,-1,-1,-1,-1,-1],"loss_changes":[6.073053E0,3.1959753E0,5.3388906E0,2.1314917E0,4.2814274E0,4.657003E0,4.340907E0,0E0,8.335953E-1,0E0,8.928126E-1,6.734338E0,4.854876E0,6.1455126E0,5.2242627E0,4.904748E0,1.0103655E0,0E0,0E0,3.77278E0,3.3292503E0,3.1108718E0,0E0,1.386035E0,3.7974956E0,5.700075E0,5.571665E0,1.5600729E-1,0E0,1.141655E0,0E0,5.3010416E0,3.4190679E0,2.3872738E0,0E0,0E0,0E0,0E0,0E0,0E0,0E0,7.613166E0,5.680927E0,5.157034E0,3.6867588E0,0E0,0E0,0E0,0E0,0E0,0E0,0E0,0E0,0E0,0E0,0E0,0E0,0E0,0E0,0E0,0E0,0E0,0E0],"parents":[2147483647,0,0,1,1,2,2,3,3,4,4,5,5,6,6,8,8,10,10,11,11,12,12,13,13,14,14,15,15,16,16,19,19,20,20,21,21,23,23,24,24,25,25,26,26,27,27,29,29,31,31,32,32,33,33,41,41,42,42,43,43,44,44],"right_children":[2,4,6,8,10,12,14,-1,16,-1,18,20,22,24,26,28,30,-1,-1,32,34,36,-1,38,40,42,44,46,-1,48,-1,50,52,54,-1,-1,-1,-1,-1,-1,-1,56,58,60,62,-1,-1,-1,-1,-1,-1,-1,-1,-1,-1,-1,-1,-1,-1,-1,-1,-1,-1],"split_conditions":[1.1692758E5,6.5162575E1,1.0852634E1,4.78E2,7.190338E1,2.2817554E1,1.1675266E5,-9.625216E-2,2.175736E0,-3.3397543E-1,5.136808E1,1.03064926E2,4.43E2,2.804E3,-4.9050556E1,1.423E3,3.6733768E2,2.879191E-1,-2.1016084E-2,7.3787834E1,2.658487E1,7.2411E-1,-2.0632897E-1,5.834008E1,2.75451E1,2.963557E1,-4.3957577E1,-4.3670382E0,-2.7572045E-1,3.5681747E1,6.2327992E-2,5.0843998E1,5.0852E-1,3.9196E-1,1.6130398E-1,-5.1975887E-2,4.2723393E-1,-3.227126E-2,-4.1536948E-1,-1.7879462E-1,3.712653E-1,4.7045496E2,-7.677403E1,2.116E3,1.22487055E5,3.4676105E-1,8.958729E-2,3.8987327E-2,3.8497508E-1,-1.7327209E-1,1.2127536E-1,3.498979E-1,1.9834142E-2,6.763762E-2,-2.4812861E-1,-5.975273E-2,3.366715E-1,-2.7708417E-2,9.1519654E-2,-1.179967E-2,-2.0784432E-1,2.6778276E-3,-2.2605084E-1],"split_indices":[15,18,18,6,18,13,8,0,14,0,11,17,6,6,13,6,17,0,0,17,12,4,0,18,11,11,12,14,0,18,0,11,4,4,0,0,0,0,0,0,0,17,13,6,16,0,0,0,0,0,0,0,0,0,0,0,0,0,0,0,0,0,0],"split_type":[0,0,0,0,0,0,0,0,0,0,0,0,0,0,0,0,0,0,0,0,0,0,0,0,0,0,0,0,0,0,0,0,0,0,0,0,0,0,0,0,0,0,0,0,0,0,0,0,0,0,0,0,0,0,0,0,0,0,0,0,0,0,0],"sum_hessian":[1.2609564E3,1.95068E1,1.2414496E3,1.5438247E1,4.0685534E0,7.882821E1,1.1626215E3,1.2322892E0,1.4205957E1,1.711259E0,2.3572946E0,7.25117E1,6.316505E0,8.625577E0,1.1539958E3,4.1325264E0,1.0073431E1,1.1985068E0,1.1587877E0,4.1609955E1,3.0901745E1,4.64586E0,1.670645E0,5.889575E0,2.7360017E0,1.6048994E2,9.935059E2,2.9332101E0,1.1993165E0,8.165821E0,1.9076102E0,2.516506E1,1.6444895E1,2.9454695E1,1.4470508E0,1.4371785E0,3.2086816E0,1.2092241E0,4.680351E0,1.2447398E0,1.491262E0,1.8266445E1,1.4222351E2,4.7810684E1,9.456952E2,1.7068771E0,1.2263329E0,1.2334404E0,6.9323807E0,1.8291264E1,6.8737974E0,2.5933108E0,1.3851584E1,1.9221766E0,2.7532518E1,6.126396E0,1.2140049E1,6.980872E1,7.241478E1,2.6213495E1,2.159719E1,9.403099E2,5.3853374E0],"tree_param":{"num_deleted":"0","num_feature":"19","num_nodes":"63","size_leaf_vector":"1"}},{"base_weights":[2.7601066E-4,-6.8920866E-2,5.5340804E-2,-4.969446E-2,-5.789302E-1,1.9220662E-1,7.749303E-3,-6.7691006E-2,4.3043506E-1,2.3770395E-1,-7.1008295E-1,7.6850104E-1,1.3676788E-1,1.4456071E-1,-6.419422E-2,-5.9459314E-2,-3.8395542E-1,7.7756774E-1,-2.4071705E-1,1.3126938E-1,-8.6974037E-1,-1.794709E-1,9.279706E-1,-4.540771E-3,4.580957E-1,1.10084824E-1,9.3002856E-1,-3.9730638E-1,3.1570976E-3,-5.2520767E-2,-3.198761E-1,9.391898E-1,-5.420882E-2,-7.2703314E-1,2.1944478E-1,-9.7790784E-1,8.410347E-2,1.4480547E0,5.010999E-1,-3.947643E-1,1.7153741E-1,6.0544103E-1,-1.53745E-1,-3.4207916E-1,1.2739326E-1,4.4008288E-1,1.7609812E-1,-7.156758E-3,-9.4926745E-1,5.50956E-1,-2.5743E-2,-1.8919446E-2,1.7165586E-1,3.5644716E-1,8.621576E-2,-3.122093E-1,5.5656325E-2,-6.708519E-3,-3.464262E-1,5.0620097E-1,8.79562E-2,2.2452535E-1,-8.4675096E-2,-2.2422576E-1,-4.3372065E-2,1.3815692E-2,1.5055984E-1,-2.8796652E-2,2.235212E-1,9.756398E-2,-2.8750458E-1,8.1951335E-2,-1.596499E-2,2.6196346E-1,-1.5552792E-1,2.1077874E-1,-1.08588E-1,-3.1809354E-1,1.2920326E-1,2.3905674E-1,-1.9500656E-1,-3.575466E-2,4.822297E-2],"categories":[],"categories_nodes":[],"categories_segments":[],"categories_sizes":[],"default_left":[0,0,0,0,0,0,0,0,0,0,0,0,0,0,0,0,0,0,0,0,0,0,0,0,0,0,0,0,0,0,0,0,0,0,0,0,0,0,0,0,0,0,0,0,0,0,0,0,0,0,0,0,0,0,0,0,0,0,0,0,0,0,0,0,0,0,0,0,0,0,0,0,0,0,0,0,0,0,0,0,0,0,0],"id":4,"left_children":[1,3,5,7,9,11,13,15,17,-1,19,21,23,25,27,29,-1,31,33,-1,35,-1,37,39,41,43,45,47,49,51,-1,53,-1,55,-1,57,-1,59,61,63,65,67,69,-1,71,-1,73,75,77,79,81,-1,-1,-1,-1,-1,-1,-1,-1,-1,-1,-1,-1,-1,-1,-1,-1,-1,-1,-1,-1,-1,-1,-1,-1,-1,-1,-1,-1,-1,-1,-1,-1],"loss_changes":[4.79203E0,5.436021E0,4.560256E0,4.6791854E0,4.1869783E0,5.6665034E0,5.1342316E0,5.1083336E0,4.7486067E0,0E0,3.8474045E0,3.9632273E0,7.540166E0,4.7652555E0,7.6727204E0,3.556463E0,0E0,2.2049026E0,4.048465E0,0E0,2.3820896E0,0E0,2.4701748E0,8.05842E0,4.665353E0,3.8963628E0,2.7467666E0,1.2379007E1,4.5327644E0,3.4259596E0,0E0,1.5094223E0,0E0,1.7557619E0,0E0,2.629053E0,0E0,1.1522169E0,2.0391648E0,3.1090665E0,3.327557E0,4.0945644E0,4.412363E0,0E0,4.5394626E0,0E0,2.4979162E0,8.993704E0,4.1053123E0,4.755164E0,4.7600164E0,0E0,0E0,0E0,0E0,0E0,0E0,0E0,0E0,0E0,0E0,0E0,0E0,0E0,0E0,0E0,0E0,0E0,0E0,0E0,0E0,0E0,0E0,0E0,0E0,0E0,0E0,0E0,0E0,0E0,0E0,0E0,0E0],"parents":[2147483647,0,0,1,1,2,2,3,3,4,4,5,5,6,6,7,7,8,8,10,10,11,11,12,12,13,13,14,14,15,15,17,17,18,18,20,20,22,22,23,23,24,24,25,25,26,26,27,27,28,28,29,29,31,31,33,33,35,35,37,37,38,38,39,39,40,40,41,41,42,42,44,44,46,46,47,47,48,48,49,49,50,50],"right_children":[2,4,6,8,10,12,14,16,18,-1,20,22,24,26,28,30,-1,32,34,-1,36,-1,38,40,42,44,46,48,50,52,-1,54,-1,56,-1,58,-1,60,62,64,66,68,70,-1,72,-1,74,76,78,80,82,-1,-1,-1,-1,-1,-1,-1,-1,-1,-1,-1,-1,-1,-1,-1,-1,-1,-1,-1,-1,-1,-1,-1,-1,-1,-1,-1,-1,-1,-1,-1,-1],"split_conditions":[3.831761E1,1.19832E5,2.6467285E2,1.19204375E5,-1.6969002E1,4.0173634E1,4.3401165E1,1.19184375E5,5.66892E0,2.3770395E-1,1.5412221E2,3.2303738E1,6.3260117E0,1.2860803E1,4.765283E1,6.052709E1,-3.8395542E-1,1.1983799E5,-3.4582087E-1,1.3126938E-1,-7.936566E-1,-1.794709E-1,-9.233147E0,-8.483641E0,6.669198E1,4.96E2,-2.7050594E1,1.198E5,-4.495852E1,3.6367435E2,-3.198761E-1,4.49472E0,-5.420882E-2,1.273032E1,2.1944478E-1,-5.2895084E1,8.410347E-2,5.23872E1,-2.3614038E1,2.0616283E2,2.2842348E2,3.8537438E5,5.136808E1,-3.4207916E-1,3.039E3,4.4008288E-1,3.878897E1,4.4745667E1,2.6263254E1,3.879448E1,1.1998506E5,-1.8919446E-2,1.7165586E-1,3.5644716E-1,8.621576E-2,-3.122093E-1,5.5656325E-2,-6.708519E-3,-3.464262E-1,5.0620097E-1,8.79562E-2,2.2452535E-1,-8.4675096E-2,-2.2422576E-1,-4.3372065E-2,1.3815692E-2,1.5055984E-1,-2.8796652E-2,2.235212E-1,9.756398E-2,-2.8750458E-1,8.1951335E-2,-1.596499E-2,2.6196346E-1,-1.5552792E-1,2.1077874E-1,-1.08588E-1,-3.1809354E-1,1.2920326E-1,2.3905674E-1,-1.9500656E-1,-3.575466E-2,4.822297E-2],"split_indices":[18,2,17,15,14,11,11,15,4,0,17,11,14,12,11,13,0,3,14,0,13,0,14,12,18,6,14,3,12,17,0,4,0,4,0,12,0,18,12,17,17,5,11,0,6,0,13,11,14,4,9,0,0,0,0,0,0,0,0,0,0,0,0,0,0,0,0,0,0,0,0,0,0,0,0,0,0,0,0,0,0,0,0],"split_type":[0,0,0,0,0,0,0,0,0,0,0,0,0,0,0,0,0,0,0,0,0,0,0,0,0,0,0,0,0,0,0,0,0,0,0,0,0,0,0,0,0,0,0,0,0,0,0,0,0,0,0,0,0,0,0,0,0,0,0,0,0,0,0,0,0,0,0,0,0,0,0,0,0,0,0,0,0,0,0,0,0,0,0],"sum_hessian":[1.255647E3,5.563106E2,6.9933636E2,5.3715814E2,1.915243E1,1.7965051E2,5.1968585E2,5.185794E2,1.8578741E1,1.2318047E0,1.7920626E1,1.4636775E1,1.6501373E2,1.7875223E2,3.409336E2,5.1612354E2,2.4559054E0,1.2140754E1,6.4379864E0,1.9760152E0,1.594461E1,1.241872E0,1.3394903E1,1.1529633E2,4.9717396E1,1.723285E2,6.423721E0,5.651544E1,2.8441815E2,5.1363586E2,2.4876685E0,1.0405631E1,1.7351228E0,4.4594474E0,1.9785388E0,1.4710748E1,1.2338617E0,4.9598017E0,8.4351015E0,3.5462517E1,7.9833824E1,4.0076508E1,9.640888E0,1.4671005E0,1.708614E2,3.1994758E0,3.2242453E0,3.3704575E1,2.2810865E1,1.3347789E1,2.7107037E2,5.059945E2,7.641322E0,6.9341445E0,3.4714868E0,3.2142258E0,1.2452217E0,2.4733E0,1.2237448E1,3.7266057E0,1.2331958E0,6.444917E0,1.9901841E0,1.389272E1,2.1569796E1,5.8681377E1,2.1152443E1,6.7052402E0,3.337127E1,6.4168963E0,3.2239914E0,9.426427E1,7.6597145E1,1.480723E0,1.7435223E0,1.0906615E1,2.279796E1,2.1326359E1,1.4845062E0,1.1358611E1,1.9891769E0,1.8082744E2,9.024293E1],"tree_param":{"num_deleted":"0","num_feature":"19","num_nodes":"83","size_leaf_vector":"1"}},{"base_weights":[4.3560608E-4,3.1874046E-1,-8.4858E-3,6.457465E-1,-1.400502E-1,-3.0034432E-1,3.01106E-4,-4.9585644E-2,7.917681E-1,3.3203074E-1,-3.643584E-1,-5.0218314E-1,5.711394E-1,4.7711456E-1,-1.2036861E-2,1.8436833E-1,-1.4724694E-1,4.9802557E-1,1.2094334E0,-6.1316335E-1,9.937252E-1,-7.4862456E-1,8.713102E-2,-3.360298E-2,1.0683514E0,1.0089524E0,6.918885E-2,-5.7565033E-1,-1.1314938E-3,3.2690823E-1,5.7931326E-2,1.2535001E-1,4.1059947E-1,-8.6543456E-2,-3.2405138E-1,4.2103088E-1,-6.455303E-2,-1.1468809E0,-4.4931716E-1,-2.8148913E-1,5.1937336E-1,1.9173361E-1,-1.8828349E-1,3.9213482E-1,9.019743E-2,-6.686195E-2,1.3699636E0,-3.6735988E-1,8.663876E-1,-8.116191E-1,1.9702622E-1,6.7009073E-1,-7.132515E-3,1.09296404E-1,-2.6793343E-1,-1.5965554E-1,1.07122205E-1,-3.2013528E-2,-3.9312327E-1,2.0086016E-1,-2.0989333E-1,3.124063E-1,-1.7859094E-1,1.6712189E-1,-1.5365458E-1,4.7710684E-1,2.80258E-2,2.8263872E-2,-3.5990548E-1,3.4367144E-1,-5.8324013E-2,-3.2510418E-1,4.2924277E-2,3.5392106E-1,-1.1705189E-1,-1.2716379E-2,3.3982673E-1,7.312663E-2,-6.1335154E-3],"categories":[],"categories_nodes":[],"categories_segments":[],"categories_sizes":[],"default_left":[0,0,0,0,0,0,0,0,0,0,0,0,0,0,0,0,0,0,0,0,0,0,0,0,0,0,0,0,0,0,0,0,0,0,0,0,0,0,0,0,0,0,0,0,0,0,0,0,0,0,0,0,0,0,0,0,0,0,0,0,0,0,0,0,0,0,0,0,0,0,0,0,0,0,0,0,0,0,0],"id":5,"left_children":[1,3,5,7,9,11,13,15,17,19,-1,21,23,25,27,-1,-1,29,31,33,35,37,39,41,43,45,47,49,51,-1,53,-1,-1,55,-1,-1,-1,57,59,-1,61,-1,-1,-1,-1,63,65,67,69,71,73,75,77,-1,-1,-1,-1,-1,-1,-1,-1,-1,-1,-1,-1,-1,-1,-1,-1,-1,-1,-1,-1,-1,-1,-1,-1,-1,-1],"loss_changes":[3.5548677E0,5.210815E0,3.1230567E0,2.0805845E0,8.024385E0,6.547426E0,6.966167E0,1.5999503E0,1.443408E0,7.6289916E0,0E0,4.339541E0,2.1890986E0,6.410001E0,7.0941057E0,0E0,0E0,2.9286587E0,2.0772076E-1,1.1952718E0,3.7609472E0,1.970849E0,4.730911E0,2.079669E0,3.3293247E-1,5.0982685E0,6.574413E0,4.1544356E0,4.5700717E0,0E0,2.553035E0,0E0,0E0,8.918467E-1,0E0,0E0,0E0,1.2728453E0,4.264018E0,0E0,4.913219E0,0E0,0E0,0E0,0E0,1.4501951E0,2.5800686E0,4.845333E0,2.1947098E0,4.5649843E0,3.882234E0,3.362104E0,3.760196E0,0E0,0E0,0E0,0E0,0E0,0E0,0E0,0E0,0E0,0E0,0E0,0E0,0E0,0E0,0E0,0E0,0E0,0E0,0E0,0E0,0E0,0E0,0E0,0E0,0E0,0E0],"parents":[2147483647,0,0,1,1,2,2,3,3,4,4,5,5,6,6,7,7,8,8,9,9,11,11,12,12,13,13,14,14,17,17,18,18,19,19,20,20,21,21,22,22,23,23,24,24,25,25,26,26,27,27,28,28,30,30,33,33,37,37,38,38,40,40,45,45,46,46,47,47,48,48,49,49,50,50,51,51,52,52],"right_children":[2,4,6,8,10,12,14,16,18,20,-1,22,24,26,28,-1,-1,30,32,34,36,38,40,42,44,46,48,50,52,-1,54,-1,-1,56,-1,-1,-1,58,60,-1,62,-1,-1,-1,-1,64,66,68,70,72,74,76,78,-1,-1,-1,-1,-1,-1,-1,-1,-1,-1,-1,-1,-1,-1,-1,-1,-1,-1,-1,-1,-1,-1,-1,-1,-1,-1],"split_conditions":[1.1702747E5,6.1553127E1,1.16827914E5,3.755637E1,5.358905E1,1.2149718E2,1.1702026E5,1.16809766E5,1.1691358E5,7.479787E1,-3.643584E-1,6.787137E1,9.5110974E2,-2.5110317E1,1.1710499E5,1.8436833E-1,-1.4724694E-1,4.7774197E1,4.2821846E1,1.1692758E5,1.1730742E1,-1.4324192E1,1.762186E1,1.17369555E5,1.0942859E3,-2.0640734E1,1.1698688E5,7.565204E1,1.17167336E5,3.2690823E-1,1.1682001E5,1.2535001E-1,4.1059947E-1,1.37E3,-3.2405138E-1,4.2103088E-1,-6.455303E-2,1.67406E1,-4.469955E0,-2.8148913E-1,1.17316805E5,1.9173361E-1,-1.8828349E-1,3.9213482E-1,9.019743E-2,-6.0008198E1,4.3528057E1,-1.05650625E1,-2.9589872E0,6.4859905E0,2.28E3,1.17108305E5,3.0005487E1,1.09296404E-1,-2.6793343E-1,-1.5965554E-1,1.07122205E-1,-3.2013528E-2,-3.9312327E-1,2.0086016E-1,-2.0989333E-1,3.124063E-1,-1.7859094E-1,1.6712189E-1,-1.5365458E-1,4.7710684E-1,2.80258E-2,2.8263872E-2,-3.5990548E-1,3.4367144E-1,-5.8324013E-2,-3.2510418E-1,4.2924277E-2,3.5392106E-1,-1.1705189E-1,-1.2716379E-2,3.3982673E-1,7.312663E-2,-6.1335154E-3],"split_indices":[15,18,16,18,11,18,3,10,15,18,0,12,17,12,3,0,0,18,18,15,14,14,14,15,17,14,2,18,9,0,1,0,0,6,0,0,0,11,14,0,7,0,0,0,0,13,11,14,14,14,6,8,11,0,0,0,0,0,0,0,0,0,0,0,0,0,0,0,0,0,0,0,0,0,0,0,0,0,0],"split_type":[0,0,0,0,0,0,0,0,0,0,0,0,0,0,0,0,0,0,0,0,0,0,0,0,0,0,0,0,0,0,0,0,0,0,0,0,0,0,0,0,0,0,0,0,0,0,0,0,0,0,0,0,0,0,0,0,0,0,0,0,0,0,0,0,0,0,0,0,0,0,0,0,0,0,0,0,0,0,0],"sum_hessian":[1.249882E3,3.312963E1,1.2167523E3,1.9104952E1,1.402468E1,3.4592014E1,1.1821604E3,3.430388E0,1.5674564E1,1.0223765E1,3.8009145E0,2.8431042E1,6.1609735E0,2.8867704E1,1.1532926E3,1.2125125E0,2.2178755E0,1.0489642E1,5.184922E0,4.2402067E0,5.9835587E0,1.9856888E1,8.574153E0,3.2006037E0,2.96037E0,1.1891132E1,1.6976572E1,2.0908514E1,1.1323842E3,3.844713E0,6.644929E0,1.4752007E0,3.7097216E0,2.5500107E0,1.6901962E0,4.348786E0,1.6347727E0,7.3050537E0,1.2551835E1,2.1953228E0,6.37883E0,1.4652625E0,1.7353412E0,1.7221122E0,1.2382579E0,3.1924417E0,8.69869E0,1.1317989E1,5.6585827E0,1.5978436E1,4.930077E0,9.053693E0,1.1233304E3,5.492407E0,1.1525217E0,1.1725059E0,1.3775048E0,1.2169466E0,6.088107E0,1.9886814E0,1.0563153E1,4.3892226E0,1.9896071E0,1.2250633E0,1.9673783E0,7.208355E0,1.4903353E0,7.8509736E0,3.467016E0,4.4163632E0,1.2422197E0,1.2329726E1,3.64871E0,1.4665809E0,3.4634962E0,3.922162E0,5.131531E0,5.5730156E1,1.0676002E3],"tree_param":{"num_deleted":"0","num_feature":"19","num_nodes":"79","size_leaf_vector":"1"}},{"base_weights":[1.1436163E-3,-1.7220101E-1,1.537433E-2,-7.2715306E-1,-3.697964E-2,3.9767396E-1,8.523875E-3,1.3130799E-1,-9.276341E-1,2.520347E-1,-1.8477975E-1,6.8727916E-1,-2.5086686E-1,-9.135511E-2,3.4165915E-2,3.9852345E-1,-3.3225334E-1,-5.173501E-1,-4.1466227E-1,-4.3989606E-2,8.0235076E-1,-4.8903552E-1,1.0853737E-1,1.1726142E-1,1.3616571E0,3.4484622E-1,-6.8834114E-1,-2.7893305E-1,4.0259097E-2,1.0383416E0,2.3226544E-2,-7.698492E-1,1.2583213E-1,-3.3257815E-1,6.659865E-1,-8.898118E-2,1.2934784E0,-6.900233E-1,1.8554826E-1,-2.9494312E-1,4.5695585E-1,5.430316E-1,-2.4635263E-1,5.1925963E-1,1.2382009E-1,-1.2568438E-1,2.6229715E-1,-2.9111916E-1,1.3751772E-2,-5.356486E-1,-7.4284814E-2,-3.707439E-1,1.2268775E-1,4.757891E-1,9.703317E-2,4.7685805E-1,8.197142E-3,-5.3791024E-2,-3.2484588E-1,5.463313E-2,-2.3482528E-1,2.8765908E-1,-3.6864456E-2,1.7944063E-1,-2.6896366E-1,4.99595E-1,-3.173205E-2,-3.5803128E-2,-3.3253127E-1,-1.8284233E-1,2.9230455E-1,1.7911361E-1,-1.365778E-1,3.212719E-1,-1.4277647E-1,3.6930287E-1,-1.6270833E-1,-1.84838E-1,7.5493455E-2,2.9471625E-2,-2.0615827E-1,4.1331135E-2,-2.0464952E-1,3.193466E-1,2.405739E-2,1.8546656E-1,-1.8662933E-1,2.9565915E-1,7.7330135E-2,-4.090589E-2,1.0871434E-2],"categories":[],"categories_nodes":[],"categories_segments":[],"categories_sizes":[],"default_left":[0,0,0,0,0,0,0,0,0,0,0,0,0,0,0,0,0,0,0,0,0,0,0,0,0,0,0,0,0,0,0,0,0,0,0,0,0,0,0,0,0,0,0,0,0,0,0,0,0,0,0,0,0,0,0,0,0,0,0,0,0,0,0,0,0,0,0,0,0,0,0,0,0,0,0,0,0,0,0,0,0,0,0,0,0,0,0,0,0,0,0],"id":6,"left_children":[1,3,5,7,9,11,13,15,17,19,21,23,25,27,29,-1,-1,31,-1,33,35,37,39,41,43,45,47,49,51,53,55,57,-1,59,61,63,65,67,69,71,73,75,-1,-1,-1,-1,-1,-1,-1,77,79,81,83,-1,85,87,89,-1,-1,-1,-1,-1,-1,-1,-1,-1,-1,-1,-1,-1,-1,-1,-1,-1,-1,-1,-1,-1,-1,-1,-1,-1,-1,-1,-1,-1,-1,-1,-1,-1,-1],"loss_changes":[3.0774808E0,7.075631E0,3.015787E0,3.3040695E0,3.3424728E0,3.9799354E0,2.9062767E0,7.9617157E0,2.1036682E0,4.3572264E0,4.660518E0,5.3302493E0,2.05918E0,5.7348976E0,9.892272E0,0E0,0E0,2.5799546E0,0E0,3.950237E0,4.1999855E0,3.5885196E0,3.945168E0,3.97556E0,1.5445576E0,1.8327727E0,9.4825816E-1,4.9891114E0,4.6908455E0,4.8489733E0,6.091293E0,1.2601843E0,0E0,3.2950735E0,1.4099333E0,2.8949153E0,3.3399162E0,4.61374E0,4.762203E0,2.1547909E0,9.064754E0,5.6548386E0,0E0,0E0,0E0,0E0,0E0,0E0,0E0,2.8350887E0,5.8223243E0,3.7607837E0,4.515863E0,0E0,2.121697E0,2.939145E0,3.5165768E0,0E0,0E0,0E0,0E0,0E0,0E0,0E0,0E0,0E0,0E0,0E0,0E0,0E0,0E0,0E0,0E0,0E0,0E0,0E0,0E0,0E0,0E0,0E0,0E0,0E0,0E0,0E0,0E0,0E0,0E0,0E0,0E0,0E0,0E0],"parents":[2147483647,0,0,1,1,2,2,3,3,4,4,5,5,6,6,7,7,8,8,9,9,10,10,11,11,12,12,13,13,14,14,17,17,19,19,20,20,21,21,22,22,23,23,24,24,25,25,26,26,27,27,28,28,29,29,30,30,31,31,33,33,34,34,35,35,36,36,37,37,38,38,39,39,40,40,41,41,49,49,50,50,51,51,52,52,54,54,55,55,56,56],"right_children":[2,4,6,8,10,12,14,16,18,20,22,24,26,28,30,-1,-1,32,-1,34,36,38,40,42,44,46,48,50,52,54,56,58,-1,60,62,64,66,68,70,72,74,76,-1,-1,-1,-1,-1,-1,-1,78,80,82,84,-1,86,88,90,-1,-1,-1,-1,-1,-1,-1,-1,-1,-1,-1,-1,-1,-1,-1,-1,-1,-1,-1,-1,-1,-1,-1,-1,-1,-1,-1,-1,-1,-1,-1,-1,-1,-1],"split_conditions":[2.33E2,-6.050798E0,2.61E2,-1.1389187E1,-6.795993E0,2.0194629E2,2.2885057E1,1.1760937E5,1.98E2,-1.1608861E1,1.1778873E5,1.1958311E2,2.38E2,2.8211116E5,9.6653E-1,3.9852345E-1,-3.3225334E-1,1.1789479E5,-4.1466227E-1,1.631149E2,1.57E2,7.7958946E0,5.864784E-1,1.2392627E1,-3.1293976E0,2.9684205E0,1.17786875E5,4.591709E1,1.1752151E5,1.176346E5,1.2660906E2,1.317662E2,1.2583213E-1,1.3154098E0,1.06077E0,-1.1076414E1,9.781212E0,-1.0805718E0,1.8213823E1,-5.0776243E0,6.6420097E0,1.44445E0,-2.4635263E-1,5.1925963E-1,1.2382009E-1,-1.2568438E-1,2.6229715E-1,-2.9111916E-1,1.3751772E-2,1.029E3,6.7478226E1,7.78E2,1.17484336E5,4.757891E-1,3.95E2,2.99959E0,3.4408485E1,-5.3791024E-2,-3.2484588E-1,5.463313E-2,-2.3482528E-1,2.8765908E-1,-3.6864456E-2,1.7944063E-1,-2.6896366E-1,4.99595E-1,-3.173205E-2,-3.5803128E-2,-3.3253127E-1,-1.8284233E-1,2.9230455E-1,1.7911361E-1,-1.365778E-1,3.212719E-1,-1.4277647E-1,3.6930287E-1,-1.6270833E-1,-1.84838E-1,7.5493455E-2,2.9471625E-2,-2.0615827E-1,4.1331135E-2,-2.0464952E-1,3.193466E-1,2.405739E-2,1.8546656E-1,-1.8662933E-1,2.9565915E-1,7.7330135E-2,-4.090589E-2,1.0871434E-2],"split_indices":[6,14,6,14,13,17,18,7,6,12,0,17,6,5,4,0,0,7,0,17,6,14,14,13,14,14,8,11,15,16,17,17,0,14,4,13,14,14,13,14,14,4,0,0,0,0,0,0,0,6,11,6,10,0,6,4,18,0,0,0,0,0,0,0,0,0,0,0,0,0,0,0,0,0,0,0,0,0,0,0,0,0,0,0,0,0,0,0,0,0,0],"split_type":[0,0,0,0,0,0,0,0,0,0,0,0,0,0,0,0,0,0,0,0,0,0,0,0,0,0,0,0,0,0,0,0,0,0,0,0,0,0,0,0,0,0,0,0,0,0,0,0,0,0,0,0,0,0,0,0,0,0,0,0,0,0,0,0,0,0,0,0,0,0,0,0,0,0,0,0,0,0,0,0,0,0,0,0,0,0,0,0,0,0,0],"sum_hessian":[1.2454779E3,9.364807E1,1.1518298E3,1.7490225E1,7.615785E1,1.9272089E1,1.1325577E3,3.3766072E0,1.4113617E1,2.553007E1,5.0627777E1,1.3281512E1,5.9905767E0,2.3084082E2,9.0171686E2,1.6804364E0,1.6961708E0,8.541983E0,5.571634E0,1.7198677E1,8.331394E0,2.4522993E1,2.6104786E1,7.833842E0,5.447671E0,2.626195E0,3.3643818E0,9.472229E1,1.3611853E2,8.705231E0,8.9301166E2,6.868798E0,1.6731852E0,1.2606141E1,4.592535E0,3.2506733E0,5.0807204E0,1.8876097E1,5.6468964E0,1.2167679E1,1.3937107E1,5.6787357E0,2.155106E0,3.3285604E0,2.1191106E0,1.1606542E0,1.4655408E0,2.1981564E0,1.1662253E0,4.129876E1,5.342353E1,2.2154541E1,1.1396399E2,5.0705204E0,3.6347098E0,2.7652409E1,8.6535925E2,2.9241362E0,3.9446616E0,6.1594377E0,6.4467034E0,3.1919796E0,1.4005555E0,1.8964293E0,1.3542439E0,3.863803E0,1.2169175E0,8.528802E0,1.0347294E1,2.925579E0,2.7213173E0,1.438696E0,1.0728983E1,8.316105E0,5.6210017E0,3.393561E0,2.2851748E0,3.7665913E1,3.6328437E0,4.2344105E1,1.1079428E1,8.626341E0,1.3528201E1,3.8820307E0,1.1008196E2,2.1887434E0,1.4459665E0,7.2715282E0,2.038088E1,1.3996785E2,7.253914E2],"tree_param":{"num_deleted":"0","num_feature":"19","num_nodes":"91","size_leaf_vector":"1"}},{"base_weights":[7.498859E-4,5.04915E-3,-4.7978073E-1,-4.305784E-3,2.5326088E-1,-1.7363334E-2,-7.520631E-1,3.4489213E-3,-5.8325845E-1,7.110343E-1,-1.673618E-2,-2.8634295E-1,5.222509E-1,-5.347359E-2,-3.851624E-1,-4.336284E-4,6.3036823E-1,-9.124696E-1,2.3847012E-1,-1.9881646E-1,1.2200006E0,7.2358954E-1,-2.919048E-1,2.7198803E-1,-5.736817E-2,-1.6650045E-1,1.470783E-1,4.896531E-3,-8.116532E-1,9.5531803E-1,-1.5853515E-1,-1.9100937E-1,-1.1990749E0,3.1230068E-1,-3.2287875E-1,-3.3707622E-1,6.4989746E-1,1.3144019E0,7.9970755E-2,-1.0719912E-1,1.0586979E0,-5.366098E-1,5.181918E-1,-9.226366E-3,2.3780731E-2,-3.6281326E-1,1.5227146E-1,3.9115453E-1,6.504092E-2,-2.0830162E-1,1.8641074E-1,-6.391733E-2,-4.1287518E-1,1.4541414E-1,-3.0008727E-1,3.32344E-1,-7.686858E-2,1.6252601E-1,4.323636E-1,4.1776165E-1,9.8517016E-2,-1.587073E-2,-2.5811064E-1,3.246625E-1,-1.4013985E-1],"categories":[],"categories_nodes":[],"categories_segments":[],"categories_sizes":[],"default_left":[0,0,0,0,0,0,0,0,0,0,0,0,0,0,0,0,0,0,0,0,0,0,0,0,0,0,0,0,0,0,0,0,0,0,0,0,0,0,0,0,0,0,0,0,0,0,0,0,0,0,0,0,0,0,0,0,0,0,0,0,0,0,0,0,0],"id":7,"left_children":[1,3,5,7,9,11,13,15,17,19,21,-1,23,25,-1,27,29,31,33,35,37,39,41,-1,-1,-1,-1,43,45,47,-1,49,51,-1,53,-1,55,57,-1,-1,59,61,63,-1,-1,-1,-1,-1,-1,-1,-1,-1,-1,-1,-1,-1,-1,-1,-1,-1,-1,-1,-1,-1,-1],"loss_changes":[2.5660627E0,2.8592463E0,1.373733E0,5.3319693E0,5.539619E0,3.080262E0,2.4980662E0,2.854142E0,4.464034E0,7.9367228E0,6.1410356E0,0E0,1.2391605E0,1.370959E0,0E0,5.04681E0,3.2225442E0,2.1311712E0,2.7160115E0,6.0831037E0,6.2122345E-1,3.339489E0,4.626048E0,0E0,0E0,0E0,0E0,3.0771892E0,4.6114216E0,1.2598352E0,0E0,2.2447767E0,1.1008139E0,0E0,2.6029825E0,0E0,2.022348E0,1.5668869E-1,0E0,0E0,1.1256642E0,2.6694412E0,3.6160727E0,0E0,0E0,0E0,0E0,0E0,0E0,0E0,0E0,0E0,0E0,0E0,0E0,0E0,0E0,0E0,0E0,0E0,0E0,0E0,0E0,0E0,0E0],"parents":[2147483647,0,0,1,1,2,2,3,3,4,4,5,5,6,6,7,7,8,8,9,9,10,10,12,12,13,13,15,15,16,16,17,17,18,18,19,19,20,20,21,21,22,22,27,27,28,28,29,29,31,31,32,32,34,34,36,36,37,37,40,40,41,41,42,42],"right_children":[2,4,6,8,10,12,14,16,18,20,22,-1,24,26,-1,28,30,32,34,36,38,40,42,-1,-1,-1,-1,44,46,48,-1,50,52,-1,54,-1,56,58,-1,-1,60,62,64,-1,-1,-1,-1,-1,-1,-1,-1,-1,-1,-1,-1,-1,-1,-1,-1,-1,-1,-1,-1,-1,-1],"split_conditions":[1.2239416E5,1.2194917E5,2.3646432E2,1.2200662E5,1.257943E1,7.03781E0,-2.9441086E1,1.2213967E5,4.194E3,7.96009E0,1.2216787E5,-2.8634295E-1,1.2256571E5,4.1380566E2,-3.851624E-1,1.2192271E5,2.66849E1,1.2204384E5,3.879448E1,4.5467983E1,6.0471935E1,1.74E3,4.194E3,2.7198803E-1,-5.736817E-2,-1.6650045E-1,1.470783E-1,5.5147204E0,1.2194921E5,4.566132E0,-1.5853515E-1,3.389034E1,4.755157E1,3.1230068E-1,1.2230116E5,-3.3707622E-1,1.22101664E5,-1.6969002E1,7.9970755E-2,-1.0719912E-1,4.2158916E1,3.4238547E2,1.2869931E2,-9.226366E-3,2.3780731E-2,-3.6281326E-1,1.5227146E-1,3.9115453E-1,6.504092E-2,-2.0830162E-1,1.8641074E-1,-6.391733E-2,-4.1287518E-1,1.4541414E-1,-3.0008727E-1,3.32344E-1,-7.686858E-2,1.6252601E-1,4.323636E-1,4.1776165E-1,9.8517016E-2,-1.587073E-2,-2.5811064E-1,3.246625E-1,-1.4013985E-1],"split_indices":[16,16,17,9,4,4,14,15,6,4,9,0,2,17,0,3,4,3,4,11,11,6,6,0,0,0,0,14,2,12,0,12,11,0,9,0,16,14,0,0,11,17,13,0,0,0,0,0,0,0,0,0,0,0,0,0,0,0,0,0,0,0,0,0,0],"split_type":[0,0,0,0,0,0,0,0,0,0,0,0,0,0,0,0,0,0,0,0,0,0,0,0,0,0,0,0,0,0,0,0,0,0,0,0,0,0,0,0,0,0,0,0,0,0,0,0,0,0,0,0,0,0,0,0,0,0,0,0,0,0,0,0,0],"sum_hessian":[1.2399147E3,1.2299003E3,1.0014315E1,1.1861768E3,4.3723557E1,4.105577E0,5.908737E0,1.1714796E3,1.46971855E1,1.561508E1,2.8108477E1,1.2192947E0,2.8862824E0,3.0295973E0,2.87914E0,1.1652623E3,6.2172327E0,1.0414408E1,4.2827773E0,5.82013E0,9.7949505E0,7.1749783E0,2.0933498E1,1.699817E0,1.1864655E0,1.5651858E0,1.4644116E0,1.1586433E3,6.618961E0,4.992791E0,1.2244416E0,3.4347355E0,6.9796724E0,1.4110312E0,2.871746E0,2.6302745E0,3.1898556E0,8.568011E0,1.2269386E0,1.6822922E0,5.4926863E0,1.6336382E1,4.5971165E0,7.8360333E2,3.7504E2,5.149683E0,1.4692775E0,2.8719294E0,2.1208618E0,2.2104795E0,1.224256E0,1.3986169E0,5.5810556E0,1.4397625E0,1.4319836E0,1.9711449E0,1.2187107E0,1.9512547E0,6.616757E0,3.1472306E0,2.3454556E0,7.0166526E0,9.31973E0,2.8610668E0,1.7360497E0],"tree_param":{"num_deleted":"0","num_feature":"19","num_nodes":"65","size_leaf_vector":"1"}},{"base_weights":[5.3594157E-4,-6.6807326E-3,2.8177962E-1,6.9999564E-3,-3.238831E-1,5.422745E-1,-1.883402E-1,1.7770778E-1,-6.9046896E-3,-4.2518348E-1,3.658118E-1,7.967329E-1,1.256568E-1,-5.255506E-1,5.3204936E-1,8.3952814E-2,8.991557E-1,-6.75085E-1,-1.2273943E-3,-1.7597578E-1,-7.495525E-1,3.7339297E-1,-1.6866337E-1,1.0186965E0,-7.266608E-2,-2.4943377E-1,7.045393E-1,7.1851365E-2,-7.867004E-1,3.09041E-1,-1.3762401E-1,5.072516E-1,-6.626685E-3,1.134004E0,-5.693074E-2,-3.6001265E-1,-7.967427E-2,7.4236183E-3,-3.0940825E-1,-3.1977078E-1,-1.17963655E-2,-9.887283E-1,2.225591E-2,1.6660334E-1,-2.6994643E-1,-4.3672476E-2,1.1882757E0,-8.3106303E-1,2.379286E-1,3.408479E-1,1.0065146E-2,6.736964E-2,-3.5717738E-1,7.38194E-2,2.5561953E-1,-1.0460778E-1,4.2185154E-2,7.361184E-2,4.0547252E-1,1.6705473E-1,-1.6139074E-1,-2.0101818E-4,1.1485005E-1,-2.3346393E-1,-1.8357294E-2,1.6785777E-1,-7.133866E-2,3.894727E-2,-3.3013612E-1,2.26148E-1,-1.3237213E-1,1.2804359E-1,4.7261423E-1,-7.0126325E-2,-3.3625382E-1],"categories":[],"categories_nodes":[],"categories_segments":[],"categories_sizes":[],"default_left":[0,0,0,0,0,0,0,0,0,0,0,0,0,0,0,0,0,0,0,0,0,0,0,0,0,0,0,0,0,0,0,0,0,0,0,0,0,0,0,0,0,0,0,0,0,0,0,0,0,0,0,0,0,0,0,0,0,0,0,0,0,0,0,0,0,0,0,0,0,0,0,0,0,0,0],"id":8,"left_children":[1,3,5,7,9,11,13,15,17,19,21,23,25,27,29,31,33,35,37,39,41,-1,43,45,-1,47,49,-1,51,-1,-1,53,55,57,-1,-1,59,61,63,-1,65,67,69,-1,-1,-1,71,73,-1,-1,-1,-1,-1,-1,-1,-1,-1,-1,-1,-1,-1,-1,-1,-1,-1,-1,-1,-1,-1,-1,-1,-1,-1,-1,-1],"loss_changes":[2.5137362E0,5.2426977E0,3.896662E0,2.7514312E0,3.6453981E0,2.040824E0,3.1435916E0,5.8297305E0,4.067061E0,3.4261394E0,3.4671745E0,3.0948687E0,2.0962553E0,1.8933895E0,2.5729172E0,3.0081143E0,2.7565985E0,2.7277093E0,2.839831E0,3.8152602E0,3.4956331E0,0E0,3.248562E0,2.2200804E0,0E0,4.361407E0,1.0447909E0,0E0,2.9611897E0,0E0,0E0,1.0355458E0,3.3501134E0,1.276576E0,0E0,0E0,1.8466735E0,3.1487763E0,3.336773E0,0E0,3.119482E0,1.9408894E0,2.1737301E0,0E0,0E0,0E0,2.0274792E0,5.008917E-1,0E0,0E0,0E0,0E0,0E0,0E0,0E0,0E0,0E0,0E0,0E0,0E0,0E0,0E0,0E0,0E0,0E0,0E0,0E0,0E0,0E0,0E0,0E0,0E0,0E0,0E0,0E0],"parents":[2147483647,0,0,1,1,2,2,3,3,4,4,5,5,6,6,7,7,8,8,9,9,10,10,11,11,12,12,13,13,14,14,15,15,16,16,17,17,18,18,19,19,20,20,22,22,23,23,25,25,26,26,28,28,31,31,32,32,33,33,36,36,37,37,38,38,40,40,41,41,42,42,46,46,47,47],"right_children":[2,4,6,8,10,12,14,16,18,20,22,24,26,28,30,32,34,36,38,40,42,-1,44,46,-1,48,50,-1,52,-1,-1,54,56,58,-1,-1,60,62,64,-1,66,68,70,-1,-1,-1,72,74,-1,-1,-1,-1,-1,-1,-1,-1,-1,-1,-1,-1,-1,-1,-1,-1,-1,-1,-1,-1,-1,-1,-1,-1,-1,-1,-1],"split_conditions":[7.284E3,3.671628E1,1.206893E5,1.17085586E5,6.598E3,7.942155E1,1.2219862E5,2.978E3,1.1714547E5,6.4859905E0,1.1764363E5,6.713305E1,6.856391E1,1.1963065E2,2.5542921E2,6.44375E0,3.252259E1,-2.3924757E1,8.254141E2,1.1691791E5,4.3153168E1,3.7339297E-1,4.976344E1,1.1733307E5,-7.266608E-2,9.5110974E2,1.18984E5,7.1851365E-2,3.4827835E1,3.09041E-1,-1.3762401E-1,1.17176664E5,2.3330292E2,1.1678318E5,-5.693074E-2,-3.6001265E-1,7.29689E0,3.050468E1,1.18643516E5,-3.1977078E-1,3.628E3,2.253E3,3.4435544E0,1.6660334E-1,-2.6994643E-1,-4.3672476E-2,-1.11765686E2,-2.7050594E1,2.379286E-1,3.408479E-1,1.0065146E-2,6.736964E-2,-3.5717738E-1,7.38194E-2,2.5561953E-1,-1.0460778E-1,4.2185154E-2,7.361184E-2,4.0547252E-1,1.6705473E-1,-1.6139074E-1,-2.0101818E-4,1.1485005E-1,-2.3346393E-1,-1.8357294E-2,1.6785777E-1,-7.133866E-2,3.894727E-2,-3.3013612E-1,2.26148E-1,-1.3237213E-1,1.2804359E-1,4.7261423E-1,-7.0126325E-2,-3.3625382E-1],"split_indices":[6,4,2,7,6,4,1,6,1,14,2,11,11,18,12,4,4,12,17,3,14,0,4,0,0,17,0,0,11,0,0,15,17,8,0,0,4,4,15,0,6,6,12,0,0,0,12,14,0,0,0,0,0,0,0,0,0,0,0,0,0,0,0,0,0,0,0,0,0,0,0,0,0,0,0],"split_type":[0,0,0,0,0,0,0,0,0,0,0,0,0,0,0,0,0,0,0,0,0,0,0,0,0,0,0,0,0,0,0,0,0,0,0,0,0,0,0,0,0,0,0,0,0,0,0,0,0,0,0,0,0,0,0,0,0,0,0,0,0,0,0,0,0,0,0,0,0,0,0,0,0,0,0],"sum_hessian":[1.2365835E3,1.2065986E3,2.9984911E1,1.1576481E3,4.8950523E1,1.919527E1,1.078964E1,8.630448E1,1.0713436E3,4.301598E1,5.934542E0,1.1350387E1,7.8448834E0,7.5336456E0,3.2559946E0,7.7366745E1,8.937742E0,8.032745E0,1.0633109E3,2.5198715E1,1.7817265E1,1.7418002E0,4.1927423E0,9.368403E0,1.9819835E0,5.1057153E0,2.7391684E0,1.9382634E0,5.595382E0,2.1403196E0,1.1156751E0,1.2826321E1,6.454042E1,7.3180594E0,1.6196829E0,3.7292671E0,4.303478E0,1.0352267E3,2.8084166E1,3.069318E0,2.2129398E1,1.3387543E1,4.429721E0,2.2274923E0,1.96525E0,1.2090487E0,8.159355E0,3.407502E0,1.6982132E0,1.2450292E0,1.4941393E0,1.7236598E0,3.8717225E0,8.273204E0,4.553117E0,1.9009905E1,4.5530514E1,1.857835E0,5.4602246E0,1.7114325E0,2.5920453E0,1.01435583E3,2.087087E1,8.982958E0,1.9101208E1,5.854224E0,1.6275173E1,1.2010546E0,1.2186488E1,1.475088E0,2.954633E0,3.4586039E0,4.700751E0,1.7032894E0,1.7042125E0],"tree_param":{"num_deleted":"0","num_feature":"19","num_nodes":"75","size_leaf_vector":"1"}},{"base_weights":[7.935087E-4,-4.517451E-2,3.5156827E-2,1.4797175E-1,-9.124139E-2,2.0854145E-1,6.3342173E-3,-3.7283376E-1,2.3105313E-1,-3.4086168E-1,-3.642878E-2,3.0920702E-1,-1.4346848E-1,5.364818E-1,-1.0924885E-2,-7.8171414E-1,5.7844734E-1,3.3867475E-1,-2.9453772E-1,-1.409226E-1,-8.557085E-1,3.0246496E-1,-8.088574E-2,-4.7735074E-1,3.7339726E-1,-6.720053E-1,1.8092148E-1,-6.205666E-1,8.705139E-1,-1.4304824E-1,3.4657322E-2,-1.0974393E0,-1.0047638E-1,-3.768975E-2,3.308757E-1,2.4374779E-1,8.9202964E-1,-5.575081E-1,4.2112234E-1,3.8843617E-2,-5.599321E-1,-4.3334186E-1,-5.089718E-1,4.8134452E-1,-5.235363E-1,-1.1070593E-1,4.6880168E-1,-8.889333E-1,1.9032836E-1,4.4510818E-1,-4.28064E-1,2.489402E-2,-1.084146E0,1.1182326E0,-6.8125457E-1,9.078332E-2,-2.9350597E-1,-3.9609346E-1,1.2275519E0,-3.7659222E-1,1.4570643E-2,-3.333825E-1,4.421637E-2,-3.9166605E-1,-6.39475E-2,2.0020764E-1,-1.7676316E-1,7.1220085E-2,-8.940495E-2,9.7327776E-2,-1.0049257E-1,3.5848516E-1,-4.8969064E-2,-5.9199113E-2,-2.6039457E-1,-7.641545E-4,2.3338404E-1,-1.4780642E-1,5.335679E-2,-2.3480168E-1,1.9778456E-1,-3.2190657E-1,8.4935577E-4,2.0010072E-1,-2.8387174E-2,1.987159E-1,-2.753984E-1,-2.4110397E-2,-1.8740174E-1,-1.7854667E-1,2.1116301E-1,-3.0111402E-1,-8.512744E-2,-2.8247537E-2,1.1819523E-1,7.165865E-2,2.3665932E-1,-2.698842E-1,5.1599447E-2,-1.2601565E-1,1.7994322E-1,-5.4166052E-2,-3.8868448E-1,4.0957233E-1,1.2866327E-2,-4.0526938E-1,-3.953225E-2,1.8515113E-1,-2.8714585E-1,5.9701372E-2,4.0677252E-1,1.5287981E-2,-1.6757113E-1,3.904977E-1,-6.3741687E-3,3.813128E-2,-2.8409794E-2],"categories":[],"categories_nodes":[],"categories_segments":[],"categories_sizes":[],"default_left":[0,0,0,0,0,0,0,0,0,0,0,0,0,0,0,0,0,0,0,0,0,0,0,0,0,0,0,0,0,0,0,0,0,0,0,0,0,0,0,0,0,0,0,0,0,0,0,0,0,0,0,0,0,0,0,0,0,0,0,0,0,0,0,0,0,0,0,0,0,0,0,0,0,0,0,0,0,0,0,0,0,0,0,0,0,0,0,0,0,0,0,0,0,0,0,0,0,0,0,0,0,0,0,0,0,0,0,0,0,0,0,0,0,0,0,0,0],"id":9,"left_children":[1,3,5,7,9,11,13,15,17,19,21,23,25,27,29,31,33,35,37,39,41,43,45,47,49,51,53,55,57,59,61,63,65,67,-1,69,71,73,75,77,79,-1,81,83,85,87,89,91,93,95,97,99,101,103,105,-1,-1,107,109,111,113,-1,115,-1,-1,-1,-1,-1,-1,-1,-1,-1,-1,-1,-1,-1,-1,-1,-1,-1,-1,-1,-1,-1,-1,-1,-1,-1,-1,-1,-1,-1,-1,-1,-1,-1,-1,-1,-1,-1,-1,-1,-1,-1,-1,-1,-1,-1,-1,-1,-1,-1,-1,-1,-1,-1,-1],"loss_changes":[1.9514966E0,4.71578E0,3.5315158E0,4.506334E0,5.83446E0,3.6139421E0,5.561664E0,6.06757E0,5.1181116E0,7.7871494E0,5.320377E0,4.1492662E0,4.07946E0,7.947039E0,3.5524108E0,2.1529093E0,1.6297139E0,3.6751776E0,3.1732135E0,4.2797594E0,3.61127E0,6.3063107E0,5.1585035E0,1.920583E0,4.40205E0,2.609601E0,1.29586525E1,1.9069365E0,7.3995457E0,5.574436E0,4.8552217E0,1.0263538E0,2.0567956E0,3.018301E-1,0E0,3.1262615E0,3.5435228E0,1.1536691E0,7.223707E-1,3.0796432E0,5.1425157E0,0E0,4.3170176E0,3.7204733E0,4.2442846E0,4.5701046E0,4.4761744E0,1.3101101E-3,2.2563177E-1,4.614913E0,2.0018375E0,1.3567966E0,8.500171E-1,1.9627743E0,2.9433095E0,0E0,0E0,2.9316463E0,1.3368034E0,4.7743864E0,4.236086E0,0E0,5.0332804E0,0E0,0E0,0E0,0E0,0E0,0E0,0E0,0E0,0E0,0E0,0E0,0E0,0E0,0E0,0E0,0E0,0E0,0E0,0E0,0E0,0E0,0E0,0E0,0E0,0E0,0E0,0E0,0E0,0E0,0E0,0E0,0E0,0E0,0E0,0E0,0E0,0E0,0E0,0E0,0E0,0E0,0E0,0E0,0E0,0E0,0E0,0E0,0E0,0E0,0E0,0E0,0E0,0E0,0E0],"parents":[2147483647,0,0,1,1,2,2,3,3,4,4,5,5,6,6,7,7,8,8,9,9,10,10,11,11,12,12,13,13,14,14,15,15,16,16,17,17,18,18,19,19,20,20,21,21,22,22,23,23,24,24,25,25,26,26,27,27,28,28,29,29,30,30,31,31,32,32,33,33,35,35,36,36,37,37,38,38,39,39,40,40,42,42,43,43,44,44,45,45,46,46,47,47,48,48,49,49,50,50,51,51,52,52,53,53,54,54,57,57,58,58,59,59,60,60,62,62],"right_children":[2,4,6,8,10,12,14,16,18,20,22,24,26,28,30,32,34,36,38,40,42,44,46,48,50,52,54,56,58,60,62,64,66,68,-1,70,72,74,76,78,80,-1,82,84,86,88,90,92,94,96,98,100,102,104,106,-1,-1,108,110,112,114,-1,116,-1,-1,-1,-1,-1,-1,-1,-1,-1,-1,-1,-1,-1,-1,-1,-1,-1,-1,-1,-1,-1,-1,-1,-1,-1,-1,-1,-1,-1,-1,-1,-1,-1,-1,-1,-1,-1,-1,-1,-1,-1,-1,-1,-1,-1,-1,-1,-1,-1,-1,-1,-1,-1,-1],"split_conditions":[-4.8001323E0,1.1730961E5,1.7472655E0,2.8789137E1,1.1756127E5,2.2153309E1,4.1627174E1,1.1748904E5,5.0494427E1,1.17444E5,3.0005487E1,1.89E2,1.1827402E5,1.1769324E5,2.1934092E1,4.617678E2,1.1711501E5,1.17317805E5,2.475573E1,-1.3840674E1,1.1738776E5,-2.3924757E1,2.3878157E1,5.485798E1,2.508407E6,1.17070914E5,1.1988001E5,1.0366391E1,9.102025E0,5.649926E1,1.69E2,-1.0054732E1,5.7240303E1,1.1697E5,3.308757E-1,1.1728934E5,1.1740894E5,5.5736603E1,-6.616996E1,1.02408085E1,1.1742985E5,-4.3334186E-1,1.7468254E2,4.849E3,1.1777362E5,-6.6592493E0,5.66892E0,1.1778873E5,1.1750975E5,1.1980051E1,5.5355545E1,-2.2471956E1,-3.4035137E1,-6.795993E0,1.1983178E5,9.078332E-2,-2.9350597E-1,1.21515E0,7.01E2,1.09682E0,7.252468E0,-3.333825E-1,6.0609055E1,-3.9166605E-1,-6.39475E-2,2.0020764E-1,-1.7676316E-1,7.1220085E-2,-8.940495E-2,9.7327776E-2,-1.0049257E-1,3.5848516E-1,-4.8969064E-2,-5.9199113E-2,-2.6039457E-1,-7.641545E-4,2.3338404E-1,-1.4780642E-1,5.335679E-2,-2.3480168E-1,1.9778456E-1,-3.2190657E-1,8.4935577E-4,2.0010072E-1,-2.8387174E-2,1.987159E-1,-2.753984E-1,-2.4110397E-2,-1.8740174E-1,-1.7854667E-1,2.1116301E-1,-3.0111402E-1,-8.512744E-2,-2.8247537E-2,1.1819523E-1,7.165865E-2,2.3665932E-1,-2.698842E-1,5.1599447E-2,-1.2601565E-1,1.7994322E-1,-5.4166052E-2,-3.8868448E-1,4.0957233E-1,1.2866327E-2,-4.0526938E-1,-3.953225E-2,1.8515113E-1,-2.8714585E-1,5.9701372E-2,4.0677252E-1,1.5287981E-2,-1.6757113E-1,3.904977E-1,-6.3741687E-3,3.813128E-2,-2.8409794E-2],"split_indices":[12,2,13,11,0,14,11,15,11,2,11,6,0,15,18,17,2,10,14,12,16,12,14,11,5,8,0,13,13,11,6,14,18,2,0,8,8,18,13,18,2,0,17,6,0,12,4,0,0,14,11,13,13,13,8,0,0,4,6,4,12,0,11,0,0,0,0,0,0,0,0,0,0,0,0,0,0,0,0,0,0,0,0,0,0,0,0,0,0,0,0,0,0,0,0,0,0,0,0,0,0,0,0,0,0,0,0,0,0,0,0,0,0,0,0,0,0],"split_type":[0,0,0,0,0,0,0,0,0,0,0,0,0,0,0,0,0,0,0,0,0,0,0,0,0,0,0,0,0,0,0,0,0,0,0,0,0,0,0,0,0,0,0,0,0,0,0,0,0,0,0,0,0,0,0,0,0,0,0,0,0,0,0,0,0,0,0,0,0,0,0,0,0,0,0,0,0,0,0,0,0,0,0,0,0,0,0,0,0,0,0,0,0,0,0,0,0,0,0,0,0,0,0,0,0,0,0,0,0,0,0,0,0,0,0,0,0],"sum_hessian":[1.233421E3,5.2748566E2,7.0593536E2,1.01155464E2,4.2633023E2,9.9735214E1,6.0620013E2,1.3436926E1,8.771854E1,7.5820404E1,3.5050983E2,7.765074E1,2.2084475E1,1.816428E1,5.880359E2,9.522296E0,3.91463E0,7.3104965E1,1.4613573E1,5.552944E1,2.0290958E1,3.997539E1,3.1053442E2,5.373223E0,7.227751E1,7.9917374E0,1.4092737E1,3.8769996E0,1.428728E1,1.5028514E2,4.3775073E2,6.08924E0,3.4330564E0,2.2267883E0,1.6878415E0,6.362987E1,9.475093E0,1.0848326E1,3.7652466E0,3.9493134E1,1.6036308E1,6.347276E0,1.3943683E1,3.3202324E1,6.7730656E0,2.9531253E2,1.5221913E1,3.1191087E0,2.2541142E0,6.67497E1,5.527814E0,3.319057E0,4.6726804E0,6.6098633E0,7.4828744E0,1.1259596E0,2.75104E0,3.117705E0,1.1169575E1,5.9997524E1,9.028761E1,2.6679251E0,4.350828E2,4.5435266E0,1.5457133E0,1.1931114E0,2.239945E0,1.1255139E0,1.1012745E0,5.623037E1,7.399503E0,7.2589717E0,2.2161214E0,5.7793427E0,5.068983E0,2.1753008E0,1.5899457E0,7.659985E0,3.1833149E1,1.3861907E1,2.1744022E0,6.111615E0,7.832067E0,2.4989233E1,8.213092E0,1.521003E0,5.2520623E0,2.7994458E2,1.536794E1,2.477391E0,1.2744523E1,2.0682797E0,1.0508289E0,1.1647428E0,1.0893713E0,4.277845E1,2.397125E1,2.8158324E0,2.7119815E0,2.022866E0,1.296191E0,1.2377335E0,3.434947E0,5.155949E0,1.4539143E0,2.7152908E0,4.7675834E0,1.0754503E0,2.0422547E0,1.522207E0,9.6473675E0,1.8127493E1,4.187003E1,1.487686E0,8.879993E1,2.725458E2,1.6253699E2],"tree_param":{"num_deleted":"0","num_feature":"19","num_nodes":"117","size_leaf_vector":"1"}},{"base_weights":[-1.1843704E-3,1.5442242E-3,-5.573936E-1,-1.9471165E-3,3.9452216E-1,2.2764698E-2,-2.6364753E-1,9.422946E-4,-6.574028E-1,7.242238E-1,-5.521864E-1,-1.880892E-3,5.425525E-1,-2.9960918E-1,8.3661914E-2,3.6340782E-1,2.4978916E-1,-1.2779374E-3,-2.5665677E-1,1.1548926E-3,-5.152026E-1,3.428583E-1,7.56694E-2,-1.8532488E-1,2.9275018E-1,1.1742627E-3,-1.9151233E-1,-3.7270054E-1,1.7693287E-2,-8.458945E-2,1.4518395E-1],"categories":[],"categories_nodes":[],"categories_segments":[],"categories_sizes":[],"default_left":[0,0,0,0,0,0,0,0,0,0,0,0,0,0,0,0,0,0,0,0,0,0,0,0,0,0,0,0,0,0,0],"id":10,"left_children":[1,3,5,7,9,-1,-1,11,13,15,17,19,21,-1,-1,-1,23,-1,-1,25,27,-1,29,-1,-1,-1,-1,-1,-1,-1,-1],"loss_changes":[1.8594155E0,1.6741245E0,1.2841495E0,2.2919974E0,3.7537813E0,0E0,0E0,1.8444225E0,1.975775E0,1.6392784E0,5.5196273E-1,1.8710921E0,1.6666383E0,0E0,0E0,0E0,4.077419E0,0E0,0E0,2.1099648E0,3.0205157E0,0E0,8.065763E-1,0E0,0E0,0E0,0E0,0E0,0E0,0E0,0E0],"parents":[2147483647,0,0,1,1,2,2,3,3,4,4,7,7,8,8,9,9,10,10,11,11,12,12,16,16,19,19,20,20,22,22],"right_children":[2,4,6,8,10,-1,-1,12,14,16,18,20,22,-1,-1,-1,24,-1,-1,26,28,-1,30,-1,-1,-1,-1,-1,-1,-1,-1],"split_conditions":[1.22487055E5,1.2254402E5,1.2259438E5,1.2245789E5,1.2869931E2,2.2764698E-2,-2.6364753E-1,1.22680555E5,1.2251758E5,1.2258379E5,-8.111692E0,1.2236813E5,1.621162E1,-2.9960918E-1,8.3661914E-2,3.6340782E-1,3.6733768E2,-1.2779374E-3,-2.5665677E-1,6.999467E1,8.256171E0,3.428583E-1,-1.9912334E1,-1.8532488E-1,2.9275018E-1,1.1742627E-3,-1.9151233E-1,-3.7270054E-1,1.7693287E-2,-8.458945E-2,1.4518395E-1],"split_indices":[16,1,7,0,13,0,0,15,7,0,14,3,4,0,0,0,17,0,0,14,14,0,14,0,0,0,0,0,0,0,0],"split_type":[0,0,0,0,0,0,0,0,0,0,0,0,0,0,0,0,0,0,0,0,0,0,0,0,0,0,0,0,0,0,0],"sum_hessian":[1.223611E3,1.21863E3,4.981007E0,1.2088849E3,9.745072E0,1.9342065E0,3.0468006E0,1.2045734E3,4.3114953E0,7.402188E0,2.3428843E0,1.1993184E3,5.2550163E0,3.1108487E0,1.2006468E0,2.8858316E0,4.516356E0,1.1961961E0,1.1466882E0,1.1932592E3,6.059185E0,1.6655867E0,3.5894296E0,2.1256318E0,2.3907242E0,1.1891224E3,4.1367145E0,2.1600566E0,3.8991287E0,2.0783007E0,1.5111289E0],"tree_param":{"num_deleted":"0","num_feature":"19","num_nodes":"31","size_leaf_vector":"1"}},{"base_weights":[-1.1868584E-3,-6.956024E-3,2.3126248E-1,2.8484021E-3,-2.3958074E-1,4.051755E-1,-3.218836E-1,-1.081434E-3,4.7243953E-1,-2.9889536E-1,5.904727E-1,4.9375245E-1,-1.0827272E-1,1.5719514E-1,-6.358821E-1,6.4656828E-3,-2.3016846E-1,-1.05760515E-1,8.8000774E-1,-3.8904172E-1,2.4666758E-1,2.6532534E-1,-6.9486666E-3,3.3019853E-1,9.359637E-1,-3.68048E-1,1.5300444E-1,2.4434306E-5,3.6423323E-1,-4.83004E-1,1.7356527E-1,2.0650852E-1,-5.6928015E-1,3.4726718E-1,3.2132007E-2,1.4902027E-1,-4.339309E-1,3.2246867E-1,-1.6964394E-1,5.4936075E-1,-5.293226E-1,-1.6242877E-2,3.75804E-1,1.7363918E-1,-8.903997E-2,-1.5685026E-1,2.1307745E-3,4.1674352E-1,4.1154586E-2,-4.2476956E-2,-2.9158795E-1,-1.8335561E-1,1.2938812E-1,-1.0144459E-2,-2.7359316E-1,-1.5613791E-1,3.405278E-2,-2.3425929E-1,1.17819995E-1,2.1423423E-1,-1.2451612E-1,-2.687987E-1,4.4932097E-2],"categories":[],"categories_nodes":[],"categories_segments":[],"categories_sizes":[],"default_left":[0,0,0,0,0,0,0,0,0,0,0,0,0,0,0,0,0,0,0,0,0,0,0,0,0,0,0,0,0,0,0,0,0,0,0,0,0,0,0,0,0,0,0,0,0,0,0,0,0,0,0,0,0,0,0,0,0,0,0,0,0,0,0],"id":11,"left_children":[1,3,5,7,9,11,13,15,17,19,21,23,-1,-1,25,27,29,31,33,35,37,-1,-1,39,41,-1,43,45,47,49,51,-1,53,-1,-1,-1,55,-1,57,59,61,-1,-1,-1,-1,-1,-1,-1,-1,-1,-1,-1,-1,-1,-1,-1,-1,-1,-1,-1,-1,-1,-1],"loss_changes":[1.6418108E0,2.724889E0,2.9827075E0,2.1174173E0,2.5553706E0,1.7389379E0,2.364915E0,1.9700558E0,2.3370821E0,2.3464174E0,6.623528E-1,1.2125854E0,0E0,0E0,2.9990168E0,2.5424027E0,3.793477E0,2.1696684E0,1.0971918E0,1.792429E0,2.6307156E0,0E0,0E0,3.4749799E0,1.6781621E0,0E0,8.367136E-1,4.0181985E0,4.3499317E0,3.636989E0,3.2428064E0,0E0,6.292275E-1,0E0,0E0,0E0,1.872333E0,0E0,2.2278845E0,2.5144815E0,1.1161948E0,0E0,0E0,0E0,0E0,0E0,0E0,0E0,0E0,0E0,0E0,0E0,0E0,0E0,0E0,0E0,0E0,0E0,0E0,0E0,0E0,0E0,0E0],"parents":[2147483647,0,0,1,1,2,2,3,3,4,4,5,5,6,6,7,7,8,8,9,9,10,10,11,11,14,14,15,15,16,16,17,17,18,18,19,19,20,20,23,23,24,24,26,26,27,27,28,28,29,29,30,30,32,32,36,36,38,38,39,39,40,40],"right_children":[2,4,6,8,10,12,14,16,18,20,22,24,-1,-1,26,28,30,32,34,36,38,-1,-1,40,42,-1,44,46,48,50,52,-1,54,-1,-1,-1,56,-1,58,60,62,-1,-1,-1,-1,-1,-1,-1,-1,-1,-1,-1,-1,-1,-1,-1,-1,-1,-1,-1,-1,-1,-1],"split_conditions":[7.284E3,3.671628E1,1.2190558E5,3.477278E1,1.1851512E3,6.999467E1,-4.0526173E1,7.7679175E2,-6.932283E0,1.2150681E5,1.2087226E5,1.1981346E5,-1.0827272E-1,1.5719514E-1,1.2204384E5,1.3309024E2,4.456531E0,-6.2309113E1,3.682E3,2.4709957E1,4.0173634E1,2.6532534E-1,-6.9486666E-3,1.3303477E2,-1.7545226E2,-3.68048E-1,1.2227113E5,-1.0173376E2,3.8297308E2,-1.962269E1,1.04710365E2,2.0650852E-1,-1.962269E1,3.4726718E-1,3.2132007E-2,1.4902027E-1,6.598E3,3.2246867E-1,4.506058E1,1.1971783E5,4.1627174E1,-1.6242877E-2,3.75804E-1,1.7363918E-1,-8.903997E-2,-1.5685026E-1,2.1307745E-3,4.1674352E-1,4.1154586E-2,-4.2476956E-2,-2.9158795E-1,-1.8335561E-1,1.2938812E-1,-1.0144459E-2,-2.7359316E-1,-1.5613791E-1,3.405278E-2,-2.3425929E-1,1.17819995E-1,2.1423423E-1,-1.2451612E-1,-2.687987E-1,4.4932097E-2],"split_indices":[6,4,15,4,17,14,14,17,14,8,0,3,0,0,0,18,14,12,6,11,11,0,0,4,12,0,2,13,17,14,18,0,14,0,0,0,6,0,4,3,11,0,0,0,0,0,0,0,0,0,0,0,0,0,0,0,0,0,0,0,0,0,0],"split_type":[0,0,0,0,0,0,0,0,0,0,0,0,0,0,0,0,0,0,0,0,0,0,0,0,0,0,0,0,0,0,0,0,0,0,0,0,0,0,0,0,0,0,0,0,0,0,0,0,0,0,0,0,0,0,0,0,0,0,0,0,0,0,0],"sum_hessian":[1.2220834E3,1.1934336E3,2.8649782E1,1.146116E3,4.731756E1,2.2000254E1,6.6495285E0,1.1375936E3,8.522408E0,4.475904E1,2.5585194E0,2.0038795E1,1.9614588E0,1.6191156E0,5.0304127E0,1.1022524E3,3.5341183E1,3.8297744E0,4.6926327E0,3.8658226E1,6.1008124E0,1.4315144E0,1.1270049E0,1.5903507E1,4.1352882E0,2.5586355E0,2.4717772E0,1.0837408E3,1.8511608E1,2.161106E1,1.3730125E1,1.2327305E0,2.597044E0,3.0865655E0,1.6060672E0,1.3791118E0,3.7279118E1,1.511607E0,4.5892053E0,1.2959838E1,2.9436698E0,1.2031366E0,2.9321518E0,1.1224605E0,1.3493168E0,1.3501839E1,1.070239E3,2.4289775E0,1.608263E1,1.3484831E1,8.126229E0,3.0553968E0,1.0674728E1,1.4422288E0,1.1548151E0,3.2233543E1,5.045572E0,2.0129366E0,2.5762687E0,1.1290576E1,1.6692613E0,1.7041388E0,1.239531E0],"tree_param":{"num_deleted":"0","num_feature":"19","num_nodes":"63","size_leaf_vector":"1"}},{"base_weights":[-3.1900618E-4,2.6889253E-1,-5.290444E-3,5.10629E-1,-2.0631798E-1,-6.995315E-1,-2.2401304E-3,2.537454E-1,3.0961418E-1,-8.6870444E-1,5.371942E-1,-2.1173738E-1,-2.9263246E-1,2.48302E-1,-4.363906E-3,4.807613E-1,-2.56737E-1,1.4207895E-2,-3.471016E-1,-8.564677E-2,2.6705128E-1,-2.2385319E-1,1.2184291E-1,-2.7035812E-1,-2.7385594E-3,5.7446635E-1,-5.4963198E-2,5.5077136E-1,-5.328747E-3,7.803944E-2,2.9075962E-1,2.353755E-1,-4.4020288E-2,-2.9290783E-1,-1.053584E-3],"categories":[],"categories_nodes":[],"categories_segments":[],"categories_sizes":[],"default_left":[0,0,0,0,0,0,0,0,0,0,0,0,0,0,0,0,0,0,0,0,0,0,0,0,0,0,0,0,0,0,0,0,0,0,0],"id":12,"left_children":[1,3,5,7,9,11,13,15,-1,17,19,21,-1,-1,23,25,-1,-1,-1,-1,-1,-1,-1,-1,27,29,-1,31,33,-1,-1,-1,-1,-1,-1],"loss_changes":[1.6349441E0,2.6498232E0,2.5383086E0,1.7431538E0,4.495533E0,4.9917197E-1,2.1101036E0,3.2714367E0,0E0,1.2982965E0,1.5527967E0,1.350386E0,0E0,0E0,1.7366407E0,7.315457E-1,0E0,0E0,0E0,0E0,0E0,0E0,0E0,0E0,1.7117951E0,8.724158E-1,0E0,1.0220989E0,2.091286E0,0E0,0E0,0E0,0E0,0E0,0E0],"parents":[2147483647,0,0,1,1,2,2,3,3,4,4,5,5,6,6,7,7,9,9,10,10,11,11,14,14,15,15,24,24,25,25,27,27,28,28],"right_children":[2,4,6,8,10,12,14,16,-1,18,20,22,-1,-1,24,26,-1,-1,-1,-1,-1,-1,-1,-1,28,30,-1,32,34,-1,-1,-1,-1,-1,-1],"split_conditions":[1.1694805E5,5.3207462E1,1.1675266E5,7.190338E1,5.6190624E1,2.3523108E1,1.1673094E5,6.5162575E1,3.0961418E-1,8.96406E0,-2.2471956E1,-4.0526173E1,-2.9263246E-1,2.48302E-1,1.1673E5,1.1681979E5,-2.56737E-1,1.4207895E-2,-3.471016E-1,-8.564677E-2,2.6705128E-1,-2.2385319E-1,1.2184291E-1,-2.7035812E-1,1.1680794E5,4.907799E1,-5.4963198E-2,1.16584805E5,1.1681792E5,7.803944E-2,2.9075962E-1,2.353755E-1,-4.4020288E-2,-2.9290783E-1,-1.053584E-3],"split_indices":[15,11,8,18,11,11,9,18,0,4,13,14,0,0,0,7,0,0,0,0,0,0,0,0,8,11,0,16,8,0,0,0,0,0,0],"split_type":[0,0,0,0,0,0,0,0,0,0,0,0,0,0,0,0,0,0,0,0,0,0,0,0,0,0,0,0,0,0,0,0,0,0,0],"sum_hessian":[1.2195321E3,2.1149773E1,1.1983823E3,1.3969199E1,7.180573E0,4.2435074E0,1.1941389E3,1.0354542E1,3.6146574E0,3.708412E0,3.472161E0,2.171618E0,2.0718896E0,2.0558376E0,1.192083E3,9.066247E0,1.2882943E0,1.0877764E0,2.6206355E0,1.0998753E0,2.3722856E0,1.0530955E0,1.1185224E0,1.155294E0,1.1909277E3,8.063118E0,1.0031291E0,4.5613103E0,1.1863665E3,5.412233E0,2.650885E0,3.3226633E0,1.2386467E0,1.2138059E0,1.1851526E3],"tree_param":{"num_deleted":"0","num_feature":"19","num_nodes":"35","size_leaf_vector":"1"}},{"base_weights":[-4.4675695E-4,-4.0459454E-2,2.814681E-2,-2.4095929E-1,4.6284446E-3,6.133059E-1,1.832034E-2,-3.0047584E-1,7.491183E-1,6.7584045E-2,-1.4248675E-1,7.5610703E-1,-1.1298129E-1,-3.3312887E-1,3.655994E-2,-2.1842557E-1,-1.0334707E0,3.4518743E-1,-7.606632E-2,9.8508105E-2,-3.17903E-1,-2.1050578E-1,2.0855281E-1,9.924384E-1,1.2283158E-2,2.885799E-1,-5.112761E-1,8.870205E-1,2.8139127E-2,2.672853E-2,-4.070058E-1,-1.2410146E0,5.0108787E-2,-3.894167E-1,1.22632645E-1,3.4752372E-1,-4.993272E-1,-1.545646E-1,-9.467809E-1,7.993037E-1,-2.3442557E-1,2.1784576E-2,1.175016E0,1.3527484E-1,-1.1202672E-1,-1.7032729E-1,6.7842084E-1,2.999823E-1,-6.1585015E-1,2.4858543E-1,3.7872133E-1,1.6540894E-2,4.7852963E-1,-7.07041E-2,1.4249064E-1,-2.530918E-1,-7.577653E-2,-9.423193E-2,-4.0471685E-1,-1.7835066E-1,6.501112E-2,2.1928929E-1,2.5879154E-2,2.6841062E-1,-2.2607656E-1,-1.6417514E-3,-1.0565362E-1,-2.3337916E-2,-3.895275E-1,5.600896E-2,3.2715008E-1,3.31191E-1,-1.9799916E-1,4.3797007E-1,6.9426805E-2,3.478697E-1,4.437527E-2,-2.428248E-1,-2.5770048E-2,-1.1795578E-1,2.6595625E-1,9.883333E-3,-1.2957308E-1,2.1719477E-1,-6.952968E-2],"categories":[],"categories_nodes":[],"categories_segments":[],"categories_sizes":[],"default_left":[0,0,0,0,0,0,0,0,0,0,0,0,0,0,0,0,0,0,0,0,0,0,0,0,0,0,0,0,0,0,0,0,0,0,0,0,0,0,0,0,0,0,0,0,0,0,0,0,0,0,0,0,0,0,0,0,0,0,0,0,0,0,0,0,0,0,0,0,0,0,0,0,0,0,0,0,0,0,0,0,0,0,0,0,0],"id":13,"left_children":[1,3,5,7,9,11,13,15,17,19,21,23,-1,25,27,29,31,-1,-1,33,35,37,39,41,43,45,47,49,51,53,55,57,-1,59,61,-1,63,65,67,69,71,-1,73,-1,-1,-1,75,-1,77,79,-1,81,83,-1,-1,-1,-1,-1,-1,-1,-1,-1,-1,-1,-1,-1,-1,-1,-1,-1,-1,-1,-1,-1,-1,-1,-1,-1,-1,-1,-1,-1,-1,-1,-1],"loss_changes":[1.3949355E0,4.5948157E0,4.077595E0,5.723496E0,3.8609872E0,1.9405465E0,4.501831E0,5.110879E0,2.5370855E0,3.5109246E0,3.0272E0,1.8457341E0,0E0,3.9856868E0,4.749856E0,3.7587607E0,2.3661556E0,0E0,0E0,3.2374475E0,6.44773E0,4.1850133E0,5.6258783E0,1.2595615E0,7.708275E-1,3.1752155E0,4.929606E0,1.2449446E0,3.4461405E0,4.3681526E0,2.8804975E0,3.279562E-1,0E0,1.7456051E0,5.666547E0,0E0,7.8390684E0,2.9128075E0,2.1084871E0,1.4255414E0,7.933707E0,0E0,1.4406214E0,0E0,0E0,0E0,1.4106765E0,0E0,2.6128244E0,1.8443218E0,0E0,4.7638206E0,3.0556672E0,0E0,0E0,0E0,0E0,0E0,0E0,0E0,0E0,0E0,0E0,0E0,0E0,0E0,0E0,0E0,0E0,0E0,0E0,0E0,0E0,0E0,0E0,0E0,0E0,0E0,0E0,0E0,0E0,0E0,0E0,0E0,0E0],"parents":[2147483647,0,0,1,1,2,2,3,3,4,4,5,5,6,6,7,7,8,8,9,9,10,10,11,11,13,13,14,14,15,15,16,16,19,19,20,20,21,21,22,22,23,23,24,24,25,25,26,26,27,27,28,28,29,29,30,30,31,31,33,33,34,34,36,36,37,37,38,38,39,39,40,40,42,42,46,46,48,48,49,49,51,51,52,52],"right_children":[2,4,6,8,10,12,14,16,18,20,22,24,-1,26,28,30,32,-1,-1,34,36,38,40,42,44,46,48,50,52,54,56,58,-1,60,62,-1,64,66,68,70,72,-1,74,-1,-1,-1,76,-1,78,80,-1,82,84,-1,-1,-1,-1,-1,-1,-1,-1,-1,-1,-1,-1,-1,-1,-1,-1,-1,-1,-1,-1,-1,-1,-1,-1,-1,-1,-1,-1,-1,-1,-1,-1],"split_conditions":[-2.9589872E0,5.35E2,-1.1951656E2,4.1476376E1,1.662777E1,1.2126252E5,-6.4218254E1,4.96E2,1.1764202E5,-4.0268946E0,1.3782991E2,2.269182E1,-1.1298129E-1,9.68127E0,-7.500287E1,1.09682E0,2.7352063E2,3.4518743E-1,-7.606632E-2,1.0752856E2,-5.2895084E1,5.7259224E1,1.1812222E5,1.6468E1,1.1797485E5,1.223E3,1.342E3,1.772422E1,1.2203929E5,2.38E2,1.3109931E1,1.1103062E2,5.0108787E-2,1.1791646E5,1.69329E1,3.4752372E-1,1.1731944E5,3.746E3,2.4123195E2,-2.7050594E1,-4.647533E1,2.1784576E-2,8.254141E2,1.3527484E-1,-1.1202672E-1,-1.7032729E-1,4.456531E0,2.999823E-1,2.714216E1,-7.934818E1,3.7872133E-1,1.2192271E5,1.2258379E5,-7.07041E-2,1.4249064E-1,-2.530918E-1,-7.577653E-2,-9.423193E-2,-4.0471685E-1,-1.7835066E-1,6.501112E-2,2.1928929E-1,2.5879154E-2,2.6841062E-1,-2.2607656E-1,-1.6417514E-3,-1.0565362E-1,-2.3337916E-2,-3.895275E-1,5.600896E-2,3.2715008E-1,3.31191E-1,-1.9799916E-1,4.3797007E-1,6.9426805E-2,3.478697E-1,4.437527E-2,-2.428248E-1,-2.5770048E-2,-1.1795578E-1,2.6595625E-1,9.883333E-3,-1.2957308E-1,2.1719477E-1,-6.952968E-2],"split_indices":[14,6,12,13,4,15,12,6,0,14,18,14,0,4,13,4,17,0,0,17,12,11,1,4,10,6,6,4,16,6,18,17,0,15,18,0,0,6,17,14,14,0,17,0,0,0,14,0,4,13,0,3,0,0,0,0,0,0,0,0,0,0,0,0,0,0,0,0,0,0,0,0,0,0,0,0,0,0,0,0,0,0,0,0,0],"split_type":[0,0,0,0,0,0,0,0,0,0,0,0,0,0,0,0,0,0,0,0,0,0,0,0,0,0,0,0,0,0,0,0,0,0,0,0,0,0,0,0,0,0,0,0,0,0,0,0,0,0,0,0,0,0,0,0,0,0,0,0,0,0,0,0,0,0,0,0,0,0,0,0,0,0,0,0,0,0,0,0,0,0,0,0,0],"sum_hessian":[1.2172411E3,5.0714612E2,7.1009503E2,9.231032E1,4.1483582E2,1.0713284E1,6.993817E2,8.773294E1,4.5773797E0,2.9089328E2,1.2394252E2,9.569068E0,1.1442153E0,3.365413E1,6.657276E2,8.006822E1,7.6647186E0,3.1631732E0,1.4142065E0,2.6997977E2,2.091352E1,1.04160286E2,1.9782236E1,7.0081625E0,2.560906E0,7.357522E0,2.6296606E1,5.5040984E0,6.602235E2,3.5185444E1,4.488278E1,6.5061755E0,1.1585429E0,1.2006354E1,2.5797342E2,1.6994412E0,1.9214079E1,9.792966E1,6.230633E0,8.132475E0,1.1649761E1,1.3921683E0,5.615994E0,1.1191338E0,1.4417721E0,2.1588776E0,5.1986446E0,1.1477813E0,2.5148825E1,2.6534507E0,2.8506477E0,6.446593E2,1.5564222E1,2.2492243E1,1.2693202E1,1.0559934E1,3.432284E1,1.087092E0,5.4190836E0,8.985283E0,3.0210707E0,1.3475387E1,2.4449803E2,2.5753684E0,1.6638712E1,5.6403282E1,4.1526375E1,2.1467583E0,4.083874E0,3.1489599E0,4.9835153E0,2.4260142E0,9.223747E0,3.8933628E0,1.7226313E0,2.1043246E0,3.09432E0,1.8034372E1,7.114452E0,1.5140027E0,1.1394479E0,6.2280475E2,2.1854555E1,1.1552736E1,4.0114865E0],"tree_param":{"num_deleted":"0","num_feature":"19","num_nodes":"85","size_leaf_vector":"1"}},{"base_weights":[3.667809E-4,1.5386122E-1,-9.296487E-3,-3.8818994E-3,4.6210727E-1,-2.4679376E-1,-1.297539E-3,-1.648284E-1,7.0926994E-1,6.0691947E-1,-2.224964E-1,-1.0454492E-1,-8.7707365E-1,-3.249721E-1,3.6991122E-3,-5.723819E-1,1.7302671E-2,3.6508778E-1,1.7285837E-1,-3.842222E-1,7.61382E-1,-2.2490536E-1,6.897344E-1,-1.0404828E0,-9.1509536E-2,2.8201288E-1,-5.467674E-1,6.5679125E-2,-2.6258582E-2,1.6052184E-1,-7.21927E-1,9.3690264E-1,-2.720256E-1,-1.5978691E-1,6.83433E-1,-2.6720157E-1,1.0913217E-1,9.466982E-1,-8.909462E-2,2.9351128E-2,-9.1761404E-1,3.6765137E-1,-7.195908E-2,-9.5384866E-2,-3.459648E-1,-1.6346818E-1,7.017751E-1,-7.5817E-1,2.388228E-1,-3.0048506E-3,5.8484167E-1,-3.3007604E-1,-1.0188116E-2,-3.2395887E-1,-9.304882E-2,5.430565E-1,3.8649365E-2,6.015554E-2,-1.8051548E-1,2.6970837E-1,4.2549044E-2,4.5709643E-3,3.3498636E-1,2.0587467E-1,-2.4771424E-1,-6.530439E-2,1.90513E-1,-3.3096597E-1,1.6852751E-2,3.262592E-1,-2.7872426E-2,-2.9518488E-1,1.8880962E-1,-4.7068293E-3,3.2093507E-1,1.9588648E-1,-2.2322358E-1,1.0510847E-2,-1.8854614E-1,-1.3925381E-1,3.0656513E-5],"categories":[],"categories_nodes":[],"categories_segments":[],"categories_sizes":[],"default_left":[0,0,0,0,0,0,0,0,0,0,0,0,0,0,0,0,0,0,0,0,0,0,0,0,0,0,0,0,0,0,0,0,0,0,0,0,0,0,0,0,0,0,0,0,0,0,0,0,0,0,0,0,0,0,0,0,0,0,0,0,0,0,0,0,0,0,0,0,0,0,0,0,0,0,0,0,0,0,0,0,0],"id":14,"left_children":[1,3,5,7,9,11,13,15,17,19,-1,21,23,25,27,29,31,-1,33,35,37,39,41,43,-1,45,47,49,51,-1,53,55,57,-1,59,-1,-1,61,63,65,67,-1,-1,-1,-1,-1,69,71,-1,73,75,77,79,-1,-1,-1,-1,-1,-1,-1,-1,-1,-1,-1,-1,-1,-1,-1,-1,-1,-1,-1,-1,-1,-1,-1,-1,-1,-1,-1,-1],"loss_changes":[1.7994602E0,3.495522E0,2.1679616E0,5.6861286E0,4.691534E0,3.2420542E0,1.7885985E0,3.0086045E0,2.274026E0,3.7017155E0,0E0,3.1638513E0,3.0998278E-1,2.41765E0,2.024439E0,2.4576015E0,7.941928E0,0E0,2.3816507E0,1.7131767E0,3.173665E0,4.9733677E0,2.4791083E0,2.4757385E-2,0E0,2.1731462E0,4.195709E0,1.2669446E1,3.5858238E0,0E0,1.3518329E0,4.8049884E0,3.6652923E0,0E0,3.030796E-1,0E0,0E0,2.5439777E0,3.0915773E0,3.3571422E0,1.4304786E0,0E0,0E0,0E0,0E0,0E0,1.2840581E0,4.2046614E0,0E0,4.299735E0,4.243474E0,4.042259E0,3.2665775E0,0E0,0E0,0E0,0E0,0E0,0E0,0E0,0E0,0E0,0E0,0E0,0E0,0E0,0E0,0E0,0E0,0E0,0E0,0E0,0E0,0E0,0E0,0E0,0E0,0E0,0E0,0E0,0E0],"parents":[2147483647,0,0,1,1,2,2,3,3,4,4,5,5,6,6,7,7,8,8,9,9,11,11,12,12,13,13,14,14,15,15,16,16,18,18,19,19,20,20,21,21,22,22,23,23,25,25,26,26,27,27,28,28,30,30,31,31,32,32,34,34,37,37,38,38,39,39,40,40,46,46,47,47,49,49,50,50,51,51,52,52],"right_children":[2,4,6,8,10,12,14,16,18,20,-1,22,24,26,28,30,32,-1,34,36,38,40,42,44,-1,46,48,50,52,-1,54,56,58,-1,60,-1,-1,62,64,66,68,-1,-1,-1,-1,-1,70,72,-1,74,76,78,80,-1,-1,-1,-1,-1,-1,-1,-1,-1,-1,-1,-1,-1,-1,-1,-1,-1,-1,-1,-1,-1,-1,-1,-1,-1,-1,-1,-1],"split_conditions":[9.0846794E1,8.034643E1,1.0578434E1,5.772585E1,1.9526005E1,1.0023606E1,9.73816E1,1.1757228E5,1.0818994E1,-5.2650976E0,-2.224964E-1,2.2817554E1,1.1785527E5,1.50534E0,5.1862203E5,1.42E2,1.1774625E5,3.6508778E-1,1.7320301E1,1.1782228E5,3.56701E0,1.1788449E5,9.144318E0,-2.5110317E1,-9.1509536E-2,-8.944237E0,2.119204E1,3.79126E0,4.83452E0,1.6052184E-1,1.31309E0,5.0362995E1,1.13031E0,-1.5978691E-1,1.0023606E1,-2.6720157E-1,1.0913217E-1,1.1738374E5,1.1776404E5,3.0989025E0,2.2677484E2,3.6765137E-1,-7.195908E-2,-9.5384866E-2,-3.459648E-1,-1.6346818E-1,9.409644E0,6.3260117E0,2.388228E-1,6.4182465E1,7.270077E1,-1.6783471E0,5.28E2,-3.2395887E-1,-9.304882E-2,5.430565E-1,3.8649365E-2,6.015554E-2,-1.8051548E-1,2.6970837E-1,4.2549044E-2,4.5709643E-3,3.3498636E-1,2.0587467E-1,-2.4771424E-1,-6.530439E-2,1.90513E-1,-3.3096597E-1,1.6852751E-2,3.262592E-1,-2.7872426E-2,-2.9518488E-1,1.8880962E-1,-4.7068293E-3,3.2093507E-1,1.9588648E-1,-2.2322358E-1,1.0510847E-2,-1.8854614E-1,-1.3925381E-1,3.0656513E-5],"split_indices":[17,17,18,11,12,18,17,8,13,14,0,13,7,4,5,6,16,0,13,9,4,1,18,12,0,12,12,4,4,0,4,11,4,0,18,0,0,7,3,14,17,0,0,0,0,0,13,14,0,18,11,13,6,0,0,0,0,0,0,0,0,0,0,0,0,0,0,0,0,0,0,0,0,0,0,0,0,0,0,0,0],"split_type":[0,0,0,0,0,0,0,0,0,0,0,0,0,0,0,0,0,0,0,0,0,0,0,0,0,0,0,0,0,0,0,0,0,0,0,0,0,0,0,0,0,0,0,0,0,0,0,0,0,0,0,0,0,0,0,0,0,0,0,0,0,0,0,0,0,0,0,0,0,0,0,0,0,0,0,0,0,0,0,0,0],"sum_hessian":[1.2112166E3,7.085238E1,1.1403643E3,4.7521122E1,2.3331253E1,3.6183525E1,1.1041807E3,3.9398426E1,8.122696E0,2.1268476E1,2.062777E0,3.04721E1,5.711425E0,1.5812856E1,1.0883678E3,1.1506875E1,2.7891552E1,3.5212693E0,4.6014266E0,2.667084E0,1.8601393E1,2.7084688E1,3.3874116E0,3.8054652E0,1.9059595E0,4.1591234E0,1.1653731E1,3.5425366E2,7.3411414E2,1.0622668E0,1.0444609E1,6.1395206E0,2.1752031E1,1.9138291E0,2.6875975E0,1.4765824E0,1.1905015E0,1.5180476E1,3.420917E0,2.0513063E1,6.571625E0,1.9469677E0,1.440444E0,1.0292342E0,2.776231E0,1.3000331E0,2.8590906E0,1.0444814E1,1.2089177E0,3.1374072E2,4.051294E1,3.589867E1,6.982155E2,4.719524E0,5.725085E0,2.354678E0,3.7848427E0,9.10038E0,1.2651651E1,1.4503284E0,1.2372692E0,2.5101771E0,1.2670299E1,1.6999655E0,1.7209516E0,1.5025499E1,5.4875636E0,5.407948E0,1.163677E0,1.6766846E0,1.1824058E0,9.233247E0,1.2115672E0,3.1104828E2,2.6924396E0,3.902157E1,1.4913739E0,1.6541899E1,1.9356773E1,1.4497584E1,6.837179E2],"tree_param":{"num_deleted":"0","num_feature":"19","num_nodes":"81","size_leaf_vector":"1"}},{"base_weights":[1.339965E-4,-3.8493585E-2,2.7928524E-2,-2.2414401E-2,-6.0228264E-1,-2.7811509E-3,1.5543078E-1,-1.17938835E-2,-4.629333E-1,-9.978978E-1,-7.2414884E-3,2.5363335E-2,-2.8640303E-1,6.251432E-1,6.271103E-2,-1.8071335E-2,8.624608E-1,-8.631866E-1,5.6303096E-1,-5.2698964E-1,-3.736699E-1,7.16872E-1,-2.6639977E-1,1.231873E-2,1.0371714E0,-7.290896E-1,-4.489831E-2,6.1236966E-2,9.535898E-1,-7.838391E-1,1.1518493E-1,3.960306E-2,-1.02866516E-1,3.4023517E-1,5.9438724E-2,-4.4909614E-1,-1.5630218E-1,2.7516076E-1,-4.417372E-2,-2.7886435E-1,9.759904E-2,-1.9285973E-2,3.1535804E-1,1.9932652E-2,-3.1384993E-1,1.2340742E0,1.5348298E-2,1.5797126E-1,-8.946703E-1,7.368945E-1,-1.837961E-1,8.078159E-1,-6.214555E-1,1.0667381E0,6.468173E-4,9.625728E-2,-1.0764538E0,-3.9525482E-1,1.9630904E-1,-9.911153E-3,1.0528209E-1,-2.9238892E-1,-2.2201246E-2,1.3698828E-1,-2.8969836E-1,3.040721E-3,2.323877E-1,5.475917E-2,4.4920155E-1,-1.1449556E-2,-3.2866886E-1,3.12674E-1,-5.419245E-2,3.356256E-1,-8.3857924E-2,3.466062E-1,-4.3519795E-2,6.1794322E-2,-3.2048348E-1,1.0545746E-1,3.890041E-1,-4.1568848E-1,-1.2091472E-1,1.8154746E-1,-1.7016084E-1,8.232837E-2,-4.7144197E-2],"categories":[],"categories_nodes":[],"categories_segments":[],"categories_sizes":[],"default_left":[0,0,0,0,0,0,0,0,0,0,0,0,0,0,0,0,0,0,0,0,0,0,0,0,0,0,0,0,0,0,0,0,0,0,0,0,0,0,0,0,0,0,0,0,0,0,0,0,0,0,0,0,0,0,0,0,0,0,0,0,0,0,0,0,0,0,0,0,0,0,0,0,0,0,0,0,0,0,0,0,0,0,0,0,0,0,0],"id":15,"left_children":[1,3,5,7,9,11,13,15,17,19,21,23,25,27,29,31,33,35,37,39,-1,41,-1,43,45,47,49,51,53,55,57,59,61,-1,-1,-1,63,-1,-1,-1,-1,-1,-1,65,-1,67,-1,-1,69,71,73,75,77,79,-1,-1,81,83,85,-1,-1,-1,-1,-1,-1,-1,-1,-1,-1,-1,-1,-1,-1,-1,-1,-1,-1,-1,-1,-1,-1,-1,-1,-1,-1,-1,-1],"loss_changes":[1.297291E0,4.570126E0,2.751852E0,2.29939E0,3.2841992E0,4.535491E0,5.901801E0,2.661239E0,5.237759E0,3.2222557E-1,4.8400545E0,6.8107214E0,5.450926E0,4.086093E0,5.2003965E0,2.3496332E0,3.99235E-1,3.672248E0,1.1042215E0,1.8894374E0,0E0,1.1567173E0,0E0,4.1424747E0,1.2120895E0,4.221715E0,3.8549013E0,5.244544E0,1.512599E0,2.557232E0,4.5991874E0,6.483715E0,4.820081E0,0E0,0E0,0E0,3.0395865E0,0E0,0E0,0E0,0E0,0E0,0E0,3.7536426E0,0E0,1.2303753E0,0E0,0E0,2.7642565E0,1.6919715E0,4.0392466E0,1.7834337E0,2.2259722E0,1.6121359E0,0E0,0E0,6.1560774E-1,2.9761896E0,2.6631207E0,0E0,0E0,0E0,0E0,0E0,0E0,0E0,0E0,0E0,0E0,0E0,0E0,0E0,0E0,0E0,0E0,0E0,0E0,0E0,0E0,0E0,0E0,0E0,0E0,0E0,0E0,0E0,0E0],"parents":[2147483647,0,0,1,1,2,2,3,3,4,4,5,5,6,6,7,7,8,8,9,9,10,10,11,11,12,12,13,13,14,14,15,15,16,16,17,17,18,18,19,19,21,21,23,23,24,24,25,25,26,26,27,27,28,28,29,29,30,30,31,31,32,32,36,36,43,43,45,45,48,48,49,49,50,50,51,51,52,52,53,53,56,56,57,57,58,58],"right_children":[2,4,6,8,10,12,14,16,18,20,22,24,26,28,30,32,34,36,38,40,-1,42,-1,44,46,48,50,52,54,56,58,60,62,-1,-1,-1,64,-1,-1,-1,-1,-1,-1,66,-1,68,-1,-1,70,72,74,76,78,80,-1,-1,82,84,86,-1,-1,-1,-1,-1,-1,-1,-1,-1,-1,-1,-1,-1,-1,-1,-1,-1,-1,-1,-1,-1,-1,-1,-1,-1,-1,-1,-1],"split_conditions":[-5.4715304E0,-6.6592493E0,1.1963062E5,9.409644E0,2.382649E1,1.1916897E5,1.2010271E5,8.025609E0,-9.610462E0,9.590416E1,6.83749E0,1.1912099E5,1.757E3,1.1999099E5,1.2015991E5,1.1868111E5,8.250678E0,1.881E3,1.109658E1,7.3787834E1,-3.736699E-1,8.13E2,-2.6639977E-1,1.191458E5,6.1767E1,2.9117578E2,1.5834904E1,1.1995725E5,1.932308E1,6.990635E0,2.0067886E2,1.1784766E5,1.1871572E5,3.4023517E-1,5.9438724E-2,-4.4909614E-1,5.1258417E2,2.7516076E-1,-4.417372E-2,-2.7886435E-1,9.759904E-2,-1.9285973E-2,3.1535804E-1,1.1897116E5,-3.1384993E-1,3.643995E1,1.5348298E-2,1.5797126E-1,1.7116869E1,2.1335642E1,4.24674E1,1.273032E1,1.1987351E5,8.707109E0,6.468173E-4,9.625728E-2,1.2015777E5,4.6422176E1,1.9652967E1,-9.911153E-3,1.0528209E-1,-2.9238892E-1,-2.2201246E-2,1.3698828E-1,-2.8969836E-1,3.040721E-3,2.323877E-1,5.475917E-2,4.4920155E-1,-1.1449556E-2,-3.2866886E-1,3.12674E-1,-5.419245E-2,3.356256E-1,-8.3857924E-2,3.466062E-1,-4.3519795E-2,6.1794322E-2,-3.2048348E-1,1.0545746E-1,3.890041E-1,-4.1568848E-1,-1.2091472E-1,1.8154746E-1,-1.7016084E-1,8.232837E-2,-4.7144197E-2],"split_indices":[12,12,16,13,18,8,8,13,12,17,4,8,6,15,8,3,13,6,4,17,0,6,0,2,12,17,12,15,4,12,17,0,7,0,0,0,17,0,0,0,0,0,0,16,0,18,0,0,13,13,18,4,7,12,0,0,2,11,14,0,0,0,0,0,0,0,0,0,0,0,0,0,0,0,0,0,0,0,0,0,0,0,0,0,0,0,0],"split_type":[0,0,0,0,0,0,0,0,0,0,0,0,0,0,0,0,0,0,0,0,0,0,0,0,0,0,0,0,0,0,0,0,0,0,0,0,0,0,0,0,0,0,0,0,0,0,0,0,0,0,0,0,0,0,0,0,0,0,0,0,0,0,0,0,0,0,0,0,0,0,0,0,0,0,0,0,0,0,0,0,0,0,0,0,0,0,0],"sum_hessian":[1.2063148E3,5.0462494E2,7.0168994E2,4.916431E2,1.2981834E1,5.66277E2,1.3541298E2,4.8107166E2,1.0571435E1,7.390928E0,5.5909066E0,5.1598505E2,5.0291878E1,2.1376862E1,1.1403612E2,4.7861438E2,2.4572875E0,7.7188034E0,2.852632E0,3.625442E0,3.765486E0,3.1704228E0,2.4204838E0,5.1041678E2,5.5683084E0,1.7039299E1,3.325258E1,8.304833E0,1.3072027E1,5.8425074E0,1.0819361E2,2.8517938E2,1.93435E2,1.2421829E0,1.2151046E0,3.480459E0,4.238344E0,1.7090846E0,1.1435474E0,2.400877E0,1.2245649E0,1.1922898E0,1.978133E0,5.077456E2,2.6711597E0,4.4317245E0,1.1365838E0,1.731155E0,1.5308145E1,4.367062E0,2.8885517E1,3.879266E0,4.4255676E0,1.1574367E1,1.4976609E0,1.2032826E0,4.639225E0,1.4306114E1,9.38875E1,2.3195438E2,5.3224995E1,5.148893E0,1.8828612E2,2.659849E0,1.5784953E0,5.0223932E2,5.506302E0,1.2264218E0,3.2053027E0,3.13444E0,1.2173704E1,3.174637E0,1.1924253E0,1.2459599E0,2.7639557E1,2.6868322E0,1.1924337E0,1.7408433E0,2.6847243E0,3.431078E0,8.143289E0,2.454614E0,2.1846108E0,1.7287314E0,1.2577383E1,7.7076164E1,1.681133E1],"tree_param":{"num_deleted":"0","num_feature":"19","num_nodes":"87","size_leaf_vector":"1"}},{"base_weights":[5.360836E-5,-5.016528E-3,2.1072386E-1,1.4979364E-2,-6.7049414E-2,3.066193E-1,-3.4382227E-1,1.8561326E-2,-3.261079E-1,-5.1438385E-1,-3.2010883E-2,7.871332E-2,6.353407E-1,1.4165908E-1,-2.483768E-1,2.4724633E-3,3.0384836E-1,2.3212023E-1,-7.013596E-1,4.6976033E-1,-7.378667E-2,5.3621155E-1,-3.748598E-1,-2.3695668E-2,7.784692E-1,8.959044E-3,-6.268378E-1,7.9831356E-1,-4.8438437E-2,-2.7096125E-3,-8.970817E-1,-2.5043905E-1,6.7983395E-1,-7.9147303E-1,-5.470609E-2,-9.855971E-2,8.385341E-1,4.5382553E-1,-7.4113137E-1,5.764748E-2,9.019199E-1,-6.2732515E-4,1.1323172E-1,-2.677351E-1,3.8305327E-2,2.7029672E-1,-5.5022538E-2,-4.686896E-2,3.5579926E-1,-2.1246675E-1,1.4369428E-1,-1.6416904E-1,-3.9040208E-1,2.834319E-1,-2.9813236E-1,2.5758836E-1,-1.3770394E-1,1.3108842E-2,-3.1444472E-1,-1.7424488E-1,-9.226495E-3,3.2811463E-1,-5.0410517E-2,2.825661E-1,-8.5854895E-2,1.0702303E-2,-3.0284876E-1,3.1142476E-1,1.0237173E-1],"categories":[],"categories_nodes":[],"categories_segments":[],"categories_sizes":[],"default_left":[0,0,0,0,0,0,0,0,0,0,0,0,0,0,0,0,0,0,0,0,0,0,0,0,0,0,0,0,0,0,0,0,0,0,0,0,0,0,0,0,0,0,0,0,0,0,0,0,0,0,0,0,0,0,0,0,0,0,0,0,0,0,0,0,0,0,0,0,0],"id":16,"left_children":[1,3,5,7,9,11,13,15,-1,17,19,21,23,-1,-1,25,27,-1,29,31,33,35,37,-1,39,41,43,45,47,49,51,53,55,57,59,-1,61,63,65,-1,67,-1,-1,-1,-1,-1,-1,-1,-1,-1,-1,-1,-1,-1,-1,-1,-1,-1,-1,-1,-1,-1,-1,-1,-1,-1,-1,-1,-1],"loss_changes":[1.285884E0,1.4592052E0,1.6099588E0,3.5326593E0,4.4780607E0,1.7966826E0,2.2249172E0,4.0748215E0,0E0,5.543286E0,5.631253E0,3.4585817E0,1.0789003E0,0E0,0E0,3.440847E0,8.29439E0,0E0,2.5485325E0,3.2953906E0,3.3436484E0,2.4262524E0,2.907682E0,0E0,4.3339634E-1,3.3963912E0,1.8374286E0,2.1585655E0,3.9933438E0,2.067486E0,1.3484926E0,5.732304E0,3.7050915E0,1.4029863E0,3.0315833E0,0E0,1.8218288E0,1.4313943E0,1.3399172E0,0E0,1.5372133E-1,0E0,0E0,0E0,0E0,0E0,0E0,0E0,0E0,0E0,0E0,0E0,0E0,0E0,0E0,0E0,0E0,0E0,0E0,0E0,0E0,0E0,0E0,0E0,0E0,0E0,0E0,0E0,0E0],"parents":[2147483647,0,0,1,1,2,2,3,3,4,4,5,5,6,6,7,7,9,9,10,10,11,11,12,12,15,15,16,16,18,18,19,19,20,20,21,21,22,22,24,24,25,25,26,26,27,27,28,28,29,29,30,30,31,31,32,32,33,33,34,34,36,36,37,37,38,38,40,40],"right_children":[2,4,6,8,10,12,14,16,-1,18,20,22,24,-1,-1,26,28,-1,30,32,34,36,38,-1,40,42,44,46,48,50,52,54,56,58,60,-1,62,64,66,-1,68,-1,-1,-1,-1,-1,-1,-1,-1,-1,-1,-1,-1,-1,-1,-1,-1,-1,-1,-1,-1,-1,-1,-1,-1,-1,-1,-1,-1],"split_conditions":[7.284E3,1.7071139E6,1.2869931E2,4.89549E1,3.643995E1,-1.0182109E1,7.173219E1,7.948537E1,-3.261079E-1,9.282764E1,4.6681168E1,3.097445E1,1.18123336E5,1.4165908E-1,-2.483768E-1,3.395E3,4.800966E2,2.3212023E-1,-8.334459E0,1.583334E1,4.864178E1,4.6494965E2,8.114E3,-2.3695668E-2,4.976344E1,2.618E3,5.8125835E1,3.961E3,4.635E3,-2.816948E1,2.8367304E1,-1.3840674E1,5.153804E1,1.1753367E5,1.7740441E6,-9.855971E-2,1.3303477E2,1.1968236E5,1.1963065E2,5.764748E-2,7.692217E1,-6.2732515E-4,1.1323172E-1,-2.677351E-1,3.8305327E-2,2.7029672E-1,-5.5022538E-2,-4.686896E-2,3.5579926E-1,-2.1246675E-1,1.4369428E-1,-1.6416904E-1,-3.9040208E-1,2.834319E-1,-2.9813236E-1,2.5758836E-1,-1.3770394E-1,1.3108842E-2,-3.1444472E-1,-1.7424488E-1,-9.226495E-3,3.2811463E-1,-5.0410517E-2,2.825661E-1,-8.5854895E-2,1.0702303E-2,-3.0284876E-1,3.1142476E-1,1.0237173E-1],"split_indices":[6,5,13,14,18,13,11,18,0,17,18,11,9,0,0,6,17,0,13,4,18,17,6,0,4,6,11,6,6,12,18,12,13,1,5,0,4,2,18,0,13,0,0,0,0,0,0,0,0,0,0,0,0,0,0,0,0,0,0,0,0,0,0,0,0,0,0,0,0],"split_type":[0,0,0,0,0,0,0,0,0,0,0,0,0,0,0,0,0,0,0,0,0,0,0,0,0,0,0,0,0,0,0,0,0,0,0,0,0,0,0,0,0,0,0,0,0,0,0,0,0,0,0,0,0,0,0,0,0,0,0,0,0,0,0,0,0,0,0,0,0],"sum_hessian":[1.2018787E3,1.1745864E3,2.7292223E1,8.8883484E2,2.8575153E2,2.3649662E1,3.64256E0,8.869351E2,1.8997394E0,1.9762651E1,2.659889E2,1.4698496E1,8.951167E0,1.3654653E0,2.2770948E0,8.4054114E2,4.6393948E1,2.107242E0,1.765541E1,1.965591E1,2.4633298E2,7.2268815E0,7.471615E0,1.5689576E0,7.3822093E0,8.329414E2,7.5997334E0,1.8775213E1,2.7618736E1,4.085531E0,1.3569879E1,4.395293E0,1.5260616E1,5.3311086E0,2.4100186E2,1.8496288E0,5.3772526E0,2.2168882E0,5.2547264E0,1.7286761E0,5.653533E0,8.0965546E2,2.3285952E1,5.485785E0,2.113948E0,1.7071945E1,1.7032677E0,2.620403E1,1.414706E0,1.4668337E0,2.6186976E0,8.536191E0,5.0336876E0,1.5814624E0,2.8138306E0,1.3402534E1,1.8580825E0,1.4483256E0,3.882783E0,9.481481E0,2.3152039E2,4.2206683E0,1.1565843E0,1.1714623E0,1.0454259E0,1.5718706E0,3.6828558E0,3.8637457E0,1.7897873E0],"tree_param":{"num_deleted":"0","num_feature":"19","num_nodes":"69","size_leaf_vector":"1"}},{"base_weights":[-2.2485916E-4,1.9731151E-3,-4.6152118E-1,-1.040955E-2,8.6162716E-2,2.5332507E-2,-2.2940381E-1,-4.384128E-3,-6.4739555E-1,3.6909077E-1,-2.3006754E-2,-3.110104E-1,3.6479053E-4,1.6380294E-1,-9.0413254E-1,6.551703E-1,1.1242041E-1,1.587052E-1,-1.609856E-1,-5.4781723E-1,3.2392714E-2,2.0788455E-1,-8.014136E-3,4.4802833E-2,-3.5670316E-1,8.847732E-1,2.0016214E-2,-3.2329968E-1,2.4891444E-1,3.8450006E-2,8.7829494E-1,-3.0216247E-1,2.6999646E-1,-7.0889606E-3,-1.9319618E-1,2.6752385E-1,-8.657739E-2,-1.8439034E-1,9.8798394E-2,1.3116157E-1,-4.086242E-3,3.801404E-1,8.045379E-2,2.57956E-1,-2.167343E-1,1.8582848E-1,-1.6849536E-2,2.6939738E-1,-2.4137551E-2,-1.8605785E-2,3.403016E-1,-1.19363695E-1,8.9622065E-2,1.9412355E-1,-2.9648695E-2],"categories":[],"categories_nodes":[],"categories_segments":[],"categories_sizes":[],"default_left":[0,0,0,0,0,0,0,0,0,0,0,0,0,0,0,0,0,0,0,0,0,0,0,0,0,0,0,0,0,0,0,0,0,0,0,0,0,0,0,0,0,0,0,0,0,0,0,0,0,0,0,0,0,0,0],"id":17,"left_children":[1,3,5,7,9,-1,-1,11,13,15,17,19,21,-1,23,25,27,29,31,33,35,37,39,-1,-1,41,43,-1,45,47,49,51,53,-1,-1,-1,-1,-1,-1,-1,-1,-1,-1,-1,-1,-1,-1,-1,-1,-1,-1,-1,-1,-1,-1],"loss_changes":[1.215924E0,1.2452655E0,1.0058407E0,3.9945107E0,4.7391453E0,0E0,0E0,1.5039254E0,3.4817748E0,3.061874E0,2.820057E0,1.2986916E0,1.7717304E0,0E0,2.699256E0,2.8970509E0,4.12051E0,4.1725564E0,3.966442E0,4.5757508E-1,2.2911487E0,4.1525097E0,2.4508317E0,0E0,0E0,3.1157494E0,4.5682063E0,0E0,2.5314574E0,4.4359026E0,1.7350664E0,2.912219E0,2.3284674E0,0E0,0E0,0E0,0E0,0E0,0E0,0E0,0E0,0E0,0E0,0E0,0E0,0E0,0E0,0E0,0E0,0E0,0E0,0E0,0E0,0E0,0E0],"parents":[2147483647,0,0,1,1,2,2,3,3,4,4,7,7,8,8,9,9,10,10,11,11,12,12,14,14,15,15,16,16,17,17,18,18,19,19,20,20,21,21,22,22,25,25,26,26,28,28,29,29,30,30,31,31,32,32],"right_children":[2,4,6,8,10,-1,-1,12,14,16,18,20,22,-1,24,26,28,30,32,34,36,38,40,-1,-1,42,44,-1,46,48,50,52,54,-1,-1,-1,-1,-1,-1,-1,-1,-1,-1,-1,-1,-1,-1,-1,-1,-1,-1,-1,-1,-1,-1],"split_conditions":[1.22487055E5,1.2064601E5,1.2259438E5,1.2017998E5,1.2130391E5,2.5332507E-2,-2.2940381E-1,2.228224E1,-4.0526173E1,4.8815637E2,1.519612E6,1.1748904E5,3.0005487E1,1.6380294E-1,3.097445E1,3.889E3,1.024564E1,1.151285E1,4.194E3,2.1E2,1.17432805E5,1.1744872E5,1.1676617E5,4.4802833E-2,-3.5670316E-1,1.21262E5,5.947354E1,-3.2329968E-1,1.3782991E2,1.2171914E5,1.2166986E5,3.105708E1,5.161E3,-7.0889606E-3,-1.9319618E-1,2.6752385E-1,-8.657739E-2,-1.8439034E-1,9.8798394E-2,1.3116157E-1,-4.086242E-3,3.801404E-1,8.045379E-2,2.57956E-1,-2.167343E-1,1.8582848E-1,-1.6849536E-2,2.6939738E-1,-2.4137551E-2,-1.8605785E-2,3.403016E-1,-1.19363695E-1,8.9622065E-2,1.9412355E-1,-2.9648695E-2],"split_indices":[16,3,7,16,16,0,0,11,14,17,5,15,11,0,11,6,4,4,6,6,7,15,3,0,0,2,12,0,18,15,2,4,6,0,0,0,0,0,0,0,0,0,0,0,0,0,0,0,0,0,0,0,0,0,0],"split_type":[0,0,0,0,0,0,0,0,0,0,0,0,0,0,0,0,0,0,0,0,0,0,0,0,0,0,0,0,0,0,0,0,0,0,0,0,0,0,0,0,0,0,0,0,0,0,0,0,0,0,0,0,0,0,0],"sum_hessian":[1.1973356E3,1.1926486E3,4.686982E0,1.040489E3,1.521595E2,1.9309535E0,2.7560284E0,1.0317365E3,8.752591E0,4.1702E1,1.104575E2,1.4751884E1,1.0169846E3,1.3501028E0,7.4024878E0,1.8986952E1,2.2715046E1,4.7608727E1,6.284877E1,8.378741E0,6.3731437E0,3.8544624E1,9.7844E2,1.6769416E0,5.7255464E0,1.3657042E1,5.3299108E0,1.6277167E0,2.108733E1,4.1694355E1,5.914374E0,4.7566353E1,1.5282419E1,1.492017E0,6.8867245E0,1.2495707E0,5.123573E0,4.4364057E0,3.410822E1,1.1210959E1,9.67229E2,7.7784348E0,5.878607E0,2.4267676E0,2.9031432E0,9.057172E0,1.2030158E1,4.2707667E0,3.7423588E1,1.4279692E0,4.4864044E0,4.1322105E1,6.244245E0,7.1835885E0,8.098831E0],"tree_param":{"num_deleted":"0","num_feature":"19","num_nodes":"55","size_leaf_vector":"1"}},{"base_weights":[4.0966834E-4,-1.8439834E-3,4.5206198E-1,6.7422376E-3,-1.6113937E-1,-9.574241E-2,8.621067E-1,3.3899306E-4,2.9370648E-1,7.1949095E-1,-2.1754813E-1,3.0543867E-1,8.183254E-2,4.2041554E-3,-4.1373152E-1,-6.7120826E-1,4.521746E-1,3.4020704E-1,-3.2904837E-2,-7.02291E-1,-4.715356E-2,-4.9144523E-3,1.245493E-1,2.1624132E-1,-7.014307E-1,-3.4842744E-1,7.6255605E-2,6.4389545E-1,-6.768733E-1,-8.101265E-1,9.715089E-2,-3.18568E-1,2.1834068E-1,5.557063E-3,-4.8010968E-2,-8.7068826E-2,8.33698E-2,-3.154022E-1,-4.4447035E-2,2.5194395E-1,-2.361073E-2,-2.7081826E-1,-7.377876E-2,2.012514E-2,-2.7906427E-1,5.182698E-2,-1.8640044E-1,2.3789553E-1,-4.4450987E-2],"categories":[],"categories_nodes":[],"categories_segments":[],"categories_sizes":[],"default_left":[0,0,0,0,0,0,0,0,0,0,0,0,0,0,0,0,0,0,0,0,0,0,0,0,0,0,0,0,0,0,0,0,0,0,0,0,0,0,0,0,0,0,0,0,0,0,0,0,0],"id":18,"left_children":[1,3,5,7,9,-1,11,13,15,17,19,-1,-1,21,23,25,27,-1,-1,29,31,33,35,-1,37,-1,-1,39,41,43,-1,45,47,-1,-1,-1,-1,-1,-1,-1,-1,-1,-1,-1,-1,-1,-1,-1,-1],"loss_changes":[1.215612E0,1.6266865E0,2.1502352E0,2.0738866E0,3.1781058E0,0E0,1.0307932E-1,1.7703388E0,4.0703382E0,1.4627807E0,4.751993E0,0E0,0E0,1.2031587E0,3.8446968E0,2.0542421E0,5.1454124E0,0E0,0E0,1.9216747E0,3.2356155E0,3.7100213E0,4.9924355E0,0E0,1.5222058E0,0E0,0E0,2.7716784E0,1.3283455E-1,1.5219488E0,0E0,3.399767E0,4.920344E0,0E0,0E0,0E0,0E0,0E0,0E0,0E0,0E0,0E0,0E0,0E0,0E0,0E0,0E0,0E0,0E0],"parents":[2147483647,0,0,1,1,2,2,3,3,4,4,6,6,7,7,8,8,9,9,10,10,13,13,14,14,15,15,16,16,19,19,20,20,21,21,22,22,24,24,27,27,28,28,29,29,31,31,32,32],"right_children":[2,4,6,8,10,-1,12,14,16,18,20,-1,-1,22,24,26,28,-1,-1,30,32,34,36,-1,38,-1,-1,40,42,44,-1,46,48,-1,-1,-1,-1,-1,-1,-1,-1,-1,-1,-1,-1,-1,-1,-1,-1],"split_conditions":[1.765577E2,7.692217E1,1.1771934E5,6.479338E1,4.96601E0,-9.574241E-2,1.2087226E5,6.1532948E1,1.1732355E5,-6.124618E-1,4.3383392E2,3.0543867E-1,8.183254E-2,6.9488716E1,4.034319E1,2.141E3,1.2117572E5,3.4020704E-1,-3.2904837E-2,1.2226237E5,1.1912429E5,6.0609055E1,2.348355E5,2.1624132E-1,4.408717E2,-3.4842744E-1,7.6255605E-2,4.509E3,3.239E3,2.4625253E2,9.715089E-2,1.1786917E5,7.948537E1,5.557063E-3,-4.8010968E-2,-8.7068826E-2,8.33698E-2,-3.154022E-1,-4.4447035E-2,2.5194395E-1,-2.361073E-2,-2.7081826E-1,-7.377876E-2,2.012514E-2,-2.7906427E-1,5.182698E-2,-1.8640044E-1,2.3789553E-1,-4.4450987E-2],"split_indices":[18,13,16,13,4,0,0,13,2,14,17,0,0,11,12,6,16,0,0,3,16,11,5,0,17,0,0,6,6,17,0,8,18,0,0,0,0,0,0,0,0,0,0,0,0,0,0,0,0],"split_type":[0,0,0,0,0,0,0,0,0,0,0,0,0,0,0,0,0,0,0,0,0,0,0,0,0,0,0,0,0,0,0,0,0,0,0,0,0,0,0,0,0,0,0,0,0,0,0,0,0],"sum_hessian":[1.1924548E3,1.1875253E3,4.929589E0,1.1276986E3,5.982669E1,1.7881556E0,3.1414332E0,1.104064E3,2.3634611E1,2.8938675E0,5.6932823E1,1.9085549E0,1.2328783E0,1.094834E3,9.229938E0,2.8775516E0,2.075706E1,1.6842157E0,1.2096518E0,1.3995762E1,4.293706E1,1.0186125E3,7.622157E1,1.5625687E0,7.667369E0,1.7143397E0,1.1632117E0,1.811132E1,2.645738E0,1.2855302E1,1.1404603E0,2.113296E1,2.1804104E1,8.856733E2,1.329392E2,2.0332893E1,5.5888683E1,4.1454325E0,3.5219362E0,1.4120596E1,3.990725E0,1.0176363E0,1.6281017E0,1.6010935E0,1.1254209E1,8.22118E0,1.2911779E1,8.037954E0,1.3766149E1],"tree_param":{"num_deleted":"0","num_feature":"19","num_nodes":"49","size_leaf_vector":"1"}},{"base_weights":[9.44918E-5,-3.639041E-2,2.6382035E-2,-2.3619696E-2,-5.158872E-1,4.212584E-1,1.7346691E-2,-5.045729E-3,-3.0142373E-1,-8.681106E-1,-1.2078204E-2,6.052153E-1,-2.494131E-1,2.6858038E-1,1.3563545E-2,2.7476352E-1,-2.1019103E-2,-4.5994836E-1,8.470099E-1,-3.0029416E-1,-7.754077E-2,6.723921E-1,-6.8702745E-1,-3.2189432E-1,8.0988526E-1,7.687677E-1,9.610264E-3,-4.4359073E-1,4.238411E-1,8.603216E-1,-2.8370695E-2,2.544738E-1,-6.426266E-1,3.2368797E-1,2.6777992E-2,-1.6303396E-2,3.1396717E-1,-2.7464643E-1,-1.3845045E-2,5.132289E-2,-2.136725E-1,1.0978794E0,1.9911088E-1,5.39628E-2,2.9348087E-1,-2.4456742E-1,1.25084715E-2,8.364811E-2,-2.674912E-1,5.5035964E-2,3.3070534E-1,1.2607955E-2,3.773916E-1,8.074581E-3,-4.5451753E-2,2.6087728E-1,-4.8273608E-2,-3.0709985E-1,-4.696162E-2,1.0431399E-1,4.3424112E-1,-7.2492845E-2,2.5290257E-1,2.1186395E-2,-8.086284E-3],"categories":[],"categories_nodes":[],"categories_segments":[],"categories_sizes":[],"default_left":[0,0,0,0,0,0,0,0,0,0,0,0,0,0,0,0,0,0,0,0,0,0,0,0,0,0,0,0,0,0,0,0,0,0,0,0,0,0,0,0,0,0,0,0,0,0,0,0,0,0,0,0,0,0,0,0,0,0,0,0,0,0,0,0,0],"id":19,"left_children":[1,3,5,7,9,11,13,15,17,19,21,23,-1,-1,25,27,29,31,33,-1,-1,35,37,39,41,43,45,47,49,51,53,55,57,-1,-1,-1,-1,-1,-1,-1,-1,59,61,-1,-1,-1,63,-1,-1,-1,-1,-1,-1,-1,-1,-1,-1,-1,-1,-1,-1,-1,-1,-1,-1],"loss_changes":[1.1431164E0,3.0442133E0,2.4642794E0,2.512519E0,2.2787743E0,4.064096E0,2.240652E0,2.0514958E0,5.9453993E0,3.551526E-1,3.3827024E0,2.9273243E0,0E0,0E0,2.0120027E0,2.8426745E0,2.8358743E0,3.747816E0,6.161258E-1,0E0,0E0,1.0478437E0,4.962448E-1,7.4858445E-1,1.8563638E0,2.5702858E-1,1.6211408E0,1.7857107E0,3.229527E0,1.1255364E0,2.9401917E0,1.7519057E0,3.9432688E0,0E0,0E0,0E0,0E0,0E0,0E0,0E0,0E0,1.540904E0,1.6231191E0,0E0,0E0,0E0,1.5441593E0,0E0,0E0,0E0,0E0,0E0,0E0,0E0,0E0,0E0,0E0,0E0,0E0,0E0,0E0,0E0,0E0,0E0,0E0],"parents":[2147483647,0,0,1,1,2,2,3,3,4,4,5,5,6,6,7,7,8,8,9,9,10,10,11,11,14,14,15,15,16,16,17,17,18,18,21,21,22,22,23,23,24,24,25,25,26,26,27,27,28,28,29,29,30,30,31,31,32,32,41,41,42,42,46,46],"right_children":[2,4,6,8,10,12,14,16,18,20,22,24,-1,-1,26,28,30,32,34,-1,-1,36,38,40,42,44,46,48,50,52,54,56,58,-1,-1,-1,-1,-1,-1,-1,-1,60,62,-1,-1,-1,64,-1,-1,-1,-1,-1,-1,-1,-1,-1,-1,-1,-1,-1,-1,-1,-1,-1,-1],"split_conditions":[-5.4715304E0,-6.6592493E0,4.041462E1,5.358905E1,2.382649E1,-3.5344903E0,-4.5800568E1,9.425904E1,4.635E3,3.24695E0,2.93987E0,1.1753697E5,-2.494131E-1,2.6858038E-1,4.993185E1,-2.3742466E1,3.9196E-1,2.2438305E1,1.286083E2,-3.0029416E-1,-7.754077E-2,8.13E2,5.213648E1,-6.071976E-2,1.1836694E5,8.273945E0,5.180026E0,-2.4531387E1,1.3354031E1,-4.7364235E0,-2.5110317E1,-1.3840674E1,1.9275236E1,3.2368797E-1,2.6777992E-2,-1.6303396E-2,3.1396717E-1,-2.7464643E-1,-1.3845045E-2,5.132289E-2,-2.136725E-1,9.898749E1,1.19804984E5,5.39628E-2,2.9348087E-1,-2.4456742E-1,5.1862203E5,8.364811E-2,-2.674912E-1,5.5035964E-2,3.3070534E-1,1.2607955E-2,3.773916E-1,8.074581E-3,-4.5451753E-2,2.6087728E-1,-4.8273608E-2,-3.0709985E-1,-4.696162E-2,1.0431399E-1,4.3424112E-1,-7.2492845E-2,2.5290257E-1,2.1186395E-2,-8.086284E-3],"split_indices":[12,12,11,11,18,14,13,17,6,4,4,0,0,0,17,13,4,18,18,0,0,6,11,12,0,18,18,12,18,14,12,12,14,0,0,0,0,0,0,0,0,17,16,0,0,0,5,0,0,0,0,0,0,0,0,0,0,0,0,0,0,0,0,0,0],"split_type":[0,0,0,0,0,0,0,0,0,0,0,0,0,0,0,0,0,0,0,0,0,0,0,0,0,0,0,0,0,0,0,0,0,0,0,0,0,0,0,0,0,0,0,0,0,0,0,0,0,0,0,0,0,0,0,0,0,0,0,0,0,0,0,0,0],"sum_hessian":[1.1898646E3,4.9812488E2,6.917398E2,4.8622424E2,1.1900629E1,1.4453364E1,6.7728644E2,4.56707E2,2.9517248E1,6.5784216E0,5.322207E0,1.3053262E1,1.4001026E0,1.8949527E0,6.753915E2,2.3788961E1,4.3291803E2,2.6463804E1,3.0534456E0,4.874187E0,1.7042347E0,2.644347E0,2.6778603E0,2.256964E0,1.0796298E1,2.5096228E0,6.7288184E2,3.7488682E0,2.0040094E1,2.6214547E0,4.3029657E2,5.3088427E0,2.115496E1,2.0132754E0,1.0401703E0,1.1892457E0,1.4551011E0,1.6582379E0,1.0196223E0,1.2456114E0,1.0113527E0,6.7948494E0,4.001448E0,1.146237E0,1.3633858E0,1.3746278E0,6.715072E2,1.5796185E0,2.1692498E0,1.5735554E1,4.3045406E0,1.2188864E0,1.4025683E0,2.975032E2,1.3279337E2,1.6991831E0,3.6096597E0,1.1238938E1,9.916022E0,2.7940006E0,4.000849E0,2.7463E0,1.2551482E0,2.7126007E2,4.0024716E2],"tree_param":{"num_deleted":"0","num_feature":"19","num_nodes":"65","size_leaf_vector":"1"}},{"base_weights":[8.7242137E-4,-4.059375E-2,2.4312297E-2,-7.069182E-1,-3.3507843E-2,5.7100207E-1,1.7125033E-2,-3.0897868E-1,5.352857E-2,-6.004635E-3,-1.8488805E-1,3.482867E-1,1.2025321E-1,1.1620368E-2,5.064286E-1,-5.869438E-2,1.7877151E-1,2.7243245E-1,-2.6549217E-1,4.8845175E-1,-1.9554074E-1,4.1431916E-1,5.24513E-3,6.8955326E-1,-5.765787E-2,-7.0746824E-2,2.601402E-1,3.8778594E-1,-1.9385244E-1,6.896835E-1,-3.2416338E-1,-4.2504865E-1,9.841851E-2,-1.0627005E-1,8.504578E-1,7.653804E-1,1.3657379E-1,3.7551252E-4,6.033477E-1,-2.3978751E-2,8.5410345E-1,4.909429E-3,-6.445032E-2,2.1810451E-1,-6.9901764E-2,5.2454185E-2,-1.550378E-1,2.7906272E-1,-6.3554905E-2,8.401479E-2,-2.2211333E-1,-9.247742E-2,-3.912242E-1,1.7988467E-1,-1.5263519E-1,5.2902536E-3,3.7830254E-1,-4.490014E-2,3.2534063E-1,2.1602042E-1,-4.9178243E-2,-1.24778524E-1,2.4744468E-3,2.5150347E-1,6.1429087E-2,3.3657992E-1,1.7250594E-2],"categories":[],"categories_nodes":[],"categories_segments":[],"categories_sizes":[],"default_left":[0,0,0,0,0,0,0,0,0,0,0,0,0,0,0,0,0,0,0,0,0,0,0,0,0,0,0,0,0,0,0,0,0,0,0,0,0,0,0,0,0,0,0,0,0,0,0,0,0,0,0,0,0,0,0,0,0,0,0,0,0,0,0,0,0,0,0],"id":20,"left_children":[1,3,5,7,9,11,13,-1,-1,15,17,-1,19,21,23,25,27,29,31,33,-1,35,37,39,-1,41,-1,43,45,47,49,51,53,-1,55,57,59,61,63,-1,65,-1,-1,-1,-1,-1,-1,-1,-1,-1,-1,-1,-1,-1,-1,-1,-1,-1,-1,-1,-1,-1,-1,-1,-1,-1,-1],"loss_changes":[1.1558595E0,2.0040665E0,2.9753006E0,1.461889E0,1.772523E0,2.4736938E0,2.016598E0,0E0,0E0,3.5303557E0,2.4854538E0,0E0,2.219141E0,1.9067653E0,1.1982288E0,3.208839E0,6.342203E0,2.788259E0,3.3027868E0,1.8567443E0,0E0,1.0241172E0,2.1346104E0,9.315512E-1,0E0,3.5100985E0,0E0,1.1095626E1,3.6127117E0,1.5810394E0,1.44474E0,3.6255445E0,5.7617617E0,0E0,1.2978351E0,1.591732E0,1.4645871E0,2.3895977E0,3.827443E-1,0E0,1.1521177E0,0E0,0E0,0E0,0E0,0E0,0E0,0E0,0E0,0E0,0E0,0E0,0E0,0E0,0E0,0E0,0E0,0E0,0E0,0E0,0E0,0E0,0E0,0E0,0E0,0E0,0E0],"parents":[2147483647,0,0,1,1,2,2,3,3,4,4,5,5,6,6,9,9,10,10,12,12,13,13,14,14,15,15,16,16,17,17,18,18,19,19,21,21,22,22,23,23,25,25,27,27,28,28,29,29,30,30,31,31,32,32,34,34,35,35,36,36,37,37,38,38,40,40],"right_children":[2,4,6,8,10,12,14,-1,-1,16,18,-1,20,22,24,26,28,30,32,34,-1,36,38,40,-1,42,-1,44,46,48,50,52,54,-1,56,58,60,62,64,-1,66,-1,-1,-1,-1,-1,-1,-1,-1,-1,-1,-1,-1,-1,-1,-1,-1,-1,-1,-1,-1,-1,-1,-1,-1,-1,-1],"split_conditions":[-4.7364235E0,1.51E2,-4.469955E0,1.1782623E5,3.746E3,-1.5778088E1,1.2226798E5,-3.0897868E-1,5.352857E-2,4.408717E2,-4.9360725E1,3.482867E-1,2.4506592E1,-1.1951656E2,3.761995E1,3.561E3,5.757681E2,-3.1150923E1,1.0094174E1,8.034643E1,-1.9554074E-1,3.746E3,9.939E3,8.05085E0,-5.765787E-2,2.4937096E2,2.601402E-1,-1.5900837E1,2.586E3,3.5018635E1,3.252259E1,-2.6581316E1,7.202653E1,-1.0627005E-1,-4.609197E0,1.257943E1,1.1795121E5,-1.0173376E2,6.002518E1,-2.3978751E-2,1.752956E1,4.909429E-3,-6.445032E-2,2.1810451E-1,-6.9901764E-2,5.2454185E-2,-1.550378E-1,2.7906272E-1,-6.3554905E-2,8.401479E-2,-2.2211333E-1,-9.247742E-2,-3.912242E-1,1.7988467E-1,-1.5263519E-1,5.2902536E-3,3.7830254E-1,-4.490014E-2,3.2534063E-1,2.1602042E-1,-4.9178243E-2,-1.24778524E-1,2.4744468E-3,2.5150347E-1,6.1429087E-2,3.3657992E-1,1.7250594E-2],"split_indices":[14,6,14,8,6,12,16,0,0,17,14,0,18,12,12,6,17,13,13,17,0,6,6,4,0,17,0,14,6,11,4,12,13,0,14,4,3,13,14,0,4,0,0,0,0,0,0,0,0,0,0,0,0,0,0,0,0,0,0,0,0,0,0,0,0,0,0],"split_type":[0,0,0,0,0,0,0,0,0,0,0,0,0,0,0,0,0,0,0,0,0,0,0,0,0,0,0,0,0,0,0,0,0,0,0,0,0,0,0,0,0,0,0,0,0,0,0,0,0,0,0,0,0,0,0,0,0,0,0,0,0,0,0,0,0,0,0],